{"learner":{"attributes":{"best_iteration":"63","best_score":"0.6760593964578658","scikit_learn":"{\"_estimator_type\": \"classifier\"}"},"feature_names":["b_barrel_rate","b_hard_hit_rate","b_sweet_spot_rate","b_avg_exit_velo","b_gb_rate","b_ld_rate","b_fb_rate","b_whiff_rate","b_chase_rate","b_zone_contact_rate","b_woba_vs_fastball","b_woba_vs_breaking","b_woba_vs_offspeed","b_power_speed_score","b_contact_quality_score","b_iso","b_xiso","b_xwOBA","b_HR_Rate","b_K_Rate","b_BB_Rate","b_Barrel_Rate","p_whiff_rate","p_csw_rate","p_k_rate","p_bb_rate","p_hard_hit_against","p_barrel_against","p_avg_exit_velo_against","p_gb_rate","p_fb_rate","p_fastball_pct","p_breaking_pct","p_offspeed_pct","p_avg_fastball_velo","p_hr_rate_allowed","p_stuff_plus","p_pitcher_quality_score","p_CALC_HR9","matchup_pitch_type_matchup","matchup_velo_matchup","matchup_contact_vs_whiff","matchup_hr_suppression","matchup_overall_matchup","Temp","Wind_Speed","Lineup_Spot","Platoon_Adv","park_hr_factor","park_avg_factor","park_runs_factor","Batter_xwOBA","Pitcher_HR9","Prob","Batter_Archetype_Slugger","Pitcher_Archetype_Slugger","Batter_Archetype_Contact","Pitcher_Archetype_Contact","Batter_Archetype_Balanced","Pitcher_Archetype_Balanced"],"feature_types":["float","float","float","float","float","float","float","float","float","float","float","float","float","float","float","float","float","float","float","float","float","float","float","float","float","float","float","float","float","float","float","float","float","float","float","float","float","float","float","float","float","float","float","float","float","float","int","int","float","float","float","float","float","float","int","int","int","int","int","int"],"gradient_booster":{"model":{"cats":{"enc":[],"feature_segments":[],"sorted_idx":[]},"gbtree_model_param":{"num_parallel_tree":"1","num_trees":"84"},"iteration_indptr":[0,1,2,3,4,5,6,7,8,9,10,11,12,13,14,15,16,17,18,19,20,21,22,23,24,25,26,27,28,29,30,31,32,33,34,35,36,37,38,39,40,41,42,43,44,45,46,47,48,49,50,51,52,53,54,55,56,57,58,59,60,61,62,63,64,65,66,67,68,69,70,71,72,73,74,75,76,77,78,79,80,81,82,83,84],"tree_info":[0,0,0,0,0,0,0,0,0,0,0,0,0,0,0,0,0,0,0,0,0,0,0,0,0,0,0,0,0,0,0,0,0,0,0,0,0,0,0,0,0,0,0,0,0,0,0,0,0,0,0,0,0,0,0,0,0,0,0,0,0,0,0,0,0,0,0,0,0,0,0,0,0,0,0,0,0,0,0,0,0,0,0,0],"trees":[{"base_weights":[-6.4832405E-3,-4.068589E-1,1.2351246E-1,-5.532909E-1,-3.0238965E-1,2.504776E-1,-1.1572112E-1,-2.714585E-1,-6.247505E-1,-4.0695864E-1,-2.2279882E-1,3.713476E-1,1.6322708E-1,-1.4206035E-1,6.6399135E-2,8.228094E-2,-4.3125606E-1,-5.53045E-1,-9.9093115E-1,-9.2021847E-1,-3.8681585E-1,-2.4391547E-1,6.593812E-2,5.525933E-1,3.1745315E-1,1.07385814E-1,3.4358194E-1,-4.2962536E-1,-1.2745023E-1,9.2135876E-1,-2.8241385E-2,-3.6341283E-2,1.4492783E-1,-5.277973E-1,2.9188016E-1,7.043096E-1,-5.633244E-1,-1.2687773E0,-7.605252E-1,4.2331696E-2,-1.1177958E0,-3.6815608E-1,-9.3199307E-1,-1.7880799E-1,-3.6940905E-1,3.521578E-1,-1.6706687E-1,4.4538755E-2,6.023617E-1,2.215056E-1,3.9023012E-1,4.7889553E-2,3.5657638E-1,5.5534035E-1,2.4885845E-1,-8.310236E-1,-9.393346E-2,9.828911E-2,-1.4583658E-1,1.018761E0,-2.217134E-1,2.0745514E-1,-1.4908174E-1,9.982704E-3,-4.060915E-2,-3.8382202E-2,-1.6794994E-2,5.2405477E-2,8.305583E-4,5.084293E-2,1.04766805E-2,-5.433626E-2,-2.676854E-2,-7.749089E-2,-4.4573113E-2,-3.0797947E-2,-8.75E-2,-6.613541E-2,1.04766805E-2,-4.753561E-3,-2.0201724E-2,-6.665042E-2,-7.880075E-3,-2.2140509E-2,-6.278233E-3,-2.865461E-2,-1.1963616E-2,-2.844019E-3,3.7007254E-2,-2.8460557E-2,7.645282E-4,1.16732335E-2,-5.252372E-2,2.7983833E-2,5.293249E-2,-5.252372E-2,1.1667748E-2,2.4339547E-2,1.3217563E-2,-1.287504E-2,3.961611E-3,-5.995596E-4,2.1414828E-2,1.9253258E-2,3.9330687E-2,2.8669873E-2,9.853174E-3,-1.9011846E-2,-5.315754E-2,-4.407757E-2,5.5509005E-3,6.0637547E-3,-4.4912387E-2,-5.979154E-3,-1.8752104E-2,4.7946116E-3,5.9165128E-2,3.0255962E-2,-5E-2,-9.94793E-4,3.4156125E-2,-1.5534724E-2,6.149636E-3],"categories":[],"categories_nodes":[],"categories_segments":[],"categories_sizes":[],"default_left":[0,0,0,0,0,0,0,0,0,0,0,0,0,0,0,0,0,0,0,0,0,0,0,0,0,0,0,0,0,0,0,0,0,0,0,0,0,0,0,0,0,0,0,0,0,0,0,0,0,0,0,0,0,0,0,0,0,0,0,0,0,0,0,0,0,0,0,0,0,0,0,0,0,0,0,0,0,0,0,0,0,0,0,0,0,0,0,0,0,0,0,0,0,0,0,0,0,0,0,0,0,0,0,0,0,0,0,0,0,0,0,0,0,0,0,0,0,0,0,0,0,0,0],"id":0,"left_children":[1,3,5,7,9,11,13,15,17,19,21,23,25,27,29,31,33,35,37,39,41,43,45,47,49,51,53,55,57,59,61,-1,63,65,67,69,71,73,75,-1,77,79,81,83,85,87,89,91,93,95,97,99,101,103,105,107,109,111,113,115,117,119,121,-1,-1,-1,-1,-1,-1,-1,-1,-1,-1,-1,-1,-1,-1,-1,-1,-1,-1,-1,-1,-1,-1,-1,-1,-1,-1,-1,-1,-1,-1,-1,-1,-1,-1,-1,-1,-1,-1,-1,-1,-1,-1,-1,-1,-1,-1,-1,-1,-1,-1,-1,-1,-1,-1,-1,-1,-1,-1,-1,-1],"loss_changes":[4.668051E2,3.3461517E1,2.0568222E2,1.8240295E1,1.0605598E1,4.6589417E1,1.1273222E1,1.0586994E1,1.857901E1,5.3739166E0,4.478958E0,1.7931564E1,2.5854393E1,8.565441E0,2.4087578E1,3.0920866E0,9.141712E0,8.299347E0,6.5906143E0,7.9993687E0,5.0996017E0,5.5086365E0,3.4380846E0,1.0681808E1,9.907043E0,2.9108103E1,1.2044014E1,1.3232248E1,8.124382E0,3.5289268E0,7.6841097E0,0E0,3.0704226E0,4.9860344E0,3.2730474E0,6.2238955E-1,8.29953E0,4.1332855E0,8.5083885E0,0E0,5.336878E0,5.0463715E0,5.085681E0,6.2861195E0,6.0157433E0,3.701832E0,2.1067963E0,8.2856045E0,6.918701E0,9.584223E0,9.747704E0,1.5210771E1,1.000972E1,7.0570564E0,6.9711857E0,4.2899075E0,8.963334E0,3.4936187E0,1.0830006E1,4.064871E0,2.6326485E0,9.90764E0,7.8744783E0,0E0,0E0,0E0,0E0,0E0,0E0,0E0,0E0,0E0,0E0,0E0,0E0,0E0,0E0,0E0,0E0,0E0,0E0,0E0,0E0,0E0,0E0,0E0,0E0,0E0,0E0,0E0,0E0,0E0,0E0,0E0,0E0,0E0,0E0,0E0,0E0,0E0,0E0,0E0,0E0,0E0,0E0,0E0,0E0,0E0,0E0,0E0,0E0,0E0,0E0,0E0,0E0,0E0,0E0,0E0,0E0,0E0,0E0,0E0,0E0],"parents":[2147483647,0,0,1,1,2,2,3,3,4,4,5,5,6,6,7,7,8,8,9,9,10,10,11,11,12,12,13,13,14,14,15,15,16,16,17,17,18,18,19,19,20,20,21,21,22,22,23,23,24,24,25,25,26,26,27,27,28,28,29,29,30,30,32,32,33,33,34,34,35,35,36,36,37,37,38,38,40,40,41,41,42,42,43,43,44,44,45,45,46,46,47,47,48,48,49,49,50,50,51,51,52,52,53,53,54,54,55,55,56,56,57,57,58,58,59,59,60,60,61,61,62,62],"right_children":[2,4,6,8,10,12,14,16,18,20,22,24,26,28,30,32,34,36,38,40,42,44,46,48,50,52,54,56,58,60,62,-1,64,66,68,70,72,74,76,-1,78,80,82,84,86,88,90,92,94,96,98,100,102,104,106,108,110,112,114,116,118,120,122,-1,-1,-1,-1,-1,-1,-1,-1,-1,-1,-1,-1,-1,-1,-1,-1,-1,-1,-1,-1,-1,-1,-1,-1,-1,-1,-1,-1,-1,-1,-1,-1,-1,-1,-1,-1,-1,-1,-1,-1,-1,-1,-1,-1,-1,-1,-1,-1,-1,-1,-1,-1,-1,-1,-1,-1,-1,-1,-1,-1],"split_conditions":[1.73E1,8.92E1,6E0,5.7E0,7E0,3E0,9.09E1,6E0,-4.06474E1,1E0,9.17E1,1E0,4.87E1,8.49E1,8.6E1,8.71E1,4.7E0,5.8E0,7E0,8.93E1,1.24E1,4.46E1,4.86E1,8.79E1,8.4E0,4.51E1,1E0,8.92E1,3.5E0,9.24E1,8.85E1,-3.6341283E-2,3.76E1,8E0,7E0,6E0,2E0,8.8E1,8.86E1,4.2331696E-2,9.11E1,-5.74895E1,6E0,8.94E1,4.57E1,1.04E1,4.96E1,-3.66342E1,9.13E1,-5.09763E1,2E0,8.77E1,3.78E1,9.4E0,6.1E0,3.53E1,-5.64368E1,1E0,-4.08447E1,2.47E1,8.48E1,3.65E1,-5.38053E1,9.982704E-3,-4.060915E-2,-3.8382202E-2,-1.6794994E-2,5.2405477E-2,8.305583E-4,5.084293E-2,1.04766805E-2,-5.433626E-2,-2.676854E-2,-7.749089E-2,-4.4573113E-2,-3.0797947E-2,-8.75E-2,-6.613541E-2,1.04766805E-2,-4.753561E-3,-2.0201724E-2,-6.665042E-2,-7.880075E-3,-2.2140509E-2,-6.278233E-3,-2.865461E-2,-1.1963616E-2,-2.844019E-3,3.7007254E-2,-2.8460557E-2,7.645282E-4,1.16732335E-2,-5.252372E-2,2.7983833E-2,5.293249E-2,-5.252372E-2,1.1667748E-2,2.4339547E-2,1.3217563E-2,-1.287504E-2,3.961611E-3,-5.995596E-4,2.1414828E-2,1.9253258E-2,3.9330687E-2,2.8669873E-2,9.853174E-3,-1.9011846E-2,-5.315754E-2,-4.407757E-2,5.5509005E-3,6.0637547E-3,-4.4912387E-2,-5.979154E-3,-1.8752104E-2,4.7946116E-3,5.9165128E-2,3.0255962E-2,-5E-2,-9.94793E-4,3.4156125E-2,-1.5534724E-2,6.149636E-3],"split_indices":[1,28,46,27,46,46,28,46,37,58,28,58,1,3,3,28,27,27,46,28,27,26,26,28,27,26,58,28,27,28,3,0,26,46,46,46,46,28,28,0,28,37,46,28,26,27,26,37,28,37,46,28,1,27,27,26,37,59,37,1,3,1,37,0,0,0,0,0,0,0,0,0,0,0,0,0,0,0,0,0,0,0,0,0,0,0,0,0,0,0,0,0,0,0,0,0,0,0,0,0,0,0,0,0,0,0,0,0,0,0,0,0,0,0,0,0,0,0,0,0,0,0,0],"split_type":[0,0,0,0,0,0,0,0,0,0,0,0,0,0,0,0,0,0,0,0,0,0,0,0,0,0,0,0,0,0,0,0,0,0,0,0,0,0,0,0,0,0,0,0,0,0,0,0,0,0,0,0,0,0,0,0,0,0,0,0,0,0,0,0,0,0,0,0,0,0,0,0,0,0,0,0,0,0,0,0,0,0,0,0,0,0,0,0,0,0,0,0,0,0,0,0,0,0,0,0,0,0,0,0,0,0,0,0,0,0,0,0,0,0,0,0,0,0,0,0,0,0,0],"sum_hessian":[8.96693E3,2.1973008E3,6.7696284E3,9.131144E2,1.2841865E3,4.422493E3,2.3471355E3,1.856642E2,7.274502E2,5.532264E2,7.309601E2,1.8526798E3,2.5698132E3,2.050763E3,2.9637265E2,5.7924168E1,1.27740036E2,6.1042676E2,1.17023445E2,1.9203968E1,5.340224E2,6.812895E2,4.967056E1,4.2251608E2,1.4301637E3,1.9634785E3,6.063346E2,9.778066E1,1.9529823E3,2.8666954E1,2.677057E2,3.4007215E0,5.4523445E1,1.1293319E2,1.4806853E1,4.402525E0,6.0602423E2,5.1007214E1,6.6016235E1,1.6010821E0,1.7602886E1,5.179692E2,1.6053246E1,4.5016412E2,2.311254E2,2.2060461E1,2.76101E1,3.786551E1,3.8465054E2,6.1862524E2,8.115385E2,1.5860004E3,3.7747818E2,1.8589523E2,4.2043936E2,4.38601E1,5.392056E1,1.4676169E2,1.8062206E3,2.6516232E1,2.1507215E0,9.0490036E1,1.7721565E2,5.2323086E1,2.2003608E0,4.8861904E1,6.407128E1,3.2021642E0,1.160469E1,2.0514429E0,2.351082E0,2.880505E1,5.772192E2,2.7452164E1,2.355505E1,5.901623E1,7E0,1.5251803E1,2.351082E0,6.0573086E1,4.573961E2,1.0101082E1,5.952164E0,7.432309E1,3.7584103E2,8.877525E1,1.4235014E2,1.1154328E1,1.0906132E1,7.952164E0,1.9657936E1,3.296479E1,4.9007215E0,3.5378143E2,3.0869118E1,4.9007215E0,6.137245E2,4.5762796E2,3.5391052E2,1.4695122E2,1.4390492E3,6.1624527E1,3.1585367E2,1.08601944E2,7.729329E1,5.6479218E1,3.6396014E2,1.580505E1,2.805505E1,1.0452165E1,4.3468395E1,1.4431133E2,2.4503608E0,1.6219607E3,1.8425987E2,4.2518034E0,2.226443E1,1.1507214E0,1E0,6.1874527E1,2.861551E1,1.1108752E2,6.6128136E1],"tree_param":{"num_deleted":"0","num_feature":"60","num_nodes":"123","size_leaf_vector":"1"}},{"base_weights":[-9.004281E-3,-3.7872288E-1,1.12495266E-1,-4.9789137E-1,-3.0680704E-1,2.7120695E-1,-7.8217424E-2,-5.6468236E-1,-1.3104077E-1,-3.7958834E-2,-3.3165953E-1,2.2135438E-1,4.6068996E-1,-1.0326196E-1,1.594038E-1,-6.6482824E-1,-4.698195E-1,-2.841812E-1,2.0336433E-1,1.5856405E-1,-3.8755438E-1,-4.182672E-1,-2.634727E-1,1.7619926E-1,4.0941626E-1,-2.992443E-3,5.300322E-1,-1.8027514E-1,-2.296602E-2,2.2276157E-1,-8.500781E-1,-4.1396266E-1,-7.983346E-1,-5.8830786E-1,-3.0194017E-1,2.7995303E-2,-7.166523E-1,6.430181E-1,-1.6673712E-2,-3.087959E-1,3.4982684E-1,-1.1848222E-1,-1.0008122E0,-4.4296098E-1,4.200732E-1,7.498601E-2,-2.9051223E-1,2.6175827E-1,9.133864E-2,3.546139E-1,8.7009263E-1,1.0510276E-1,-5.6510925E-1,4.593296E-1,8.151213E-1,-1.6547295E-1,-8.5648835E-1,2.9589158E-1,-5.290628E-2,2.5316912E-1,-4.2561436E-1,1.21912085E-1,-1.3551266E0,3.2500826E-2,-2.4373148E-2,-3.542928E-2,-5.56054E-2,-2.5514817E-2,-5.5194795E-2,-1.8089438E-2,5.854413E-3,1.6120486E-2,-2.3197733E-2,1.6455533E-2,-4.6519108E-2,4.0832646E-2,-1.0173339E-2,-9.956762E-3,4.245529E-2,3.0660322E-2,-2.098805E-2,5.2532572E-2,1.0948661E-2,1.9239282E-2,-3.0801866E-2,-5.2634295E-2,-1.3446559E-2,2.025861E-2,-2.325798E-2,3.6502134E-2,-2.3601687E-2,-4.169952E-3,2.7286818E-2,-2.8597606E-2,-1.2657622E-2,-1.1043047E-2,1.3976601E-2,-2.045258E-2,5.4811384E-3,-1.6603164E-2,1.9306857E-2,4.7069836E-2,-2.3764942E-2,-1.3729709E-2,1.5458548E-2,1.0118218E-2,-4.1453104E-2,2.697284E-2,1.5819756E-2,6.7154005E-2,3.299297E-2,1.6164387E-2,-9.001098E-3,-5.8278568E-2,-2.8955583E-2,-1.1580768E-2,2.1934556E-2,-2.2847606E-3,-5.0264835E-2,-1.16899086E-4,1.7057946E-2,-5.7603694E-2,1.5725587E-2,-4.8401613E-2,5.2633654E-2,-8.4362075E-2,-3.8958687E-2],"categories":[],"categories_nodes":[],"categories_segments":[],"categories_sizes":[],"default_left":[0,0,0,0,0,0,0,0,0,0,0,0,0,0,0,0,0,0,0,0,0,0,0,0,0,0,0,0,0,0,0,0,0,0,0,0,0,0,0,0,0,0,0,0,0,0,0,0,0,0,0,0,0,0,0,0,0,0,0,0,0,0,0,0,0,0,0,0,0,0,0,0,0,0,0,0,0,0,0,0,0,0,0,0,0,0,0,0,0,0,0,0,0,0,0,0,0,0,0,0,0,0,0,0,0,0,0,0,0,0,0,0,0,0,0,0,0,0,0,0,0,0,0,0,0,0,0],"id":1,"left_children":[1,3,5,7,9,11,13,15,17,19,21,23,25,27,29,31,33,35,37,39,41,43,45,47,49,51,53,55,57,59,61,63,65,67,69,71,73,75,77,79,81,83,85,87,89,91,93,95,97,99,101,103,105,107,109,111,113,115,117,119,121,123,125,-1,-1,-1,-1,-1,-1,-1,-1,-1,-1,-1,-1,-1,-1,-1,-1,-1,-1,-1,-1,-1,-1,-1,-1,-1,-1,-1,-1,-1,-1,-1,-1,-1,-1,-1,-1,-1,-1,-1,-1,-1,-1,-1,-1,-1,-1,-1,-1,-1,-1,-1,-1,-1,-1,-1,-1,-1,-1,-1,-1,-1,-1,-1,-1],"loss_changes":[4.0295667E2,1.8862305E1,2.0438385E2,2.034726E1,9.250198E0,3.4709595E1,1.827125E1,6.3830414E0,6.6984043E0,8.198549E0,7.383209E0,2.472052E1,2.4652939E1,1.7159676E1,1.8920753E1,1.1071228E1,7.0896225E0,1.2084089E1,4.0074034E0,6.948681E0,6.9621377E0,1.17219925E1,6.5437546E0,1.7082207E1,1.3943481E1,6.180282E0,1.3069183E1,1.4037739E1,1.2998947E1,5.5564213E0,8.757603E0,9.726244E0,5.4385834E0,8.008827E0,3.884821E0,7.8055725E0,8.6876335E0,2.195243E0,4.672565E0,2.5854144E0,4.7928867E0,7.9893017E0,2.0861244E-1,1.0388847E1,4.895526E0,4.03568E0,6.7961617E0,1.0120651E1,1.0880921E1,1.1085438E1,6.138935E0,6.6967144E0,3.4908233E0,5.9762573E0,9.872276E0,9.924709E0,1.9060307E0,8.906682E0,8.498157E0,5.949791E0,7.219433E0,8.021365E0,9.043884E-1,0E0,0E0,0E0,0E0,0E0,0E0,0E0,0E0,0E0,0E0,0E0,0E0,0E0,0E0,0E0,0E0,0E0,0E0,0E0,0E0,0E0,0E0,0E0,0E0,0E0,0E0,0E0,0E0,0E0,0E0,0E0,0E0,0E0,0E0,0E0,0E0,0E0,0E0,0E0,0E0,0E0,0E0,0E0,0E0,0E0,0E0,0E0,0E0,0E0,0E0,0E0,0E0,0E0,0E0,0E0,0E0,0E0,0E0,0E0,0E0,0E0,0E0,0E0,0E0],"parents":[2147483647,0,0,1,1,2,2,3,3,4,4,5,5,6,6,7,7,8,8,9,9,10,10,11,11,12,12,13,13,14,14,15,15,16,16,17,17,18,18,19,19,20,20,21,21,22,22,23,23,24,24,25,25,26,26,27,27,28,28,29,29,30,30,31,31,32,32,33,33,34,34,35,35,36,36,37,37,38,38,39,39,40,40,41,41,42,42,43,43,44,44,45,45,46,46,47,47,48,48,49,49,50,50,51,51,52,52,53,53,54,54,55,55,56,56,57,57,58,58,59,59,60,60,61,61,62,62],"right_children":[2,4,6,8,10,12,14,16,18,20,22,24,26,28,30,32,34,36,38,40,42,44,46,48,50,52,54,56,58,60,62,64,66,68,70,72,74,76,78,80,82,84,86,88,90,92,94,96,98,100,102,104,106,108,110,112,114,116,118,120,122,124,126,-1,-1,-1,-1,-1,-1,-1,-1,-1,-1,-1,-1,-1,-1,-1,-1,-1,-1,-1,-1,-1,-1,-1,-1,-1,-1,-1,-1,-1,-1,-1,-1,-1,-1,-1,-1,-1,-1,-1,-1,-1,-1,-1,-1,-1,-1,-1,-1,-1,-1,-1,-1,-1,-1,-1,-1,-1,-1,-1,-1,-1,-1,-1,-1],"split_conditions":[3.18836E1,3.99E1,5E0,4.016E-1,1.44E-1,1E0,1.38E1,7.5E0,8E0,9.8E0,7E0,4.51E1,9.01E1,2.068E-1,9E0,5.7E0,-4.56474E1,6E0,-4.03184E1,7.7E0,-5.52526E1,8E-1,4.05E1,3E0,7.968E-1,9E1,9.38E1,1.132882E2,-5.71605E1,1.95E1,3.82E1,-3.84763E1,-3.98579E1,-4.64368E1,2.832E-1,5.804E-1,-4.74895E1,6.984E-1,8.456E-1,2E0,8E0,4.45E1,1.06E1,5.8E0,4.48E1,2.148E-1,7.2E0,-5.73579E1,3.9E0,8.62E1,1.63E1,3.99E1,3.62E1,3E0,-5.52526E1,-6.09763E1,1.776E-1,-6.15026E1,1.37E1,1.179411E2,8.2E0,3.52E1,4.41E1,3.2500826E-2,-2.4373148E-2,-3.542928E-2,-5.56054E-2,-2.5514817E-2,-5.5194795E-2,-1.8089438E-2,5.854413E-3,1.6120486E-2,-2.3197733E-2,1.6455533E-2,-4.6519108E-2,4.0832646E-2,-1.0173339E-2,-9.956762E-3,4.245529E-2,3.0660322E-2,-2.098805E-2,5.2532572E-2,1.0948661E-2,1.9239282E-2,-3.0801866E-2,-5.2634295E-2,-1.3446559E-2,2.025861E-2,-2.325798E-2,3.6502134E-2,-2.3601687E-2,-4.169952E-3,2.7286818E-2,-2.8597606E-2,-1.2657622E-2,-1.1043047E-2,1.3976601E-2,-2.045258E-2,5.4811384E-3,-1.6603164E-2,1.9306857E-2,4.7069836E-2,-2.3764942E-2,-1.3729709E-2,1.5458548E-2,1.0118218E-2,-4.1453104E-2,2.697284E-2,1.5819756E-2,6.7154005E-2,3.299297E-2,1.6164387E-2,-9.001098E-3,-5.8278568E-2,-2.8955583E-2,-1.1580768E-2,2.1934556E-2,-2.2847606E-3,-5.0264835E-2,-1.16899086E-4,1.7057946E-2,-5.7603694E-2,1.5725587E-2,-4.8401613E-2,5.2633654E-2,-8.4362075E-2,-3.8958687E-2],"split_indices":[14,26,46,53,53,54,0,27,46,27,46,26,3,53,46,27,37,46,37,27,37,0,26,46,53,3,3,13,37,0,26,37,37,37,53,53,37,53,53,46,27,26,27,27,26,53,27,37,0,3,0,26,26,46,37,37,53,37,0,13,27,26,26,0,0,0,0,0,0,0,0,0,0,0,0,0,0,0,0,0,0,0,0,0,0,0,0,0,0,0,0,0,0,0,0,0,0,0,0,0,0,0,0,0,0,0,0,0,0,0,0,0,0,0,0,0,0,0,0,0,0,0,0,0,0,0,0],"split_type":[0,0,0,0,0,0,0,0,0,0,0,0,0,0,0,0,0,0,0,0,0,0,0,0,0,0,0,0,0,0,0,0,0,0,0,0,0,0,0,0,0,0,0,0,0,0,0,0,0,0,0,0,0,0,0,0,0,0,0,0,0,0,0,0,0,0,0,0,0,0,0,0,0,0,0,0,0,0,0,0,0,0,0,0,0,0,0,0,0,0,0,0,0,0,0,0,0,0,0,0,0,0,0,0,0,0,0,0,0,0,0,0,0,0,0,0,0,0,0,0,0,0,0,0,0,0,0],"sum_hessian":[8.968464E3,2.2177664E3,6.7506973E3,8.324414E2,1.385325E3,3.6842397E3,3.0664575E3,7.0376965E2,1.2867172E2,1.1743785E2,1.2678872E3,2.9185452E3,7.656946E2,2.7745898E3,2.9186774E2,3.3942908E2,3.6434058E2,8.8358315E1,4.0313404E1,7.552717E1,4.1910675E1,5.562415E2,7.116456E2,2.3550227E3,5.6352246E2,9.973523E1,6.6595935E2,1.4156099E3,1.35898E3,2.7536447E2,1.6503277E1,1.1932037E2,2.201087E2,2.121218E2,1.522188E2,5.1859283E1,3.649903E1,1.2805225E1,2.7508179E1,2.1754496E1,5.3772675E1,2.9959074E1,1.1951602E1,5.40784E2,1.5457483E1,5.25163E1,6.5912933E2,1.1716477E3,1.183375E3,5.0519403E2,5.8328445E1,8.4331314E1,1.5403911E1,5.357128E2,1.3024654E2,1.3865043E3,2.910562E1,1.15890205E2,1.2430897E3,2.6361115E2,1.1753308E1,5.902413E0,1.0600864E1,7.2032633E0,1.1211711E2,1.7368704E2,4.642166E1,1.8597276E2,2.6149033E1,1.3331448E2,1.8904312E1,3.2658794E1,1.9200489E1,6.1021E0,3.039693E1,1.0654889E1,2.1503363E0,2.3355947E1,4.152232E0,1.8507345E0,1.990376E1,7.35447E0,4.6418205E1,1.5006709E1,1.4952364E1,1.0751253E1,1.2003489E0,1.3353165E1,5.2743085E2,1.1606411E1,3.8510728E0,3.991099E1,1.2605308E1,7.556583E1,5.8356354E2,4.1210556E1,1.1304371E3,4.096252E1,1.1424125E3,2.175549E1,4.8343854E2,5.5677868E1,2.6505768E0,2.935909E1,5.4972225E1,4.0017333E0,1.1402178E1,3.4149893E2,1.9421387E2,2.7859978E1,1.02386566E2,3.946577E1,1.3470385E3,1.2251528E1,1.6854092E1,2.4556305E1,9.13339E1,1.2347885E3,8.301273E0,6.7775696E1,1.9583545E2,5.6505275E0,6.102781E0,2.7002773E0,3.2021356E0,5.499931E0,5.1009336E0],"tree_param":{"num_deleted":"0","num_feature":"60","num_nodes":"127","size_leaf_vector":"1"}},{"base_weights":[5.5034524E-3,-3.276098E-1,1.3149431E-1,-4.6091712E-1,-2.3350853E-1,2.7698898E-1,-4.835351E-2,-4.9699146E-1,-8.597157E-2,-2.4743372E-1,6.341463E-1,2.2104943E-1,4.816406E-1,-1.1552703E-2,-2.5104508E-1,-5.0902826E-1,2.3978767E-1,2.1345836E-1,-5.10119E-1,-2.7221608E-1,1.0157841E-1,1.9241765E-1,1.0408446E0,-3.7821582E-1,2.333965E-1,3.886477E-1,7.559893E-1,-3.4909174E-2,1.7230016E-1,3.7711343E-1,-2.9000157E-1,-4.9535954E-1,-1.0469311E0,6.1217976E-1,-7.692303E-1,-8.699739E-2,8.19969E-1,-1.1315455E0,-3.1596884E-1,-4.3976995E-1,-2.2631678E-1,4.126814E-1,-1.14740014E-1,4.2979285E-1,-4.8809907E-1,1.1100142E-1,1.3886493E0,-7.1515554E-1,1.8889597E-1,-6.597628E-3,2.5002602E-1,9.26468E-2,4.5118812E-1,4.03571E-1,8.5779995E-1,-1.19155236E-1,4.9301915E-2,2.0854498E-1,-6.9399494E-1,6.310687E-1,-4.223368E-1,-8.633412E-2,-3.965336E-1,-2.700975E-2,-1.3374058E-2,-7.212633E-2,-1.2335672E-2,2.1649832E-2,5.798623E-2,-9.130853E-3,-6.0017217E-2,5.991006E-3,-6.504857E-2,6.447987E-2,-3.9811153E-2,-6.984302E-2,-1.1459737E-2,4.2974662E-2,-2.059855E-2,-3.5774663E-2,-1.9120269E-2,-1.5772996E-2,-8.1389E-3,-2.3237439E-2,2.9658703E-2,-1.6384844E-2,2.4377882E-2,-9.063578E-3,5.6282904E-2,-6.0714204E-2,2.915862E-2,2.8783096E-2,-2.3752466E-2,2.927105E-2,7.620598E-2,-4.9806405E-2,-1.442569E-2,3.175107E-2,-6.997025E-3,3.177133E-3,-2.6833206E-2,-6.023666E-2,1.2628573E-2,1.0016788E-3,3.329088E-2,1.0331984E-3,2.5124887E-2,8.132949E-3,4.5092605E-2,6.649387E-2,3.958554E-2,-1.8171307E-3,-1.2643072E-2,8.035726E-3,-1.1470666E-3,7.366927E-3,2.767748E-2,1.323898E-2,-5.3813886E-2,-4.516776E-3,4.9126327E-2,-5.4476418E-2,2.1297587E-2,5.5159593E-4,-3.3674087E-2,-2.6106609E-2,-7.5389943E-3],"categories":[],"categories_nodes":[],"categories_segments":[],"categories_sizes":[],"default_left":[0,0,0,0,0,0,0,0,0,0,0,0,0,0,0,0,0,0,0,0,0,0,0,0,0,0,0,0,0,0,0,0,0,0,0,0,0,0,0,0,0,0,0,0,0,0,0,0,0,0,0,0,0,0,0,0,0,0,0,0,0,0,0,0,0,0,0,0,0,0,0,0,0,0,0,0,0,0,0,0,0,0,0,0,0,0,0,0,0,0,0,0,0,0,0,0,0,0,0,0,0,0,0,0,0,0,0,0,0,0,0,0,0,0,0,0,0,0,0,0,0,0,0,0,0,0,0],"id":2,"left_children":[1,3,5,7,9,11,13,15,17,19,21,23,25,27,29,31,33,35,37,39,41,43,45,47,49,51,53,55,57,59,61,63,65,67,69,71,73,75,77,79,81,83,85,87,89,91,93,95,97,99,101,103,105,107,109,111,113,115,117,119,121,123,125,-1,-1,-1,-1,-1,-1,-1,-1,-1,-1,-1,-1,-1,-1,-1,-1,-1,-1,-1,-1,-1,-1,-1,-1,-1,-1,-1,-1,-1,-1,-1,-1,-1,-1,-1,-1,-1,-1,-1,-1,-1,-1,-1,-1,-1,-1,-1,-1,-1,-1,-1,-1,-1,-1,-1,-1,-1,-1,-1,-1,-1,-1,-1,-1],"loss_changes":[3.7647397E2,3.0772705E1,1.7032132E2,1.3721451E1,1.7616638E1,4.1084198E1,2.1714556E1,8.352798E0,1.1605534E1,1.2335373E1,3.9508324E0,2.1009521E1,1.9389572E1,1.059178E1,1.1056074E1,6.1977997E0,6.3319807E0,9.869438E0,4.197627E0,1.0120468E1,6.4453077E0,2.1971939E0,3.663167E0,1.1115209E1,1.1060883E1,1.0663078E1,6.623604E0,1.5529373E1,8.874795E0,5.6582775E0,9.117165E0,8.976791E0,6.526026E0,6.7029285E-1,9.562769E-1,9.410357E0,1.4619083E1,1.7388182E0,3.756965E0,4.2293396E0,5.8687134E0,6.485337E0,7.4528446E0,4.3087482E0,3.547566E0,1.4444396E0,3.3041E-2,4.0586987E0,3.3467412E0,6.7464623E0,9.900574E0,4.237104E0,1.0529678E1,5.306597E0,3.6215286E0,1.2105569E1,8.81708E0,5.5701094E0,4.4621453E0,5.3005056E0,4.42672E0,8.36145E0,8.460419E0,0E0,0E0,0E0,0E0,0E0,0E0,0E0,0E0,0E0,0E0,0E0,0E0,0E0,0E0,0E0,0E0,0E0,0E0,0E0,0E0,0E0,0E0,0E0,0E0,0E0,0E0,0E0,0E0,0E0,0E0,0E0,0E0,0E0,0E0,0E0,0E0,0E0,0E0,0E0,0E0,0E0,0E0,0E0,0E0,0E0,0E0,0E0,0E0,0E0,0E0,0E0,0E0,0E0,0E0,0E0,0E0,0E0,0E0,0E0,0E0,0E0,0E0,0E0,0E0],"parents":[2147483647,0,0,1,1,2,2,3,3,4,4,5,5,6,6,7,7,8,8,9,9,10,10,11,11,12,12,13,13,14,14,15,15,16,16,17,17,18,18,19,19,20,20,21,21,22,22,23,23,24,24,25,25,26,26,27,27,28,28,29,29,30,30,31,31,32,32,33,33,34,34,35,35,36,36,37,37,38,38,39,39,40,40,41,41,42,42,43,43,44,44,45,45,46,46,47,47,48,48,49,49,50,50,51,51,52,52,53,53,54,54,55,55,56,56,57,57,58,58,59,59,60,60,61,61,62,62],"right_children":[2,4,6,8,10,12,14,16,18,20,22,24,26,28,30,32,34,36,38,40,42,44,46,48,50,52,54,56,58,60,62,64,66,68,70,72,74,76,78,80,82,84,86,88,90,92,94,96,98,100,102,104,106,108,110,112,114,116,118,120,122,124,126,-1,-1,-1,-1,-1,-1,-1,-1,-1,-1,-1,-1,-1,-1,-1,-1,-1,-1,-1,-1,-1,-1,-1,-1,-1,-1,-1,-1,-1,-1,-1,-1,-1,-1,-1,-1,-1,-1,-1,-1,-1,-1,-1,-1,-1,-1,-1,-1,-1,-1,-1,-1,-1,-1,-1,-1,-1,-1,-1,-1,-1,-1,-1,-1],"split_conditions":[2.89E1,8.92E1,5E0,4.17394E1,3.96E1,1E0,9E0,8.772E-1,-4.36079E1,9.17E1,9.05E1,8.62E1,1.73E1,1.38E1,-5.97263E1,7.86E-1,9.356E-1,3.392E-1,-4.15684E1,-5.63053E1,2.112E-1,2.932E-1,-5.50553E1,2.032E-1,8.68E1,9.01E1,2.176E-1,2.06E-1,1.95E1,4.07E1,4.9E0,3.792E-1,8.456E-1,9E0,8E0,8.9E1,5.452E-1,2.012E-1,1.516E-1,5E0,7E0,1.556E-1,4.6E-1,-5.06474E1,7.188E-1,9.08E1,1.836E-1,3.58E1,7.63775E1,4E0,1.332E-1,9.12E1,8.8E1,9.03E1,-5.74895E1,-4.72263E1,-5.17658E1,5.05E1,-5.28184E1,2.77E1,-6.09763E1,-4.06474E1,2.456E-1,-2.700975E-2,-1.3374058E-2,-7.212633E-2,-1.2335672E-2,2.1649832E-2,5.798623E-2,-9.130853E-3,-6.0017217E-2,5.991006E-3,-6.504857E-2,6.447987E-2,-3.9811153E-2,-6.984302E-2,-1.1459737E-2,4.2974662E-2,-2.059855E-2,-3.5774663E-2,-1.9120269E-2,-1.5772996E-2,-8.1389E-3,-2.3237439E-2,2.9658703E-2,-1.6384844E-2,2.4377882E-2,-9.063578E-3,5.6282904E-2,-6.0714204E-2,2.915862E-2,2.8783096E-2,-2.3752466E-2,2.927105E-2,7.620598E-2,-4.9806405E-2,-1.442569E-2,3.175107E-2,-6.997025E-3,3.177133E-3,-2.6833206E-2,-6.023666E-2,1.2628573E-2,1.0016788E-3,3.329088E-2,1.0331984E-3,2.5124887E-2,8.132949E-3,4.5092605E-2,6.649387E-2,3.958554E-2,-1.8171307E-3,-1.2643072E-2,8.035726E-3,-1.1470666E-3,7.366927E-3,2.767748E-2,1.323898E-2,-5.3813886E-2,-4.516776E-3,4.9126327E-2,-5.4476418E-2,2.1297587E-2,5.5159593E-4,-3.3674087E-2,-2.6106609E-2,-7.5389943E-3],"split_indices":[2,28,46,13,1,54,46,53,37,28,28,28,0,0,37,53,53,53,37,37,53,53,37,53,3,3,53,53,0,1,0,53,53,46,46,28,53,53,53,46,46,53,53,37,53,28,53,2,13,46,53,28,28,28,37,37,37,1,37,1,37,37,53,0,0,0,0,0,0,0,0,0,0,0,0,0,0,0,0,0,0,0,0,0,0,0,0,0,0,0,0,0,0,0,0,0,0,0,0,0,0,0,0,0,0,0,0,0,0,0,0,0,0,0,0,0,0,0,0,0,0,0,0,0,0,0,0],"split_type":[0,0,0,0,0,0,0,0,0,0,0,0,0,0,0,0,0,0,0,0,0,0,0,0,0,0,0,0,0,0,0,0,0,0,0,0,0,0,0,0,0,0,0,0,0,0,0,0,0,0,0,0,0,0,0,0,0,0,0,0,0,0,0,0,0,0,0,0,0,0,0,0,0,0,0,0,0,0,0,0,0,0,0,0,0,0,0,0,0,0,0,0,0,0,0,0,0,0,0,0,0,0,0,0,0,0,0,0,0,0,0,0,0,0,0,0,0,0,0,0,0,0,0,0,0,0,0],"sum_hessian":[8.968211E3,2.4606858E3,6.5075254E3,1.0166147E3,1.4440712E3,3.5970315E3,2.910494E3,9.270916E2,8.9523026E1,1.4219646E3,2.2106615E1,2.826512E3,7.705196E2,2.464157E3,4.4633688E2,9.1249335E2,1.459832E1,5.276789E1,3.6755135E1,1.3278945E3,9.407002E1,1.1303081E1,1.08035345E1,5.6462727E1,2.7700493E3,5.7726666E2,1.9325293E2,2.187118E3,2.77039E2,2.5557144E1,4.2077975E2,8.917538E2,2.0739521E1,1.0950264E1,3.6480556E0,3.5859985E1,1.6907906E1,7.6002917E0,2.9154842E1,2.8369492E2,1.0441997E3,3.8209892E1,5.586013E1,8.653153E0,2.6499276E0,3.30007E0,7.5034647E0,3.525533E1,2.1207396E1,1.7954166E2,2.5905076E3,1.0112554E2,4.761411E2,4.442823E1,1.4882469E2,1.0931245E3,1.0939934E3,2.6664227E2,1.0396747E1,1.9555666E1,6.0014787E0,1.4513046E2,2.756493E2,7.44E2,1.4775381E2,1.3341401E1,7.3981194E0,9.5996065E0,1.3506582E0,2.148374E0,1.4996815E0,3.141013E1,4.4498568E0,1.3257621E1,3.6502845E0,5.4498644E0,2.1504273E0,1.6008596E0,2.7553984E1,4.688225E1,2.3681265E2,4.3289508E2,6.1130457E2,6.2503138E0,3.195958E1,4.1605446E1,1.4254684E1,5.001051E0,3.6521022E0,1.4997745E0,1.1501533E0,1.8505535E0,1.4495165E0,1.8508466E0,5.652618E0,2.0451689E1,1.480364E1,8.603753E0,1.2603643E1,1.5933765E2,2.0204002E1,3.6998103E0,2.5868079E3,9.067336E1,1.0452175E1,5.0852783E1,4.2528833E2,3.0842665E1,1.3585564E1,1.5928002E1,1.328967E2,6.7581915E2,4.1730536E2,4.298538E2,6.6413965E2,2.276776E2,3.8964676E1,3.0513241E0,7.3454223E0,6.6496096E0,1.2906056E1,3.200138E0,2.8013408E0,1.25328575E2,1.9801886E1,1.8167511E2,9.3974174E1],"tree_param":{"num_deleted":"0","num_feature":"60","num_nodes":"127","size_leaf_vector":"1"}},{"base_weights":[-4.6754442E-4,-3.1852892E-1,1.0652109E-1,-4.1909337E-1,-2.2593752E-1,2.1065696E-1,-9.4489455E-2,-4.3090576E-1,8.27253E-1,-2.4840254E-1,4.680404E-2,1.0591798E-1,3.2723808E-1,2.5993714E-1,-1.14554845E-1,-4.4609013E-1,2.6994509E-1,1.4826604E0,-3.360944E-1,-2.3868811E-1,-1.237671E0,-5.3107905E-1,2.2051086E-1,3.3888867E-1,4.1848987E-2,7.378146E-1,2.994196E-1,4.067377E-1,-3.7920457E-1,-9.9882126E-2,-4.4259062E-1,-2.683475E-1,-4.8164767E-1,6.2955457E-1,-5.355784E-1,8.345001E-2,3.1609595E-2,2.6341957E-1,-5.3949635E-2,-3.3243823E-1,-1.6980825E-1,-6.693637E-2,-1.2755349E-2,-1.1217592E0,-1.1859404E-1,-6.363007E-1,3.291683E-1,2.478388E-1,6.8538094E-1,-6.757906E-1,5.8188125E-2,9.525767E-1,3.461299E-1,2.4080971E-1,4.3429497E-1,1.6378012E-1,7.9316455E-1,-6.021324E-1,5.776174E-1,-1.0494231E-1,8.060296E-1,-2.4146958E-1,-8.4245276E-1,5.136655E-2,-1.652521E-2,-2.0548243E-2,-4.067545E-2,-2.877446E-2,4.02817E-2,-7.148184E-2,1.2098253E-2,3.221951E-2,-1.1444197E-2,-2.032206E-2,-4.074294E-3,-6.591059E-3,-2.4615984E-2,-7.833275E-2,-2.273961E-2,3.3394776E-3,-5.419584E-2,-4.608416E-2,3.0069534E-2,2.989766E-2,4.7043487E-3,1.289728E-2,-6.524412E-2,-6.2767216E-3,3.752987E-2,-5.2596062E-2,-4.0856255E-3,-3.2053616E-2,3.7671446E-3,5.0542057E-2,-4.24198E-2,1.2084653E-2,5.9202958E-2,1.0824842E-2,3.0696798E-2,1.8459858E-2,3.2335725E-2,-9.068559E-3,3.953462E-2,5.146979E-2,1.3782531E-2,-4.192815E-4,-6.7478254E-2,-2.2697011E-2,5.6722768E-2,6.6261566E-3,-6.173007E-3,5.4854095E-2,-3.4358047E-3,-2.6152534E-2,2.0659117E-2,7.399581E-3,-5.425309E-2],"categories":[],"categories_nodes":[],"categories_segments":[],"categories_sizes":[],"default_left":[0,0,0,0,0,0,0,0,0,0,0,0,0,0,0,0,0,0,0,0,0,0,0,0,0,0,0,0,0,0,0,0,0,0,0,0,0,0,0,0,0,0,0,0,0,0,0,0,0,0,0,0,0,0,0,0,0,0,0,0,0,0,0,0,0,0,0,0,0,0,0,0,0,0,0,0,0,0,0,0,0,0,0,0,0,0,0,0,0,0,0,0,0,0,0,0,0,0,0,0,0,0,0,0,0,0,0,0,0,0,0,0,0,0,0,0,0],"id":3,"left_children":[1,3,5,7,9,11,13,15,17,19,21,23,25,27,29,31,33,35,37,39,41,43,45,47,49,51,53,55,57,59,61,63,65,67,69,-1,-1,71,-1,73,75,-1,-1,77,79,81,83,85,87,89,91,93,95,97,99,101,103,105,107,109,111,113,115,-1,-1,-1,-1,-1,-1,-1,-1,-1,-1,-1,-1,-1,-1,-1,-1,-1,-1,-1,-1,-1,-1,-1,-1,-1,-1,-1,-1,-1,-1,-1,-1,-1,-1,-1,-1,-1,-1,-1,-1,-1,-1,-1,-1,-1,-1,-1,-1,-1,-1,-1,-1,-1,-1],"loss_changes":[3.052225E2,2.0927628E1,1.4051404E2,1.6272522E1,7.2270355E0,5.395575E1,1.632408E1,1.1524246E1,8.498404E0,1.0161972E1,9.1973915E0,3.4772438E1,2.3673431E1,1.1701329E1,1.0396179E1,6.502075E0,7.1002836E0,3.7744522E-2,2.3312943E0,6.9099846E0,6.8545055E-1,5.0322156E0,6.750333E0,1.5684448E1,2.148582E1,1.0779655E1,1.5396912E1,9.31159E0,5.361395E0,9.608217E0,7.2417183E0,1.4607848E1,2.0145264E1,3.986095E0,5.730913E0,0E0,0E0,7.752984E-1,0E0,8.433018E0,7.5791607E0,0E0,0E0,1.8390188E0,2.5063581E0,3.467598E0,3.9250684E0,6.6065006E0,5.5948067E0,9.029818E0,2.1511333E1,9.7482605E0,3.9440856E0,1.2288147E1,7.958008E0,1.3776223E1,4.430311E0,8.665924E0,3.3593817E0,9.105209E0,3.0428019E0,1.1828995E1,7.508566E0,0E0,0E0,0E0,0E0,0E0,0E0,0E0,0E0,0E0,0E0,0E0,0E0,0E0,0E0,0E0,0E0,0E0,0E0,0E0,0E0,0E0,0E0,0E0,0E0,0E0,0E0,0E0,0E0,0E0,0E0,0E0,0E0,0E0,0E0,0E0,0E0,0E0,0E0,0E0,0E0,0E0,0E0,0E0,0E0,0E0,0E0,0E0,0E0,0E0,0E0,0E0,0E0,0E0,0E0],"parents":[2147483647,0,0,1,1,2,2,3,3,4,4,5,5,6,6,7,7,8,8,9,9,10,10,11,11,12,12,13,13,14,14,15,15,16,16,17,17,18,18,19,19,20,20,21,21,22,22,23,23,24,24,25,25,26,26,27,27,28,28,29,29,30,30,31,31,32,32,33,33,34,34,37,37,39,39,40,40,43,43,44,44,45,45,46,46,47,47,48,48,49,49,50,50,51,51,52,52,53,53,54,54,55,55,56,56,57,57,58,58,59,59,60,60,61,61,62,62],"right_children":[2,4,6,8,10,12,14,16,18,20,22,24,26,28,30,32,34,36,38,40,42,44,46,48,50,52,54,56,58,60,62,64,66,68,70,-1,-1,72,-1,74,76,-1,-1,78,80,82,84,86,88,90,92,94,96,98,100,102,104,106,108,110,112,114,116,-1,-1,-1,-1,-1,-1,-1,-1,-1,-1,-1,-1,-1,-1,-1,-1,-1,-1,-1,-1,-1,-1,-1,-1,-1,-1,-1,-1,-1,-1,-1,-1,-1,-1,-1,-1,-1,-1,-1,-1,-1,-1,-1,-1,-1,-1,-1,-1,-1,-1,-1,-1,-1,-1],"split_conditions":[2.7828E1,8.94E1,6E0,9.6E1,9.17E1,7.5E1,-5.97263E1,8.772E-1,8.84E1,9.16E1,6.4E1,2E0,-5.91342E1,1.000399E2,5.02E1,5.7E0,8.2E1,8.82E1,8E0,-5.38053E1,9E0,2.436E-1,4E0,4.99E1,3.58239E1,8.5E1,1.105714E2,4.20328E1,1.192029E2,9.7E1,8E0,-3.84763E1,-4.13711E1,5E0,8.5E1,8.345001E-2,3.1609595E-2,1.848E-1,-5.3949635E-2,4.58E1,4.64E1,-6.693637E-2,-1.2755349E-2,9.23E1,1.15E1,8.596E-1,2.112E-1,5.0391E1,8.77E1,6.9E1,8.62E1,4.96E1,9.4E1,9.2E1,4.66896E1,7.9E0,9.15E1,1.944E-1,9.05E1,3.5E0,9.03E1,9.6E0,3.65E1,5.136655E-2,-1.652521E-2,-2.0548243E-2,-4.067545E-2,-2.877446E-2,4.02817E-2,-7.148184E-2,1.2098253E-2,3.221951E-2,-1.1444197E-2,-2.032206E-2,-4.074294E-3,-6.591059E-3,-2.4615984E-2,-7.833275E-2,-2.273961E-2,3.3394776E-3,-5.419584E-2,-4.608416E-2,3.0069534E-2,2.989766E-2,4.7043487E-3,1.289728E-2,-6.524412E-2,-6.2767216E-3,3.752987E-2,-5.2596062E-2,-4.0856255E-3,-3.2053616E-2,3.7671446E-3,5.0542057E-2,-4.24198E-2,1.2084653E-2,5.9202958E-2,1.0824842E-2,3.0696798E-2,1.8459858E-2,3.2335725E-2,-9.068559E-3,3.953462E-2,5.146979E-2,1.3782531E-2,-4.192815E-4,-6.7478254E-2,-2.2697011E-2,5.6722768E-2,6.6261566E-3,-6.173007E-3,5.4854095E-2,-3.4358047E-3,-2.6152534E-2,2.0659117E-2,7.399581E-3,-5.425309E-2],"split_indices":[13,28,46,44,28,44,37,53,28,28,44,46,37,13,1,27,44,28,46,37,46,53,46,1,14,44,13,14,13,44,46,37,37,46,44,0,0,53,0,26,26,0,0,28,27,53,53,14,28,44,28,26,44,44,14,0,28,53,28,27,28,27,26,0,0,0,0,0,0,0,0,0,0,0,0,0,0,0,0,0,0,0,0,0,0,0,0,0,0,0,0,0,0,0,0,0,0,0,0,0,0,0,0,0,0,0,0,0,0,0,0,0,0,0,0,0,0],"split_type":[0,0,0,0,0,0,0,0,0,0,0,0,0,0,0,0,0,0,0,0,0,0,0,0,0,0,0,0,0,0,0,0,0,0,0,0,0,0,0,0,0,0,0,0,0,0,0,0,0,0,0,0,0,0,0,0,0,0,0,0,0,0,0,0,0,0,0,0,0,0,0,0,0,0,0,0,0,0,0,0,0,0,0,0,0,0,0,0,0,0,0,0,0,0,0,0,0,0,0,0,0,0,0,0,0,0,0,0,0,0,0,0,0,0,0,0,0],"sum_hessian":[8.967496E3,2.2566958E3,6.7108E3,1.080082E3,1.1766138E3,4.4206055E3,2.2901943E3,1.0705897E3,9.49238E0,1.0871567E3,8.945707E1,2.3295745E3,2.091031E3,1.2206875E2,2.1681257E3,1.0482424E3,2.2347319E1,5.8961344E0,3.5962458E0,1.0778141E3,9.342656E0,2.0199753E1,6.925732E1,5.0154474E2,1.8280298E3,1.3106734E2,1.9599637E3,9.95641E1,2.2504648E1,2.076548E3,9.157746E1,1.7616881E2,8.7207355E2,1.5601017E1,6.7463017E0,4.0469823E0,1.8491521E0,2.347359E0,1.2488867E0,4.5487384E2,6.2294025E2,8.142698E0,1.1999582E0,7.59877E0,1.2600984E1,7.2479587E0,6.2009357E1,3.9853467E2,1.03010086E2,3.979541E1,1.7882344E3,8.372735E1,4.7339996E1,1.3681997E3,5.9176404E2,6.2004158E1,3.755994E1,1.8552774E1,3.951873E0,2.0658928E3,1.0655355E1,6.199789E1,2.9579567E1,7.353542E0,1.6881526E2,7.2079126E2,1.5128229E2,1.6997826E0,1.3901235E1,2.747933E0,3.9983687E0,1.1491538E0,1.1982052E0,3.5080563E2,1.0406821E2,5.5855896E2,6.438125E1,3.74906E0,3.8497102E0,1.1351766E1,1.2492175E0,6.097369E0,1.1505891E0,2.8210604E1,3.3798756E1,3.9678583E2,1.7488387E0,7.598897E0,9.541119E1,2.3895618E1,1.5899793E1,4.19489E1,1.7462855E3,8.152849E1,2.198855E0,4.323924E1,4.10076E0,1.2859852E3,8.221443E1,4.550485E2,1.3671555E2,4.0446644E1,2.1557514E1,2.5109165E1,1.2450777E1,1.0902917E1,7.649857E0,1.4501742E0,2.5016987E0,1.4900142E2,1.9168914E3,7.8044314E0,2.8509238E0,4.3491993E1,1.85059E1,5.896652E0,2.3682915E1],"tree_param":{"num_deleted":"0","num_feature":"60","num_nodes":"117","size_leaf_vector":"1"}},{"base_weights":[2.324305E-3,-3.2139218E-1,1.09126806E-1,-4.3352315E-1,-2.4175927E-1,-7.427416E-2,1.6067584E-1,-4.5494592E-1,4.1452128E-1,-4.5878157E-1,-2.0465432E-1,4.655241E-2,-1.897703E-1,1.1011292E-1,3.2075286E-1,-4.6789232E-1,9.0173197E-1,5.723472E-1,-5.160729E-1,-2.4202657E-1,-5.870362E-1,-2.3175365E-1,1.9828416E-1,-6.2257236E-1,7.04915E-2,-1.9938274E-1,6.7057304E-2,4.687254E-2,2.1214147E-1,5.4300386E-1,2.6695162E-1,-3.81202E-1,-6.1802095E-1,-1.2369405E-1,7.373241E-2,7.079774E-1,-2.883096E-2,-5.3437777E-2,7.3762136E-3,3.215587E-3,-7.3443455E-1,-4.677328E-1,-9.632054E-1,4.0127225E-2,-2.5883982E-1,7.886508E-1,1.4823848E-2,-1.1338339E-1,-1.3085954E0,1.9271739E-1,5.552448E-5,-4.9318928E-1,-1.5429486E-1,-2.7375843E-2,1.3939841E-1,5.170986E-1,1.810255E-1,1.0870616E0,4.7042084E-1,2.5302625E-1,1.0926787E0,-1.7557189E-2,-5.6424703E-2,-2.0138483E-2,-3.609674E-2,1.9442977E-2,-2.6678024E-2,-1.2893754E-2,3.945803E-2,-1.8405167E-2,3.3303007E-2,1.5149178E-2,-4.5004025E-2,-2.594589E-2,3.9238594E-2,-5.774906E-2,7.470936E-4,7.541931E-3,-4.03477E-2,-1.20183E-2,-2.6876539E-2,-1.0110449E-2,5.14233E-2,-1.5719596E-2,1.864672E-2,-4.745061E-2,1.5159818E-2,-8.725392E-2,-4.518241E-3,6.2287343E-3,2.425053E-2,-3.943001E-3,8.898891E-3,-1.8916156E-2,-5.9190374E-2,1.4773113E-2,-9.434777E-3,3.9814785E-3,-6.3261217E-3,5.7070716E-3,2.9949415E-2,-1.6316103E-2,3.066445E-2,1.0462785E-2,-8.083954E-3,2.677055E-2,6.301008E-2,-1.6373828E-2,2.6505599E-2,1.1354301E-2,3.1309783E-2,3.4315523E-2,6.817856E-2],"categories":[],"categories_nodes":[],"categories_segments":[],"categories_sizes":[],"default_left":[0,0,0,0,0,0,0,0,0,0,0,0,0,0,0,0,0,0,0,0,0,0,0,0,0,0,0,0,0,0,0,0,0,0,0,0,0,0,0,0,0,0,0,0,0,0,0,0,0,0,0,0,0,0,0,0,0,0,0,0,0,0,0,0,0,0,0,0,0,0,0,0,0,0,0,0,0,0,0,0,0,0,0,0,0,0,0,0,0,0,0,0,0,0,0,0,0,0,0,0,0,0,0,0,0,0,0,0,0,0,0,0,0],"id":4,"left_children":[1,3,5,7,9,11,13,15,17,19,21,23,25,27,29,31,33,35,37,39,41,43,45,47,49,51,-1,53,55,57,59,61,63,65,-1,67,-1,-1,-1,69,71,73,75,77,79,81,83,85,87,89,91,93,95,97,99,101,103,105,107,109,111,-1,-1,-1,-1,-1,-1,-1,-1,-1,-1,-1,-1,-1,-1,-1,-1,-1,-1,-1,-1,-1,-1,-1,-1,-1,-1,-1,-1,-1,-1,-1,-1,-1,-1,-1,-1,-1,-1,-1,-1,-1,-1,-1,-1,-1,-1,-1,-1,-1,-1,-1,-1],"loss_changes":[3.0986246E2,1.9748398E1,6.3723198E1,1.6939499E1,1.0393364E1,2.0651703E1,4.254489E1,1.6225891E1,3.708834E0,5.121784E0,1.2210064E1,1.163697E1,1.1399965E1,2.57958E1,1.4948685E1,1.1372742E1,5.3798037E0,3.578713E0,1.5865276E0,8.707949E0,4.8567123E0,7.7005005E0,7.64992E0,8.61961E0,6.023279E0,9.894377E0,0E0,1.6974775E1,1.4425659E1,9.165352E0,1.1431824E1,1.2363342E1,6.976349E0,1.0674837E0,0E0,1.6655512E0,0E0,0E0,0E0,1.2334585E1,4.3921328E0,6.287821E0,5.181675E0,9.075465E0,4.7607307E0,4.188551E0,6.5999613E0,5.6840553E0,5.4779415E0,5.0342064E0,6.2602077E0,7.459667E0,1.0173971E1,1.4559264E1,1.2699869E1,1.1649822E1,1.3481373E1,2.007351E0,1.0554737E1,9.563591E0,8.899708E-1,0E0,0E0,0E0,0E0,0E0,0E0,0E0,0E0,0E0,0E0,0E0,0E0,0E0,0E0,0E0,0E0,0E0,0E0,0E0,0E0,0E0,0E0,0E0,0E0,0E0,0E0,0E0,0E0,0E0,0E0,0E0,0E0,0E0,0E0,0E0,0E0,0E0,0E0,0E0,0E0,0E0,0E0,0E0,0E0,0E0,0E0,0E0,0E0,0E0,0E0,0E0,0E0],"parents":[2147483647,0,0,1,1,2,2,3,3,4,4,5,5,6,6,7,7,8,8,9,9,10,10,11,11,12,12,13,13,14,14,15,15,16,16,17,17,18,18,19,19,20,20,21,21,22,22,23,23,24,24,25,25,27,27,28,28,29,29,30,30,31,31,32,32,33,33,35,35,39,39,40,40,41,41,42,42,43,43,44,44,45,45,46,46,47,47,48,48,49,49,50,50,51,51,52,52,53,53,54,54,55,55,56,56,57,57,58,58,59,59,60,60],"right_children":[2,4,6,8,10,12,14,16,18,20,22,24,26,28,30,32,34,36,38,40,42,44,46,48,50,52,-1,54,56,58,60,62,64,66,-1,68,-1,-1,-1,70,72,74,76,78,80,82,84,86,88,90,92,94,96,98,100,102,104,106,108,110,112,-1,-1,-1,-1,-1,-1,-1,-1,-1,-1,-1,-1,-1,-1,-1,-1,-1,-1,-1,-1,-1,-1,-1,-1,-1,-1,-1,-1,-1,-1,-1,-1,-1,-1,-1,-1,-1,-1,-1,-1,-1,-1,-1,-1,-1,-1,-1,-1,-1,-1,-1,-1],"split_conditions":[8E-1,8.92E1,1.816E-1,8.456E-1,6.2E1,-4.88053E1,1.105714E2,9.6E1,9.356E-1,5.3E1,9.17E1,4.7E1,9.6E1,7.8E1,3.32E1,3.8E1,3.05E1,8.9E1,8.5E1,1.06E1,3.012E-1,1.44E-1,1.792E-1,1.684E-1,9.01E1,3.8E0,6.7057304E-2,9.1E0,3.5E0,5.5E0,9.4E1,8.87E1,6.9E1,2.628E-1,7.373241E-2,5.5E1,-2.883096E-2,-5.3437777E-2,7.3762136E-3,2.196E-1,1.456E-1,2.764E-1,4.75E1,4.63E1,4.75E1,6.9E1,2.808E-1,8.99E1,1.17E1,4.26E1,4.53E1,8.4E1,4.9E0,6.9E1,8.216E-1,5.30034E1,-4.08447E1,3.18E-1,6.5E0,2.35E1,1E0,-1.7557189E-2,-5.6424703E-2,-2.0138483E-2,-3.609674E-2,1.9442977E-2,-2.6678024E-2,-1.2893754E-2,3.945803E-2,-1.8405167E-2,3.3303007E-2,1.5149178E-2,-4.5004025E-2,-2.594589E-2,3.9238594E-2,-5.774906E-2,7.470936E-4,7.541931E-3,-4.03477E-2,-1.20183E-2,-2.6876539E-2,-1.0110449E-2,5.14233E-2,-1.5719596E-2,1.864672E-2,-4.745061E-2,1.5159818E-2,-8.725392E-2,-4.518241E-3,6.2287343E-3,2.425053E-2,-3.943001E-3,8.898891E-3,-1.8916156E-2,-5.9190374E-2,1.4773113E-2,-9.434777E-3,3.9814785E-3,-6.3261217E-3,5.7070716E-3,2.9949415E-2,-1.6316103E-2,3.066445E-2,1.0462785E-2,-8.083954E-3,2.677055E-2,6.301008E-2,-1.6373828E-2,2.6505599E-2,1.1354301E-2,3.1309783E-2,3.4315523E-2,6.817856E-2],"split_indices":[0,28,53,53,44,37,13,44,53,44,28,44,44,44,2,26,26,28,44,27,53,53,53,53,28,0,0,27,27,27,44,28,44,53,0,44,0,0,0,53,53,53,26,26,26,44,53,28,0,26,26,44,0,44,53,13,37,53,27,0,54,0,0,0,0,0,0,0,0,0,0,0,0,0,0,0,0,0,0,0,0,0,0,0,0,0,0,0,0,0,0,0,0,0,0,0,0,0,0,0,0,0,0,0,0,0,0,0,0,0,0,0,0],"split_type":[0,0,0,0,0,0,0,0,0,0,0,0,0,0,0,0,0,0,0,0,0,0,0,0,0,0,0,0,0,0,0,0,0,0,0,0,0,0,0,0,0,0,0,0,0,0,0,0,0,0,0,0,0,0,0,0,0,0,0,0,0,0,0,0,0,0,0,0,0,0,0,0,0,0,0,0,0,0,0,0,0,0,0,0,0,0,0,0,0,0,0,0,0,0,0,0,0,0,0,0,0,0,0,0,0,0,0,0,0,0,0,0,0],"sum_hessian":[8.960353E3,2.2223723E3,6.73798E3,9.2102893E2,1.3013433E3,1.478245E3,5.2597354E3,8.987879E2,2.2241076E1,1.8834894E2,1.1129944E3,7.2274274E2,7.555022E2,3.9984482E3,1.2612867E3,8.90941E2,7.846887E0,1.9345161E1,2.8959143E0,7.109048E1,1.1725846E2,1.0432557E3,6.973855E1,2.410048E1,6.986423E2,7.5165247E2,3.8497732E0,2.4693374E3,1.5291108E3,2.4404651E2,1.01724023E3,5.670454E2,3.238956E2,3.093725E0,4.753162E0,1.7645952E1,1.6992104E0,1.246886E0,1.6490283E0,4.8118626E1,2.2971851E1,9.072736E1,2.6531094E1,9.447449E1,9.487813E2,1.5751669E1,5.398688E1,1.4501939E1,9.59854E0,2.5478456E2,4.438577E2,9.868061E1,6.529718E2,1.3703718E3,1.0989657E3,1.4012956E2,1.3889813E3,2.7080853E1,2.1696565E2,1.0016544E3,1.5585857E1,5.4653217E2,2.0513206E1,1.07041504E2,2.1685411E2,1.3974338E0,1.6962913E0,1.1994448E0,1.6446507E1,3.112652E1,1.6992105E1,3.0487626E0,1.9923088E1,8.772796E1,2.999405E0,2.2030922E1,4.5001717E0,8.428109E1,1.0193397E1,8.915452E2,5.7236084E1,3.1000028E0,1.2651666E1,2.8191835E1,2.5795046E1,4.399253E0,1.0102686E1,6.74823E0,2.8503106E0,2.0777249E2,4.7012077E1,3.0786444E2,1.3599326E2,8.593533E1,1.2745277E1,4.5856148E1,6.0711566E2,6.591603E2,7.112116E2,1.0429009E3,5.606473E1,1.41005E1,1.2602907E2,1.2836318E3,1.053494E2,7.44674E0,1.9634113E1,1.4789308E1,2.0217635E2,9.380556E2,6.359879E1,7.647415E0,7.938442E0],"tree_param":{"num_deleted":"0","num_feature":"60","num_nodes":"113","size_leaf_vector":"1"}},{"base_weights":[4.734798E-3,-2.7772814E-1,1.10566035E-1,-3.739809E-1,-2.0915586E-1,-1.0480907E-1,1.4754826E-1,-3.8364744E-1,8.6852056E-1,-3.0834004E-1,-1.2048613E-1,-2.6994783E-2,-3.7918213E-1,1.14324264E-1,3.2642853E-1,-4.3432066E-1,-2.0145544E-1,1.3809948E0,-5.452601E-2,-3.2634133E-1,2.7417392E-1,-1.8341634E-2,-2.7916685E-1,-1.0254E-1,2.5124174E-1,-6.470394E-1,-1.6751787E-1,4.444403E-2,1.9182649E-1,-2.020307E-1,3.6504358E-1,-6.2470566E-2,-4.7455853E-1,-6.738702E-1,-1.3628945E-1,7.8832075E-2,1.7847233E-2,-9.0720606E-1,-3.1144187E-1,-2.5782478E-1,6.895762E-2,1.2629282E-1,-1.6006991E-1,-3.1254202E-1,7.571754E-1,-6.203024E-1,-7.0110284E-2,1.0327144E0,1.7691112E-1,-7.743709E-1,1.589351E-1,-9.329632E-1,-7.573988E-2,-5.221573E-2,1.12592936E-1,-2.4004474E-1,2.0523761E-1,3.0986816E-2,-8.5566473E-1,1.3893679E-1,4.459542E-1,1.2261181E-2,-1.6104067E-2,-2.5220579E-2,-5.8730342E-3,-3.7938718E-2,3.217522E-2,2.6198921E-3,-1.6483445E-2,-5.684926E-2,2.0155296E-2,-3.8764444E-3,-1.678952E-2,-1.1448734E-3,-4.7972426E-2,-2.2105356E-3,1.7381197E-2,-5.157602E-3,-3.0666774E-2,-2.402887E-2,-4.582374E-3,1.0446685E-2,7.104121E-2,3.0161714E-2,-3.5407115E-2,1.5802829E-2,-6.2680766E-3,-3.8778652E-3,6.0940947E-2,6.392116E-3,5.7354953E-2,-2.075102E-2,-5.3149134E-2,-4.171553E-2,3.245126E-2,3.238023E-3,-6.637605E-2,2.5614036E-2,-1.3108767E-2,-4.0864907E-2,-1.7641308E-3,4.7507617E-3,2.564098E-2,2.2891792E-2,-2.1981679E-2,1.9807955E-2,8.602951E-3,-9.447715E-3,2.9214237E-2,-7.576229E-2,4.010473E-2,1.0164873E-2,-1.6343905E-2,2.1321388E-2,5.493467E-2],"categories":[],"categories_nodes":[],"categories_segments":[],"categories_sizes":[],"default_left":[0,0,0,0,0,0,0,0,0,0,0,0,0,0,0,0,0,0,0,0,0,0,0,0,0,0,0,0,0,0,0,0,0,0,0,0,0,0,0,0,0,0,0,0,0,0,0,0,0,0,0,0,0,0,0,0,0,0,0,0,0,0,0,0,0,0,0,0,0,0,0,0,0,0,0,0,0,0,0,0,0,0,0,0,0,0,0,0,0,0,0,0,0,0,0,0,0,0,0,0,0,0,0,0,0,0,0,0,0,0,0,0,0,0,0],"id":5,"left_children":[1,3,5,7,9,11,13,15,17,19,21,23,25,27,29,31,33,35,-1,37,39,41,43,45,47,49,51,53,55,57,59,61,63,65,67,-1,-1,69,71,73,-1,75,77,79,81,83,85,87,89,91,93,95,97,99,101,103,105,107,109,111,113,-1,-1,-1,-1,-1,-1,-1,-1,-1,-1,-1,-1,-1,-1,-1,-1,-1,-1,-1,-1,-1,-1,-1,-1,-1,-1,-1,-1,-1,-1,-1,-1,-1,-1,-1,-1,-1,-1,-1,-1,-1,-1,-1,-1,-1,-1,-1,-1,-1,-1,-1,-1,-1,-1],"loss_changes":[2.6793918E2,1.6045898E1,5.1948997E1,1.2524918E1,1.2529293E1,2.0402578E1,3.3036613E1,9.217972E0,9.6807995E0,7.1550446E0,1.2249505E1,1.5704758E1,1.1864006E1,2.5418488E1,1.7851341E1,1.175676E1,6.7178383E0,8.187399E-1,0E0,5.3781357E0,1.2548602E1,9.471115E0,1.0475473E1,9.818735E0,9.08645E0,9.653141E0,8.310763E0,1.6277422E1,1.2940529E1,9.159906E0,1.4796928E1,6.315177E0,7.5167694E0,3.4590635E0,7.155767E0,0E0,0E0,5.2259073E0,3.6146698E0,2.4246888E0,0E0,8.647604E0,5.955718E0,1.0627165E1,3.1698236E0,4.134303E0,1.1856954E1,2.9155846E0,6.8476005E0,7.893528E0,7.1125045E0,5.0795975E0,1.1932642E1,1.3212699E1,1.0145468E1,9.6028185E0,1.3609642E1,5.6075177E0,1.848552E1,6.5271726E0,7.1496887E0,0E0,0E0,0E0,0E0,0E0,0E0,0E0,0E0,0E0,0E0,0E0,0E0,0E0,0E0,0E0,0E0,0E0,0E0,0E0,0E0,0E0,0E0,0E0,0E0,0E0,0E0,0E0,0E0,0E0,0E0,0E0,0E0,0E0,0E0,0E0,0E0,0E0,0E0,0E0,0E0,0E0,0E0,0E0,0E0,0E0,0E0,0E0,0E0,0E0,0E0,0E0,0E0,0E0,0E0],"parents":[2147483647,0,0,1,1,2,2,3,3,4,4,5,5,6,6,7,7,8,8,9,9,10,10,11,11,12,12,13,13,14,14,15,15,16,16,17,17,19,19,20,20,21,21,22,22,23,23,24,24,25,25,26,26,27,27,28,28,29,29,30,30,31,31,32,32,33,33,34,34,37,37,38,38,39,39,41,41,42,42,43,43,44,44,45,45,46,46,47,47,48,48,49,49,50,50,51,51,52,52,53,53,54,54,55,55,56,56,57,57,58,58,59,59,60,60],"right_children":[2,4,6,8,10,12,14,16,18,20,22,24,26,28,30,32,34,36,-1,38,40,42,44,46,48,50,52,54,56,58,60,62,64,66,68,-1,-1,70,72,74,-1,76,78,80,82,84,86,88,90,92,94,96,98,100,102,104,106,108,110,112,114,-1,-1,-1,-1,-1,-1,-1,-1,-1,-1,-1,-1,-1,-1,-1,-1,-1,-1,-1,-1,-1,-1,-1,-1,-1,-1,-1,-1,-1,-1,-1,-1,-1,-1,-1,-1,-1,-1,-1,-1,-1,-1,-1,-1,-1,-1,-1,-1,-1,-1,-1,-1,-1,-1],"split_conditions":[2.86E1,8.92E1,1.72E-1,9.6E1,7.4E1,-4.24237E1,1E0,3.592E-1,4.052E-1,9.23E1,9.05E1,1.187E1,7.3E1,7.5E1,8.77E1,5.8E1,8.79E1,-4.50553E1,-5.452601E-2,3.92E1,6.9E1,8.1E1,3.96E1,5.3E1,1.16E1,9.14E1,8.66E1,8.92E1,8.72E1,-3.86737E1,9.03E1,-4.43974E1,3.36E1,1E0,3.62E1,7.8832075E-2,1.7847233E-2,3.29E1,1.456E-1,6.5E1,6.895762E-2,2.232E-1,4.244E-1,4.58E1,-5.16342E1,1.152E-1,6.1E1,1.564E-1,-4.25553E1,8.06E0,8.73E1,-4.13711E1,6.1E0,8.49E1,4.96E1,7.14E0,3.59E1,3.75E1,8.3E1,4.63E1,9.2E1,1.2261181E-2,-1.6104067E-2,-2.5220579E-2,-5.8730342E-3,-3.7938718E-2,3.217522E-2,2.6198921E-3,-1.6483445E-2,-5.684926E-2,2.0155296E-2,-3.8764444E-3,-1.678952E-2,-1.1448734E-3,-4.7972426E-2,-2.2105356E-3,1.7381197E-2,-5.157602E-3,-3.0666774E-2,-2.402887E-2,-4.582374E-3,1.0446685E-2,7.104121E-2,3.0161714E-2,-3.5407115E-2,1.5802829E-2,-6.2680766E-3,-3.8778652E-3,6.0940947E-2,6.392116E-3,5.7354953E-2,-2.075102E-2,-5.3149134E-2,-4.171553E-2,3.245126E-2,3.238023E-3,-6.637605E-2,2.5614036E-2,-1.3108767E-2,-4.0864907E-2,-1.7641308E-3,4.7507617E-3,2.564098E-2,2.2891792E-2,-2.1981679E-2,1.9807955E-2,8.602951E-3,-9.447715E-3,2.9214237E-2,-7.576229E-2,4.010473E-2,1.0164873E-2,-1.6343905E-2,2.1321388E-2,5.493467E-2],"split_indices":[2,28,53,44,44,37,54,53,53,28,28,16,44,44,28,44,28,37,0,26,44,44,1,44,0,3,3,28,28,37,3,37,1,54,26,0,0,1,53,44,0,53,53,26,37,53,44,53,37,16,28,37,0,3,26,16,26,2,44,1,44,0,0,0,0,0,0,0,0,0,0,0,0,0,0,0,0,0,0,0,0,0,0,0,0,0,0,0,0,0,0,0,0,0,0,0,0,0,0,0,0,0,0,0,0,0,0,0,0,0,0,0,0,0,0],"split_type":[0,0,0,0,0,0,0,0,0,0,0,0,0,0,0,0,0,0,0,0,0,0,0,0,0,0,0,0,0,0,0,0,0,0,0,0,0,0,0,0,0,0,0,0,0,0,0,0,0,0,0,0,0,0,0,0,0,0,0,0,0,0,0,0,0,0,0,0,0,0,0,0,0,0,0,0,0,0,0,0,0,0,0,0,0,0,0,0,0,0,0,0,0,0,0,0,0,0,0,0,0,0,0,0,0,0,0,0,0,0,0,0,0,0,0],"sum_hessian":[8.961127E3,2.4419507E3,6.5191763E3,1.01407355E3,1.4278772E3,9.5509735E2,5.564079E3,1.00693097E3,7.14257E0,6.728091E2,7.550682E2,7.4492834E2,2.1016896E2,4.6939043E3,8.701745E2,7.867325E2,2.2019852E2,5.8954253E0,1.2471448E0,6.5306726E2,1.9741827E1,4.600467E2,2.9502148E2,5.863558E2,1.5857257E2,9.186215E1,1.1830681E2,2.4691543E3,2.2247502E3,5.8966526E1,8.1120795E2,7.706884E1,7.0966364E2,2.5560349E1,1.9463817E2,4.496707E0,1.398718E0,1.4834808E1,6.382324E2,1.3843472E1,5.8983555E0,2.2774283E2,2.3230385E2,2.8649344E2,8.528043E0,3.3492813E1,5.52863E2,1.2652925E1,1.4591965E2,7.9363205E1,1.2498947E1,1.1685142E1,1.06621666E2,1.0210998E3,1.4480543E3,6.649655E1,2.1582537E3,4.4172005E1,1.4794521E1,2.1449986E2,5.967081E2,3.5293694E1,4.1775146E1,6.545327E2,5.5130905E1,2.441109E1,1.1492571E0,9.8883255E1,9.575492E1,1.2734021E1,2.100787E0,6.0566093E1,5.776663E2,1.1144539E1,2.698933E0,1.2909448E2,9.864834E1,2.0747783E2,2.482602E1,1.6204759E2,1.2444584E2,5.3900976E0,3.1379457E0,1.8504305E0,3.1642382E1,6.860972E1,4.8425327E2,1.9001534E0,1.0752771E1,1.399721E2,5.9475403E0,3.6435436E1,4.2927773E1,3.89756E0,8.601388E0,3.5483203E0,8.136822E0,2.5246382E1,8.137528E1,2.1086582E1,1.00001324E3,1.3883177E3,5.9736652E1,1.45004635E1,5.1996086E1,3.179153E2,1.8403385E3,3.2078854E1,1.209315E1,1.0645079E1,4.1494427E0,1.889558E2,2.5544058E1,5.8098157E2,1.572656E1],"tree_param":{"num_deleted":"0","num_feature":"60","num_nodes":"115","size_leaf_vector":"1"}},{"base_weights":[8.607329E-3,-2.607533E-1,1.1339728E-1,-3.926904E-1,-1.6650073E-1,2.124675E-1,-8.9443736E-2,-4.0235886E-1,9.3585175E-1,-1.9227369E-1,3.55751E-1,1.385984E-1,3.5166678E-1,-5.4202837E-1,-7.890459E-2,-4.4814953E-1,-1.6733317E-1,-7.050363E-3,6.815766E-2,-2.9003912E-1,-6.464122E-2,-9.483702E-2,7.292517E-1,3.635046E-1,8.125195E-2,2.2719546E-1,4.6598557E-1,-1.6748716E-1,-1.3548076E0,-6.1146613E-2,-2.9492736E-1,-3.9410236E-1,-6.353427E-1,2.3947712E-2,-4.7503945E-1,-3.200882E-1,1.0381878E-1,3.367951E-1,-1.0603701E-1,-6.5674853E-1,3.6953738E-1,-1.3877031E-1,8.5703874E-1,2.0498203E-1,8.713453E-1,3.4654997E-2,2.9063073E-1,1.7184173E-1,4.7034404E-1,4.3661E-1,1.072574E0,1.7874302E-1,-7.880274E-1,-1.5557786E0,1.758579E-2,-9.8364875E-2,5.8058526E-2,-1.3044195E-1,-5.913309E-1,-3.2020282E-2,-1.6909076E-2,3.988526E-3,-3.4515586E-2,1.5069838E-2,-9.705887E-3,-3.7574913E-2,4.4920584E-3,-4.8880033E-2,-1.5350866E-2,-2.2228478E-2,1.9982565E-2,4.953568E-2,1.9472959E-3,1.3425772E-2,-6.770987E-3,-1.2815373E-2,-7.671994E-2,5.8633564E-3,4.6143692E-2,-3.4989763E-2,4.0482737E-2,5.1805623E-2,2.0088574E-2,-2.0080428E-3,1.5481218E-2,4.542129E-2,-1.4021118E-2,-3.0265575E-2,2.3380416E-3,6.3591446E-3,2.7120456E-2,1.13376E-2,-1.3842701E-2,-5.953265E-2,2.6177004E-2,1.8030219E-2,3.1378083E-2,7.511233E-2,3.5334554E-2,2.3628352E-2,-3.7406456E-2,-6.3877076E-2,6.101562E-3,-1.2673897E-2,-8.30487E-2,-6.2694945E-3,1.05202375E-2,1.5475012E-2,-7.148971E-4,-1.1650065E-2,2.858581E-2,-3.4317918E-2,2.3319485E-2],"categories":[],"categories_nodes":[],"categories_segments":[],"categories_sizes":[],"default_left":[0,0,0,0,0,0,0,0,0,0,0,0,0,0,0,0,0,0,0,0,0,0,0,0,0,0,0,0,0,0,0,0,0,0,0,0,0,0,0,0,0,0,0,0,0,0,0,0,0,0,0,0,0,0,0,0,0,0,0,0,0,0,0,0,0,0,0,0,0,0,0,0,0,0,0,0,0,0,0,0,0,0,0,0,0,0,0,0,0,0,0,0,0,0,0,0,0,0,0,0,0,0,0,0,0,0,0,0,0,0,0,0,0],"id":6,"left_children":[1,3,5,7,9,11,13,15,17,19,21,23,25,27,29,31,33,-1,-1,35,37,39,41,43,45,47,49,51,53,55,57,59,61,63,65,67,69,71,73,75,77,79,81,83,85,87,89,91,93,95,97,99,101,103,-1,105,107,109,111,-1,-1,-1,-1,-1,-1,-1,-1,-1,-1,-1,-1,-1,-1,-1,-1,-1,-1,-1,-1,-1,-1,-1,-1,-1,-1,-1,-1,-1,-1,-1,-1,-1,-1,-1,-1,-1,-1,-1,-1,-1,-1,-1,-1,-1,-1,-1,-1,-1,-1,-1,-1,-1,-1],"loss_changes":[2.5348477E2,3.1212204E1,1.2994046E2,1.382959E1,1.9839233E1,4.4618362E1,1.0079899E1,1.1122574E1,3.8124447E0,1.7455894E1,1.1753819E1,3.659453E1,2.1314743E1,1.4423017E1,7.9422913E0,8.553787E0,1.0091358E1,0E0,0E0,9.415062E0,1.0151256E1,8.684651E0,4.342533E0,4.6243927E1,2.2078072E1,9.645271E0,1.3497009E1,7.4638863E0,5.7052536E0,8.518367E0,7.594923E0,9.120316E0,7.654625E0,6.5056357E0,1.0327306E1,6.03183E0,9.416315E0,1.1090955E1,6.117667E0,4.878051E0,2.4537504E0,3.6244612E0,2.3010216E0,1.1319342E1,6.1003036E0,1.4383898E1,1.688543E1,1.4604324E1,1.2412914E1,1.0647461E1,4.5216446E0,6.5336533E0,5.6761756E0,1.4475403E0,0E0,1.2230827E1,8.321697E0,7.5134373E0,5.936514E0,0E0,0E0,0E0,0E0,0E0,0E0,0E0,0E0,0E0,0E0,0E0,0E0,0E0,0E0,0E0,0E0,0E0,0E0,0E0,0E0,0E0,0E0,0E0,0E0,0E0,0E0,0E0,0E0,0E0,0E0,0E0,0E0,0E0,0E0,0E0,0E0,0E0,0E0,0E0,0E0,0E0,0E0,0E0,0E0,0E0,0E0,0E0,0E0,0E0,0E0,0E0,0E0,0E0,0E0],"parents":[2147483647,0,0,1,1,2,2,3,3,4,4,5,5,6,6,7,7,8,8,9,9,10,10,11,11,12,12,13,13,14,14,15,15,16,16,19,19,20,20,21,21,22,22,23,23,24,24,25,25,26,26,27,27,28,28,29,29,30,30,31,31,32,32,33,33,34,34,35,35,36,36,37,37,38,38,39,39,40,40,41,41,42,42,43,43,44,44,45,45,46,46,47,47,48,48,49,49,50,50,51,51,52,52,53,53,55,55,56,56,57,57,58,58],"right_children":[2,4,6,8,10,12,14,16,18,20,22,24,26,28,30,32,34,-1,-1,36,38,40,42,44,46,48,50,52,54,56,58,60,62,64,66,68,70,72,74,76,78,80,82,84,86,88,90,92,94,96,98,100,102,104,-1,106,108,110,112,-1,-1,-1,-1,-1,-1,-1,-1,-1,-1,-1,-1,-1,-1,-1,-1,-1,-1,-1,-1,-1,-1,-1,-1,-1,-1,-1,-1,-1,-1,-1,-1,-1,-1,-1,-1,-1,-1,-1,-1,-1,-1,-1,-1,-1,-1,-1,-1,-1,-1,-1,-1,-1,-1],"split_conditions":[2.1E0,8.92E1,6E0,9.6E1,3.82119E1,7.9E1,4.7E1,4.052E-1,3.05E1,7.6E1,8.62E1,2E0,9.26518E1,9.03E1,9.16E1,8.87E1,7.188E-1,-7.050363E-3,6.815766E-2,9.17E1,8.93E1,2.304E-1,4.03E1,4.99E1,4.54E1,4.51E1,9.4E1,8E0,5.18E1,3.472E-1,8E0,8.75E1,5.8E1,6E0,8.456E-1,3.92E1,6.4E1,7.9E1,1.404E-1,2.104E-1,5.804E-1,3.636E-1,2.86E-1,2.02E-1,1E0,3.55851E1,1.18E1,9.05E1,3E0,5.06E1,8.91E1,2.316E-1,4.5E1,3.05E1,1.758579E-2,4.72E1,3.53E1,8.8E1,9.13E1,-3.2020282E-2,-1.6909076E-2,3.988526E-3,-3.4515586E-2,1.5069838E-2,-9.705887E-3,-3.7574913E-2,4.4920584E-3,-4.8880033E-2,-1.5350866E-2,-2.2228478E-2,1.9982565E-2,4.953568E-2,1.9472959E-3,1.3425772E-2,-6.770987E-3,-1.2815373E-2,-7.671994E-2,5.8633564E-3,4.6143692E-2,-3.4989763E-2,4.0482737E-2,5.1805623E-2,2.0088574E-2,-2.0080428E-3,1.5481218E-2,4.542129E-2,-1.4021118E-2,-3.0265575E-2,2.3380416E-3,6.3591446E-3,2.7120456E-2,1.13376E-2,-1.3842701E-2,-5.953265E-2,2.6177004E-2,1.8030219E-2,3.1378083E-2,7.511233E-2,3.5334554E-2,2.3628352E-2,-3.7406456E-2,-6.3877076E-2,6.101562E-3,-1.2673897E-2,-8.30487E-2,-6.2694945E-3,1.05202375E-2,1.5475012E-2,-7.148971E-4,-1.1650065E-2,2.858581E-2,-3.4317918E-2,2.3319485E-2],"split_indices":[0,28,46,44,14,44,44,53,26,44,3,46,13,3,3,28,53,0,0,28,28,53,26,1,26,26,44,46,1,53,46,28,44,46,53,26,44,44,53,53,53,53,53,53,59,14,0,28,0,1,28,53,44,26,0,1,26,44,28,0,0,0,0,0,0,0,0,0,0,0,0,0,0,0,0,0,0,0,0,0,0,0,0,0,0,0,0,0,0,0,0,0,0,0,0,0,0,0,0,0,0,0,0,0,0,0,0,0,0,0,0,0,0],"split_type":[0,0,0,0,0,0,0,0,0,0,0,0,0,0,0,0,0,0,0,0,0,0,0,0,0,0,0,0,0,0,0,0,0,0,0,0,0,0,0,0,0,0,0,0,0,0,0,0,0,0,0,0,0,0,0,0,0,0,0,0,0,0,0,0,0,0,0,0,0,0,0,0,0,0,0,0,0,0,0,0,0,0,0,0,0,0,0,0,0,0,0,0,0,0,0,0,0,0,0,0,0,0,0,0,0,0,0,0,0,0,0,0,0],"sum_hessian":[8.978403E3,2.514203E3,6.4642E3,1.0463416E3,1.4678612E3,4.342983E3,2.1212173E3,1.0394739E3,6.8676143E0,1.3994315E3,6.8429665E1,2.8386091E3,1.5043737E3,4.7124176E1,2.0740933E3,8.692155E2,1.7025839E2,2.1412845E0,4.72633E0,7.9171326E2,6.077183E2,3.1352436E1,3.7077225E1,5.756474E2,2.2629617E3,7.2163666E2,7.8273694E2,3.308443E1,1.4039748E1,1.9177307E3,1.5636247E2,6.7688727E2,1.9232828E2,1.0556051E2,6.469789E1,7.357658E2,5.594743E1,5.6142227E1,5.515761E2,1.399892E1,1.7353516E1,4.7469E0,3.2330326E1,4.3977518E2,1.3587225E2,1.8519733E3,4.109885E2,5.892079E2,1.3242877E2,7.482222E2,3.4514736E1,2.1692862E1,1.1391567E1,1.2639567E1,1.4001807E0,1.4615729E3,4.5615787E2,1.0148482E2,5.487765E1,1.2331124E2,5.53576E2,1.3696312E1,1.7863196E2,4.6286774E1,5.927373E1,4.3216766E1,2.1481125E1,1.2903093E1,7.2286273E2,1.9428957E1,3.651847E1,1.6841349E1,3.9300877E1,3.9530293E1,5.120458E2,1.0500121E1,3.4987993E0,1.27518015E1,4.6017146E0,3.1473112E0,1.599589E0,2.2287846E1,1.0042479E1,1.3174821E2,3.0802695E2,1.3183905E2,4.0332055E0,3.347247E1,1.8185007E3,2.5012144E2,1.6086705E2,5.254048E2,6.38031E1,3.4460695E0,1.289827E2,5.372612E2,2.1096097E2,1.4445241E1,2.0069494E1,1.6843515E1,4.8493466E0,7.1446886E0,4.2468786E0,1.1995046E0,1.1440063E1,1.3444905E3,1.1708242E2,1.0120139E2,3.5495648E2,8.913383E1,1.2350993E1,5.0675934E1,4.201719E0],"tree_param":{"num_deleted":"0","num_feature":"60","num_nodes":"113","size_leaf_vector":"1"}},{"base_weights":[6.330892E-3,-2.6430592E-1,1.0754464E-1,-3.3824146E-1,-1.7368145E-1,7.456237E-2,3.1696492E-1,-3.5919258E-1,1.5294671E-1,-2.139448E-1,1.9673188E-1,-3.7107974E-2,1.19925775E-1,1.6091524E-2,3.9554897E-1,-4.7766542E-1,-3.081586E-1,-3.999242E-1,4.829653E-1,-7.5794116E-2,-2.9692146E-1,-7.9497164E-1,3.384003E-1,5.295914E-2,-1.12465695E-1,9.71779E-2,2.740796E-1,-4.4048578E-2,8.6551845E-1,7.89252E-1,3.6239466E-1,-1.0438101E0,-4.5297873E-1,-5.42867E-1,-2.7712646E-1,9.0983313E-1,-7.029331E-1,-1.1736388E-1,7.163173E-1,-1.5535256E-1,2.3021519E-1,6.3511807E-1,-3.212201E-1,-9.7064483E-1,3.0572226E-2,7.0338696E-2,5.564346E-1,2.6859537E-1,-2.3866782E-2,-2.0898786E-1,3.1704057E-2,3.822081E-2,1.7075306E-1,3.8694945E-1,8.72693E-2,-3.4474376E-1,5.3027894E-2,-5.7676584E-2,1.1984568E0,4.6700814E-1,1.1591916E0,3.8249698E-1,-5.821928E-1,8.689901E-3,-6.516919E-2,-2.5527319E-2,3.0875977E-3,-4.15371E-2,-2.0302253E-2,-1.2990479E-2,-3.2761753E-2,2.1662375E-2,5.7540845E-2,-7.1822265E-3,-4.929136E-2,6.084533E-3,-5.3742386E-2,6.135124E-2,2.5403798E-2,8.917893E-4,-1.4033114E-2,-5.5089346E-3,2.5746316E-2,-2.432596E-3,4.337084E-2,-2.0753203E-2,-2.3383095E-3,3.7139717E-3,-5.666883E-2,4.7398213E-2,-1.9348782E-3,3.7519746E-2,1.5471767E-3,9.631454E-3,3.8043115E-2,4.6290632E-5,-2.5724385E-2,-9.334373E-3,-5.606805E-2,4.3621328E-2,-5.0722127E-4,-1.9252762E-2,2.8205437E-3,9.408615E-3,-7.35157E-3,-5.2209187E-2,2.056162E-2,1.3655703E-2,-8.324164E-3,3.308273E-2,-2.4979068E-2,-1.0360797E-2,1.6243994E-2,1.6620886E-2,6.8225436E-2,-9.0355575E-3,3.2748185E-2,6.3807E-2,-7.5572855E-3,2.6314339E-2,1.4441065E-2,3.5483103E-2,-4.9939208E-2],"categories":[],"categories_nodes":[],"categories_segments":[],"categories_sizes":[],"default_left":[0,0,0,0,0,0,0,0,0,0,0,0,0,0,0,0,0,0,0,0,0,0,0,0,0,0,0,0,0,0,0,0,0,0,0,0,0,0,0,0,0,0,0,0,0,0,0,0,0,0,0,0,0,0,0,0,0,0,0,0,0,0,0,0,0,0,0,0,0,0,0,0,0,0,0,0,0,0,0,0,0,0,0,0,0,0,0,0,0,0,0,0,0,0,0,0,0,0,0,0,0,0,0,0,0,0,0,0,0,0,0,0,0,0,0,0,0,0,0,0,0,0,0],"id":7,"left_children":[1,3,5,7,9,11,13,15,17,19,21,23,25,27,29,31,33,35,37,39,41,43,45,47,49,51,53,55,57,59,61,63,65,67,69,71,73,75,77,79,81,83,85,87,-1,89,91,93,95,97,99,101,103,105,107,109,111,-1,113,115,117,119,121,-1,-1,-1,-1,-1,-1,-1,-1,-1,-1,-1,-1,-1,-1,-1,-1,-1,-1,-1,-1,-1,-1,-1,-1,-1,-1,-1,-1,-1,-1,-1,-1,-1,-1,-1,-1,-1,-1,-1,-1,-1,-1,-1,-1,-1,-1,-1,-1,-1,-1,-1,-1,-1,-1,-1,-1,-1,-1,-1,-1],"loss_changes":[2.4576982E2,1.6304642E1,4.5080574E1,1.3884552E1,1.6437138E1,2.858979E1,2.0994102E1,7.6473846E0,1.0351923E1,1.1349098E1,1.5484131E1,1.1074995E1,1.4045673E1,9.488011E0,8.906067E0,4.9264984E0,6.4328537E0,9.116219E0,5.0317698E0,9.130936E0,1.42321205E1,4.011833E0,5.5403156E0,1.2325249E1,1.2367215E1,1.5169296E1,1.0835373E1,5.088816E0,9.636997E0,5.8778954E0,1.2591118E1,5.0859222E0,1.10529785E1,3.7789574E0,5.0702324E0,1.2352943E-2,2.6921177E0,2.5902476E0,2.096324E0,6.4526467E0,7.56649E0,2.5953813E0,1.554594E1,2.2412987E0,0E0,4.2436905E0,5.327692E0,7.1611443E0,6.6806407E0,1.0618536E1,1.2571847E1,1.4985476E1,8.641186E0,1.1586403E1,9.262183E0,6.957343E0,9.418706E0,0E0,1.1328592E0,3.8258872E0,3.9310722E0,8.446953E0,8.226988E0,0E0,0E0,0E0,0E0,0E0,0E0,0E0,0E0,0E0,0E0,0E0,0E0,0E0,0E0,0E0,0E0,0E0,0E0,0E0,0E0,0E0,0E0,0E0,0E0,0E0,0E0,0E0,0E0,0E0,0E0,0E0,0E0,0E0,0E0,0E0,0E0,0E0,0E0,0E0,0E0,0E0,0E0,0E0,0E0,0E0,0E0,0E0,0E0,0E0,0E0,0E0,0E0,0E0,0E0,0E0,0E0,0E0,0E0,0E0,0E0],"parents":[2147483647,0,0,1,1,2,2,3,3,4,4,5,5,6,6,7,7,8,8,9,9,10,10,11,11,12,12,13,13,14,14,15,15,16,16,17,17,18,18,19,19,20,20,21,21,22,22,23,23,24,24,25,25,26,26,27,27,28,28,29,29,30,30,31,31,32,32,33,33,34,34,35,35,36,36,37,37,38,38,39,39,40,40,41,41,42,42,43,43,45,45,46,46,47,47,48,48,49,49,50,50,51,51,52,52,53,53,54,54,55,55,56,56,58,58,59,59,60,60,61,61,62,62],"right_children":[2,4,6,8,10,12,14,16,18,20,22,24,26,28,30,32,34,36,38,40,42,44,46,48,50,52,54,56,58,60,62,64,66,68,70,72,74,76,78,80,82,84,86,88,-1,90,92,94,96,98,100,102,104,106,108,110,112,-1,114,116,118,120,122,-1,-1,-1,-1,-1,-1,-1,-1,-1,-1,-1,-1,-1,-1,-1,-1,-1,-1,-1,-1,-1,-1,-1,-1,-1,-1,-1,-1,-1,-1,-1,-1,-1,-1,-1,-1,-1,-1,-1,-1,-1,-1,-1,-1,-1,-1,-1,-1,-1,-1,-1,-1,-1,-1,-1,-1,-1,-1,-1,-1],"split_conditions":[2.86E1,7.6E1,1E0,9.17E1,4.17394E1,1.864E-1,9.01E1,8.86E1,6.4E1,8.1E1,8.82E1,-5.00553E1,1.38E1,9.15E1,3.8E0,-5.41342E1,-5.71605E1,9.3E0,9.4E0,3.592E-1,8.67E1,7.74E-1,-5.09763E1,8.97E1,7.5E1,9.1E0,1.63E1,-5.37395E1,2.184E-1,4.832E-1,-3.795E1,1.48E-1,9.4E0,9.04E1,-4.15684E1,4.552E-1,9.7E0,3.324E-1,6.7E1,1.72E-1,8.92E1,5.9E0,1.01E1,-4.55816E1,3.0572226E-2,8.88E1,-4.24237E1,1.3E1,9.2E1,1.856E-1,5E0,8.55E1,1.105714E2,5.3E1,3.112E-1,8.88E1,8.92E1,-5.7676584E-2,7E0,9.11E1,3.95E1,-5.21605E1,6.3E1,8.689901E-3,-6.516919E-2,-2.5527319E-2,3.0875977E-3,-4.15371E-2,-2.0302253E-2,-1.2990479E-2,-3.2761753E-2,2.1662375E-2,5.7540845E-2,-7.1822265E-3,-4.929136E-2,6.084533E-3,-5.3742386E-2,6.135124E-2,2.5403798E-2,8.917893E-4,-1.4033114E-2,-5.5089346E-3,2.5746316E-2,-2.432596E-3,4.337084E-2,-2.0753203E-2,-2.3383095E-3,3.7139717E-3,-5.666883E-2,4.7398213E-2,-1.9348782E-3,3.7519746E-2,1.5471767E-3,9.631454E-3,3.8043115E-2,4.6290632E-5,-2.5724385E-2,-9.334373E-3,-5.606805E-2,4.3621328E-2,-5.0722127E-4,-1.9252762E-2,2.8205437E-3,9.408615E-3,-7.35157E-3,-5.2209187E-2,2.056162E-2,1.3655703E-2,-8.324164E-3,3.308273E-2,-2.4979068E-2,-1.0360797E-2,1.6243994E-2,1.6620886E-2,6.8225436E-2,-9.0355575E-3,3.2748185E-2,6.3807E-2,-7.5572855E-3,2.6314339E-2,1.4441065E-2,3.5483103E-2,-4.9939208E-2],"split_indices":[2,44,54,28,13,53,3,28,44,44,28,37,0,28,27,37,37,27,27,53,28,53,37,28,44,27,0,37,53,53,37,53,27,28,37,53,27,53,44,53,28,27,27,37,0,28,37,0,3,53,27,3,13,44,53,28,28,0,0,3,2,37,44,0,0,0,0,0,0,0,0,0,0,0,0,0,0,0,0,0,0,0,0,0,0,0,0,0,0,0,0,0,0,0,0,0,0,0,0,0,0,0,0,0,0,0,0,0,0,0,0,0,0,0,0,0,0,0,0,0,0,0,0],"split_type":[0,0,0,0,0,0,0,0,0,0,0,0,0,0,0,0,0,0,0,0,0,0,0,0,0,0,0,0,0,0,0,0,0,0,0,0,0,0,0,0,0,0,0,0,0,0,0,0,0,0,0,0,0,0,0,0,0,0,0,0,0,0,0,0,0,0,0,0,0,0,0,0,0,0,0,0,0,0,0,0,0,0,0,0,0,0,0,0,0,0,0,0,0,0,0,0,0,0,0,0,0,0,0,0,0,0,0,0,0,0,0,0,0,0,0,0,0,0,0,0,0,0,0],"sum_hessian":[8.9702295E3,2.441162E3,6.529068E3,1.342862E3,1.0983E3,5.6418677E3,8.871999E2,1.2881846E3,5.467742E1,9.9100214E2,1.07297935E2,1.6298572E3,4.0120105E3,1.8398494E2,7.0321497E2,3.8532104E2,9.028635E2,2.03589E1,3.431852E1,3.7258545E2,6.184167E2,1.2835527E1,9.446241E1,7.4260144E2,8.8725574E2,3.497525E3,5.144856E2,1.727054E2,1.1279536E1,5.284791E1,6.5036707E2,1.437496E1,3.7094608E2,1.03506836E2,7.993567E2,3.4487972E0,1.6910103E1,9.745072E0,2.4573448E1,2.960965E2,7.648893E1,1.5074027E1,6.033427E2,1.1685728E1,1.1497998E0,4.296357E1,5.1498837E1,1.9441583E2,5.481856E2,5.3117957E2,3.560762E2,1.9424915E3,1.5550336E3,3.2004477E2,1.9444084E2,4.1526245E1,1.3117915E2,1.2477936E0,1.0031743E1,2.9453875E1,2.339404E1,6.373973E2,1.2969769E1,2.584068E0,1.1790892E1,3.336398E2,3.7306267E1,3.1712234E1,7.17946E1,7.659637E2,3.3393005E1,2.0978255E0,1.3509717E0,6.1866717E0,1.0723432E1,8.496629E0,1.2484436E0,5.700577E0,1.8872871E1,1.2466157E2,1.7143494E2,3.511695E1,4.137198E1,4.0229774E0,1.105105E1,4.492265E2,1.5411617E2,1.6478964E0,1.0037831E1,3.8976467E0,3.9065926E1,3.7302418E1,1.4196421E1,1.6962997E2,2.4785866E1,5.2276666E2,2.541891E1,5.19682E2,1.1497557E1,1.594282E1,3.401334E2,7.920693E1,1.8632845E3,1.4746112E3,8.042235E1,4.6390424E0,3.1540573E2,1.12194725E2,8.2246124E1,5.100607E0,3.642564E1,6.714195E1,6.40372E1,2.0969658E0,7.9347773E0,6.633277E0,2.2820599E1,2.1501146E1,1.8928928E0,2.496195E2,3.877778E2,2.9910355E0,9.978733E0],"tree_param":{"num_deleted":"0","num_feature":"60","num_nodes":"123","size_leaf_vector":"1"}},{"base_weights":[2.0814762E-3,-2.483973E-1,9.8448284E-2,-3.7345493E-1,-1.6116689E-1,1.9238056E-1,-9.2278376E-2,-3.809125E-1,9.5194954E-1,-1.8390414E-1,2.9168165E-1,-5.49003E-2,2.241649E-1,-1.1090454E-1,3.0140135E-1,-4.376227E-1,-2.2155695E-1,1.3654015E-3,6.847261E-2,9.439651E-2,-2.1317899E-1,3.5017017E-1,-6.404012E-2,3.6153263E-1,-2.027451E-1,2.024447E-1,5.376347E-1,2.0684347E-1,-1.232439E-1,1.9979139E-1,1.219309E0,-9.537948E-2,-4.777463E-1,-7.336966E-1,-1.5275478E-1,5.987465E-1,-3.3393722E-2,-2.3294342E-1,1.7246607E-1,2.2051008E-1,9.437589E-1,-7.684463E-2,5.4302114E-1,-6.230781E-1,-1.4039703E-1,2.8797507E-1,1.4530547E-1,4.859729E-1,1.1656587E0,-1.1831785E0,3.4479025E-1,1.2135918E-1,-1.4181866E-1,-8.9705414E-1,2.6441583E-1,1.759868E-1,7.698889E-2,1.684354E-2,-1.7263958E-2,-4.2745095E-2,-2.220518E-2,-4.479373E-2,6.2731564E-2,-2.8222871E-3,-2.3439322E-2,-6.712427E-3,4.5867067E-2,-4.9869075E-2,3.114753E-3,-1.6721794E-2,-7.816865E-3,-2.0534301E-2,1.8177088E-2,1.6921014E-2,-1.0832987E-2,6.640824E-2,-2.1363212E-2,5.8132685E-3,-5.6295246E-2,-2.9760284E-2,3.0137388E-2,-2.6863758E-3,-4.3708205E-2,-2.0226307E-2,-1.4687129E-3,3.0125177E-2,1.2674346E-2,2.7267246E-3,1.2230642E-2,3.9016973E-2,1.9555323E-2,3.5307761E-3,7.6831274E-2,-1.0783145E-2,-7.782272E-2,2.1873003E-2,-4.5804337E-2,-8.237313E-3,2.0530341E-2,-1.9834684E-2,-6.255687E-3,-7.281926E-2,2.8022135E-2,5.596214E-2,2.6864042E-3,-1.5116969E-2,2.9169535E-2],"categories":[],"categories_nodes":[],"categories_segments":[],"categories_sizes":[],"default_left":[0,0,0,0,0,0,0,0,0,0,0,0,0,0,0,0,0,0,0,0,0,0,0,0,0,0,0,0,0,0,0,0,0,0,0,0,0,0,0,0,0,0,0,0,0,0,0,0,0,0,0,0,0,0,0,0,0,0,0,0,0,0,0,0,0,0,0,0,0,0,0,0,0,0,0,0,0,0,0,0,0,0,0,0,0,0,0,0,0,0,0,0,0,0,0,0,0,0,0,0,0,0,0,0,0,0,0],"id":8,"left_children":[1,3,5,7,9,11,13,15,17,19,21,23,25,27,29,31,33,-1,-1,35,37,39,-1,41,43,45,47,49,51,53,55,57,59,61,63,65,67,69,71,73,75,77,79,81,83,85,87,89,91,93,95,97,99,101,103,105,-1,-1,-1,-1,-1,-1,-1,-1,-1,-1,-1,-1,-1,-1,-1,-1,-1,-1,-1,-1,-1,-1,-1,-1,-1,-1,-1,-1,-1,-1,-1,-1,-1,-1,-1,-1,-1,-1,-1,-1,-1,-1,-1,-1,-1,-1,-1,-1,-1,-1,-1],"loss_changes":[2.1630322E2,2.7100082E1,1.1595541E2,1.046727E1,1.5173664E1,3.4093994E1,1.5697044E1,9.0963745E0,2.2810378E0,1.1416973E1,6.941013E0,3.0529926E1,2.605397E1,8.025316E0,8.78194E0,1.0243286E1,9.367573E0,0E0,0E0,8.645875E0,9.6899185E0,5.090599E0,0E0,1.0382271E1,9.496834E0,1.7528397E1,7.4926376E0,1.5104752E1,8.943739E0,6.49765E0,2.8881598E0,8.744109E0,8.126572E0,1.1313475E1,7.2306137E0,6.4537516E0,9.999245E0,9.314461E0,7.090682E0,3.053162E0,6.9115524E0,8.017459E0,6.6159344E0,6.66465E0,9.36509E0,1.5455299E1,1.94334E1,6.1520195E0,7.27059E0,2.244872E0,8.638417E0,1.1587625E1,7.7269974E0,5.0079784E0,1.5100649E1,8.290656E-1,0E0,0E0,0E0,0E0,0E0,0E0,0E0,0E0,0E0,0E0,0E0,0E0,0E0,0E0,0E0,0E0,0E0,0E0,0E0,0E0,0E0,0E0,0E0,0E0,0E0,0E0,0E0,0E0,0E0,0E0,0E0,0E0,0E0,0E0,0E0,0E0,0E0,0E0,0E0,0E0,0E0,0E0,0E0,0E0,0E0,0E0,0E0,0E0,0E0,0E0,0E0],"parents":[2147483647,0,0,1,1,2,2,3,3,4,4,5,5,6,6,7,7,8,8,9,9,10,10,11,11,12,12,13,13,14,14,15,15,16,16,19,19,20,20,21,21,23,23,24,24,25,25,26,26,27,27,28,28,29,29,30,30,31,31,32,32,33,33,34,34,35,35,36,36,37,37,38,38,39,39,40,40,41,41,42,42,43,43,44,44,45,45,46,46,47,47,48,48,49,49,50,50,51,51,52,52,53,53,54,54,55,55],"right_children":[2,4,6,8,10,12,14,16,18,20,22,24,26,28,30,32,34,-1,-1,36,38,40,-1,42,44,46,48,50,52,54,56,58,60,62,64,66,68,70,72,74,76,78,80,82,84,86,88,90,92,94,96,98,100,102,104,106,-1,-1,-1,-1,-1,-1,-1,-1,-1,-1,-1,-1,-1,-1,-1,-1,-1,-1,-1,-1,-1,-1,-1,-1,-1,-1,-1,-1,-1,-1,-1,-1,-1,-1,-1,-1,-1,-1,-1,-1,-1,-1,-1,-1,-1,-1,-1,-1,-1,-1,-1],"split_conditions":[2.1E0,8.92E1,6E0,9.7E1,3.82119E1,8.8E1,1.19E1,3.284E-1,3.2E0,1.456E-1,1.23E1,-4.34105E1,1.79E1,2.6E0,4.204E-1,5.9E1,-4.82789E1,1.3654015E-3,6.847261E-2,7E0,-4.40684E1,4.708E-1,-6.404012E-2,2.012E-1,3.78537E1,3E0,8.8E1,6.3E0,3.5E0,5.3E1,7.7E1,8.82E1,6.3E1,1.8E0,7.188E-1,4E0,9.92E-2,7E0,6.9E1,2.956E-1,9.11E1,1.179156E2,3.63015E1,2E0,8.7E1,5.5E0,7.5E1,-5.53184E1,8.2E0,3.2E0,7.344E-1,7.6E1,6E0,4.54955E1,6.8E1,-5.68974E1,7.698889E-2,1.684354E-2,-1.7263958E-2,-4.2745095E-2,-2.220518E-2,-4.479373E-2,6.2731564E-2,-2.8222871E-3,-2.3439322E-2,-6.712427E-3,4.5867067E-2,-4.9869075E-2,3.114753E-3,-1.6721794E-2,-7.816865E-3,-2.0534301E-2,1.8177088E-2,1.6921014E-2,-1.0832987E-2,6.640824E-2,-2.1363212E-2,5.8132685E-3,-5.6295246E-2,-2.9760284E-2,3.0137388E-2,-2.6863758E-3,-4.3708205E-2,-2.0226307E-2,-1.4687129E-3,3.0125177E-2,1.2674346E-2,2.7267246E-3,1.2230642E-2,3.9016973E-2,1.9555323E-2,3.5307761E-3,7.6831274E-2,-1.0783145E-2,-7.782272E-2,2.1873003E-2,-4.5804337E-2,-8.237313E-3,2.0530341E-2,-1.9834684E-2,-6.255687E-3,-7.281926E-2,2.8022135E-2,5.596214E-2,2.6864042E-3,-1.5116969E-2,2.9169535E-2],"split_indices":[0,28,46,44,14,28,27,53,27,53,27,37,0,0,53,44,37,0,0,46,37,53,0,53,14,46,44,27,27,44,44,28,44,0,53,46,53,46,44,53,28,13,14,46,28,27,44,37,27,27,53,44,27,14,44,37,0,0,0,0,0,0,0,0,0,0,0,0,0,0,0,0,0,0,0,0,0,0,0,0,0,0,0,0,0,0,0,0,0,0,0,0,0,0,0,0,0,0,0,0,0,0,0,0,0,0,0],"split_type":[0,0,0,0,0,0,0,0,0,0,0,0,0,0,0,0,0,0,0,0,0,0,0,0,0,0,0,0,0,0,0,0,0,0,0,0,0,0,0,0,0,0,0,0,0,0,0,0,0,0,0,0,0,0,0,0,0,0,0,0,0,0,0,0,0,0,0,0,0,0,0,0,0,0,0,0,0,0,0,0,0,0,0,0,0,0,0,0,0,0,0,0,0,0,0,0,0,0,0,0,0,0,0,0,0,0,0],"sum_hessian":[8.959153E3,2.488753E3,6.470401E3,1.021295E3,1.467458E3,4.3352803E3,2.1351206E3,1.0162893E3,5.005682E0,1.397866E3,6.95921E1,4.936873E2,3.841593E3,2.0393511E3,9.576946E1,7.4825867E2,2.6803064E2,1.8885422E0,3.11714E0,1.3283624E2,1.2650297E3,6.7845894E1,1.7462128E0,1.289709E2,3.6471637E2,3.594198E3,2.4739491E2,7.564601E1,1.963705E3,8.732092E1,8.448537E0,7.887279E1,6.6938586E2,3.0598925E1,2.3743172E2,2.6108477E1,1.0672777E2,1.2037339E3,6.1295776E1,5.6808468E1,1.1037424E1,3.7929794E1,9.104111E1,4.5948833E1,3.1876755E2,1.4378595E3,2.1563384E3,2.3022984E2,1.716507E1,6.1453433E0,6.950066E1,1.3820529E2,1.8254998E3,4.1418524E0,8.317908E1,2.3492951E0,6.0992417E0,2.8766861E1,5.0105927E1,5.2820843E1,6.16565E2,2.879934E1,1.7995847E0,1.828789E2,5.4552814E1,8.085256E0,1.8023222E1,8.786603E0,9.794117E1,5.163182E2,6.8741565E2,1.4843851E1,4.6451927E1,4.4919106E1,1.1889361E1,8.644852E0,2.392573E0,3.2784103E1,5.145694E0,4.0920587E0,8.694905E1,1.4433683E1,3.151515E1,9.355398E1,2.2521356E2,1.4045502E2,1.2974045E3,1.127399E3,1.0289395E3,5.435205E1,1.7587779E2,4.644753E0,1.2520317E1,2.1501083E0,3.995235E0,6.5350685E1,4.1499834E0,6.9696434E1,6.8508865E1,1.1088757E2,1.7146122E3,2.993735E0,1.1481172E0,1.5594582E1,6.7584496E1,1.1992102E0,1.150085E0],"tree_param":{"num_deleted":"0","num_feature":"60","num_nodes":"107","size_leaf_vector":"1"}},{"base_weights":[-6.5407716E-3,-2.1093524E-1,9.393026E-2,-6.2169563E-2,-2.5366384E-1,2.0285712E-1,-4.635965E-2,9.714927E-2,-1.9132157E-1,-3.2609007E-1,-1.9831997E-1,1.2769851E-1,2.878322E-1,-1.0975148E-1,4.564504E-2,-1.2217994E0,1.19178325E-1,-1.5790726E-1,-9.291875E-1,-5.7222146E-1,-2.604627E-1,-3.180634E-1,-1.4271772E-1,8.634743E-2,3.0609667E-1,2.3901092E-1,4.629985E-1,-5.537256E-2,-2.3831366E-1,5.042708E-1,2.6077684E-3,-1.1776664E-2,-7.371787E-2,4.2348823E-1,4.260517E-2,-3.736768E-1,-6.832041E-2,2.9066045E-2,-1.0898784E0,-1.177149E0,-5.356448E-1,1.6676836E-1,-3.0773675E-1,-1.9348894E-1,-3.827017E-1,-9.799633E-2,-2.8545296E-1,-3.3950746E-1,1.06208056E-1,1.1919404E0,2.7080375E-1,2.1678793E-1,5.6068283E-1,2.2709582E-2,5.5697715E-1,-1.3698342E-1,6.74165E-2,-8.996138E-2,-4.4133615E-1,7.497468E-1,2.7887157E-1,-3.745946E-2,3.0042386E-1,7.18975E-3,3.6887374E-2,-4.5884952E-2,4.3606875E-3,3.3866775E-3,-2.7476091E-2,1.0581807E-4,-1.9222613E-2,-2.0922555E-2,-7.027522E-2,-7.75763E-2,-2.4220327E-2,-3.74069E-2,-2.0568604E-2,4.563934E-3,3.4378335E-2,-1.3243377E-2,-4.5094196E-2,-1.1101409E-2,4.276611E-2,-1.6646773E-2,-3.736705E-2,-1.1944448E-3,-1.2462377E-2,-2.2921635E-2,5.639317E-3,9.7000843E-4,-3.865662E-2,3.3170027E-3,1.2834544E-2,6.778907E-2,3.1398532E-3,1.641687E-2,-2.546529E-2,1.8062737E-2,8.06732E-3,5.9814204E-2,2.0554384E-2,3.098551E-2,-7.684955E-3,7.197758E-2,2.5862519E-2,3.093386E-2,-7.23261E-3,-5.9584784E-3,1.5324014E-2,-6.9069564E-3,2.4768155E-2,-2.525012E-2,2.9869149E-2,4.2009693E-2,-3.879869E-2,-2.6182844E-3,3.6330182E-2,-8.736039E-5,-2.5693778E-2,1.9575704E-2,-5.741197E-2],"categories":[],"categories_nodes":[],"categories_segments":[],"categories_sizes":[],"default_left":[0,0,0,0,0,0,0,0,0,0,0,0,0,0,0,0,0,0,0,0,0,0,0,0,0,0,0,0,0,0,0,0,0,0,0,0,0,0,0,0,0,0,0,0,0,0,0,0,0,0,0,0,0,0,0,0,0,0,0,0,0,0,0,0,0,0,0,0,0,0,0,0,0,0,0,0,0,0,0,0,0,0,0,0,0,0,0,0,0,0,0,0,0,0,0,0,0,0,0,0,0,0,0,0,0,0,0,0,0,0,0,0,0,0,0,0,0,0,0,0,0],"id":9,"left_children":[1,3,5,7,9,11,13,15,17,19,21,23,25,27,29,31,33,35,37,39,41,43,45,47,49,51,53,55,57,59,61,-1,-1,63,65,67,69,-1,71,73,75,77,79,81,83,85,87,89,91,93,95,97,99,101,103,105,107,109,111,113,115,117,119,-1,-1,-1,-1,-1,-1,-1,-1,-1,-1,-1,-1,-1,-1,-1,-1,-1,-1,-1,-1,-1,-1,-1,-1,-1,-1,-1,-1,-1,-1,-1,-1,-1,-1,-1,-1,-1,-1,-1,-1,-1,-1,-1,-1,-1,-1,-1,-1,-1,-1,-1,-1,-1,-1,-1,-1,-1,-1],"loss_changes":[1.8365224E2,1.8718597E1,9.163393E1,1.3577424E1,9.111633E0,2.1520508E1,1.529426E1,8.736786E0,8.834408E0,1.5843399E1,8.611591E0,1.3200075E1,1.3430649E1,1.08395E1,2.112019E1,8.8480234E-1,6.7800345E0,6.734047E0,4.414378E0,3.96241E0,1.5875298E1,3.2394066E0,5.651552E0,1.2358618E1,1.021299E1,8.7452545E0,1.4224022E1,1.0954384E1,1.3849157E1,4.8700676E0,1.1696866E1,0E0,0E0,5.039317E0,1.0112597E1,7.9831905E0,5.530257E0,0E0,2.4691544E0,2.1013956E0,4.909725E0,3.031539E0,1.7737717E1,4.458107E0,4.6489296E0,7.6048703E0,1.4638117E1,1.0155734E1,8.33899E0,2.2491474E0,1.4770912E1,9.247482E0,7.0696106E0,6.578958E0,9.19548E0,3.8936968E0,1.9518867E1,7.6173944E0,1.3160091E1,6.634056E0,7.3714385E0,1.470008E1,1.578831E1,0E0,0E0,0E0,0E0,0E0,0E0,0E0,0E0,0E0,0E0,0E0,0E0,0E0,0E0,0E0,0E0,0E0,0E0,0E0,0E0,0E0,0E0,0E0,0E0,0E0,0E0,0E0,0E0,0E0,0E0,0E0,0E0,0E0,0E0,0E0,0E0,0E0,0E0,0E0,0E0,0E0,0E0,0E0,0E0,0E0,0E0,0E0,0E0,0E0,0E0,0E0,0E0,0E0,0E0,0E0,0E0,0E0,0E0],"parents":[2147483647,0,0,1,1,2,2,3,3,4,4,5,5,6,6,7,7,8,8,9,9,10,10,11,11,12,12,13,13,14,14,15,15,16,16,17,17,18,18,19,19,20,20,21,21,22,22,23,23,24,24,25,25,26,26,27,27,28,28,29,29,30,30,33,33,34,34,35,35,36,36,38,38,39,39,40,40,41,41,42,42,43,43,44,44,45,45,46,46,47,47,48,48,49,49,50,50,51,51,52,52,53,53,54,54,55,55,56,56,57,57,58,58,59,59,60,60,61,61,62,62],"right_children":[2,4,6,8,10,12,14,16,18,20,22,24,26,28,30,32,34,36,38,40,42,44,46,48,50,52,54,56,58,60,62,-1,-1,64,66,68,70,-1,72,74,76,78,80,82,84,86,88,90,92,94,96,98,100,102,104,106,108,110,112,114,116,118,120,-1,-1,-1,-1,-1,-1,-1,-1,-1,-1,-1,-1,-1,-1,-1,-1,-1,-1,-1,-1,-1,-1,-1,-1,-1,-1,-1,-1,-1,-1,-1,-1,-1,-1,-1,-1,-1,-1,-1,-1,-1,-1,-1,-1,-1,-1,-1,-1,-1,-1,-1,-1,-1,-1,-1,-1,-1,-1],"split_conditions":[3.9E0,8.79E1,5E0,-5.045E1,7E0,7.5E1,7.7E1,3.82E1,1E0,6.5E1,7.7E0,4.54E1,1E0,9.07E1,3.5E0,8.51E1,2E0,8.51E1,1.1E0,-5.97921E1,5.7E0,5.9E0,8.2E1,2.99E1,4.8E0,9.2E1,9.03E1,3.48E1,7E0,4.26E1,1.319E1,-1.1776664E-2,-7.371787E-2,4.43E1,5.1E1,3.56E1,-3.82132E1,2.9066045E-2,3.08E1,4.75E1,3.94E1,5.5E0,-4.08447E1,1E0,-3.98579E1,1.03E1,1.06E1,2E0,9.19E1,6.5E1,-4.66342E1,-5.36079E1,3.32E1,7E0,-6.01211E1,-6.41342E1,4.21E1,1E0,1.19E1,3.91E1,1.194E1,1.249E1,9E0,7.18975E-3,3.6887374E-2,-4.5884952E-2,4.3606875E-3,3.3866775E-3,-2.7476091E-2,1.0581807E-4,-1.9222613E-2,-2.0922555E-2,-7.027522E-2,-7.75763E-2,-2.4220327E-2,-3.74069E-2,-2.0568604E-2,4.563934E-3,3.4378335E-2,-1.3243377E-2,-4.5094196E-2,-1.1101409E-2,4.276611E-2,-1.6646773E-2,-3.736705E-2,-1.1944448E-3,-1.2462377E-2,-2.2921635E-2,5.639317E-3,9.7000843E-4,-3.865662E-2,3.3170027E-3,1.2834544E-2,6.778907E-2,3.1398532E-3,1.641687E-2,-2.546529E-2,1.8062737E-2,8.06732E-3,5.9814204E-2,2.0554384E-2,3.098551E-2,-7.684955E-3,7.197758E-2,2.5862519E-2,3.093386E-2,-7.23261E-3,-5.9584784E-3,1.5324014E-2,-6.9069564E-3,2.4768155E-2,-2.525012E-2,2.9869149E-2,4.2009693E-2,-3.879869E-2,-2.6182844E-3,3.6330182E-2,-8.736039E-5,-2.5693778E-2,1.9575704E-2,-5.741197E-2],"split_indices":[0,3,46,37,46,44,44,26,59,44,27,26,54,3,27,3,46,3,0,37,27,27,44,2,27,44,3,2,46,1,16,0,0,26,44,26,37,0,2,26,26,27,37,54,37,27,27,46,3,44,37,37,26,0,37,37,26,54,27,2,16,16,46,0,0,0,0,0,0,0,0,0,0,0,0,0,0,0,0,0,0,0,0,0,0,0,0,0,0,0,0,0,0,0,0,0,0,0,0,0,0,0,0,0,0,0,0,0,0,0,0,0,0,0,0,0,0,0,0,0,0],"split_type":[0,0,0,0,0,0,0,0,0,0,0,0,0,0,0,0,0,0,0,0,0,0,0,0,0,0,0,0,0,0,0,0,0,0,0,0,0,0,0,0,0,0,0,0,0,0,0,0,0,0,0,0,0,0,0,0,0,0,0,0,0,0,0,0,0,0,0,0,0,0,0,0,0,0,0,0,0,0,0,0,0,0,0,0,0,0,0,0,0,0,0,0,0,0,0,0,0,0,0,0,0,0,0,0,0,0,0,0,0,0,0,0,0,0,0,0,0,0,0,0,0],"sum_hessian":[8.941097E3,2.9462527E3,5.9948447E3,6.5795264E2,2.2883E3,3.3743862E3,2.6204583E3,2.9468457E2,3.6326804E2,9.890628E2,1.2992373E3,1.7919492E3,1.582437E3,1.5513649E3,1.0690934E3,3.9462655E0,2.907383E2,3.4869153E2,1.4576516E1,2.0657948E2,7.824833E2,4.1049225E2,8.88745E2,1.4559558E3,3.3599338E2,1.2393715E3,3.4306555E2,1.0912299E3,4.6013504E2,9.079726E1,9.7829614E2,1.1985176E0,2.747748E0,5.753954E1,2.3319876E2,1.0137035E2,2.4732117E2,1.1498833E0,1.3426633E1,1.0000579E1,1.965789E2,7.7705505E1,7.047778E2,1.415953E2,2.6889694E2,6.78002E2,2.1074301E2,6.415874E1,1.3917971E3,1.1617762E1,3.243756E2,1.1608473E3,7.85242E1,6.056428E1,2.8250128E2,6.554645E2,4.3576538E2,2.6669742E2,1.9343762E2,4.2349403E1,4.844785E1,8.630574E2,1.1523877E2,3.1215271E1,2.6324268E1,9.482986E0,2.2371577E2,2.9053751E1,7.2316605E1,2.0306903E2,4.425214E1,5.0370836E0,8.389549E0,5.6873136E0,4.3132653E0,7.068868E1,1.2589023E2,6.8894516E1,8.810987E0,6.5869696E2,4.6080853E1,1.3861185E2,2.9834678E0,2.3828824E2,3.0608713E1,4.5582346E2,2.2217853E2,1.4681926E2,6.3923756E1,3.5626358E1,2.853238E1,1.1014314E3,2.903657E2,9.970331E0,1.647431E0,3.0263516E2,2.1740452E1,3.2041364E2,8.4043365E2,1.3627354E1,6.489684E1,1.3241067E1,4.7323215E1,1.0650583E1,2.7185068E2,5.784658E0,6.496798E2,2.450268E2,1.9073857E2,2.4712102E2,1.9576406E1,1.8275014E2,1.0687482E1,4.0403534E1,1.9458699E0,2.8354162E1,2.0093689E1,8.0380743E2,5.9249905E1,1.0910793E2,6.130836E0],"tree_param":{"num_deleted":"0","num_feature":"60","num_nodes":"121","size_leaf_vector":"1"}},{"base_weights":[2.095934E-3,-2.3493811E-1,7.9759486E-2,-4.0980166E-1,-2.0150642E-1,1.673992E-1,-8.799591E-2,-2.8701842E-1,-5.9597135E-1,-5.285098E-1,-1.818289E-1,9.652359E-2,2.4718118E-1,3.353862E-1,-1.0023027E-1,-5.119756E-1,-9.334221E-2,-7.2497255E-1,-1.6442288E-1,-2.4210681E-1,-5.9541035E-2,-1.8962234E-1,5.597911E-1,1.9292243E-1,2.7311936E-2,5.7687584E-2,2.826234E-1,-9.899875E-1,4.1416526E-1,-7.068214E-2,-2.0712204E-1,-2.3407342E-2,-5.9332347E-1,-3.3258086E-1,1.54167E-1,-4.0667612E-2,-8.562194E-1,-9.4328755E-1,2.5874373E-1,-5.3208256E-1,1.9360213E-1,-2.041376E-1,1.4356385E-1,9.9031323E-1,-1.05594225E-1,9.78808E-2,3.59525E-1,-3.289248E-1,5.49147E-2,3.104193E-1,-6.114216E-2,2.7670842E-2,3.1402525E-1,-1.3338801E-2,-6.0380634E-2,5.386415E-1,-2.1252103E-1,-9.710915E-2,1.3188282E-1,-2.2031295E-1,8.297567E-1,-2.403496E-2,2.2386277E-2,-1.8460684E-2,-5.5223476E-2,9.899731E-3,-3.0549554E-2,3.7361808E-2,-4.5549213E-3,1.7781425E-2,-3.137332E-2,-3.8880795E-2,-7.956342E-2,8.884907E-3,-5.6991525E-2,4.1776102E-2,-5.497266E-3,2.2879152E-2,-3.631916E-2,-8.39189E-3,2.6140377E-2,-9.978955E-3,-5.0714917E-2,-2.4659289E-2,1.4506745E-2,5.434276E-3,6.896957E-2,-3.8025737E-2,3.368383E-2,-2.364284E-2,5.887285E-3,1.6543543E-2,6.0571212E-2,-1.139368E-2,-5.258392E-2,7.1823425E-3,-2.6640836E-3,-2.501007E-2,2.2363992E-2,-6.985222E-3,1.5973823E-2,8.378883E-3,-2.5896503E-2,2.3212496E-2,1.3318229E-2,-9.31133E-4,3.4945335E-2,5.5820893E-2,-2.5728226E-2,-6.4419E-3,5.996239E-3,5.8280643E-2,1.222896E-3,-4.6816565E-2,-1.0117021E-2,-1.5548276E-2,5.795247E-2],"categories":[],"categories_nodes":[],"categories_segments":[],"categories_sizes":[],"default_left":[0,0,0,0,0,0,0,0,0,0,0,0,0,0,0,0,0,0,0,0,0,0,0,0,0,0,0,0,0,0,0,0,0,0,0,0,0,0,0,0,0,0,0,0,0,0,0,0,0,0,0,0,0,0,0,0,0,0,0,0,0,0,0,0,0,0,0,0,0,0,0,0,0,0,0,0,0,0,0,0,0,0,0,0,0,0,0,0,0,0,0,0,0,0,0,0,0,0,0,0,0,0,0,0,0,0,0,0,0,0,0,0,0,0,0,0,0],"id":10,"left_children":[1,3,5,7,9,11,13,15,17,19,21,23,25,27,29,31,33,35,37,39,-1,41,43,45,47,49,51,53,55,57,59,61,63,65,67,69,71,73,75,77,79,81,83,85,87,89,91,93,95,97,99,101,103,-1,-1,105,107,109,111,113,115,-1,-1,-1,-1,-1,-1,-1,-1,-1,-1,-1,-1,-1,-1,-1,-1,-1,-1,-1,-1,-1,-1,-1,-1,-1,-1,-1,-1,-1,-1,-1,-1,-1,-1,-1,-1,-1,-1,-1,-1,-1,-1,-1,-1,-1,-1,-1,-1,-1,-1,-1,-1,-1,-1,-1,-1],"loss_changes":[1.6392526E2,1.27643585E1,9.862254E1,7.86932E0,1.1787491E1,2.4889542E1,1.1958651E1,9.27092E0,7.6112175E0,1.9496265E1,1.0183308E1,1.5572378E1,1.3899841E1,7.185102E0,7.05501E0,3.909977E0,6.9293194E0,9.540215E0,1.1202861E1,9.461262E0,0E0,8.377388E0,5.3710785E0,1.5412533E1,1.33932E1,9.861787E0,1.396434E1,2.9723644E-1,4.9472504E0,9.408192E0,6.8057404E0,3.4756057E0,9.282837E0,8.892689E0,8.471919E0,4.4570584E0,3.9281387E0,2.8289165E0,4.8402057E0,8.935287E0,3.6966977E0,5.9078064E0,6.92316E0,3.7120438E0,4.6595035E0,7.1143284E0,8.240654E0,6.9148016E0,1.213552E1,1.1870507E1,6.7356424E0,1.4780176E1,1.1001465E1,0E0,0E0,4.6544027E0,4.983157E0,1.0710661E1,2.2511309E1,5.97377E0,2.724132E0,0E0,0E0,0E0,0E0,0E0,0E0,0E0,0E0,0E0,0E0,0E0,0E0,0E0,0E0,0E0,0E0,0E0,0E0,0E0,0E0,0E0,0E0,0E0,0E0,0E0,0E0,0E0,0E0,0E0,0E0,0E0,0E0,0E0,0E0,0E0,0E0,0E0,0E0,0E0,0E0,0E0,0E0,0E0,0E0,0E0,0E0,0E0,0E0,0E0,0E0,0E0,0E0,0E0,0E0,0E0,0E0],"parents":[2147483647,0,0,1,1,2,2,3,3,4,4,5,5,6,6,7,7,8,8,9,9,10,10,11,11,12,12,13,13,14,14,15,15,16,16,17,17,18,18,19,19,21,21,22,22,23,23,24,24,25,25,26,26,27,27,28,28,29,29,30,30,31,31,32,32,33,33,34,34,35,35,36,36,37,37,38,38,39,39,40,40,41,41,42,42,43,43,44,44,45,45,46,46,47,47,48,48,49,49,50,50,51,51,52,52,55,55,56,56,57,57,58,58,59,59,60,60],"right_children":[2,4,6,8,10,12,14,16,18,20,22,24,26,28,30,32,34,36,38,40,-1,42,44,46,48,50,52,54,56,58,60,62,64,66,68,70,72,74,76,78,80,82,84,86,88,90,92,94,96,98,100,102,104,-1,-1,106,108,110,112,114,116,-1,-1,-1,-1,-1,-1,-1,-1,-1,-1,-1,-1,-1,-1,-1,-1,-1,-1,-1,-1,-1,-1,-1,-1,-1,-1,-1,-1,-1,-1,-1,-1,-1,-1,-1,-1,-1,-1,-1,-1,-1,-1,-1,-1,-1,-1,-1,-1,-1,-1,-1,-1,-1,-1,-1,-1],"split_conditions":[2.7828E1,6.3E1,6E0,5.9E1,8.75E1,7.5E1,-6.09763E1,7E0,3.08E-1,8.72E1,9.6E1,3E0,8.83E1,5.3E1,9.07E1,8.82E1,9.1E0,4E0,6E0,7.4E0,-5.9541035E-2,9.17E1,8.93E1,9.9831E1,6.02449E1,3.6E0,8.8E1,6.2E0,9.17E1,9.09E1,1.26E1,1.712E-1,-4.70947E1,8E0,9.5E0,-4.78842E1,2.556E-1,1E0,4.016E-1,1.44E-1,7.5E1,9.16E1,5E0,6.1E0,-5.05816E1,8.52E1,9.176E-1,8.81E1,-4.78842E1,6.4E0,9.07E1,3.592E-1,8.87E1,-1.3338801E-2,-6.0380634E-2,1.19E1,8.71E1,9.56196E1,8.53E1,4.7E1,8E0,-2.403496E-2,2.2386277E-2,-1.8460684E-2,-5.5223476E-2,9.899731E-3,-3.0549554E-2,3.7361808E-2,-4.5549213E-3,1.7781425E-2,-3.137332E-2,-3.8880795E-2,-7.956342E-2,8.884907E-3,-5.6991525E-2,4.1776102E-2,-5.497266E-3,2.2879152E-2,-3.631916E-2,-8.39189E-3,2.6140377E-2,-9.978955E-3,-5.0714917E-2,-2.4659289E-2,1.4506745E-2,5.434276E-3,6.896957E-2,-3.8025737E-2,3.368383E-2,-2.364284E-2,5.887285E-3,1.6543543E-2,6.0571212E-2,-1.139368E-2,-5.258392E-2,7.1823425E-3,-2.6640836E-3,-2.501007E-2,2.2363992E-2,-6.985222E-3,1.5973823E-2,8.378883E-3,-2.5896503E-2,2.3212496E-2,1.3318229E-2,-9.31133E-4,3.4945335E-2,5.5820893E-2,-2.5728226E-2,-6.4419E-3,5.996239E-3,5.8280643E-2,1.222896E-3,-4.6816565E-2,-1.0117021E-2,-1.5548276E-2,5.795247E-2],"split_indices":[13,44,46,44,28,44,37,46,53,28,44,46,3,44,3,28,27,46,46,27,0,28,28,13,13,0,28,0,28,28,27,53,37,46,27,37,53,58,53,53,44,28,46,27,37,3,53,3,37,27,28,53,28,0,0,27,3,13,3,44,0,0,0,0,0,0,0,0,0,0,0,0,0,0,0,0,0,0,0,0,0,0,0,0,0,0,0,0,0,0,0,0,0,0,0,0,0,0,0,0,0,0,0,0,0,0,0,0,0,0,0,0,0,0,0,0,0],"split_type":[0,0,0,0,0,0,0,0,0,0,0,0,0,0,0,0,0,0,0,0,0,0,0,0,0,0,0,0,0,0,0,0,0,0,0,0,0,0,0,0,0,0,0,0,0,0,0,0,0,0,0,0,0,0,0,0,0,0,0,0,0,0,0,0,0,0,0,0,0,0,0,0,0,0,0,0,0,0,0,0,0,0,0,0,0,0,0,0,0,0,0,0,0,0,0,0,0,0,0,0,0,0,0,0,0,0,0,0,0,0,0,0,0,0,0,0,0],"sum_hessian":[8.902653E3,2.1965671E3,6.7060864E3,3.5074536E2,1.8458217E3,4.404871E3,2.3012153E3,2.1288467E2,1.378607E2,1.0330067E2,1.742521E3,2.3338064E3,2.0710647E3,6.3888172E1,2.2373271E3,9.772846E1,1.15156204E2,1.05610886E2,3.224981E1,7.3069E1,3.0231668E1,1.7251365E3,1.7384592E1,9.745934E2,1.359213E3,3.2674347E2,1.7443212E3,2.9354646E0,6.0952705E1,1.7541014E3,4.8322562E2,1.4133242E1,8.359522E1,5.838166E1,5.6774544E1,1.7206774E1,8.840411E1,1.0920616E1,2.1329195E1,4.3738617E1,2.9330385E1,1.6534895E3,7.164692E1,1.0258644E1,7.1259484E0,6.215855E2,3.5300787E2,9.695905E1,1.262254E3,1.039808E2,2.227627E2,1.9148985E2,1.5528313E3,1.1938651E0,1.7415997E0,5.0969357E1,9.983351E0,1.5521284E3,2.0197304E2,4.7793298E2,5.292622E0,7.161667E0,6.971575E0,5.9312317E1,2.428291E1,2.0191288E1,3.8190372E1,1.6011343E1,4.07632E1,1.0505684E1,6.70109E0,8.172287E1,6.6812463E0,1.643391E0,9.2772255E0,7.8236527E0,1.3505542E1,6.9555674E0,3.6783047E1,1.421437E1,1.51160145E1,1.6454773E3,8.012228E0,1.296372E1,5.8683197E1,3.5328217E0,6.725822E0,3.8849766E0,3.2409718E0,2.0140007E1,6.014455E2,3.4286386E2,1.0144028E1,8.621961E1,1.0739441E1,6.9332697E2,5.6892706E2,1.46362E1,8.93446E1,1.851744E2,3.75883E1,1.529597E2,3.8530144E1,3.718942E2,1.1809371E3,1.1581768E1,3.938759E1,1.3495128E0,8.633838E0,1.3545143E3,1.9761418E2,1.8085838E1,1.8388719E2,1.04515E1,4.6748148E2,1.1980486E0,4.0945735E0],"tree_param":{"num_deleted":"0","num_feature":"60","num_nodes":"117","size_leaf_vector":"1"}},{"base_weights":[-4.5538084E-3,-1.7543262E-1,8.150736E-2,-2.226992E-2,-2.2164187E-1,6.980856E-2,4.8280448E-1,1.3132863E-1,-1.6629288E-1,-5.15125E-1,-2.0451994E-1,-8.959602E-2,9.097656E-2,1.11804E0,3.3822912E-1,9.519248E-2,7.477963E-1,-1.4334947E-1,-1.088201E0,-1.5610322E-1,-7.080526E-1,-3.3150485E-1,-1.7937833E-1,2.432442E-1,-2.042285E-1,4.0424008E-2,1.5211926E-1,-2.122544E-2,1.2084632E0,3.7808403E-1,-7.218455E-2,3.4688756E-1,-1.1267742E-2,9.8117846E-1,-4.7478878E-1,-2.1615852E-1,3.809215E-2,-1.431952E0,3.0355474E-2,-4.120715E-1,4.4474024E-1,3.2426852E-1,-8.5938305E-1,-2.0858979E-1,-5.6795025E-1,-1.8637818E-1,2.9425898E-1,-1.0823779E0,2.8776932E-1,-3.0923858E-1,-2.6810495E-2,2.351905E-2,2.748002E-1,2.6358458E-1,1.0025807E-1,1.3130896E0,-1.0755956E-2,4.3995276E-1,-5.087362E-1,4.5479745E-2,1.1338902E-2,1.3284499E-3,-3.225176E-2,2.6652438E-3,5.422905E-2,2.9372761E-2,-5.9963E-2,-2.4520496E-2,-7.0952037E-3,-6.380055E-2,5.559567E-3,-8.1243314E-2,-1.16662765E-2,-2.8060421E-2,1.954574E-2,3.556229E-2,-5.4315355E-2,3.7078902E-2,-1.0261518E-2,-8.549969E-3,-4.979714E-2,-1.4631721E-2,9.858255E-3,-1.6164409E-2,-4.2615425E-2,-8.594061E-3,-2.6112666E-2,6.6652484E-2,4.0968168E-3,-4.284755E-3,-7.6634586E-2,5.3818252E-2,1.0428553E-2,-1.8736908E-2,4.413902E-3,-6.179903E-3,1.6808284E-2,3.1939733E-3,-3.5210305E-3,1.142825E-2,4.734927E-2,2.4135908E-2,9.470351E-3,1.3826503E-2,1.3236755E-3,1.512394E-2,6.921167E-2,8.422245E-3,3.283087E-2,4.630467E-2,-5.173735E-2],"categories":[],"categories_nodes":[],"categories_segments":[],"categories_sizes":[],"default_left":[0,0,0,0,0,0,0,0,0,0,0,0,0,0,0,0,0,0,0,0,0,0,0,0,0,0,0,0,0,0,0,0,0,0,0,0,0,0,0,0,0,0,0,0,0,0,0,0,0,0,0,0,0,0,0,0,0,0,0,0,0,0,0,0,0,0,0,0,0,0,0,0,0,0,0,0,0,0,0,0,0,0,0,0,0,0,0,0,0,0,0,0,0,0,0,0,0,0,0,0,0,0,0,0,0,0,0,0,0,0,0],"id":11,"left_children":[1,3,5,7,9,11,13,15,17,19,21,23,25,27,29,31,33,35,37,39,41,43,45,47,49,51,53,-1,55,57,-1,59,61,63,65,67,69,71,-1,73,75,77,79,81,83,85,87,89,91,93,95,97,99,101,103,105,-1,107,109,-1,-1,-1,-1,-1,-1,-1,-1,-1,-1,-1,-1,-1,-1,-1,-1,-1,-1,-1,-1,-1,-1,-1,-1,-1,-1,-1,-1,-1,-1,-1,-1,-1,-1,-1,-1,-1,-1,-1,-1,-1,-1,-1,-1,-1,-1,-1,-1,-1,-1,-1,-1],"loss_changes":[1.317272E2,2.1229286E1,2.7933346E1,1.5429325E1,1.147596E1,1.9543804E1,1.5103901E1,7.449405E0,7.456273E0,8.643837E0,6.898346E0,2.5964071E1,1.5792717E1,4.811878E0,1.0400138E1,8.579819E0,5.7580585E0,4.662348E0,5.873728E0,7.1749773E0,1.3077667E1,1.0314968E1,6.0933456E0,1.0608248E1,9.414131E0,1.1084956E1,1.334449E1,0E0,4.657486E0,7.713867E0,0E0,6.225601E0,5.4337945E0,1.4677734E0,3.5110984E0,5.0533543E0,9.914803E0,1.3406363E0,0E0,4.0992746E0,6.5104246E0,2.6271422E0,6.572502E0,8.166597E0,8.226849E0,8.6525345E0,5.8267627E0,2.5073266E0,1.0366251E1,8.30274E0,6.6862607E0,9.908248E0,5.633603E0,1.183699E1,2.0544695E1,1.5587502E0,0E0,7.4278297E0,8.027518E0,0E0,0E0,0E0,0E0,0E0,0E0,0E0,0E0,0E0,0E0,0E0,0E0,0E0,0E0,0E0,0E0,0E0,0E0,0E0,0E0,0E0,0E0,0E0,0E0,0E0,0E0,0E0,0E0,0E0,0E0,0E0,0E0,0E0,0E0,0E0,0E0,0E0,0E0,0E0,0E0,0E0,0E0,0E0,0E0,0E0,0E0,0E0,0E0,0E0,0E0,0E0,0E0],"parents":[2147483647,0,0,1,1,2,2,3,3,4,4,5,5,6,6,7,7,8,8,9,9,10,10,11,11,12,12,13,13,14,14,15,15,16,16,17,17,18,18,19,19,20,20,21,21,22,22,23,23,24,24,25,25,26,26,28,28,29,29,31,31,32,32,33,33,34,34,35,35,36,36,37,37,39,39,40,40,41,41,42,42,43,43,44,44,45,45,46,46,47,47,48,48,49,49,50,50,51,51,52,52,53,53,54,54,55,55,57,57,58,58],"right_children":[2,4,6,8,10,12,14,16,18,20,22,24,26,28,30,32,34,36,38,40,42,44,46,48,50,52,54,-1,56,58,-1,60,62,64,66,68,70,72,-1,74,76,78,80,82,84,86,88,90,92,94,96,98,100,102,104,106,-1,108,110,-1,-1,-1,-1,-1,-1,-1,-1,-1,-1,-1,-1,-1,-1,-1,-1,-1,-1,-1,-1,-1,-1,-1,-1,-1,-1,-1,-1,-1,-1,-1,-1,-1,-1,-1,-1,-1,-1,-1,-1,-1,-1,-1,-1,-1,-1,-1,-1,-1,-1,-1,-1],"split_conditions":[4.5E0,8.79E1,9.2E1,-4.88711E1,8.75E1,8.8E1,6.1E0,4.86E1,4.63E1,-4.19632E1,6.3E1,-4.34105E1,7.5E1,8.62E1,4.75E1,9.5E0,3.44E1,8.92E1,3.8E0,8.1E1,6.1E1,-4.69632E1,9.5E1,5.3E1,7.9E1,5.36E1,-5.34763E1,-2.122544E-2,9.8E1,-4.37395E1,-7.218455E-2,2.16E1,4.73E1,3.13461E1,6.2E1,8.49E1,5.3E1,3.44E1,3.0355474E-2,9E0,8.4E0,3.42E1,5.6E0,-4.82132E1,5.7E1,9E1,8.82E1,4.6E1,6.1E1,5.05E1,3.75E1,7.2E1,9.15E1,9E1,3.85E1,6.22051E1,-1.0755956E-2,4.4E1,3.24E1,4.5479745E-2,1.1338902E-2,1.3284499E-3,-3.225176E-2,2.6652438E-3,5.422905E-2,2.9372761E-2,-5.9963E-2,-2.4520496E-2,-7.0952037E-3,-6.380055E-2,5.559567E-3,-8.1243314E-2,-1.16662765E-2,-2.8060421E-2,1.954574E-2,3.556229E-2,-5.4315355E-2,3.7078902E-2,-1.0261518E-2,-8.549969E-3,-4.979714E-2,-1.4631721E-2,9.858255E-3,-1.6164409E-2,-4.2615425E-2,-8.594061E-3,-2.6112666E-2,6.6652484E-2,4.0968168E-3,-4.284755E-3,-7.6634586E-2,5.3818252E-2,1.0428553E-2,-1.8736908E-2,4.413902E-3,-6.179903E-3,1.6808284E-2,3.1939733E-3,-3.5210305E-3,1.142825E-2,4.734927E-2,2.4135908E-2,9.470351E-3,1.3826503E-2,1.3236755E-3,1.512394E-2,6.921167E-2,8.422245E-3,3.283087E-2,4.630467E-2,-5.173735E-2],"split_indices":[0,3,44,37,28,28,27,26,26,37,44,37,44,28,26,27,2,28,0,44,44,37,44,44,44,1,37,0,44,37,0,1,26,13,44,3,44,2,0,27,27,26,27,37,44,44,28,44,44,1,2,44,28,28,26,13,0,1,2,0,0,0,0,0,0,0,0,0,0,0,0,0,0,0,0,0,0,0,0,0,0,0,0,0,0,0,0,0,0,0,0,0,0,0,0,0,0,0,0,0,0,0,0,0,0,0,0,0,0,0,0],"split_type":[0,0,0,0,0,0,0,0,0,0,0,0,0,0,0,0,0,0,0,0,0,0,0,0,0,0,0,0,0,0,0,0,0,0,0,0,0,0,0,0,0,0,0,0,0,0,0,0,0,0,0,0,0,0,0,0,0,0,0,0,0,0,0,0,0,0,0,0,0,0,0,0,0,0,0,0,0,0,0,0,0,0,0,0,0,0,0,0,0,0,0,0,0,0,0,0,0,0,0,0,0,0,0,0,0,0,0,0,0,0,0],"sum_hessian":[8.955388E3,2.9992288E3,5.956159E3,6.9548694E2,2.3037417E3,5.7885815E3,1.6757748E2,3.3659793E2,3.58889E2,1.2538913E2,2.1783525E3,6.781998E2,5.110382E3,2.9820194E1,1.377573E2,3.1905023E2,1.7547695E1,3.5130173E2,7.5873036E0,4.4460693E1,8.092844E1,3.579976E2,1.8203551E3,1.7345218E2,5.0474762E2,2.7983652E3,2.3120166E3,1.446659E0,2.8373535E1,1.3551416E2,2.2431238E0,9.41651E1,2.2488513E2,1.4900717E1,2.6469777E0,2.5056389E2,1.0073782E2,6.4373703E0,1.1499332E0,3.13986E1,1.3062093E1,1.0200638E1,7.07278E1,2.3678708E2,1.212105E2,1.7944417E3,2.5913408E1,4.8791294E0,1.6857306E2,3.166098E2,1.8813785E2,2.6111313E3,1.8723389E2,7.328401E2,1.5791765E3,2.6503288E1,1.8702474E0,1.27147644E2,8.366516E0,1.5407705E1,7.875739E1,2.1311969E2,1.1765443E1,1.6459996E0,1.3254718E1,1.1499734E0,1.4970043E0,5.2192318E1,1.9837158E2,4.441271E0,9.6296555E1,5.238627E0,1.1987431E0,2.6734379E1,4.66422E0,1.158157E1,1.4805235E0,5.480673E0,4.719965E0,1.2080986E1,5.8646812E1,1.9638777E2,4.0399307E1,6.630152E1,5.490898E1,1.7216443E3,7.27974E1,3.5019026E0,2.2411505E1,1.8888422E0,2.990287E0,1.4235549E1,1.5433751E2,2.7187048E2,4.4739315E1,1.4905249E2,3.9085346E1,1.8266471E3,7.8448425E2,1.7643791E2,1.0795975E1,1.8394034E2,5.488998E2,4.6515915E2,1.1140173E3,2.0884266E0,2.4414862E1,5.7220573E1,6.992707E1,2.040347E0,6.326169E0],"tree_param":{"num_deleted":"0","num_feature":"60","num_nodes":"111","size_leaf_vector":"1"}},{"base_weights":[8.917024E-3,-2.1737339E-1,8.299319E-2,-3.1442022E-1,-1.3035156E-1,1.872721E-1,-3.92324E-2,-3.701263E-1,-1.3142931E-2,4.9900433E-1,-1.4656352E-1,1.5098585E-1,3.2524273E-1,-4.6231274E-2,4.5631236E-1,-3.8570592E-1,9.9328023E-1,-1.8733458E-1,2.8308696E-1,9.120674E-2,1.010747E0,-2.3948069E-1,-7.6713115E-2,2.6655534E-1,1.07509054E-1,2.262758E-1,4.8424327E-1,9.581571E-3,-1.0015087E-1,6.5415835E-1,-9.8295075E-1,-5.0268346E-1,-3.2106462E-1,1.2827263E0,1.0266592E-1,-9.241524E-2,-7.127387E-1,6.07608E-1,-5.0957303E-2,5.7883567E-1,-4.449497E-1,2.7812782E-1,1.305175E0,5.3520924E-1,-2.7796364E-1,-1.0520054E0,-6.357825E-2,2.4050713E-1,6.6681373E-1,7.715135E-2,3.196697E-1,-4.0943095E-1,2.595563E-1,7.7336574E-1,3.872357E-1,-2.1727986E-3,5.203977E-1,-8.109758E-2,-4.7456923E-1,1.6106705E-1,1.1340892E0,-6.8499275E-2,-1.2051773E-2,6.432641E-3,-2.8249804E-2,-8.519813E-3,-2.3639046E-2,2.4041029E-2,7.2534636E-2,1.7744355E-2,-1.09617775E-2,-9.083854E-3,3.043213E-2,-6.361145E-2,-7.493795E-3,6.712407E-2,1.2579749E-2,-2.0226939E-2,3.271722E-2,-5.2532632E-2,4.7358748E-2,-6.596688E-2,4.9241283E-3,6.688245E-2,-3.686676E-2,1.9940408E-2,7.096827E-2,-5.08703E-2,3.3393186E-2,-1.2213281E-2,-5.5109557E-2,2.0119382E-2,-6.9532E-2,-1.0959668E-2,3.2878283E-4,1.2294427E-2,-6.4706415E-2,4.6770986E-2,1.6629057E-2,-1.7409211E-2,4.592081E-3,4.55583E-2,1.3729763E-2,3.5744521E-3,-5.2226957E-2,2.005968E-2,5.8846707E-3,1.0802547E-2,5.2519828E-2,1.6106976E-2,4.4484477E-2,-4.5815255E-2,1.1966465E-4,5.0606698E-2,-6.4088553E-3,-5.2613695E-3,7.5150006E-3,-3.2526553E-2,2.041918E-2,-1.9376008E-2,4.2609446E-2,1.5115063E-3,6.511981E-2],"categories":[],"categories_nodes":[],"categories_segments":[],"categories_sizes":[],"default_left":[0,0,0,0,0,0,0,0,0,0,0,0,0,0,0,0,0,0,0,0,0,0,0,0,0,0,0,0,0,0,0,0,0,0,0,0,0,0,0,0,0,0,0,0,0,0,0,0,0,0,0,0,0,0,0,0,0,0,0,0,0,0,0,0,0,0,0,0,0,0,0,0,0,0,0,0,0,0,0,0,0,0,0,0,0,0,0,0,0,0,0,0,0,0,0,0,0,0,0,0,0,0,0,0,0,0,0,0,0,0,0,0,0,0,0,0,0,0,0,0,0,0,0],"id":12,"left_children":[1,3,5,7,9,11,13,15,17,19,21,23,25,27,29,31,33,35,37,39,41,43,45,47,49,51,53,55,57,59,61,63,65,67,69,71,73,75,77,79,81,83,85,87,89,91,93,95,97,99,101,103,105,107,109,111,113,115,117,119,121,-1,-1,-1,-1,-1,-1,-1,-1,-1,-1,-1,-1,-1,-1,-1,-1,-1,-1,-1,-1,-1,-1,-1,-1,-1,-1,-1,-1,-1,-1,-1,-1,-1,-1,-1,-1,-1,-1,-1,-1,-1,-1,-1,-1,-1,-1,-1,-1,-1,-1,-1,-1,-1,-1,-1,-1,-1,-1,-1,-1,-1,-1],"loss_changes":[1.50001E2,1.8596527E1,8.593185E1,1.7493637E1,1.196224E1,1.816439E1,1.0788347E1,1.9073318E1,8.50196E0,6.0619E0,7.3595123E0,1.4453835E1,1.1797585E1,9.216322E0,1.2980835E1,6.4223022E0,2.5030413E0,5.10618E0,6.646659E0,4.8356404E0,2.4365692E0,1.4678061E1,8.264922E0,8.047344E0,1.3475628E1,1.0013317E1,7.8179474E0,9.041176E0,1.1073258E1,8.9738865E0,1.2880993E0,1.2194244E1,1.2801674E1,3.297453E-1,3.695966E-1,5.679268E0,4.759829E0,7.781125E0,7.9943776E0,6.760091E0,4.3616705E0,6.3566656E0,3.6411858E-1,5.500173E0,1.2644733E1,4.7845926E0,7.019096E0,6.435253E0,3.956665E0,1.1497744E1,6.7367783E0,7.308428E0,8.906023E0,1.0844383E1,6.8670197E0,6.1493425E0,1.0931793E1,8.29838E0,1.1952023E1,8.007868E0,3.5727673E0,0E0,0E0,0E0,0E0,0E0,0E0,0E0,0E0,0E0,0E0,0E0,0E0,0E0,0E0,0E0,0E0,0E0,0E0,0E0,0E0,0E0,0E0,0E0,0E0,0E0,0E0,0E0,0E0,0E0,0E0,0E0,0E0,0E0,0E0,0E0,0E0,0E0,0E0,0E0,0E0,0E0,0E0,0E0,0E0,0E0,0E0,0E0,0E0,0E0,0E0,0E0,0E0,0E0,0E0,0E0,0E0,0E0,0E0,0E0,0E0,0E0,0E0],"parents":[2147483647,0,0,1,1,2,2,3,3,4,4,5,5,6,6,7,7,8,8,9,9,10,10,11,11,12,12,13,13,14,14,15,15,16,16,17,17,18,18,19,19,20,20,21,21,22,22,23,23,24,24,25,25,26,26,27,27,28,28,29,29,30,30,31,31,32,32,33,33,34,34,35,35,36,36,37,37,38,38,39,39,40,40,41,41,42,42,43,43,44,44,45,45,46,46,47,47,48,48,49,49,50,50,51,51,52,52,53,53,54,54,55,55,56,56,57,57,58,58,59,59,60,60],"right_children":[2,4,6,8,10,12,14,16,18,20,22,24,26,28,30,32,34,36,38,40,42,44,46,48,50,52,54,56,58,60,62,64,66,68,70,72,74,76,78,80,82,84,86,88,90,92,94,96,98,100,102,104,106,108,110,112,114,116,118,120,122,-1,-1,-1,-1,-1,-1,-1,-1,-1,-1,-1,-1,-1,-1,-1,-1,-1,-1,-1,-1,-1,-1,-1,-1,-1,-1,-1,-1,-1,-1,-1,-1,-1,-1,-1,-1,-1,-1,-1,-1,-1,-1,-1,-1,-1,-1,-1,-1,-1,-1,-1,-1,-1,-1,-1,-1,-1,-1,-1,-1,-1,-1],"split_conditions":[8E-1,8.94E1,5E0,4.052E-1,8.95E1,1E0,9.4E1,9.6E1,-3.41342E1,8E0,7E0,2E0,5.05E1,-4.93316E1,9E0,-4.59105E1,-4.50553E1,-3.90684E1,6.72E-1,3.636E-1,2.328E-1,1.44E-1,8.96E1,1.53E1,9.09E1,8.74E1,-5.40684E1,9.176E-1,8.9E1,-4.80158E1,-4.80158E1,5.8E1,-4.18316E1,1.584E-1,9.7E1,-4.22263E1,7E0,5E0,7.9E1,1.524E-1,7.3E1,5.5E1,6.5E1,-5.80158E1,1E0,6E1,1.668E-1,4.17E1,1.66E1,2.96E1,9.1E1,-3.92658E1,3E0,7E1,9.08E1,3.9E1,-5.41342E1,1.179156E2,4.71E1,9.07E1,3.36E1,-6.8499275E-2,-1.2051773E-2,6.432641E-3,-2.8249804E-2,-8.519813E-3,-2.3639046E-2,2.4041029E-2,7.2534636E-2,1.7744355E-2,-1.09617775E-2,-9.083854E-3,3.043213E-2,-6.361145E-2,-7.493795E-3,6.712407E-2,1.2579749E-2,-2.0226939E-2,3.271722E-2,-5.2532632E-2,4.7358748E-2,-6.596688E-2,4.9241283E-3,6.688245E-2,-3.686676E-2,1.9940408E-2,7.096827E-2,-5.08703E-2,3.3393186E-2,-1.2213281E-2,-5.5109557E-2,2.0119382E-2,-6.9532E-2,-1.0959668E-2,3.2878283E-4,1.2294427E-2,-6.4706415E-2,4.6770986E-2,1.6629057E-2,-1.7409211E-2,4.592081E-3,4.55583E-2,1.3729763E-2,3.5744521E-3,-5.2226957E-2,2.005968E-2,5.8846707E-3,1.0802547E-2,5.2519828E-2,1.6106976E-2,4.4484477E-2,-4.5815255E-2,1.1966465E-4,5.0606698E-2,-6.4088553E-3,-5.2613695E-3,7.5150006E-3,-3.2526553E-2,2.041918E-2,-1.9376008E-2,4.2609446E-2,1.5115063E-3,6.511981E-2],"split_indices":[0,28,46,53,28,54,44,44,37,46,46,46,1,37,46,37,37,37,53,53,53,53,28,0,28,28,37,53,44,37,37,44,37,53,44,37,46,46,44,53,44,44,44,37,54,44,53,2,0,2,28,37,46,44,28,44,37,13,1,28,1,0,0,0,0,0,0,0,0,0,0,0,0,0,0,0,0,0,0,0,0,0,0,0,0,0,0,0,0,0,0,0,0,0,0,0,0,0,0,0,0,0,0,0,0,0,0,0,0,0,0,0,0,0,0,0,0,0,0,0,0,0,0],"split_type":[0,0,0,0,0,0,0,0,0,0,0,0,0,0,0,0,0,0,0,0,0,0,0,0,0,0,0,0,0,0,0,0,0,0,0,0,0,0,0,0,0,0,0,0,0,0,0,0,0,0,0,0,0,0,0,0,0,0,0,0,0,0,0,0,0,0,0,0,0,0,0,0,0,0,0,0,0,0,0,0,0,0,0,0,0,0,0,0,0,0,0,0,0,0,0,0,0,0,0,0,0,0,0,0,0,0,0,0,0,0,0,0,0,0,0,0,0,0,0,0,0,0,0],"sum_hessian":[8.946408E3,2.205879E3,6.7405293E3,1.0416343E3,1.1642448E3,3.6370144E3,3.1035151E3,8.788978E2,1.6273645E2,2.8489496E1,1.1357552E3,2.8813215E3,7.556928E2,3.0611868E3,4.2328266E1,8.696771E2,9.220666E0,1.0270851E2,6.002794E1,1.6510685E1,1.197881E1,4.8635812E2,6.493971E2,7.8623364E2,2.095088E3,4.6727155E2,2.884213E2,1.5045896E3,1.5565973E3,3.769243E1,4.6358385E0,3.0712128E2,5.6255585E2,6.626733E0,2.5939329E0,8.798844E1,1.472007E1,3.0032595E1,2.9995346E1,8.604959E0,7.9057264E0,3.991494E0,7.9873166E0,2.2405771E1,4.6395236E2,7.578581E0,6.418185E2,7.3969617E2,4.653747E1,1.8340242E3,2.6106372E2,2.2683355E1,4.445882E2,7.070854E1,2.1771275E2,1.4717197E3,3.2869938E1,1.482379E3,7.4218254E1,1.9250082E1,1.8442345E1,2.4902158E0,2.1456225E0,2.7494019E1,2.7962726E2,2.83318E2,2.7923788E2,1.8165848E0,4.810148E0,1.3969232E0,1.1970098E0,7.8707855E1,9.280584E0,6.7501163E0,7.969953E0,8.896918E0,2.1135677E1,2.026336E1,9.731985E0,1.2449677E0,7.359991E0,2.482911E0,5.4228153E0,1.7981E0,2.193394E0,1.3963683E0,6.590948E0,1.2386588E0,2.1167112E1,4.4697446E2,1.6977896E1,1.3957486E0,6.1828322E0,1.9877411E2,4.430444E2,7.3794824E2,1.7479429E0,2.4804573E1,2.1732899E1,6.0471004E1,1.7735531E3,1.7124908E1,2.439388E2,1.3413643E1,9.2697115E0,2.2155623E2,2.2303195E2,2.4068596E1,4.6639946E1,1.9419469E2,2.351807E1,6.322279E0,1.4653975E3,1.8376614E1,1.4493324E1,1.3428896E3,1.3948933E2,6.210476E1,1.2113493E1,1.0976571E1,8.273512E0,2.595975E0,1.584637E1],"tree_param":{"num_deleted":"0","num_feature":"60","num_nodes":"123","size_leaf_vector":"1"}},{"base_weights":[-6.7709093E-3,-2.0721386E-1,5.6322545E-2,-1.2068048E0,-2.0246603E-1,1.312397E-1,-8.653242E-2,-7.4117504E-2,-1.938313E-2,-2.7242863E-1,-1.4994177E-1,9.550874E-2,2.829009E-1,-4.7431137E-2,-2.826865E-1,-3.4917283E-1,-1.8921123E-1,-3.2144952E-1,-1.1121348E-1,1.776725E-1,3.511278E-2,1.9486181E-1,4.481112E-1,-8.547651E-2,1.777164E-1,-4.4015247E-2,-3.8009638E-1,-5.341203E-2,-4.089869E-1,-1.1459841E-1,-3.7857163E-1,-3.491181E-1,6.56973E-1,-1.7357115E-2,-1.5365501E-1,1.3906008E-1,3.0742982E-1,-3.471834E-2,1.3533749E-1,2.0279688E-1,-1.051411E0,3.557708E-1,7.5419736E-1,-1.6429833E-1,2.1381447E-2,2.5092527E-1,-3.5011813E-1,-3.5010302E-1,6.17548E-2,-1.2612802E0,-3.520835E-1,6.1536874E-3,-2.0612618E-2,-1.8620623E-2,-5.7418652E-2,-9.037877E-3,1.8079238E-2,-1.4278978E-2,-6.126492E-2,-2.3382572E-2,-1.0210308E-2,2.7871698E-3,5.4955937E-2,-2.6153272E-2,1.0130302E-3,1.9809634E-3,-9.745247E-3,5.902748E-3,1.8301103E-2,-5.143496E-2,1.6364764E-2,8.587736E-4,-9.351625E-3,4.566207E-3,1.556508E-2,-2.601257E-2,1.07755205E-2,-1.5312158E-2,-6.435215E-2,3.163715E-2,9.759861E-3,-1.6675321E-2,4.0556557E-2,1.0106826E-2,-1.067163E-2,2.8498264E-3,-1.8902587E-2,4.6504572E-2,1.0527293E-2,2.298886E-3,-4.2379677E-2,1.1067956E-2,-2.6217569E-2,3.764927E-2,-1.0534106E-4,-8.236149E-2,1.7437665E-2,4.5895862E-4,-1.9954264E-2],"categories":[],"categories_nodes":[],"categories_segments":[],"categories_sizes":[],"default_left":[0,0,0,0,0,0,0,0,0,0,0,0,0,0,0,0,0,0,0,0,0,0,0,0,0,0,0,0,0,0,0,0,0,0,0,0,0,0,0,0,0,0,0,0,0,0,0,0,0,0,0,0,0,0,0,0,0,0,0,0,0,0,0,0,0,0,0,0,0,0,0,0,0,0,0,0,0,0,0,0,0,0,0,0,0,0,0,0,0,0,0,0,0,0,0,0,0,0,0],"id":13,"left_children":[1,3,5,7,9,11,13,-1,-1,15,17,19,21,23,25,27,29,31,33,35,37,39,41,43,45,47,49,51,53,55,57,59,61,63,65,67,69,71,73,75,77,79,81,83,85,87,89,91,93,95,97,-1,-1,-1,-1,-1,-1,-1,-1,-1,-1,-1,-1,-1,-1,-1,-1,-1,-1,-1,-1,-1,-1,-1,-1,-1,-1,-1,-1,-1,-1,-1,-1,-1,-1,-1,-1,-1,-1,-1,-1,-1,-1,-1,-1,-1,-1,-1,-1],"loss_changes":[1.133833E2,9.942398E0,7.299173E1,1.6701088E0,7.8138275E0,2.4215652E1,1.7983942E1,0E0,0E0,5.7798386E0,8.088472E0,1.7968124E1,1.2312279E1,1.6784437E1,9.045809E0,8.381542E0,6.192214E0,6.314678E0,3.9780893E0,7.6444054E0,1.462417E1,5.730524E0,8.08633E0,1.41147785E1,1.1035778E1,3.715989E0,6.385933E0,5.1840878E0,1.0253143E1,1.0084524E1,9.438316E0,3.6706638E0,1.6743083E0,5.951822E0,5.4930496E0,5.6025524E0,9.654106E0,9.74027E0,6.6162977E0,5.2159615E0,2.5401592E-1,1.0060144E1,4.457676E0,1.7404667E1,1.015162E1,6.643509E0,6.9210963E0,3.0491204E0,3.782742E0,5.6312428E0,4.580696E0,0E0,0E0,0E0,0E0,0E0,0E0,0E0,0E0,0E0,0E0,0E0,0E0,0E0,0E0,0E0,0E0,0E0,0E0,0E0,0E0,0E0,0E0,0E0,0E0,0E0,0E0,0E0,0E0,0E0,0E0,0E0,0E0,0E0,0E0,0E0,0E0,0E0,0E0,0E0,0E0,0E0,0E0,0E0,0E0,0E0,0E0,0E0,0E0],"parents":[2147483647,0,0,1,1,2,2,3,3,4,4,5,5,6,6,9,9,10,10,11,11,12,12,13,13,14,14,15,15,16,16,17,17,18,18,19,19,20,20,21,21,22,22,23,23,24,24,25,25,26,26,27,27,28,28,29,29,30,30,31,31,32,32,33,33,34,34,35,35,36,36,37,37,38,38,39,39,40,40,41,41,42,42,43,43,44,44,45,45,46,46,47,47,48,48,49,49,50,50],"right_children":[2,4,6,8,10,12,14,-1,-1,16,18,20,22,24,26,28,30,32,34,36,38,40,42,44,46,48,50,52,54,56,58,60,62,64,66,68,70,72,74,76,78,80,82,84,86,88,90,92,94,96,98,-1,-1,-1,-1,-1,-1,-1,-1,-1,-1,-1,-1,-1,-1,-1,-1,-1,-1,-1,-1,-1,-1,-1,-1,-1,-1,-1,-1,-1,-1,-1,-1,-1,-1,-1,-1,-1,-1,-1,-1,-1,-1,-1,-1,-1,-1,-1,-1],"split_conditions":[1.67E1,-6.41342E1,6E0,8E0,7E0,4.51E1,9.09E1,-7.4117504E-2,-1.938313E-2,4.16E1,6.7E0,3E0,1.18E1,9.80036E1,1.01E1,5.7E0,1.04E1,1E0,8E0,1E0,9.09E1,1.17E1,1.1E1,9.2E0,4.57E1,6.9E0,9.90061E1,6E0,-3.90684E1,9.9E0,-5.51868E1,-3.59105E1,9E0,3.52E1,3.76E1,1.44E1,8.98E1,4.52E1,1E0,8.51E1,8.7E0,4.58E1,3.16E1,3.5E0,9.8E0,4.17E1,4.51E1,3.74E1,5E0,4.63E1,1.036764E2,6.1536874E-3,-2.0612618E-2,