{"learner":{"attributes":{"best_iteration":"42","best_score":"0.6724752283363709","scikit_learn":"{\"_estimator_type\": \"classifier\"}"},"feature_names":["b_barrel_rate","b_hard_hit_rate","b_sweet_spot_rate","b_avg_exit_velo","b_gb_rate","b_ld_rate","b_fb_rate","b_whiff_rate","b_chase_rate","b_zone_contact_rate","b_woba_vs_fastball","b_woba_vs_breaking","b_woba_vs_offspeed","b_power_speed_score","b_contact_quality_score","b_iso","b_xiso","b_xwOBA","b_HR_Rate","b_K_Rate","b_BB_Rate","b_Barrel_Rate","p_whiff_rate","p_csw_rate","p_k_rate","p_bb_rate","p_hard_hit_against","p_barrel_against","p_avg_exit_velo_against","p_gb_rate","p_fb_rate","p_fastball_pct","p_breaking_pct","p_offspeed_pct","p_avg_fastball_velo","p_hr_rate_allowed","p_stuff_plus","p_pitcher_quality_score","p_CALC_HR9","matchup_pitch_type_matchup","matchup_velo_matchup","matchup_contact_vs_whiff","matchup_hr_suppression","matchup_overall_matchup","Temp","Wind_Speed","Lineup_Spot","Platoon_Adv","park_hr_factor","park_avg_factor","park_runs_factor","Batter_xwOBA","Pitcher_HR9","Prob","Batter_Archetype_Slugger","Pitcher_Archetype_Slugger","Batter_Archetype_Contact","Pitcher_Archetype_Contact","Batter_Archetype_Balanced","Pitcher_Archetype_Balanced"],"feature_types":["float","float","float","float","float","float","float","float","float","float","float","float","float","float","float","float","float","float","float","float","float","float","float","float","float","float","float","float","float","float","float","float","float","float","float","float","float","float","float","float","float","float","float","float","float","float","int","int","float","float","float","float","float","float","int","int","int","int","int","int"],"gradient_booster":{"model":{"cats":{"enc":[],"feature_segments":[],"sorted_idx":[]},"gbtree_model_param":{"num_parallel_tree":"1","num_trees":"63"},"iteration_indptr":[0,1,2,3,4,5,6,7,8,9,10,11,12,13,14,15,16,17,18,19,20,21,22,23,24,25,26,27,28,29,30,31,32,33,34,35,36,37,38,39,40,41,42,43,44,45,46,47,48,49,50,51,52,53,54,55,56,57,58,59,60,61,62,63],"tree_info":[0,0,0,0,0,0,0,0,0,0,0,0,0,0,0,0,0,0,0,0,0,0,0,0,0,0,0,0,0,0,0,0,0,0,0,0,0,0,0,0,0,0,0,0,0,0,0,0,0,0,0,0,0,0,0,0,0,0,0,0,0,0,0],"trees":[{"base_weights":[-5.003343E-3,-5.580371E-1,1.850296E-1,-8.23837E-1,-4.455181E-1,2.9939967E-1,-2.0832546E-2,-6.103292E-1,-8.7798357E-1,-5.723623E-1,-3.514204E-1,2.6775643E-1,5.2835095E-1,8.764269E-2,-1.4875636E-1,-7.651697E-1,-2.8181753E-1,-9.986849E-1,-7.6051897E-1,-1.9244833E-1,-5.811E-1,-3.8320693E-1,-1.0297414E-1,2.354083E-4,2.860809E-1,2.8700653E-1,6.515323E-1,5.092111E-1,6.895071E-2,5.1033672E-2,-2.6466745E-1,-6.183123E-1,-1.1208745E0,-6.628074E-2,-4.0995815E-1,-1.3088504E0,-9.1669345E-1,-3.8540605E-1,-8.261593E-1,-5.6254065E-1,3.270071E-1,-5.195072E-2,-5.6613135E-1,-2.3684683E-1,-4.388903E-1,3.6162904E-1,-1.9189188E-1,-9.0002984E-2,4.3001607E-1,2.3114972E-1,3.7013265E-1,1.9271216E-1,6.919263E-1,4.786112E-1,8.9291054E-1,1.2304269E-1,7.6152873E-1,4.9006626E-2,3.5201493E-1,2.3359876E-2,8.273451E-1,4.1183863E-2,-3.397677E-1,-3.4372583E-2,-6.2843026E-3,-6.6234685E-2,-3.17332E-2,1.1200793E-2,-1.9309154E-2,-3.9541654E-2,-1.3691855E-2,-6.912886E-2,-2.1674873E-3,-4.0769423E-3,-4.7869194E-2,-5.7369646E-2,-3.9133118E-3,-4.4196054E-2,-1.503286E-2,-3.4189247E-2,3.2597117E-3,-9.594431E-3,3.0793706E-2,-2.886319E-2,-2.3957596E-3,-1.8985754E-2,-4.954343E-3,2.1609634E-2,-2.253977E-2,6.5359673E-3,2.552682E-2,-3.8476493E-2,-4.7507803E-3,-2.394693E-2,-1.6511815E-3,2.8726825E-2,-2.7435238E-2,1.0937455E-2,2.7467132E-2,2.3177182E-2,1.5210377E-2,2.6162624E-2,1.3225212E-3,7.5593973E-3,4.5795802E-2,-3.0002633E-2,2.6357308E-2,3.0211553E-2,5.6656726E-2,1.9308671E-2,-2.5191978E-2,4.3483417E-2,-2.8868109E-2,4.941018E-3,-3.0387107E-3,1.9757789E-2,-3.6779795E-2,3.273676E-2,-6.437526E-4,5.5771727E-2,1.9022593E-2,6.4701894E-3,-5.5272143E-2,-4.7612663E-2,-1.567853E-2],"categories":[],"categories_nodes":[],"categories_segments":[],"categories_sizes":[],"default_left":[0,0,0,0,0,0,0,0,0,0,0,0,0,0,0,0,0,0,0,0,0,0,0,0,0,0,0,0,0,0,0,0,0,0,0,0,0,0,0,0,0,0,0,0,0,0,0,0,0,0,0,0,0,0,0,0,0,0,0,0,0,0,0,0,0,0,0,0,0,0,0,0,0,0,0,0,0,0,0,0,0,0,0,0,0,0,0,0,0,0,0,0,0,0,0,0,0,0,0,0,0,0,0,0,0,0,0,0,0,0,0,0,0,0,0,0,0,0,0,0,0,0,0,0,0],"id":0,"left_children":[1,3,5,7,9,11,13,15,17,19,21,23,25,27,29,31,33,35,37,39,41,43,45,47,49,51,53,55,57,59,61,63,65,67,69,71,73,75,77,79,81,-1,83,85,87,89,91,93,95,97,99,101,103,105,107,109,111,113,115,117,119,121,123,-1,-1,-1,-1,-1,-1,-1,-1,-1,-1,-1,-1,-1,-1,-1,-1,-1,-1,-1,-1,-1,-1,-1,-1,-1,-1,-1,-1,-1,-1,-1,-1,-1,-1,-1,-1,-1,-1,-1,-1,-1,-1,-1,-1,-1,-1,-1,-1,-1,-1,-1,-1,-1,-1,-1,-1,-1,-1,-1,-1,-1,-1],"loss_changes":[7.1885236E2,5.1949646E1,1.1986607E2,5.46521E0,1.4494019E1,2.356836E1,2.5255827E1,5.2928734E0,5.0790405E0,1.6235352E0,5.5630493E0,1.4105103E1,1.1596626E1,7.7266803E0,1.9352415E1,3.1212692E0,9.746878E-1,3.884018E0,4.9235E0,2.7308383E0,2.9110565E0,5.0189285E0,3.4501953E0,7.2311535E0,1.234758E1,5.0489817E0,1.0493225E1,3.9658604E0,5.313991E0,6.585669E0,1.21566925E1,1.7498112E0,1.1518383E0,1.4533002E0,9.528847E-1,3.6216125E0,5.4084167E0,7.769077E0,5.207382E0,6.613569E-1,1.0391395E0,0E0,2.8369598E0,3.4147444E0,4.904793E0,3.9720738E-1,3.8073273E0,3.3992438E0,4.891697E0,6.3162537E0,6.4029694E0,6.1125164E0,2.9199305E0,8.409557E0,6.8081894E0,3.1071756E0,4.1226788E0,4.83667E0,3.199512E0,6.8235497E0,9.3433714E-1,1.0775292E1,6.513237E0,0E0,0E0,0E0,0E0,0E0,0E0,0E0,0E0,0E0,0E0,0E0,0E0,0E0,0E0,0E0,0E0,0E0,0E0,0E0,0E0,0E0,0E0,0E0,0E0,0E0,0E0,0E0,0E0,0E0,0E0,0E0,0E0,0E0,0E0,0E0,0E0,0E0,0E0,0E0,0E0,0E0,0E0,0E0,0E0,0E0,0E0,0E0,0E0,0E0,0E0,0E0,0E0,0E0,0E0,0E0,0E0,0E0,0E0,0E0,0E0,0E0,0E0],"parents":[2147483647,0,0,1,1,2,2,3,3,4,4,5,5,6,6,7,7,8,8,9,9,10,10,11,11,12,12,13,13,14,14,15,15,16,16,17,17,18,18,19,19,20,20,21,21,22,22,23,23,24,24,25,25,26,26,27,27,28,28,29,29,30,30,31,31,32,32,33,33,34,34,35,35,36,36,37,37,38,38,39,39,40,40,42,42,43,43,44,44,45,45,46,46,47,47,48,48,49,49,50,50,51,51,52,52,53,53,54,54,55,55,56,56,57,57,58,58,59,59,60,60,61,61,62,62],"right_children":[2,4,6,8,10,12,14,16,18,20,22,24,26,28,30,32,34,36,38,40,42,44,46,48,50,52,54,56,58,60,62,64,66,68,70,72,74,76,78,80,82,-1,84,86,88,90,92,94,96,98,100,102,104,106,108,110,112,114,116,118,120,122,124,-1,-1,-1,-1,-1,-1,-1,-1,-1,-1,-1,-1,-1,-1,-1,-1,-1,-1,-1,-1,-1,-1,-1,-1,-1,-1,-1,-1,-1,-1,-1,-1,-1,-1,-1,-1,-1,-1,-1,-1,-1,-1,-1,-1,-1,-1,-1,-1,-1,-1,-1,-1,-1,-1,-1,-1,-1,-1,-1,-1,-1,-1],"split_conditions":[1.67E1,6E0,6E0,6.8E0,8.92E1,9.09E1,8E0,6.3E0,4E0,-5.61079E1,4.75E1,8.75E1,4.58E1,-6.01211E1,3.6E1,5.8E0,6.6E0,3.76E1,3.74E1,3.96E1,-5.41342E1,4.17E1,4.77E1,8.2E0,9.09E1,5.07E1,-5.61737E1,4.07194E1,4.87194E1,4.83E1,3.78537E1,8.91E1,5E0,4.27E1,3.56E1,9.4E0,3.89E1,8.73E1,4.73E1,9E0,8E0,-5.195072E-2,1.1E1,8.97E1,4.4E0,4.76E1,9.06E1,3.73761E1,5.06E1,1.19E1,3E0,8.91E1,4.07194E1,3.59433E1,8.6E0,4.02418E1,5.11075E1,-4.46605E1,1E0,8.74E1,3.03E1,9.12E1,8.67E1,-3.4372583E-2,-6.2843026E-3,-6.6234685E-2,-3.17332E-2,1.1200793E-2,-1.9309154E-2,-3.9541654E-2,-1.3691855E-2,-6.912886E-2,-2.1674873E-3,-4.0769423E-3,-4.7869194E-2,-5.7369646E-2,-3.9133118E-3,-4.4196054E-2,-1.503286E-2,-3.4189247E-2,3.2597117E-3,-9.594431E-3,3.0793706E-2,-2.886319E-2,-2.3957596E-3,-1.8985754E-2,-4.954343E-3,2.1609634E-2,-2.253977E-2,6.5359673E-3,2.552682E-2,-3.8476493E-2,-4.7507803E-3,-2.394693E-2,-1.6511815E-3,2.8726825E-2,-2.7435238E-2,1.0937455E-2,2.7467132E-2,2.3177182E-2,1.5210377E-2,2.6162624E-2,1.3225212E-3,7.5593973E-3,4.5795802E-2,-3.0002633E-2,2.6357308E-2,3.0211553E-2,5.6656726E-2,1.9308671E-2,-2.5191978E-2,4.3483417E-2,-2.8868109E-2,4.941018E-3,-3.0387107E-3,1.9757789E-2,-3.6779795E-2,3.273676E-2,-6.437526E-4,5.5771727E-2,1.9022593E-2,6.4701894E-3,-5.5272143E-2,-4.7612663E-2,-1.567853E-2],"split_indices":[1,46,46,27,28,28,46,27,46,37,26,28,26,37,1,27,27,26,26,26,37,26,26,27,3,1,37,14,14,26,14,28,46,26,26,27,26,28,26,46,46,0,27,28,27,26,28,14,1,27,46,3,14,14,27,14,14,37,59,28,1,3,28,0,0,0,0,0,0,0,0,0,0,0,0,0,0,0,0,0,0,0,0,0,0,0,0,0,0,0,0,0,0,0,0,0,0,0,0,0,0,0,0,0,0,0,0,0,0,0,0,0,0,0,0,0,0,0,0,0,0,0,0,0,0],"split_type":[0,0,0,0,0,0,0,0,0,0,0,0,0,0,0,0,0,0,0,0,0,0,0,0,0,0,0,0,0,0,0,0,0,0,0,0,0,0,0,0,0,0,0,0,0,0,0,0,0,0,0,0,0,0,0,0,0,0,0,0,0,0,0,0,0,0,0,0,0,0,0,0,0,0,0,0,0,0,0,0,0,0,0,0,0,0,0,0,0,0,0,0,0,0,0,0,0,0,0,0,0,0,0,0,0,0,0,0,0,0,0,0,0,0,0,0,0,0,0,0,0,0,0,0,0],"sum_hessian":[6.8380654E3,1.7482812E3,5.089784E3,5.1809094E2,1.2301903E3,3.271689E3,1.818095E3,1.0729259E2,4.1079834E2,5.217653E2,7.0842505E2,2.8763232E3,3.9536584E2,9.840053E2,8.3408966E2,7.201831E1,3.5274277E1,1.9890771E2,2.1189061E2,1.2248013E1,5.095173E2,6.2758813E2,8.083688E1,1.8445506E2,2.6918682E3,1.3472813E2,2.606377E2,4.0663403E1,9.433419E2,3.0644528E2,5.2764435E2,5.2911415E1,1.91069E1,1.3717773E1,2.1556501E1,3.845876E1,1.6044896E2,3.2579712E1,1.793109E2,7.103847E0,5.144165E0,1.3962734E1,4.955546E2,1.744117E2,4.5317645E2,1.2492972E1,6.834391E1,1.5310016E2,3.1354912E1,1.6302104E3,1.0616577E3,1.1047707E2,2.4251064E1,1.5359007E2,1.0704763E2,1.6657297E1,2.4006104E1,8.823468E2,6.0995102E1,2.968918E2,9.55345E0,1.0410811E2,4.2353625E2,4.605253E1,6.8588867E0,1.2248013E1,6.8588867E0,7.3488073E0,6.3689666E0,4.4092846E0,1.7147217E1,3.6254116E1,2.2046423E0,7.5937676E0,1.528552E2,8.573608E0,2.4006104E1,1.6093889E2,1.8372019E1,5.879046E0,1.2248013E0,1.959682E0,3.1844833E0,4.850213E2,1.0533291E1,8.475625E1,8.965545E1,5.6340857E0,4.475424E2,5.6340857E0,6.8588867E0,8.818569E0,5.952534E1,1.861698E1,1.3448317E2,2.7680508E1,3.6744037E0,1.570685E3,5.952534E1,4.3676413E2,6.248936E2,3.6254116E1,7.422295E1,7.5937676E0,1.6657297E1,6.1240063E0,1.4746606E2,5.021685E1,5.6830776E1,1.2003052E1,4.654245E0,2.2536343E1,1.4697615E0,6.070115E2,2.7533533E2,5.928038E1,1.7147217E0,1.5187535E1,2.8170428E2,4.899205E0,4.654245E0,9.749418E1,6.613927E0,1.5922416E1,4.0761386E2],"tree_param":{"num_deleted":"0","num_feature":"60","num_nodes":"125","size_leaf_vector":"1"}},{"base_weights":[-9.253605E-4,-5.18245E-1,1.763758E-1,-7.7919036E-1,-4.0876776E-1,2.8542525E-1,-2.0910323E-2,-8.4129125E-1,-5.1601017E-1,-4.3151864E-1,-3.7860435E-2,3.589706E-2,3.1716776E-1,9.148244E-2,-1.5422434E-1,-2.73968E-1,-8.526427E-1,-1.447668E-1,-6.228922E-1,-3.8764933E-1,-5.3904694E-1,3.7394765E-1,-1.13926E-1,-1.733943E-2,4.5035395E-1,2.8225774E-1,4.6648833E-1,-2.1928565E-1,1.3682279E-1,-3.641562E-3,-5.627963E-1,-4.692829E-2,1.6198489E-1,-9.067228E-1,-6.8897384E-1,-3.9026535E-1,3.5692492E-1,-2.989639E-1,-6.907077E-1,-4.2610115E-1,-2.0751895E-1,-5.727432E-1,6.066134E-2,-8.974421E-2,3.9823066E-2,-4.331509E-1,4.758073E-2,-9.171002E-2,3.334502E-1,7.2132623E-1,1.0265564E-2,3.3052883E-1,1.9466332E-1,4.1393986E-1,8.483848E-1,-9.471709E-2,-5.8806217E-1,4.5714757E-1,1.14248626E-1,4.6777317E-1,-6.3967854E-2,8.8864654E-2,-6.09977E-1,-2.5360717E-2,2.7530998E-2,-3.764881E-2,-5.1952686E-2,-5.16783E-2,-2.080719E-2,3.2801848E-2,-2.683652E-2,-1.8706614E-2,2.6755506E-2,-2.3226028E-2,2.0013658E-2,-3.9045893E-2,-1.1428893E-2,-3.0800719E-2,-1.8178262E-2,5.3660427E-3,-1.5991582E-2,-4.16242E-2,-2.500748E-2,-2.810739E-2,1.1274438E-2,2.3333801E-2,-3.1117458E-2,-8.197835E-3,-5.082823E-2,-1.0048834E-2,2.6631495E-2,-3.2058188E-3,-4.231504E-2,3.0326238E-2,-4.891151E-4,-2.653996E-2,4.2224646E-2,-1.5653914E-2,4.113821E-2,1.7258715E-2,2.6565648E-3,-1.542171E-2,1.0684184E-2,2.604015E-2,1.1425964E-2,-3.0126536E-2,4.658583E-2,-2.4478404E-2,2.7228799E-3,1.4236665E-2,-3.437048E-2,3.1599548E-2,-3.3092397E-4,-1.408518E-2,7.184212E-3,-4.5851764E-4,3.0833188E-2,-7.258615E-3,7.897344E-3,-2.171496E-2,2.5312293E-2,-5.324137E-2,-2.5671491E-2],"categories":[],"categories_nodes":[],"categories_segments":[],"categories_sizes":[],"default_left":[0,0,0,0,0,0,0,0,0,0,0,0,0,0,0,0,0,0,0,0,0,0,0,0,0,0,0,0,0,0,0,0,0,0,0,0,0,0,0,0,0,0,0,0,0,0,0,0,0,0,0,0,0,0,0,0,0,0,0,0,0,0,0,0,0,0,0,0,0,0,0,0,0,0,0,0,0,0,0,0,0,0,0,0,0,0,0,0,0,0,0,0,0,0,0,0,0,0,0,0,0,0,0,0,0,0,0,0,0,0,0,0,0,0,0,0,0,0,0,0,0,0,0],"id":1,"left_children":[1,3,5,7,9,11,13,15,17,19,21,23,25,27,29,31,33,35,37,39,41,43,45,47,49,51,53,55,57,59,61,-1,63,65,67,69,71,73,75,77,79,81,83,85,-1,87,89,91,93,95,97,99,101,103,105,107,109,111,113,115,117,119,121,-1,-1,-1,-1,-1,-1,-1,-1,-1,-1,-1,-1,-1,-1,-1,-1,-1,-1,-1,-1,-1,-1,-1,-1,-1,-1,-1,-1,-1,-1,-1,-1,-1,-1,-1,-1,-1,-1,-1,-1,-1,-1,-1,-1,-1,-1,-1,-1,-1,-1,-1,-1,-1,-1,-1,-1,-1,-1,-1,-1],"loss_changes":[6.277304E2,4.9585968E1,1.096624E2,7.9859314E0,1.0385849E1,2.5989227E1,2.7214632E1,2.4405518E0,3.9151554E0,5.2694397E0,2.308571E0,8.206562E0,1.5048187E1,1.3917364E1,5.110994E1,2.9389677E0,2.9743958E0,3.0789762E0,1.5085983E0,5.6494293E0,6.783386E0,2.3268695E0,3.2082076E0,8.646335E0,5.0409813E0,9.926117E0,1.069175E1,5.7265973E0,6.171713E0,1.7321905E1,6.9327393E0,0E0,2.0117648E0,5.3715363E0,9.455864E0,2.8812218E0,1.2897794E0,1.9546629E0,2.481079E0,7.872528E0,5.2563143E0,5.547447E0,2.043394E0,2.1833217E0,0E0,3.1110408E0,5.16542E0,5.6356864E0,5.4407144E0,4.48678E0,4.7624135E0,6.164459E0,8.122049E0,9.504326E0,8.493622E0,5.638909E0,2.934928E0,4.571866E0,9.427398E0,4.912838E0,9.752912E0,3.7085712E0,8.620239E0,0E0,0E0,0E0,0E0,0E0,0E0,0E0,0E0,0E0,0E0,0E0,0E0,0E0,0E0,0E0,0E0,0E0,0E0,0E0,0E0,0E0,0E0,0E0,0E0,0E0,0E0,0E0,0E0,0E0,0E0,0E0,0E0,0E0,0E0,0E0,0E0,0E0,0E0,0E0,0E0,0E0,0E0,0E0,0E0,0E0,0E0,0E0,0E0,0E0,0E0,0E0,0E0,0E0,0E0,0E0,0E0,0E0,0E0,0E0,0E0],"parents":[2147483647,0,0,1,1,2,2,3,3,4,4,5,5,6,6,7,7,8,8,9,9,10,10,11,11,12,12,13,13,14,14,15,15,16,16,17,17,18,18,19,19,20,20,21,21,22,22,23,23,24,24,25,25,26,26,27,27,28,28,29,29,30,30,32,32,33,33,34,34,35,35,36,36,37,37,38,38,39,39,40,40,41,41,42,42,43,43,45,45,46,46,47,47,48,48,49,49,50,50,51,51,52,52,53,53,54,54,55,55,56,56,57,57,58,58,59,59,60,60,61,61,62,62],"right_children":[2,4,6,8,10,12,14,16,18,20,22,24,26,28,30,32,34,36,38,40,42,44,46,48,50,52,54,56,58,60,62,-1,64,66,68,70,72,74,76,78,80,82,84,86,-1,88,90,92,94,96,98,100,102,104,106,108,110,112,114,116,118,120,122,-1,-1,-1,-1,-1,-1,-1,-1,-1,-1,-1,-1,-1,-1,-1,-1,-1,-1,-1,-1,-1,-1,-1,-1,-1,-1,-1,-1,-1,-1,-1,-1,-1,-1,-1,-1,-1,-1,-1,-1,-1,-1,-1,-1,-1,-1,-1,-1,-1,-1,-1,-1,-1,-1,-1,-1,-1,-1,-1,-1],"split_conditions":[1.597E1,6E0,6E0,6.836E-1,4.76E1,2.028E-1,8E0,1.376E-1,5.8E0,9E0,4.78E1,1E0,4.52E1,1.832E-1,9.6E0,-5.00553E1,4.41E1,3.05E1,7.28E-1,6.58E-1,1.17E1,3.64E-1,9.3E0,4.57343E1,4.28687E1,4E0,9.904E-1,9.6E0,4.13551E1,-5.70289E1,8.75E1,-4.692829E-2,9.76E-2,8.3E0,9.4E0,7.044E-1,2E0,7.18E-1,4.58E1,7.2E0,6.7E0,-5.37395E1,1.724E-1,2.392E-1,3.9823066E-2,9E0,9E0,9.33E1,1.888E-1,3.27E1,9.15E1,4.46E1,8.66E1,-5.48579E1,3E0,1.56E-1,1.492E-1,9.7E0,8.68E1,1.92E-1,5.648E-1,-5.03184E1,9.21478E1,-2.5360717E-2,2.7530998E-2,-3.764881E-2,-5.1952686E-2,-5.16783E-2,-2.080719E-2,3.2801848E-2,-2.683652E-2,-1.8706614E-2,2.6755506E-2,-2.3226028E-2,2.0013658E-2,-3.9045893E-2,-1.1428893E-2,-3.0800719E-2,-1.8178262E-2,5.3660427E-3,-1.5991582E-2,-4.16242E-2,-2.500748E-2,-2.810739E-2,1.1274438E-2,2.3333801E-2,-3.1117458E-2,-8.197835E-3,-5.082823E-2,-1.0048834E-2,2.6631495E-2,-3.2058188E-3,-4.231504E-2,3.0326238E-2,-4.891151E-4,-2.653996E-2,4.2224646E-2,-1.5653914E-2,4.113821E-2,1.7258715E-2,2.6565648E-3,-1.542171E-2,1.0684184E-2,2.604015E-2,1.1425964E-2,-3.0126536E-2,4.658583E-2,-2.4478404E-2,2.7228799E-3,1.4236665E-2,-3.437048E-2,3.1599548E-2,-3.3092397E-4,-1.408518E-2,7.184212E-3,-4.5851764E-4,3.0833188E-2,-7.258615E-3,7.897344E-3,-2.171496E-2,2.5312293E-2,-5.324137E-2,-2.5671491E-2],"split_indices":[13,46,46,53,26,53,46,53,27,46,26,54,26,53,0,37,26,26,53,53,27,53,27,14,14,46,53,27,13,37,3,0,53,27,27,53,46,53,26,27,27,37,53,53,0,46,46,3,53,26,3,26,3,37,0,53,53,27,3,53,53,37,13,0,0,0,0,0,0,0,0,0,0,0,0,0,0,0,0,0,0,0,0,0,0,0,0,0,0,0,0,0,0,0,0,0,0,0,0,0,0,0,0,0,0,0,0,0,0,0,0,0,0,0,0,0,0,0,0,0,0,0,0],"split_type":[0,0,0,0,0,0,0,0,0,0,0,0,0,0,0,0,0,0,0,0,0,0,0,0,0,0,0,0,0,0,0,0,0,0,0,0,0,0,0,0,0,0,0,0,0,0,0,0,0,0,0,0,0,0,0,0,0,0,0,0,0,0,0,0,0,0,0,0,0,0,0,0,0,0,0,0,0,0,0,0,0,0,0,0,0,0,0,0,0,0,0,0,0,0,0,0,0,0,0,0,0,0,0,0,0,0,0,0,0,0,0,0,0,0,0,0,0,0,0,0,0,0,0],"sum_hessian":[6.8418867E3,1.745893E3,5.0959937E3,5.1418524E2,1.2317078E3,3.2816326E3,1.8143612E3,4.1424255E2,9.994269E1,1.160369E3,7.1338745E1,3.7058572E2,2.9110466E3,9.845948E2,8.297664E2,8.618963E0,4.056236E2,2.2867905E1,7.707478E1,8.2740845E2,3.3296054E2,1.0512025E1,6.082672E1,3.292519E2,4.133385E1,2.3617725E3,5.4927423E2,1.2487187E2,8.597229E2,6.07044E2,2.2272247E2,2.9574733E0,5.66149E0,3.0147055E2,1.0415305E2,1.5503501E1,7.364404E0,1.4278828E1,6.279596E1,6.807298E2,1.4667862E2,3.1529007E2,1.767047E1,5.387287E0,5.1247377E0,1.9870298E1,4.095642E1,2.722673E2,5.6984585E1,2.5186752E1,1.6147097E1,1.5208804E3,8.408921E2,4.8466843E2,6.4605835E1,9.428149E1,3.0590384E1,5.533104E1,8.043919E2,6.81032E1,5.389408E2,1.497696E1,2.0774551E2,1.9678645E0,3.6936257E0,1.4254588E2,1.5892465E2,4.479163E1,5.9361423E1,1.4765239E0,1.4026977E1,1.2277043E0,6.1366997E0,1.1816693E1,2.462134E0,5.1962734E1,1.0833222E1,1.6643582E2,5.14294E2,3.8578403E1,1.0810021E2,6.6583984E1,2.4870609E2,3.1934242E0,1.4477045E1,2.695277E0,2.69201E0,1.4473212E1,5.397086E0,2.746697E1,1.34894495E1,2.63709E2,8.558266E0,3.130853E1,2.5676052E1,1.959246E0,2.3227507E1,1.1990144E1,4.1569533E0,1.4443788E3,7.650162E1,3.0078741E1,8.1081335E2,3.0631924E2,1.7834918E2,3.1706252E0,6.143521E1,2.5226786E1,6.90547E1,2.9354608E0,2.7654922E1,3.991866E1,1.541238E1,5.5068577E1,7.493233E2,1.642551E1,5.1677692E1,3.9481384E2,1.4412694E2,6.628267E0,8.348693E0,3.461925E1,1.7312627E2],"tree_param":{"num_deleted":"0","num_feature":"60","num_nodes":"123","size_leaf_vector":"1"}},{"base_weights":[-1.3327799E-3,-4.909223E-1,1.738347E-1,-7.7010405E-1,-4.2096844E-1,2.568246E-1,-7.05553E-2,-8.8876534E-1,-6.961374E-1,-4.2787316E-1,2.1413586E-1,3.3789945E-1,1.636794E-1,-7.2136074E-1,-3.787691E-2,-1.0191307E0,-5.933644E-1,-3.5224923E-1,-7.357322E-1,-4.4719562E-1,-1.9940518E-1,5.765292E-2,-1.5346815E-1,1.00463E-1,3.632337E-1,6.99181E-2,2.3160778E-1,-3.4803373E-1,-1.1337305E0,3.4607112E-1,-7.73426E-2,-1.1291908E0,-6.35688E-1,-1.0531079E0,-3.2495475E-1,-7.5193053E-1,7.471986E-2,-7.6388294E-1,-4.417771E-1,-6.2858796E-1,-4.225775E-1,3.4792233E-1,-2.9628167E-1,3.4202147E-1,-1.13499E0,1.3264018E-1,-1.1078148E0,3.2160023E-1,4.774482E-1,-3.2800093E-1,9.365457E-2,1.3049239E-1,3.5267028E-1,-1.0760733E0,-3.1622216E-2,-1.3132721E0,-2.2492407E-1,4.691214E-1,-8.237967E-2,-2.681047E-3,-2.128005E-1,-3.6867786E-2,-6.16196E-2,-2.1658225E-2,-6.596609E-2,-2.9046407E-2,-6.604877E-2,-2.5114357E-2,3.1748753E-2,1.2263431E-3,-5.768598E-2,4.142117E-2,-1.7009975E-2,-3.551958E-2,-5.0795067E-2,-3.507158E-2,-8.535641E-3,-5.8701333E-2,-2.701053E-2,-4.7998156E-2,-2.069306E-2,3.5347335E-2,3.8735897E-3,4.93301E-2,-1.6160792E-2,-1.8048663E-2,3.0987972E-2,-7.760657E-2,-8.781489E-3,-2.7112572E-2,9.498497E-3,-8.650253E-3,-7.164397E-2,1.5127658E-2,2.9177452E-2,2.2506854E-2,4.104507E-2,-3.3463206E-2,1.3225098E-2,-1.3999802E-2,5.731288E-3,-9.158273E-3,7.8462595E-3,1.0769665E-2,2.3488818E-2,-7.486534E-2,-3.317014E-2,4.7560226E-2,-1.26289455E-2,-2.0810263E-2,-7.489212E-2,-2.6983712E-2,2.6794387E-2,1.2333874E-3,3.1942856E-2,-2.3497913E-2,1.3897455E-2,6.5361634E-3,-4.4393255E-3,-4.6326523E-3,-2.9739816E-2],"categories":[],"categories_nodes":[],"categories_segments":[],"categories_sizes":[],"default_left":[0,0,0,0,0,0,0,0,0,0,0,0,0,0,0,0,0,0,0,0,0,0,0,0,0,0,0,0,0,0,0,0,0,0,0,0,0,0,0,0,0,0,0,0,0,0,0,0,0,0,0,0,0,0,0,0,0,0,0,0,0,0,0,0,0,0,0,0,0,0,0,0,0,0,0,0,0,0,0,0,0,0,0,0,0,0,0,0,0,0,0,0,0,0,0,0,0,0,0,0,0,0,0,0,0,0,0,0,0,0,0,0,0,0,0,0,0,0,0,0,0],"id":2,"left_children":[1,3,5,7,9,11,13,15,17,19,21,23,25,27,29,31,33,35,37,39,41,-1,43,45,47,49,51,53,55,57,59,61,63,65,67,69,71,73,75,77,79,81,83,85,87,89,91,93,95,97,99,101,103,105,107,109,111,113,115,117,119,-1,-1,-1,-1,-1,-1,-1,-1,-1,-1,-1,-1,-1,-1,-1,-1,-1,-1,-1,-1,-1,-1,-1,-1,-1,-1,-1,-1,-1,-1,-1,-1,-1,-1,-1,-1,-1,-1,-1,-1,-1,-1,-1,-1,-1,-1,-1,-1,-1,-1,-1,-1,-1,-1,-1,-1,-1,-1,-1,-1],"loss_changes":[5.8571185E2,3.4822754E1,1.0203613E2,2.5355225E0,6.4119263E0,2.8302414E1,2.7107082E1,4.570389E0,2.8180313E0,6.2064514E0,5.7570996E0,1.2034378E1,1.1125961E1,8.988007E0,1.8451479E1,3.158081E0,5.0306387E0,4.365595E0,1.3319702E0,5.602539E0,6.0952907E0,0E0,6.4678254E0,7.7226143E0,8.466812E0,6.9860773E0,1.2366985E1,7.6669774E0,4.357506E0,6.0233984E0,1.11587925E1,1.9248352E0,2.5811539E0,1.206152E0,5.2447653E0,4.1255903E0,4.384533E0,1.7417984E0,1.288132E0,6.8366203E0,5.0366974E0,1.6400557E0,3.6552334E0,1.9957359E0,1.4983263E0,7.4811187E0,1.3205085E0,6.4674225E0,4.153801E0,8.603918E0,5.4836454E0,4.622883E0,7.308342E0,7.6189804E-1,5.524466E0,3.284912E0,1.7046481E0,6.6485043E0,3.7866035E0,8.194267E0,1.7938892E1,0E0,0E0,0E0,0E0,0E0,0E0,0E0,0E0,0E0,0E0,0E0,0E0,0E0,0E0,0E0,0E0,0E0,0E0,0E0,0E0,0E0,0E0,0E0,0E0,0E0,0E0,0E0,0E0,0E0,0E0,0E0,0E0,0E0,0E0,0E0,0E0,0E0,0E0,0E0,0E0,0E0,0E0,0E0,0E0,0E0,0E0,0E0,0E0,0E0,0E0,0E0,0E0,0E0,0E0,0E0,0E0,0E0,0E0,0E0,0E0],"parents":[2147483647,0,0,1,1,2,2,3,3,4,4,5,5,6,6,7,7,8,8,9,9,10,10,11,11,12,12,13,13,14,14,15,15,16,16,17,17,18,18,19,19,20,20,22,22,23,23,24,24,25,25,26,26,27,27,28,28,29,29,30,30,31,31,32,32,33,33,34,34,35,35,36,36,37,37,38,38,39,39,40,40,41,41,42,42,43,43,44,44,45,45,46,46,47,47,48,48,49,49,50,50,51,51,52,52,53,53,54,54,55,55,56,56,57,57,58,58,59,59,60,60],"right_children":[2,4,6,8,10,12,14,16,18,20,22,24,26,28,30,32,34,36,38,40,42,-1,44,46,48,50,52,54,56,58,60,62,64,66,68,70,72,74,76,78,80,82,84,86,88,90,92,94,96,98,100,102,104,106,108,110,112,114,116,118,120,-1,-1,-1,-1,-1,-1,-1,-1,-1,-1,-1,-1,-1,-1,-1,-1,-1,-1,-1,-1,-1,-1,-1,-1,-1,-1,-1,-1,-1,-1,-1,-1,-1,-1,-1,-1,-1,-1,-1,-1,-1,-1,-1,-1,-1,-1,-1,-1,-1,-1,-1,-1,-1,-1,-1,-1,-1,-1,-1,-1],"split_conditions":[2.62E1,5E0,7E0,2.392E-1,1.8E0,4E0,1.516E-1,4E0,2.648E-1,9.552E-1,-5.41342E1,2.072E-1,8.92E1,9E0,4.15633E1,9.04E1,-5.17E1,8.97E1,3.5E-1,6E0,-5.51868E1,5.765292E-2,4.604E-1,9.38E1,9.17E1,1.684E-1,3.496E-1,8.82E1,3.66E1,3.63E1,9.3E0,8.79E1,9.13E1,2.056E-1,2.2E-1,8.82E1,-5.69632E1,8.816E-1,6.736E-1,-5.65684E1,9.76E-2,9.892E-1,8.65E1,-5.06474E1,7.816E-1,1.6E-1,1.9E-1,9.14E1,9.924E-1,4.68E1,8.66E1,5.41283E1,3.44E1,1.376E-1,4.5E0,2.63E1,9.7E0,2.94E1,-5.05816E1,-5.12395E1,9E0,-3.6867786E-2,-6.16196E-2,-2.1658225E-2,-6.596609E-2,-2.9046407E-2,-6.604877E-2,-2.5114357E-2,3.1748753E-2,1.2263431E-3,-5.768598E-2,4.142117E-2,-1.7009975E-2,-3.551958E-2,-5.0795067E-2,-3.507158E-2,-8.535641E-3,-5.8701333E-2,-2.701053E-2,-4.7998156E-2,-2.069306E-2,3.5347335E-2,3.8735897E-3,4.93301E-2,-1.6160792E-2,-1.8048663E-2,3.0987972E-2,-7.760657E-2,-8.781489E-3,-2.7112572E-2,9.498497E-3,-8.650253E-3,-7.164397E-2,1.5127658E-2,2.9177452E-2,2.2506854E-2,4.104507E-2,-3.3463206E-2,1.3225098E-2,-1.3999802E-2,5.731288E-3,-9.158273E-3,7.8462595E-3,1.0769665E-2,2.3488818E-2,-7.486534E-2,-3.317014E-2,4.7560226E-2,-1.26289455E-2,-2.0810263E-2,-7.489212E-2,-2.6983712E-2,2.6794387E-2,1.2333874E-3,3.1942856E-2,-2.3497913E-2,1.3897455E-2,6.5361634E-3,-4.4393255E-3,-4.6326523E-3,-2.9739816E-2],"split_indices":[2,46,46,53,0,46,53,46,53,53,37,53,28,46,13,28,37,28,37,46,37,0,53,3,3,53,53,28,2,2,0,28,28,53,53,28,37,53,53,37,53,53,28,37,53,53,53,28,53,1,3,13,2,53,0,1,0,2,37,37,46,0,0,0,0,0,0,0,0,0,0,0,0,0,0,0,0,0,0,0,0,0,0,0,0,0,0,0,0,0,0,0,0,0,0,0,0,0,0,0,0,0,0,0,0,0,0,0,0,0,0,0,0,0,0,0,0,0,0,0,0],"split_type":[0,0,0,0,0,0,0,0,0,0,0,0,0,0,0,0,0,0,0,0,0,0,0,0,0,0,0,0,0,0,0,0,0,0,0,0,0,0,0,0,0,0,0,0,0,0,0,0,0,0,0,0,0,0,0,0,0,0,0,0,0,0,0,0,0,0,0,0,0,0,0,0,0,0,0,0,0,0,0,0,0,0,0,0,0,0,0,0,0,0,0,0,0,0,0,0,0,0,0,0,0,0,0,0,0,0,0,0,0,0,0,0,0,0,0,0,0,0,0,0,0],"sum_hessian":[6.8276543E3,1.7986531E3,5.0290015E3,3.5837814E2,1.4402749E3,3.7541252E3,1.2748762E3,1.3338268E2,2.2499548E2,1.4251078E3,1.5167214E1,2.005705E3,1.7484202E3,5.9946136E1,1.21493E3,9.084239E1,4.2540276E1,2.4252684E1,2.007428E2,1.3130967E3,1.1201111E2,3.6662664E0,1.1500948E1,1.9385268E2,1.8118523E3,7.353913E2,1.0130288E3,3.2430294E1,2.7515842E1,1.1251748E2,1.1024126E3,6.907176E1,2.1770632E1,1.4603415E1,2.7936861E1,1.2133527E1,1.2119158E1,1.8173975E2,1.9003044E1,1.539825E2,1.1591141E3,1.6454721E1,9.555638E1,8.075721E0,3.4252276E0,1.896913E2,4.161373E0,1.3306278E3,4.8122455E2,4.0676163E1,6.9471515E2,5.5312146E2,4.599074E2,9.097274E0,2.3333021E1,2.2605E1,4.910842E0,8.733897E1,2.5178514E1,7.1135077E2,3.910618E2,1.6097486E1,5.2974277E1,1.8055414E1,3.7152169E0,6.432801E0,8.170613E0,2.3983095E1,3.9537656E0,4.457794E0,7.6757326E0,3.9490662E0,8.170092E0,1.5306934E2,2.8670408E1,8.894878E0,1.0108166E1,1.975797E1,1.3422453E2,1.6758682E1,1.1423555E3,6.376254E0,1.0078466E1,1.2322795E0,9.4324104E1,2.202128E0,5.8735924E0,1.9565946E0,1.4686329E0,1.4189743E1,1.7550156E2,1.4690232E0,2.6923501E0,1.2424412E3,8.8186584E1,4.479171E2,3.3307434E1,2.5728054E1,1.4948111E1,3.6262493E1,6.5845264E2,4.2529278E1,5.1059216E2,2.1302695E2,2.4688045E2,3.2012553E0,5.8960185E0,3.6761925E0,1.9656828E1,4.4127398E0,1.819226E1,3.6793456E0,1.2314963E0,2.4453285E1,6.288568E1,1.1983989E1,1.3194526E1,2.78833E2,4.3251776E2,2.9843796E2,9.262384E1],"tree_param":{"num_deleted":"0","num_feature":"60","num_nodes":"121","size_leaf_vector":"1"}},{"base_weights":[-3.847787E-3,-4.6933424E-1,1.5925983E-1,-6.679443E-1,-3.8505068E-1,2.5223926E-1,-9.892433E-3,-1.1031061E-1,-6.861639E-1,-4.063941E-1,-1.727105E-1,2.2086315E-1,4.7905633E-1,-5.78202E-1,1.7489593E-2,-5.389095E-1,4.3250805E-1,-2.0383357E-3,-6.9969E-1,-8.334206E-1,-3.995856E-1,-3.2422277E-1,3.1246131E-2,1.4884858E-1,3.1303644E-1,4.4048715E-1,1.1694007E0,-1.2739267E0,-4.31654E-1,9.108318E-2,-1.2156579E-1,5.038143E-2,-8.567157E-1,-3.8013823E-2,7.4399E-1,4.4671118E-1,-6.0180575E-2,-2.5666648E-1,-7.1671814E-1,2.164785E-2,-1.0074486E0,-3.6414698E-1,-4.863119E-1,-2.3030216E-1,-9.9322E-1,-1.291394E-1,8.474629E-1,2.3159774E-1,1.5308383E-2,-1.7627926E-1,3.410892E-1,1.054742E0,4.0670398E-1,6.468204E-1,7.0504904E-2,9.255498E-4,-1.4587096E0,-4.8698276E-1,5.5645347E-2,4.988238E-2,2.869408E-1,4.751163E-2,-4.0370712E-1,-5.916052E-2,1.0930995E-2,5.350296E-2,5.312165E-4,5.3342883E-3,5.7316687E-2,-5.0088134E-2,2.684688E-3,-3.6110666E-2,6.1991923E-3,-6.581197E-2,-2.3497238E-3,-2.190122E-2,-1.4816505E-2,-3.365368E-2,-1.5480982E-2,-3.3377115E-2,-5.986381E-3,-5.795412E-2,-8.100563E-3,3.1479593E-2,-1.1121801E-2,4.877606E-2,1.9120382E-2,-2.8588146E-4,1.3348117E-2,-4.306182E-3,1.0791151E-2,-5.6296896E-2,-4.0919106E-3,1.1310171E-2,2.2787733E-2,-1.319091E-2,6.093786E-2,1.789124E-2,3.714508E-2,5.063921E-2,-1.0983857E-3,-7.760716E-2,-1.7482786E-2,-1.2595116E-2,-4.1528385E-2,2.1048777E-2,1.4673282E-3,8.7403795E-3,2.6474306E-2,-3.4713082E-2,4.9734972E-3,-1.5092871E-2,-5.5201262E-2],"categories":[],"categories_nodes":[],"categories_segments":[],"categories_sizes":[],"default_left":[0,0,0,0,0,0,0,0,0,0,0,0,0,0,0,0,0,0,0,0,0,0,0,0,0,0,0,0,0,0,0,0,0,0,0,0,0,0,0,0,0,0,0,0,0,0,0,0,0,0,0,0,0,0,0,0,0,0,0,0,0,0,0,0,0,0,0,0,0,0,0,0,0,0,0,0,0,0,0,0,0,0,0,0,0,0,0,0,0,0,0,0,0,0,0,0,0,0,0,0,0,0,0,0,0,0,0,0,0,0,0,0,0],"id":3,"left_children":[1,3,5,7,9,11,13,15,17,19,21,23,25,27,29,31,33,35,37,39,41,43,45,47,49,51,53,55,57,59,61,-1,63,-1,65,67,-1,69,71,-1,73,75,77,79,81,83,85,87,89,91,93,95,97,99,-1,-1,101,103,-1,105,107,109,111,-1,-1,-1,-1,-1,-1,-1,-1,-1,-1,-1,-1,-1,-1,-1,-1,-1,-1,-1,-1,-1,-1,-1,-1,-1,-1,-1,-1,-1,-1,-1,-1,-1,-1,-1,-1,-1,-1,-1,-1,-1,-1,-1,-1,-1,-1,-1,-1,-1,-1],"loss_changes":[5.188672E2,2.9426788E1,7.959607E1,5.2781525E0,5.5827637E0,2.313501E1,2.7958961E1,4.389221E0,4.7187653E0,2.9600677E0,3.5843406E0,1.9008606E1,1.0028763E1,7.8704376E0,1.755596E1,5.9884048E0,3.7001088E0,6.41105E0,3.589508E0,4.150689E0,3.2553864E0,3.946589E0,6.6825814E0,1.7826046E1,1.73312E1,7.387062E0,1.6475296E0,3.336319E0,6.501006E0,9.037067E0,2.8343872E1,0E0,3.4853845E0,0E0,1.7091832E0,1.9378464E0,0E0,4.6954527E0,2.312271E0,0E0,4.422082E0,3.8623428E0,1.0384125E1,2.800281E0,8.9843607E-1,3.1720686E0,1.2591887E-1,8.361534E0,1.2595327E1,6.085678E0,1.55776825E1,4.432207E0,5.627754E0,2.045005E0,0E0,0E0,7.1486664E-1,5.284296E0,0E0,7.0592127E0,5.2037964E0,1.441285E1,1.5543869E1,0E0,0E0,0E0,0E0,0E0,0E0,0E0,0E0,0E0,0E0,0E0,0E0,0E0,0E0,0E0,0E0,0E0,0E0,0E0,0E0,0E0,0E0,0E0,0E0,0E0,0E0,0E0,0E0,0E0,0E0,0E0,0E0,0E0,0E0,0E0,0E0,0E0,0E0,0E0,0E0,0E0,0E0,0E0,0E0,0E0,0E0,0E0,0E0,0E0,0E0],"parents":[2147483647,0,0,1,1,2,2,3,3,4,4,5,5,6,6,7,7,8,8,9,9,10,10,11,11,12,12,13,13,14,14,15,15,16,16,17,17,18,18,19,19,20,20,21,21,22,22,23,23,24,24,25,25,26,26,27,27,28,28,29,29,30,30,32,32,34,34,35,35,37,37,38,38,40,40,41,41,42,42,43,43,44,44,45,45,46,46,47,47,48,48,49,49,50,50,51,51,52,52,53,53,56,56,57,57,59,59,60,60,61,61,62,62],"right_children":[2,4,6,8,10,12,14,16,18,20,22,24,26,28,30,32,34,36,38,40,42,44,46,48,50,52,54,56,58,60,62,-1,64,-1,66,68,-1,70,72,-1,74,76,78,80,82,84,86,88,90,92,94,96,98,100,-1,-1,102,104,-1,106,108,110,112,-1,-1,-1,-1,-1,-1,-1,-1,-1,-1,-1,-1,-1,-1,-1,-1,-1,-1,-1,-1,-1,-1,-1,-1,-1,-1,-1,-1,-1,-1,-1,-1,-1,-1,-1,-1,-1,-1,-1,-1,-1,-1,-1,-1,-1,-1,-1,-1,-1,-1],"split_conditions":[1.67E1,6E0,6E0,4.8E1,4.65E1,9.09E1,1.54E-1,4.19E1,1.376E-1,9.76E-2,7.6E1,7.6E1,1.464738E2,3.32E1,9.3E0,8.79E1,4.2E1,7.9E1,-6.01211E1,6E0,9E0,7.4E1,1.15E1,4E0,8.73E1,9.1E1,4.6E1,4.5E0,9.2E1,9.07E1,8E0,5.038143E-2,5E0,-3.8013823E-2,4.58E1,7.5E1,-6.0180575E-2,-6.33447E1,9.7E1,2.164785E-2,4.38E1,8.92E1,7.4E1,7.7E0,1.22E1,4.69E1,9E0,2.092E-1,4.33463E1,1.7E-1,4.47E1,3.73761E1,5.07E1,4.35851E1,7.0504904E-2,9.255498E-4,4.56149E1,9E0,5.5645347E-2,1.6E0,4.21522E1,4.07E1,1.41E1,-5.916052E-2,1.0930995E-2,5.350296E-2,5.312165E-4,5.3342883E-3,5.7316687E-2,-5.0088134E-2,2.684688E-3,-3.6110666E-2,6.1991923E-3,-6.581197E-2,-2.3497238E-3,-2.190122E-2,-1.4816505E-2,-3.365368E-2,-1.5480982E-2,-3.3377115E-2,-5.986381E-3,-5.795412E-2,-8.100563E-3,3.1479593E-2,-1.1121801E-2,4.877606E-2,1.9120382E-2,-2.8588146E-4,1.3348117E-2,-4.306182E-3,1.0791151E-2,-5.6296896E-2,-4.0919106E-3,1.1310171E-2,2.2787733E-2,-1.319091E-2,6.093786E-2,1.789124E-2,3.714508E-2,5.063921E-2,-1.0983857E-3,-7.760716E-2,-1.7482786E-2,-1.2595116E-2,-4.1528385E-2,2.1048777E-2,1.4673282E-3,8.7403795E-3,2.6474306E-2,-3.4713082E-2,4.9734972E-3,-1.5092871E-2,-5.5201262E-2],"split_indices":[1,46,46,44,26,28,53,26,53,53,44,44,13,26,0,28,44,44,37,27,46,44,27,46,28,28,26,0,44,28,46,0,46,0,26,44,0,37,44,0,26,28,44,27,27,26,46,53,14,53,1,14,1,14,0,0,14,46,0,0,14,1,0,0,0,0,0,0,0,0,0,0,0,0,0,0,0,0,0,0,0,0,0,0,0,0,0,0,0,0,0,0,0,0,0,0,0,0,0,0,0,0,0,0,0,0,0,0,0,0,0,0,0],"split_type":[0,0,0,0,0,0,0,0,0,0,0,0,0,0,0,0,0,0,0,0,0,0,0,0,0,0,0,0,0,0,0,0,0,0,0,0,0,0,0,0,0,0,0,0,0,0,0,0,0,0,0,0,0,0,0,0,0,0,0,0,0,0,0,0,0,0,0,0,0,0,0,0,0,0,0,0,0,0,0,0,0,0,0,0,0,0,0,0,0,0,0,0,0,0,0,0,0,0,0,0,0,0,0,0,0,0,0,0,0,0,0,0,0],"sum_hessian":[6.832015E3,1.7722844E3,5.059731E3,5.259601E2,1.2463243E3,3.264702E3,1.795029E3,1.6864223E1,5.090959E2,1.1316614E3,1.1466299E2,2.8697031E3,3.949987E2,8.158703E1,1.713442E3,9.427588E0,7.4366364E0,9.892665E0,4.9920322E2,1.5854617E1,1.1158068E3,6.545161E1,4.9211384E1,1.6124884E3,1.2572147E3,3.756494E2,1.934927E1,1.2856929E1,6.87301E1,1.1206794E3,5.9276263E2,1.2370695E0,8.190518E0,1.2415246E0,6.1951118E0,7.6600914E0,2.2325737E0,1.9072216E1,4.8013098E2,1.7357737E0,1.4118844E1,7.9581476E2,3.1999194E2,5.8572807E1,6.8787956E0,4.183303E1,7.3783536E0,9.951205E2,6.17368E2,6.7882225E1,1.1893325E3,1.8007689E1,3.5764172E2,7.2645073E0,1.2084763E1,1.7208073E0,1.1136121E1,6.701425E1,1.7158518E0,9.269418E2,1.9373764E2,3.711669E2,2.2159573E2,6.205945E0,1.9845736E0,3.9705973E0,2.2245147E0,5.9303546E0,1.7297372E0,4.9531703E0,1.4119045E1,4.7715308E2,2.9779055E0,1.04036E1,3.7152438E0,3.7827536E2,4.1753943E2,1.541976E2,1.6579434E2,1.0806015E1,4.7766792E1,5.405674E0,1.4731218E0,3.9512625E0,3.788177E1,4.924649E0,2.453705E0,1.2916853E2,8.659519E2,4.1035626E2,2.070117E2,5.152163E0,6.273006E1,5.955804E2,5.9375214E2,1.9248478E0,1.6082842E1,3.1404724E2,4.3594482E1,4.362805E0,2.9017024E0,9.902364E0,1.2337577E0,4.081905E1,2.61952E1,4.7583473E1,8.793583E2,1.3366333E2,6.007432E1,2.3487667E1,3.4767923E2,1.947095E2,2.6886244E1],"tree_param":{"num_deleted":"0","num_feature":"60","num_nodes":"113","size_leaf_vector":"1"}},{"base_weights":[7.472295E-4,-4.4421488E-1,1.577863E-1,-4.6832013E-1,-2.862858E-1,-9.474002E-2,2.0634106E-1,-4.7128755E-1,2.566378E-1,-3.7121895E-1,1.0324171E-1,-5.189102E-1,-3.0649045E-2,1.6167408E-1,2.998669E-1,-5.104057E-1,-4.1903E-1,7.9391193E-1,-3.0371135E-2,-9.646518E-1,-3.3274478E-1,9.102005E-1,1.6120989E-2,-3.3225262E-1,-8.0997616E-1,-6.306738E-2,4.0689093E-1,1.853705E-1,-7.317432E-3,2.516958E-1,5.305379E-1,-8.089985E-1,-4.8476344E-1,-5.082913E-1,-3.3221385E-1,2.5143248E-3,6.045262E-2,2.414366E-4,-1.1999531E0,-2.6198077E-1,-7.097759E-1,1.4083387E-2,5.7441957E-2,6.273931E-1,-5.34663E-2,-4.2564052E-1,3.7018898E-1,-4.624088E-1,-1.1189095E0,-1.300859E-1,1.853963E-1,5.4784405E-1,-3.2072514E-1,-6.178477E-2,2.050258E-1,-4.719786E-2,6.287799E-1,1.5764974E-1,3.6197156E-1,4.733605E-1,1.1013657E0,-1.4918451E-2,-4.8290666E-2,-2.5262548E-2,-7.88718E-3,-2.134399E-2,-3.9150875E-2,1.3579816E-2,-1.9082138E-2,-3.3156704E-2,-8.36336E-2,-3.013776E-2,-9.740406E-3,-1.8326344E-2,-4.7803752E-2,8.035864E-3,4.8358183E-2,1.08896755E-2,-1.5481836E-2,4.5720846E-3,-2.8291333E-2,-4.630249E-2,4.947422E-2,-4.7086563E-2,3.603375E-4,-7.539732E-2,-2.7550755E-2,-1.3135668E-4,-1.35726705E-2,7.554592E-4,2.7478635E-2,5.4402944E-2,8.552177E-3,2.240332E-2,-4.5901082E-2,1.0649938E-3,-2.4421457E-2,3.434604E-2,9.680954E-3,-6.855228E-3,1.42898215E-2,5.1658135E-2,3.1043327E-4,-1.3470846E-3,1.016002E-2,1.723133E-3,2.0921206E-2,-9.470812E-3,2.568389E-2,4.1684028E-2,6.8659864E-2],"categories":[],"categories_nodes":[],"categories_segments":[],"categories_sizes":[],"default_left":[0,0,0,0,0,0,0,0,0,0,0,0,0,0,0,0,0,0,0,0,0,0,0,0,0,0,0,0,0,0,0,0,0,0,0,0,0,0,0,0,0,0,0,0,0,0,0,0,0,0,0,0,0,0,0,0,0,0,0,0,0,0,0,0,0,0,0,0,0,0,0,0,0,0,0,0,0,0,0,0,0,0,0,0,0,0,0,0,0,0,0,0,0,0,0,0,0,0,0,0,0,0,0,0,0,0,0,0,0,0,0],"id":4,"left_children":[1,3,5,7,9,11,13,15,17,19,21,23,25,27,29,31,33,35,-1,37,39,41,43,45,47,49,51,53,55,57,59,61,63,65,67,-1,-1,-1,69,71,73,-1,-1,75,77,79,81,83,85,87,89,91,93,95,97,99,101,103,105,107,109,-1,-1,-1,-1,-1,-1,-1,-1,-1,-1,-1,-1,-1,-1,-1,-1,-1,-1,-1,-1,-1,-1,-1,-1,-1,-1,-1,-1,-1,-1,-1,-1,-1,-1,-1,-1,-1,-1,-1,-1,-1,-1,-1,-1,-1,-1,-1,-1,-1,-1],"loss_changes":[4.7688766E2,6.643463E0,6.1870926E1,3.4403076E0,7.922991E0,2.21182E1,1.7627548E1,2.9281921E0,3.7028868E0,4.1513004E0,3.0396166E0,5.533869E0,1.0073515E1,1.1477325E1,1.5050064E1,6.3031464E0,4.9735947E0,1.3935633E0,0E0,2.6062918E0,4.7626896E0,3.086722E-1,1.7447758E0,4.5378284E0,3.8890553E0,1.1020527E1,5.2010345E0,1.2222443E1,8.994405E0,1.1685997E1,7.153862E0,5.129734E0,5.332306E0,6.94149E0,1.0230129E1,0E0,0E0,0E0,1.2196579E0,3.4936743E0,2.0781116E0,0E0,0E0,5.089669E-1,2.6412494E0,4.357685E0,7.6356845E0,4.737383E0,3.813549E0,9.38119E0,8.717017E0,8.244379E0,4.352342E0,6.600934E0,1.2666183E1,1.0022777E1,5.2599983E0,5.15882E0,9.607231E0,5.855789E0,3.5826302E-1,0E0,0E0,0E0,0E0,0E0,0E0,0E0,0E0,0E0,0E0,0E0,0E0,0E0,0E0,0E0,0E0,0E0,0E0,0E0,0E0,0E0,0E0,0E0,0E0,0E0,0E0,0E0,0E0,0E0,0E0,0E0,0E0,0E0,0E0,0E0,0E0,0E0,0E0,0E0,0E0,0E0,0E0,0E0,0E0,0E0,0E0,0E0,0E0,0E0,0E0],"parents":[2147483647,0,0,1,1,2,2,3,3,4,4,5,5,6,6,7,7,8,8,9,9,10,10,11,11,12,12,13,13,14,14,15,15,16,16,17,17,19,19,20,20,21,21,22,22,23,23,24,24,25,25,26,26,27,27,28,28,29,29,30,30,31,31,32,32,33,33,34,34,38,38,39,39,40,40,43,43,44,44,45,45,46,46,47,47,48,48,49,49,50,50,51,51,52,52,53,53,54,54,55,55,56,56,57,57,58,58,59,59,60,60],"right_children":[2,4,6,8,10,12,14,16,18,20,22,24,26,28,30,32,34,36,-1,38,40,42,44,46,48,50,52,54,56,58,60,62,64,66,68,-1,-1,-1,70,72,74,-1,-1,76,78,80,82,84,86,88,90,92,94,96,98,100,102,104,106,108,110,-1,-1,-1,-1,-1,-1,-1,-1,-1,-1,-1,-1,-1,-1,-1,-1,-1,-1,-1,-1,-1,-1,-1,-1,-1,-1,-1,-1,-1,-1,-1,-1,-1,-1,-1,-1,-1,-1,-1,-1,-1,-1,-1,-1,-1,-1,-1,-1,-1,-1],"split_conditions":[1.67E1,4.59E1,2.02E-1,9.8E1,6.636E-1,1.54E-1,4.66E1,7.6E1,2.904E-1,1.56E-1,8.4E0,-4.22263E1,1E0,1.13E1,9.07E1,-5.68974E1,8.92E1,1.852E-1,-3.0371135E-2,5.9E1,4.948E-1,7.376E-1,5.7E1,9.14E1,8.64089E1,8.2E1,-4.05158E1,2.94E1,1.19E1,7.5E1,9.92E-1,1.984E-1,1.1E1,8.87E1,7.7E1,2.5143248E-3,6.045262E-2,2.414366E-4,4.64E1,6.2E1,7.3E1,1.4083387E-2,5.7441957E-2,4.5E1,4.68E1,-5.46605E1,3.16E1,3.4E1,4.65E1,9.2E0,4.52E1,3.94E1,1.852E-1,-4.11737E1,1.2E0,3.7E1,1.33E1,9.1E1,8.81E1,-6.33447E1,8.2E1,-1.4918451E-2,-4.8290666E-2,-2.5262548E-2,-7.88718E-3,-2.134399E-2,-3.9150875E-2,1.3579816E-2,-1.9082138E-2,-3.3156704E-2,-8.36336E-2,-3.013776E-2,-9.740406E-3,-1.8326344E-2,-4.7803752E-2,8.035864E-3,4.8358183E-2,1.08896755E-2,-1.5481836E-2,4.5720846E-3,-2.8291333E-2,-4.630249E-2,4.947422E-2,-4.7086563E-2,3.603375E-4,-7.539732E-2,-2.7550755E-2,-1.3135668E-4,-1.35726705E-2,7.554592E-4,2.7478635E-2,5.4402944E-2,8.552177E-3,2.240332E-2,-4.5901082E-2,1.0649938E-3,-2.4421457E-2,3.434604E-2,9.680954E-3,-6.855228E-3,1.42898215E-2,5.1658135E-2,3.1043327E-4,-1.3470846E-3,1.016002E-2,1.723133E-3,2.0921206E-2,-9.470812E-3,2.568389E-2,4.1684028E-2,6.8659864E-2],"split_indices":[1,26,53,44,53,53,1,44,53,53,27,37,54,0,28,37,28,53,0,44,53,53,44,3,13,44,37,2,27,44,53,53,27,28,44,0,0,0,26,44,44,0,0,44,26,37,2,2,1,0,1,26,53,37,0,2,0,3,28,37,44,0,0,0,0,0,0,0,0,0,0,0,0,0,0,0,0,0,0,0,0,0,0,0,0,0,0,0,0,0,0,0,0,0,0,0,0,0,0,0,0,0,0,0,0,0,0,0,0,0,0],"split_type":[0,0,0,0,0,0,0,0,0,0,0,0,0,0,0,0,0,0,0,0,0,0,0,0,0,0,0,0,0,0,0,0,0,0,0,0,0,0,0,0,0,0,0,0,0,0,0,0,0,0,0,0,0,0,0,0,0,0,0,0,0,0,0,0,0,0,0,0,0,0,0,0,0,0,0,0,0,0,0,0,0,0,0,0,0,0,0,0,0,0,0,0,0,0,0,0,0,0,0,0,0,0,0,0,0,0,0,0,0,0,0],"sum_hessian":[6.8227256E3,1.7793109E3,5.0434146E3,1.5419868E3,2.3732399E2,8.131885E2,4.230226E3,1.5360493E3,5.9374995E0,1.9487923E2,4.2444767E1,1.0581063E2,7.073778E2,2.8647703E3,1.3654559E3,8.734491E2,6.626003E2,3.7111104E0,2.226389E0,1.039969E1,1.8447954E2,3.2153056E0,3.922946E1,6.577275E1,4.003788E1,6.593788E2,4.7999012E1,2.5123806E3,3.5238956E2,1.1312979E3,2.341582E2,6.6661064E1,8.06788E2,3.2430573E2,3.3829456E2,1.7312032E0,1.979907E0,2.2224214E0,8.177268E0,1.567537E2,2.7725845E1,1.4848304E0,1.7304752E0,3.190183E0,3.6039276E1,5.840236E1,7.370394E0,2.0015785E1,2.0022095E1,5.1968085E2,1.3969797E2,4.041661E1,7.5823994E0,1.849232E2,2.3274575E3,3.3247092E2,1.9918625E1,6.118908E2,5.19407E2,2.1450171E2,1.9656485E1,1.634387E1,5.0317196E1,7.587106E2,4.8077488E1,2.5214087E2,7.216485E1,2.5257765E1,3.1303677E2,4.9541497E0,3.2231185E0,2.4498232E1,1.3225546E2,1.2622677E1,1.51031685E1,1.9646912E0,1.2254918E0,1.7576872E1,1.8462406E1,1.2530568E1,4.5871788E1,2.2227204E0,5.1476736E0,9.408E0,1.0607786E1,1.0899823E1,9.122272E0,2.738199E2,2.4586096E2,9.589801E1,4.3799953E1,1.5831514E1,2.4585096E1,3.4245017E0,4.157898E0,1.5557635E2,2.9346838E1,5.2448986E1,2.2750085E3,2.6225244E2,7.02185E1,1.167547E1,8.243155E0,1.2118874E2,4.9070206E2,7.66034E1,4.428036E2,1.2088031E1,2.0241368E2,1.1952855E1,7.70363E0],"tree_param":{"num_deleted":"0","num_feature":"60","num_nodes":"111","size_leaf_vector":"1"}},{"base_weights":[1.2873427E-3,-3.9546585E-1,1.4015737E-1,-4.208127E-1,-2.2676577E-1,-9.695016E-2,1.7901585E-1,-4.003882E-1,-6.0351926E-1,-3.115599E-1,1.7018911E-1,-3.754364E-1,-4.788792E-2,1.4832959E-1,3.2699725E-1,3.3414115E-3,-4.063356E-1,-3.2761505E-1,-6.969133E-1,-5.1096153E-1,-2.2211213E-1,4.9284194E-2,9.380315E-2,-8.067062E-1,-1.7369916E-1,3.893728E-1,-6.95784E-2,9.657388E-2,2.1317992E-1,1.928564E-1,4.3218377E-1,-3.2119748E-1,6.422444E-1,-1.2163599E-1,-4.1582948E-1,-1.6793633E-1,-5.204351E-2,5.9203696E-2,-7.3696005E-1,-9.4677526E-1,-2.5568917E-1,-1.0448291E-1,-5.6761724E-1,-2.4248768E-1,2.4389805E-1,-4.681924E-1,-1.3487246E0,2.239417E-1,-4.888303E-1,4.8919252E-1,-3.768897E-2,-4.7496456E-1,-4.062522E-2,-2.8366286E-1,1.10777505E-1,1.3415761E-1,3.0030048E-1,1.3680677E-1,4.90278E-1,3.3995238E-1,6.191783E-1,-6.3219115E-2,5.838825E-3,-2.5606459E-2,5.083669E-2,-2.3394724E-2,2.1295434E-2,-2.2287453E-2,-1.7182004E-2,-1.7737996E-2,4.1313495E-2,-4.309487E-2,-2.6755646E-2,-1.0742116E-2,-5.7072032E-2,-2.5393927E-2,8.877872E-3,-1.8501263E-2,8.3713763E-4,-3.9121797E-3,-3.425106E-2,5.154603E-3,-5.480328E-2,3.760205E-2,-5.7396884E-3,-2.8461754E-2,1.5306689E-2,7.547763E-3,-7.646131E-2,1.878207E-2,-3.3561256E-2,-4.5738943E-2,5.2356557E-3,3.853355E-2,2.757977E-3,4.4742696E-2,-2.9145187E-2,5.2501983E-3,-5.7000867E-3,-3.5069E-2,-3.747609E-3,4.9476568E-3,2.1757526E-2,8.774466E-3,-9.6734855E-3,3.6708903E-2,1.34388525E-2,1.5455338E-2,-1.4001378E-4,4.4399407E-2,1.8764494E-2,3.447528E-2,1.3364933E-2,2.2641502E-3,3.3473473E-2],"categories":[],"categories_nodes":[],"categories_segments":[],"categories_sizes":[],"default_left":[0,0,0,0,0,0,0,0,0,0,0,0,0,0,0,0,0,0,0,0,0,0,0,0,0,0,0,0,0,0,0,0,0,0,0,0,0,0,0,0,0,0,0,0,0,0,0,0,0,0,0,0,0,0,0,0,0,0,0,0,0,0,0,0,0,0,0,0,0,0,0,0,0,0,0,0,0,0,0,0,0,0,0,0,0,0,0,0,0,0,0,0,0,0,0,0,0,0,0,0,0,0,0,0,0,0,0,0,0,0,0,0,0,0,0],"id":5,"left_children":[1,3,5,7,9,11,13,15,17,19,21,23,25,27,29,31,33,35,37,39,41,-1,43,45,47,49,51,53,55,57,59,61,63,65,67,69,-1,-1,71,73,75,77,79,81,83,85,87,89,91,93,-1,95,97,99,101,103,105,107,109,111,113,-1,-1,-1,-1,-1,-1,-1,-1,-1,-1,-1,-1,-1,-1,-1,-1,-1,-1,-1,-1,-1,-1,-1,-1,-1,-1,-1,-1,-1,-1,-1,-1,-1,-1,-1,-1,-1,-1,-1,-1,-1,-1,-1,-1,-1,-1,-1,-1,-1,-1,-1,-1,-1,-1],"loss_changes":[3.7581873E2,7.466614E0,4.656964E1,5.4913635E0,7.9014263E0,9.711441E0,1.9666E1,3.3264465E0,3.7013168E0,3.319641E0,2.5043738E0,9.127043E0,5.7801013E0,1.2054428E1,1.0425858E1,4.5803823E0,3.6380768E0,4.4325995E0,9.388195E0,6.3036184E0,5.4129086E0,0E0,2.038926E0,5.5466366E0,9.36274E0,3.6572533E0,6.7737064E0,1.0847208E1,1.0947212E1,5.42013E0,6.9754944E0,6.201867E0,3.7367685E0,8.816965E0,2.69841E0,6.654139E0,0E0,0E0,2.3457603E0,2.7986374E0,4.293846E0,3.2791204E0,1.8982677E0,3.8312826E0,5.120057E0,1.915772E0,3.5910034E0,4.7787275E0,1.0590311E1,3.2696733E0,0E0,6.2121277E0,5.7958612E0,6.259004E0,7.3642807E0,1.1391073E1,1.01740265E1,6.696417E0,2.0360012E0,6.9583626E0,3.9066963E0,0E0,0E0,0E0,0E0,0E0,0E0,0E0,0E0,0E0,0E0,0E0,0E0,0E0,0E0,0E0,0E0,0E0,0E0,0E0,0E0,0E0,0E0,0E0,0E0,0E0,0E0,0E0,0E0,0E0,0E0,0E0,0E0,0E0,0E0,0E0,0E0,0E0,0E0,0E0,0E0,0E0,0E0,0E0,0E0,0E0,0E0,0E0,0E0,0E0,0E0,0E0,0E0,0E0,0E0],"parents":[2147483647,0,0,1,1,2,2,3,3,4,4,5,5,6,6,7,7,8,8,9,9,10,10,11,11,12,12,13,13,14,14,15,15,16,16,17,17,18,18,19,19,20,20,22,22,23,23,24,24,25,25,26,26,27,27,28,28,29,29,30,30,31,31,32,32,33,33,34,34,35,35,38,38,39,39,40,40,41,41,42,42,43,43,44,44,45,45,46,46,47,47,48,48,49,49,51,51,52,52,53,53,54,54,55,55,56,56,57,57,58,58,59,59,60,60],"right_children":[2,4,6,8,10,12,14,16,18,20,22,24,26,28,30,32,34,36,38,40,42,-1,44,46,48,50,52,54,56,58,60,62,64,66,68,70,-1,-1,72,74,76,78,80,82,84,86,88,90,92,94,-1,96,98,100,102,104,106,108,110,112,114,-1,-1,-1,-1,-1,-1,-1,-1,-1,-1,-1,-1,-1,-1,-1,-1,-1,-1,-1,-1,-1,-1,-1,-1,-1,-1,-1,-1,-1,-1,-1,-1,-1,-1,-1,-1,-1,-1,-1,-1,-1,-1,-1,-1,-1,-1,-1,-1,-1,-1,-1,-1,-1,-1],"split_conditions":[1.67E1,4.59E1,1.964E-1,4.47E1,6.836E-1,1.54E-1,9.07E1,-6.03184E1,2.064E-1,4.68E1,8.99E1,3.85E1,4.57E0,7.6E1,4.58E1,8.2E1,5E1,-5.38711E1,-5.76868E1,-5.33447E1,4.564E-1,4.9284194E-2,9.396E-1,6.3E0,9.65E0,4.59E1,3.7E0,2.86E1,4.42E1,9.2E1,4.65E1,3.96E1,1.928E-1,3.428E-1,4.78E-1,9.09E1,-5.204351E-2,5.9203696E-2,7.4E1,1.748E-1,2.576E-1,-5.97263E1,-6.09763E1,8.816E-1,9.892E-1,4.51E1,5.8E1,9.08E1,3.92E1,-4.63053E1,-3.768897E-2,5.8E1,9.04E0,4.57E0,9.932E-1,9.04E1,-5.69632E1,7.8E0,9.22E1,4.63E1,3E1,-6.3219115E-2,5.838825E-3,-2.5606459E-2,5.083669E-2,-2.3394724E-2,2.1295434E-2,-2.2287453E-2,-1.7182004E-2,-1.7737996E-2,4.1313495E-2,-4.309487E-2,-2.6755646E-2,-1.0742116E-2,-5.7072032E-2,-2.5393927E-2,8.877872E-3,-1.8501263E-2,8.3713763E-4,-3.9121797E-3,-3.425106E-2,5.154603E-3,-5.480328E-2,3.760205E-2,-5.7396884E-3,-2.8461754E-2,1.5306689E-2,7.547763E-3,-7.646131E-2,1.878207E-2,-3.3561256E-2,-4.5738943E-2,5.2356557E-3,3.853355E-2,2.757977E-3,4.4742696E-2,-2.9145187E-2,5.2501983E-3,-5.7000867E-3,-3.5069E-2,-3.747609E-3,4.9476568E-3,2.1757526E-2,8.774466E-3,-9.6734855E-3,3.6708903E-2,1.34388525E-2,1.5455338E-2,-1.4001378E-4,4.4399407E-2,1.8764494E-2,3.447528E-2,1.3364933E-2,2.2641502E-3,3.3473473E-2],"split_indices":[1,26,53,26,53,53,28,37,53,26,28,1,16,44,26,44,44,37,37,37,53,0,53,0,16,26,0,2,1,3,1,26,53,53,53,28,0,0,44,53,53,37,37,53,53,26,44,28,26,37,0,44,16,16,53,28,37,0,3,26,2,0,0,0,0,0,0,0,0,0,0,0,0,0,0,0,0,0,0,0,0,0,0,0,0,0,0,0,0,0,0,0,0,0,0,0,0,0,0,0,0,0,0,0,0,0,0,0,0,0,0,0,0,0,0],"split_type":[0,0,0,0,0,0,0,0,0,0,0,0,0,0,0,0,0,0,0,0,0,0,0,0,0,0,0,0,0,0,0,0,0,0,0,0,0,0,0,0,0,0,0,0,0,0,0,0,0,0,0,0,0,0,0,0,0,0,0,0,0,0,0,0,0,0,0,0,0,0,0,0,0,0,0,0,0,0,0,0,0,0,0,0,0,0,0,0,0,0,0,0,0,0,0,0,0,0,0,0,0,0,0,0,0,0,0,0,0,0,0,0,0,0,0],"sum_hessian":[6.819016E3,1.7674745E3,5.0515415E3,1.5353036E3,2.3217091E2,7.1109155E2,4.34045E3,1.3838019E3,1.515018E2,1.9148306E2,4.068785E1,1.05515274E2,6.055763E2,3.5966343E3,7.438159E2,2.009534E1,1.3637064E3,3.9454224E1,1.1204757E2,5.7837105E1,1.3364597E2,2.4652207E0,3.822263E1,3.267166E1,7.284361E1,2.781899E1,5.777573E2,2.001649E3,1.5949852E3,3.2815906E2,4.1565686E2,1.3655913E1,6.4394274E0,4.4453846E1,1.3192527E3,3.3246643E1,6.2075815E0,1.7402669E0,1.10307304E2,2.0363184E1,3.747392E1,1.0067349E2,3.2972466E1,1.1605251E1,2.6617376E1,2.1258566E1,1.1413095E1,3.2333595E1,4.051002E1,2.6111048E1,1.7079425E0,3.748659E1,5.402707E2,7.1395355E1,1.9302537E3,8.376965E2,7.5728876E2,2.7735162E2,5.080743E1,2.80248E2,1.3540886E2,3.7320304E0,9.9238825E0,1.4872866E0,4.952141E0,2.7321583E1,1.7132265E1,9.290322E2,3.9022043E2,2.8528889E1,4.717756E0,6.611442E1,4.4192883E1,4.719968E0,1.5643216E1,2.3577425E1,1.3896494E1,3.0911068E1,6.976243E1,6.7021995E0,2.6270267E1,8.886631E0,2.71862E0,1.056036E1,1.6057018E1,1.903901E1,2.219558E0,1.2436918E0,1.0169403E1,2.8144455E1,4.1891418E0,2.3269648E1,1.7240372E1,1.5368611E1,1.0742436E1,2.20561E0,3.5280983E1,1.8086996E2,3.5940073E2,2.300074E1,4.8394615E1,1.863624E3,6.6629654E1,7.44268E2,9.3428505E1,4.9784363E1,7.075044E2,1.2359689E2,1.5375473E2,9.887396E0,4.0920033E1,4.6764294E1,2.3348369E2,1.1063106E1,1.2434576E2],"tree_param":{"num_deleted":"0","num_feature":"60","num_nodes":"115","size_leaf_vector":"1"}},{"base_weights":[1.029811E-3,-3.9249894E-1,1.3944797E-1,-5.7319885E-1,-3.1625742E-1,2.099905E-1,-6.575339E-2,-6.342304E-1,-4.3602318E-1,-3.2784387E-1,4.3535233E-2,1.8279324E-1,4.0406722E-1,1.2022398E-3,-2.0923413E-1,8.734326E-2,-6.4961964E-1,2.0665957E-1,-4.9788028E-1,-3.816595E-1,-2.5914615E-1,3.463952E-1,-1.4826448E-1,1.23162195E-1,2.596104E-1,3.756434E-1,1.0557191E0,-1.7927693E-2,4.3824524E-1,-7.5274825E-1,-1.4735095E-1,-2.7067825E-2,4.0208262E-1,-7.312197E-1,-5.282094E-1,6.3016236E-2,-2.1473522E-1,2.043164E-1,-5.3568125E-1,-3.2555172E-1,-5.144089E-1,-3.6491695E-1,-1.7460984E-1,6.0396682E-2,8.8300705E-1,-4.2919114E-1,5.3860426E-2,1.9253755E-1,4.3413572E-2,1.8200605E-1,3.673302E-1,9.2066604E-1,3.4552348E-1,1.1873652E0,-2.4082175E-2,-3.1888206E-2,4.9578604E-1,8.6457545E-1,2.6565498E-1,-8.112773E-1,1.2828286E-1,6.4123094E-2,-2.9955685E-1,-1.6341404E-3,5.3373065E-2,-3.743544E-2,1.4516826E-2,2.0869324E-2,-2.8669864E-2,4.1976497E-2,-2.4152039E-2,4.3179754E-2,-1.5617929E-2,-3.822579E-2,-2.1236023E-2,-4.8487205E-2,-1.5699057E-2,-3.9778218E-2,-2.1803847E-2,-8.971713E-3,-2.644955E-2,2.9296228E-3,-1.5656343E-2,-2.8006589E-2,1.6006025E-2,5.8454264E-2,1.9083854E-2,-6.0607926E-3,-4.5843754E-2,1.709607E-2,-1.771102E-2,-1.4101812E-3,1.1626468E-2,-1.2734326E-3,9.029355E-3,9.484398E-3,-5.2530963E-2,-5.0502457E-3,2.0029662E-2,5.1247515E-2,-2.7116602E-2,8.308183E-3,2.0727737E-2,6.364282E-2,6.360244E-3,4.670128E-2,-1.8786449E-3,1.4798979E-2,6.5176375E-2,5.8224138E-2,-2.0197168E-2,-4.911448E-2,2.0566236E-2,-2.3214487E-2,-5.1274586E-2,2.7907357E-2,-1.8014794E-2,1.4276685E-3,4.317352E-2,-1.0833603E-2,-4.543269E-2],"categories":[],"categories_nodes":[],"categories_segments":[],"categories_sizes":[],"default_left":[0,0,0,0,0,0,0,0,0,0,0,0,0,0,0,0,0,0,0,0,0,0,0,0,0,0,0,0,0,0,0,0,0,0,0,0,0,0,0,0,0,0,0,0,0,0,0,0,0,0,0,0,0,0,0,0,0,0,0,0,0,0,0,0,0,0,0,0,0,0,0,0,0,0,0,0,0,0,0,0,0,0,0,0,0,0,0,0,0,0,0,0,0,0,0,0,0,0,0,0,0,0,0,0,0,0,0,0,0,0,0,0,0,0,0,0,0,0,0,0,0],"id":6,"left_children":[1,3,5,7,9,11,13,15,17,19,21,23,25,27,29,31,33,35,37,39,41,43,45,47,49,51,53,55,57,59,61,-1,63,65,67,-1,69,71,73,75,77,79,81,83,85,87,89,91,93,95,97,99,101,103,-1,105,107,109,111,113,115,117,119,-1,-1,-1,-1,-1,-1,-1,-1,-1,-1,-1,-1,-1,-1,-1,-1,-1,-1,-1,-1,-1,-1,-1,-1,-1,-1,-1,-1,-1,-1,-1,-1,-1,-1,-1,-1,-1,-1,-1,-1,-1,-1,-1,-1,-1,-1,-1,-1,-1,-1,-1,-1,-1,-1,-1,-1,-1,-1],"loss_changes":[3.719779E2,2.4299316E1,7.3142296E1,4.127472E0,5.2331085E0,1.9771347E1,1.2423551E1,4.075012E0,6.6693573E0,4.385437E0,2.3714247E0,1.5081749E1,8.147659E0,7.3878527E0,1.3728319E1,1.8873172E0,3.1250458E0,7.023452E0,4.1166687E0,4.882744E0,4.728245E0,2.3693786E0,1.4514207E0,1.0279011E1,1.1979485E1,6.9634438E0,4.3620663E0,6.0877686E0,2.4969482E0,2.2603436E0,1.1949387E1,0E0,1.8274926E0,3.9578018E0,6.4804726E0,0E0,3.7202346E0,3.143214E0,3.319786E0,3.2682343E0,4.051491E0,7.1221256E0,9.701973E0,2.0119596E0,3.3040333E-1,1.4864491E0,1.9452024E0,8.782196E0,8.190353E0,8.149212E0,9.425552E0,4.0082283E0,5.1552734E0,1.4277039E0,0E0,4.566174E0,3.2390628E0,4.3641467E0,5.4616394E0,2.4485588E0,9.295282E-1,4.4092517E0,1.0692732E1,0E0,0E0,0E0,0E0,0E0,0E0,0E0,0E0,0E0,0E0,0E0,0E0,0E0,0E0,0E0,0E0,0E0,0E0,0E0,0E0,0E0,0E0,0E0,0E0,0E0,0E0,0E0,0E0,0E0,0E0,0E0,0E0,0E0,0E0,0E0,0E0,0E0,0E0,0E0,0E0,0E0,0E0,0E0,0E0,0E0,0E0,0E0,0E0,0E0,0E0,0E0,0E0,0E0,0E0,0E0,0E0,0E0,0E0],"parents":[2147483647,0,0,1,1,2,2,3,3,4,4,5,5,6,6,7,7,8,8,9,9,10,10,11,11,12,12,13,13,14,14,15,15,16,16,17,17,18,18,19,19,20,20,21,21,22,22,23,23,24,24,25,25,26,26,27,27,28,28,29,29,30,30,32,32,33,33,34,34,36,36,37,37,38,38,39,39,40,40,41,41,42,42,43,43,44,44,45,45,46,46,47,47,48,48,49,49,50,50,51,51,52,52,53,53,55,55,56,56,57,57,58,58,59,59,60,60,61,61,62,62],"right_children":[2,4,6,8,10,12,14,16,18,20,22,24,26,28,30,32,34,36,38,40,42,44,46,48,50,52,54,56,58,60,62,-1,64,66,68,-1,70,72,74,76,78,80,82,84,86,88,90,92,94,96,98,100,102,104,-1,106,108,110,112,114,116,118,120,-1,-1,-1,-1,-1,-1,-1,-1,-1,-1,-1,-1,-1,-1,-1,-1,-1,-1,-1,-1,-1,-1,-1,-1,-1,-1,-1,-1,-1,-1,-1,-1,-1,-1,-1,-1,-1,-1,-1,-1,-1,-1,-1,-1,-1,-1,-1,-1,-1,-1,-1,-1,-1,-1,-1,-1,-1,-1],"split_conditions":[1.67E1,6E0,7E0,4.33E1,4.85E1,9.09E1,9.3E0,1.376E-1,8.99E1,7.6E1,7.1E1,7.6E1,1.464738E2,9.884E-1,3.9E1,4E0,3.764E-1,6.9E1,4.9E1,9E0,8.92E1,9E0,7.7E1,4E0,9.06E1,9.1E1,5.22E1,5.0391E1,3.34E1,9.15E1,8E0,-2.7067825E-2,1.304E-1,9.09E1,3.904E-1,6.3016236E-2,2E0,4.47E1,2.372E-1,9.76E-2,8.85E1,8.84E1,8.1E1,5.9E1,6.4E1,7.4E1,9.23E1,2.14E-1,4.33463E1,4.92E1,8.75E1,5E1,2.7E-1,2.47E1,-2.4082175E-2,1.99347E1,9.06E1,4.43015E1,3.45E1,4.02E1,4.86E1,9E1,1.44E1,-1.6341404E-3,5.3373065E-2,-3.743544E-2,1.4516826E-2,2.0869324E-2,-2.8669864E-2,4.1976497E-2,-2.4152039E-2,4.3179754E-2,-1.5617929E-2,-3.822579E-2,-2.1236023E-2,-4.8487205E-2,-1.5699057E-2,-3.9778218E-2,-2.1803847E-2,-8.971713E-3,-2.644955E-2,2.9296228E-3,-1.5656343E-2,-2.8006589E-2,1.6006025E-2,5.8454264E-2,1.9083854E-2,-6.0607926E-3,-4.5843754E-2,1.709607E-2,-1.771102E-2,-1.4101812E-3,1.1626468E-2,-1.2734326E-3,9.029355E-3,9.484398E-3,-5.2530963E-2,-5.0502457E-3,2.0029662E-2,5.1247515E-2,-2.7116602E-2,8.308183E-3,2.0727737E-2,6.364282E-2,6.360244E-3,4.670128E-2,-1.8786449E-3,1.4798979E-2,6.5176375E-2,5.8224138E-2,-2.0197168E-2,-4.911448E-2,2.0566236E-2,-2.3214487E-2,-5.1274586E-2,2.7907357E-2,-1.8014794E-2,1.4276685E-3,4.317352E-2,-1.0833603E-2,-4.543269E-2],"split_indices":[1,46,46,26,26,28,0,53,28,44,44,44,13,53,1,46,53,44,44,46,28,46,44,46,3,28,26,14,1,28,46,0,53,28,53,0,46,26,53,53,28,28,44,44,44,44,28,53,14,1,28,1,53,0,0,13,28,14,1,26,26,44,0,0,0,0,0,0,0,0,0,0,0,0,0,0,0,0,0,0,0,0,0,0,0,0,0,0,0,0,0,0,0,0,0,0,0,0,0,0,0,0,0,0,0,0,0,0,0,0,0,0,0,0,0,0,0,0,0,0,0],"split_type":[0,0,0,0,0,0,0,0,0,0,0,0,0,0,0,0,0,0,0,0,0,0,0,0,0,0,0,0,0,0,0,0,0,0,0,0,0,0,0,0,0,0,0,0,0,0,0,0,0,0,0,0,0,0,0,0,0,0,0,0,0,0,0,0,0,0,0,0,0,0,0,0,0,0,0,0,0,0,0,0,0,0,0,0,0,0,0,0,0,0,0,0,0,0,0,0,0,0,0,0,0,0,0,0,0,0,0,0,0,0,0,0,0,0,0,0,0,0,0,0,0],"sum_hessian":[6.8268457E3,1.7759392E3,5.0509067E3,5.250354E2,1.2509038E3,3.7587349E3,1.2921719E3,3.6085983E2,1.6417554E2,1.2119636E3,3.8940235E1,3.2984438E3,4.602908E2,8.8171094E2,4.1046097E2,7.4378214E0,3.53422E2,1.4208735E1,1.4996681E2,6.7703784E2,5.349257E2,1.4786187E1,2.4154049E1,1.8584127E3,1.4400312E3,4.4256348E2,1.7727337E1,8.4565454E2,3.6056404E1,4.081579E1,3.6964517E2,2.2411177E0,5.196704E0,2.0836003E2,1.4506198E2,3.4904053E0,1.0718329E1,7.435661E0,1.4253114E2,4.7832263E2,1.9871523E2,2.3614601E2,2.987797E2,1.0371194E1,4.4149933E0,9.636794E0,1.4517255E1,9.930869E2,8.653258E2,8.385824E2,6.014488E2,2.162842E1,4.2093506E2,1.6538767E1,1.1885712E0,8.2419446E2,2.1460108E1,9.234948E0,2.6821455E1,3.8347443E1,2.4683425E0,1.5494466E2,2.1470052E2,3.7181234E0,1.4785804E0,2.0511555E2,3.2444801E0,6.2403564E0,1.3882162E2,1.7424875E0,8.975842E0,2.971971E0,4.46369E0,4.4620415E1,9.791073E1,6.978585E0,4.7134402E2,4.130471E1,1.5741052E2,1.118243E2,1.2432172E2,1.1155189E2,1.8722781E2,2.718809E0,7.6523848E0,1.9629121E0,2.4520812E0,6.6719637E0,2.9648306E0,8.6051035E0,5.9121513E0,1.5236711E2,8.4071985E2,5.765988E2,2.8872702E2,8.342295E2,4.3529277E0,3.9749496E1,5.6169934E2,2.0468798E1,1.1596218E0,1.1793041E2,3.0300464E2,1.5118949E1,1.4198172E0,3.866774E0,8.203277E2,1.8299814E1,3.1602938E0,7.5354156E0,1.6995331E0,2.203231E0,2.4618223E1,1.5846484E1,2.2500961E1,1.2373238E0,1.2310188E0,1.4933519E2,5.609465E0,1.9017728E2,2.4523245E1],"tree_param":{"num_deleted":"0","num_feature":"60","num_nodes":"121","size_leaf_vector":"1"}},{"base_weights":[1.6803181E-3,-3.6389974E-1,1.4033042E-1,-4.2672333E-1,-2.8264883E-1,-4.1041963E-2,1.7569081E-1,-3.9055312E-1,-5.548241E-1,-3.0137885E-1,2.6622638E-1,-4.1736528E-1,-1.1071615E-2,1.4853291E-1,3.0859858E-1,-4.5931634E-2,-4.1484892E-1,-5.8874124E-1,3.765254E-1,1.5808293E-1,-3.2093212E-1,7.0564806E-1,-4.110532E-1,-7.578273E-1,-8.723026E-2,-3.6586825E-2,3.8769794E-1,1.1446419E-1,2.2876331E-1,2.6600757E-1,5.6940544E-1,3.246467E-1,-4.0805376E-1,-4.551325E-1,-2.0991258E-1,-6.057531E-1,5.1462406E-1,3.8650215E-2,-3.5810146E-2,-4.4876356E-2,2.6341087E-1,-3.3072603E-1,3.3630675E-1,3.54238E-1,5.909431E-2,-2.1459727E-4,-9.1612554E-1,2.0890507E-1,-8.855517E-1,8.5703576E-1,-3.16207E-1,-5.1495876E-2,4.828836E-1,7.2670296E-2,7.299786E-1,4.3719462E-1,1.0299068E-1,3.5024393E-1,1.8754995E-1,4.2775562E-1,1.8949573E-1,-1.422685E-1,7.3816985E-1,-2.2560738E-3,2.5722489E-2,2.9558513E-2,-2.3759909E-2,-2.4795175E-2,-1.2791331E-2,1.6569371E-3,-2.6218368E-2,-4.3540593E-2,-2.7242461E-2,5.3958025E-2,-2.024454E-2,-2.1823939E-2,1.7286249E-2,4.870798E-2,2.7638057E-3,-1.4478645E-2,-2.2532647E-2,3.2021083E-2,-3.8132887E-2,3.8801145E-2,-4.528601E-3,-4.9335282E-2,2.071402E-2,6.8755075E-3,-8.0115E-2,-2.411954E-2,3.822982E-2,-5.8338117E-2,-1.2015512E-2,5.8588266E-2,-8.129394E-5,-3.399962E-2,5.772181E-3,-1.5977416E-2,-1.2165196E-3,-4.9503813E-3,4.46244E-2,2.1719513E-2,-3.135974E-2,7.6258094E-3,4.5482367E-2,-8.001833E-3,2.6391348E-2,-3.4711372E-2,5.3623123E-3,-1.3237032E-2,1.9271765E-2,6.5264157E-3,1.4862684E-2,1.8732242E-2,6.2547E-2,6.6504367E-3,3.1563975E-2,-4.3916743E-2,1.3596139E-2,3.8875382E-2,-2.2784831E-2],"categories":[],"categories_nodes":[],"categories_segments":[],"categories_sizes":[],"default_left":[0,0,0,0,0,0,0,0,0,0,0,0,0,0,0,0,0,0,0,0,0,0,0,0,0,0,0,0,0,0,0,0,0,0,0,0,0,0,0,0,0,0,0,0,0,0,0,0,0,0,0,0,0,0,0,0,0,0,0,0,0,0,0,0,0,0,0,0,0,0,0,0,0,0,0,0,0,0,0,0,0,0,0,0,0,0,0,0,0,0,0,0,0,0,0,0,0,0,0,0,0,0,0,0,0,0,0,0,0,0,0,0,0,0,0,0,0,0,0,0,0],"id":7,"left_children":[1,3,5,7,9,11,13,15,17,19,21,23,25,27,29,31,33,35,37,39,41,43,45,47,49,51,53,55,57,59,61,63,65,67,69,71,73,-1,75,-1,77,79,81,83,-1,85,87,89,91,93,95,97,99,101,103,105,107,109,111,113,115,117,119,-1,-1,-1,-1,-1,-1,-1,-1,-1,-1,-1,-1,-1,-1,-1,-1,-1,-1,-1,-1,-1,-1,-1,-1,-1,-1,-1,-1,-1,-1,-1,-1,-1,-1,-1,-1,-1,-1,-1,-1,-1,-1,-1,-1,-1,-1,-1,-1,-1,-1,-1,-1,-1,-1,-1,-1,-1,-1],"loss_changes":[3.4585416E2,9.456497E0,3.173439E1,4.676819E0,8.521324E0,9.107606E0,1.4897797E1,6.9049606E0,7.492386E0,7.1881256E0,8.511674E0,6.629428E0,7.638654E0,9.375381E0,7.6409225E0,7.591781E0,6.2808685E0,4.4875565E0,1.4495637E0,3.9165974E0,5.0184937E0,2.4469252E0,2.3866029E0,3.7899857E0,7.054433E0,5.486555E0,4.8154125E0,8.902384E0,5.0622063E0,7.4050674E0,1.1827425E1,1.9903786E0,2.1968603E0,5.1114044E0,9.856672E0,3.069786E0,2.471119E0,0E0,9.4875675E-1,0E0,4.512743E0,3.5792618E0,4.39515E0,2.186705E0,0E0,3.4113696E0,3.9503798E0,1.9885284E0,4.4336014E0,1.7294693E0,4.15825E0,4.9906883E0,4.80079E0,6.5055585E0,2.0948963E0,4.558056E0,7.995228E0,5.692236E0,4.7586555E0,7.989292E0,1.0208761E1,6.198122E0,4.067028E0,0E0,0E0,0E0,0E0,0E0,0E0,0E0,0E0,0E0,0E0,0E0,0E0,0E0,0E0,0E0,0E0,0E0,0E0,0E0,0E0,0E0,0E0,0E0,0E0,0E0,0E0,0E0,0E0,0E0,0E0,0E0,0E0,0E0,0E0,0E0,0E0,0E0,0E0,0E0,0E0,0E0,0E0,0E0,0E0,0E0,0E0,0E0,0E0,0E0,0E0,0E0,0E0,0E0,0E0,0E0,0E0,0E0,0E0],"parents":[2147483647,0,0,1,1,2,2,3,3,4,4,5,5,6,6,7,7,8,8,9,9,10,10,11,11,12,12,13,13,14,14,15,15,16,16,17,17,18,18,19,19,20,20,21,21,22,22,23,23,24,24,25,25,26,26,27,27,28,28,29,29,30,30,31,31,32,32,33,33,34,34,35,35,36,36,38,38,40,40,41,41,42,42,43,43,45,45,46,46,47,47,48,48,49,49,50,50,51,51,52,52,53,53,54,54,55,55,56,56,57,57,58,58,59,59,60,60,61,61,62,62],"right_children":[2,4,6,8,10,12,14,16,18,20,22,24,26,28,30,32,34,36,38,40,42,44,46,48,50,52,54,56,58,60,62,64,66,68,70,72,74,-1,76,-1,78,80,82,84,-1,86,88,90,92,94,96,98,100,102,104,106,108,110,112,114,116,118,120,-1,-1,-1,-1,-1,-1,-1,-1,-1,-1,-1,-1,-1,-1,-1,-1,-1,-1,-1,-1,-1,-1,-1,-1,-1,-1,-1,-1,-1,-1,-1,-1,-1,-1,-1,-1,-1,-1,-1,-1,-1,-1,-1,-1,-1,-1,-1,-1,-1,-1,-1,-1,-1,-1,-1,-1,-1,-1],"split_conditions":[2.7E1,7.6E1,2.02E-1,1.04E1,1.8E0,8.62E1,9.07E1,-5.46605E1,-5.34763E1,-6.01211E1,8.7E1,1.7E-1,1E0,9.1E1,1E0,2.756E-1,6.884E-1,4.17394E1,1.736E-1,1.712E-1,9.6E1,2E0,3.324E-1,3.5E1,6.8E1,9E1,4.68E1,-5.86737E1,9.51681E1,6.8E0,9E1,1.944E-1,-5.72263E1,9.4E0,8.8E0,1.07E1,9.05E1,3.8650215E-2,6.9E1,-4.4876356E-2,2.248E-1,8.7E1,6.736E-1,8.1E1,5.909431E-2,2E0,2E0,8.61E1,4.68E1,4.58E1,7.5E1,1.492E-1,1.82E-1,8.98E1,1.812E-1,6.4E1,8.43E1,5.5E1,9.3E0,4.64E1,9.904E-1,3.47E1,1.23E1,-2.2560738E-3,2.5722489E-2,2.9558513E-2,-2.3759909E-2,-2.4795175E-2,-1.2791331E-2,1.6569371E-3,-2.6218368E-2,-4.3540593E-2,-2.7242461E-2,5.3958025E-2,-2.024454E-2,-2.1823939E-2,1.7286249E-2,4.870798E-2,2.7638057E-3,-1.4478645E-2,-2.2532647E-2,3.2021083E-2,-3.8132887E-2,3.8801145E-2,-4.528601E-3,-4.9335282E-2,2.071402E-2,6.8755075E-3,-8.0115E-2,-2.411954E-2,3.822982E-2,-5.8338117E-2,-1.2015512E-2,5.8588266E-2,-8.129394E-5,-3.399962E-2,5.772181E-3,-1.5977416E-2,-1.2165196E-3,-4.9503813E-3,4.46244E-2,2.1719513E-2,-3.135974E-2,7.6258094E-3,4.5482367E-2,-8.001833E-3,2.6391348E-2,-3.4711372E-2,5.3623123E-3,-1.3237032E-2,1.9271765E-2,6.5264157E-3,1.4862684E-2,1.8732242E-2,6.2547E-2,6.6504367E-3,3.1563975E-2,-4.3916743E-2,1.3596139E-2,3.8875382E-2,-2.2784831E-2],"split_indices":[2,44,53,27,0,28,28,37,37,37,44,53,54,3,54,53,53,13,53,53,44,0,53,1,44,44,1,37,13,0,3,53,37,27,27,27,28,0,44,0,53,44,53,44,0,0,0,3,1,1,44,53,53,28,53,44,3,44,27,1,53,2,27,0,0,0,0,0,0,0,0,0,0,0,0,0,0,0,0,0,0,0,0,0,0,0,0,0,0,0,0,0,0,0,0,0,0,0,0,0,0,0,0,0,0,0,0,0,0,0,0,0,0,0,0,0,0,0,0,0,0],"split_type":[0,0,0,0,0,0,0,0,0,0,0,0,0,0,0,0,0,0,0,0,0,0,0,0,0,0,0,0,0,0,0,0,0,0,0,0,0,0,0,0,0,0,0,0,0,0,0,0,0,0,0,0,0,0,0,0,0,0,0,0,0,0,0,0,0,0,0,0,0,0,0,0,0,0,0,0,0,0,0,0,0,0,0,0,0,0,0,0,0,0,0,0,0,0,0,0,0,0,0,0,0,0,0,0,0,0,0,0,0,0,0,0,0,0,0,0,0,0,0,0,0],"sum_hessian":[6.8212275E3,1.8752125E3,4.946015E3,1.0551293E3,8.200832E2,8.0692615E2,4.139089E3,8.259616E2,2.2916768E2,7.934579E2,2.6625338E1,5.856961E1,7.4835657E2,3.4385796E3,7.005094E2,5.4585754E1,7.7137585E2,2.2147021E2,7.697469E0,3.2099537E1,7.6135834E2,1.612287E1,1.0502468E1,2.8196049E1,3.037356E1,7.042063E2,4.4150288E1,2.415358E3,1.0232217E3,6.039082E2,9.660116E1,2.7029032E1,2.7556723E1,6.436375E2,1.2773833E2,2.1855154E2,2.9186635E0,3.4782655E0,4.2192035E0,2.229903E0,2.9869637E1,7.5066895E2,1.0689389E1,1.0280699E1,5.842171E0,6.3431854E0,4.1592827E0,3.2163377E0,2.4979712E1,5.3925576E0,2.4981E1,6.854348E2,1.8771439E1,2.3621702E1,2.0528584E1,8.1647514E1,2.3337104E3,2.5730136E2,7.659203E2,1.9245741E2,4.114508E2,1.8546818E1,7.805434E1,9.426637E0,1.7602394E1,1.2437117E0,2.6313011E1,5.3309656E2,1.1054095E2,7.25539E1,5.518443E1,3.8350212E1,1.8020134E2,1.7008233E0,1.2178403E0,1.9877566E0,2.231447E0,5.9320736E0,2.3937563E1,5.6142834E2,1.892406E2,8.699295E0,1.9900936E0,4.894726E0,5.3859725E0,1.4682574E0,4.874928E0,1.9557638E0,2.2035189E0,1.4920695E0,1.7242682E0,1.6834572E1,8.145141E0,3.6793175E0,1.71324E0,1.324396E1,1.1737041E1,6.208223E1,6.233526E2,8.068073E0,1.0703364E1,1.5823018E1,7.798685E0,5.310215E0,1.5218369E1,1.0656912E1,7.09906E1,1.1530371E1,2.3221802E3,1.3573608E1,2.4372775E2,5.0540927E2,2.6051105E2,1.8215982E2,1.0297596E1,3.659598E2,4.5490993E1,6.2749305E0,1.2271887E1,7.5902115E1,2.1522233E0],"tree_param":{"num_deleted":"0","num_feature":"60","num_nodes":"121","size_leaf_vector":"1"}},{"base_weights":[5.334544E-3,-3.6051115E-1,1.3269408E-1,-5.5887794E-1,-2.7686453E-1,2.191392E-1,-2.2433743E-2,-3.7212497E-1,-6.0971147E-1,-9.446433E-1,-2.6875243E-1,1.1811039E-2,2.4527465E-1,-4.978927E-1,4.5237376E-4,-4.1588047E-1,9.3818736E-1,-2.7647173E-1,-6.421588E-1,-1.6362293E-1,-1.1555535E0,-5.6286573E-1,-2.5358883E-1,-3.36212E-2,3.9275154E-1,2.3071611E-1,5.11347E-1,-3.181602E-1,-7.672345E-1,7.197788E-2,-8.8803895E-2,-5.1029307E-1,8.955737E-3,1.7994808E-2,5.7047527E-2,-5.7199603E-1,4.3213227E-1,-7.0211554E-1,-3.7703678E-1,-3.4573223E-2,3.0682314E-2,-4.794352E-1,-1.3989583E0,-7.219614E-1,1.8521675E-1,5.206457E-2,-2.7208203E-1,-7.998335E-2,3.6318803E-1,7.657606E-1,9.52216E-2,2.0537744E-1,3.8575584E-1,4.411186E-1,8.0385023E-1,-8.778649E-1,-1.3236664E-1,-1.3606228E0,-3.6946863E-1,4.4302854E-1,4.5999877E-2,-7.7987736E-4,-3.2702562E-1,-1.032675E-2,-3.3190224E-2,2.4399662E-2,-1.9117905E-2,-8.417468E-3,-5.259887E-2,-5.2626184E-3,4.0606994E-2,-1.1409764E-2,-3.6766168E-2,-1.0659877E-2,-5.1227342E-2,9.580272E-3,-3.9816078E-2,-2.8264174E-2,-7.73935E-2,-4.7869395E-2,-3.7902344E-3,5.2711066E-2,-1.9509329E-2,-4.2532988E-2,7.2841235E-3,-1.1155204E-2,-1.9830918E-2,1.697638E-3,-1.2693109E-2,8.13672E-3,4.9957387E-2,4.9618084E-2,-9.529988E-3,-1.7300334E-2,1.9126607E-2,1.3610961E-2,7.7633657E-3,1.4782168E-2,3.1459775E-2,4.968657E-2,1.9781312E-2,1.622093E-2,4.985782E-2,2.9207548E-2,-5.4368414E-2,4.118388E-3,-2.071609E-2,-2.2208152E-2,-7.442236E-2,2.6921308E-2,-4.064104E-2,-3.185157E-2,2.5542578E-2,-4.704378E-2,2.7044031E-3,1.9123036E-2,-2.5900363E-3,-8.858177E-3,-2.777197E-2],"categories":[],"categories_nodes":[],"categories_segments":[],"categories_sizes":[],"default_left":[0,0,0,0,0,0,0,0,0,0,0,0,0,0,0,0,0,0,0,0,0,0,0,0,0,0,0,0,0,0,0,0,0,0,0,0,0,0,0,0,0,0,0,0,0,0,0,0,0,0,0,0,0,0,0,0,0,0,0,0,0,0,0,0,0,0,0,0,0,0,0,0,0,0,0,0,0,0,0,0,0,0,0,0,0,0,0,0,0,0,0,0,0,0,0,0,0,0,0,0,0,0,0,0,0,0,0,0,0,0,0,0,0,0,0,0,0,0,0],"id":8,"left_children":[1,3,5,7,9,11,13,15,17,19,21,23,25,27,29,31,33,35,37,39,41,43,45,47,49,51,53,55,57,59,61,63,65,-1,-1,67,69,71,73,-1,-1,75,77,79,81,83,85,87,89,91,93,95,97,99,101,103,105,107,109,111,113,115,117,-1,-1,-1,-1,-1,-1,-1,-1,-1,-1,-1,-1,-1,-1,-1,-1,-1,-1,-1,-1,-1,-1,-1,-1,-1,-1,-1,-1,-1,-1,-1,-1,-1,-1,-1,-1,-1,-1,-1,-1,-1,-1,-1,-1,-1,-1,-1,-1,-1,-1,-1,-1,-1,-1,-1,-1],"loss_changes":[3.1758545E2,2.9050003E1,6.780482E1,4.719803E0,6.46344E0,1.7590149E1,1.9696943E1,6.929249E0,4.234253E0,2.1970081E0,5.327408E0,6.3218794E0,1.1050705E1,3.780157E0,1.10380945E1,4.4592133E0,5.7541847E-2,8.196231E0,5.63356E0,2.1658876E0,1.1791201E0,7.1933384E0,6.6175613E0,6.0374174E0,4.246473E0,1.0667206E1,2.7011452E0,5.246248E0,7.182976E0,9.23158E0,1.6128555E1,4.100878E0,4.1561995E0,0E0,0E0,5.0961742E0,2.4831994E0,4.576538E0,7.2710238E0,0E0,0E0,1.1087956E0,8.632946E-2,7.399355E0,6.010842E0,5.8274813E0,6.631569E0,5.818198E0,4.215998E0,3.900875E0,3.0217524E0,7.8402405E0,8.218723E0,2.678196E0,2.2329483E0,4.517214E0,2.449475E0,8.2606125E-1,8.837106E0,4.917428E0,7.2199044E0,1.102126E1,7.0053062E0,0E0,0E0,0E0,0E0,0E0,0E0,0E0,0E0,0E0,0E0,0E0,0E0,0E0,0E0,0E0,0E0,0E0,0E0,0E0,0E0,0E0,0E0,0E0,0E0,0E0,0E0,0E0,0E0,0E0,0E0,0E0,0E0,0E0,0E0,0E0,0E0,0E0,0E0,0E0,0E0,0E0,0E0,0E0,0E0,0E0,0E0,0E0,0E0,0E0,0E0,0E0,0E0,0E0,0E0,0E0,0E0],"parents":[2147483647,0,0,1,1,2,2,3,3,4,4,5,5,6,6,7,7,8,8,9,9,10,10,11,11,12,12,13,13,14,14,15,15,16,16,17,17,18,18,19,19,20,20,21,21,22,22,23,23,24,24,25,25,26,26,27,27,28,28,29,29,30,30,31,31,32,32,35,35,36,36,37,37,38,38,41,41,42,42,43,43,44,44,45,45,46,46,47,47,48,48,49,49,50,50,51,51,52,52,53,53,54,54,55,55,56,56,57,57,58,58,59,59,60,60,61,61,62,62],"right_children":[2,4,6,8,10,12,14,16,18,20,22,24,26,28,30,32,34,36,38,40,42,44,46,48,50,52,54,56,58,60,62,64,66,-1,-1,68,70,72,74,-1,-1,76,78,80,82,84,86,88,90,92,94,96,98,100,102,104,106,108,110,112,114,116,118,-1,-1,-1,-1,-1,-1,-1,-1,-1,-1,-1,-1,-1,-1,-1,-1,-1,-1,-1,-1,-1,-1,-1,-1,-1,-1,-1,-1,-1,-1,-1,-1,-1,-1,-1,-1,-1,-1,-1,-1,-1,-1,-1,-1,-1,-1,-1,-1,-1,-1,-1,-1,-1,-1,-1,-1],"split_conditions":[1.597E1,6E0,6E0,6.9E0,9.76E-2,2.02E-1,1.54E-1,9.2E1,8.79E1,-5.34763E1,8.73E1,1E0,9E1,8.6618E1,8E0,7.532E-1,3.596E-1,7.8E1,9.08E1,7.4E1,8.86E1,3.392E-1,1.492E-1,4.71672E1,1.29E1,9.08E1,1E0,7.2E0,1.035236E2,4.13551E1,9.5E0,2.668E-1,7.1E1,1.7994808E-2,5.7047527E-2,2.256E-1,8.74E1,5.3E1,-5.045E1,-3.4573223E-2,3.0682314E-2,7.3E1,7E0,8.1E1,7.3E1,6.4E0,9E0,9.70324E1,1.05E1,1.956E-1,7.3E0,3E0,1.105714E2,-5.83447E1,7.3E0,5.3E1,9E0,7E0,1.104461E2,5.4E1,4.15985E1,-5.70289E1,9E0,-1.032675E-2,-3.3190224E-2,2.4399662E-2,-1.9117905E-2,-8.417468E-3,-5.259887E-2,-5.2626184E-3,4.0606994E-2,-1.1409764E-2,-3.6766168E-2,-1.0659877E-2,-5.1227342E-2,9.580272E-3,-3.9816078E-2,-2.8264174E-2,-7.73935E-2,-4.7869395E-2,-3.7902344E-3,5.2711066E-2,-1.9509329E-2,-4.2532988E-2,7.2841235E-3,-1.1155204E-2,-1.9830918E-2,1.697638E-3,-1.2693109E-2,8.13672E-3,4.9957387E-2,4.9618084E-2,-9.529988E-3,-1.7300334E-2,1.9126607E-2,1.3610961E-2,7.7633657E-3,1.4782168E-2,3.1459775E-2,4.968657E-2,1.9781312E-2,1.622093E-2,4.985782E-2,2.9207548E-2,-5.4368414E-2,4.118388E-3,-2.071609E-2,-2.2208152E-2,-7.442236E-2,2.6921308E-2,-4.064104E-2,-3.185157E-2,2.5542578E-2,-4.704378E-2,2.7044031E-3,1.9123036E-2,-2.5900363E-3,-8.858177E-3,-2.777197E-2],"split_indices":[13,46,46,27,53,53,53,44,28,37,28,54,44,13,46,53,53,44,28,44,28,53,53,14,0,28,54,27,13,13,0,53,44,0,0,53,28,44,37,0,0,44,46,44,44,27,46,13,27,53,27,46,13,37,27,44,46,46,13,44,13,37,46,0,0,0,0,0,0,0,0,0,0,0,0,0,0,0,0,0,0,0,0,0,0,0,0,0,0,0,0,0,0,0,0,0,0,0,0,0,0,0,0,0,0,0,0,0,0,0,0,0,0,0,0,0,0,0,0],"split_type":[0,0,0,0,0,0,0,0,0,0,0,0,0,0,0,0,0,0,0,0,0,0,0,0,0,0,0,0,0,0,0,0,0,0,0,0,0,0,0,0,0,0,0,0,0,0,0,0,0,0,0,0,0,0,0,0,0,0,0,0,0,0,0,0,0,0,0,0,0,0,0,0,0,0,0,0,0,0,0,0,0,0,0,0,0,0,0,0,0,0,0,0,0,0,0,0,0,0,0,0,0,0,0,0,0,0,0,0,0,0,0,0,0,0,0,0,0,0,0],"sum_hessian":[6.8139985E3,1.7590942E3,5.0549043E3,5.200713E2,1.2390231E3,3.2457783E3,1.8091259E3,1.1305364E2,4.070176E2,1.3485241E1,1.2255378E3,3.6351617E2,2.882262E3,8.2129555E1,1.7269963E3,1.1006097E2,2.9926746E0,3.695933E1,3.700583E2,3.2448921E0,1.0240349E1,5.8316227E1,1.1672216E3,3.2559622E2,3.7919952E1,2.7345066E3,1.4775554E2,5.056718E1,3.156237E1,9.588309E2,7.6816547E2,8.9884514E1,2.0176458E1,1.4972883E0,1.4953864E0,2.6217903E1,1.0741428E1,3.0046136E2,6.9596924E1,1.9982668E0,1.2466254E0,3.4968028E0,6.743546E0,4.811786E1,1.0198368E1,6.6488785E1,1.1007328E3,2.9224905E2,3.3347183E1,1.612746E1,2.1792494E1,2.3523748E3,3.8213174E2,1.2117113E2,2.6584414E1,1.1674052E1,3.889313E1,1.1695029E1,1.986734E1,6.168689E1,8.97144E2,5.6164014E2,2.0652534E2,3.09628E1,5.892171E1,8.960344E0,1.1216114E1,1.497512E1,1.12427845E1,4.748873E0,5.992555E0,2.0190289E1,2.802711E2,5.6603752E1,1.299317E1,1.2484423E0,2.2483606E0,1.7488414E0,4.9947047E0,3.4914963E1,1.3202896E1,3.7311873E0,6.4671803E0,5.4875712E0,6.1001213E1,7.920319E2,3.0870087E2,1.7704378E2,1.1520527E2,2.6310148E1,7.0370345E0,1.3007747E1,3.1197143E0,8.51364E0,1.3278852E1,1.0060178E3,1.3463569E3,2.8051117E2,1.0162056E2,7.6309733E0,1.1354015E2,8.408411E0,1.8176003E1,1.2390556E0,1.0434997E1,2.248025E1,1.641288E1,1.9792489E0,9.71578E0,6.4482327E0,1.3419108E1,3.148913E0,5.8537975E1,6.3554883E0,8.9078845E2,6.522319E1,4.9641696E2,1.2577809E2,8.074725E1],"tree_param":{"num_deleted":"0","num_feature":"60","num_nodes":"119","size_leaf_vector":"1"}},{"base_weights":[-3.1454754E-3,-3.4999582E-1,1.2030608E-1,-5.436431E-1,-2.6828915E-1,1.6989055E-1,-1.3126495E-1,-3.7064636E-1,-5.8793086E-1,-3.0769685E-1,-2.0527361E-1,2.2608407E-1,7.554234E-2,-2.4435101E-2,-4.215572E-1,-4.9127492E-1,-8.685509E-2,-6.539537E-1,-4.4738597E-1,-2.3010848E-1,-3.671952E-1,1.7016904E-1,-2.457445E-1,1.6532569E-1,3.171479E-1,1.12060666E-1,-7.590111E-3,4.226498E-1,-8.424058E-2,-3.3467332E-1,-9.509589E-1,-6.9744635E-1,-1.640577E-1,3.5006534E-2,-8.0622196E-1,-1.1795306E-1,-6.7869043E-1,-4.8574153E-1,2.582873E-1,2.8356516E-1,-2.5673956E-1,-1.6066726E-1,-4.2782208E-1,4.2702138E-1,-4.8882154E-1,-3.5659155E-1,-1.4253846E-1,-1.0553135E0,1.6902597E-1,2.4025707E-1,4.2546067E-1,8.4905535E-2,4.8153508E-1,-1.2503909E-1,1.530403E-1,4.6618634E-1,-4.9570978E-2,1.36137735E-2,-2.0854189E-1,1.9721152E-2,-4.4847137E-1,-1.0241349E0,1.4726563E-2,-2.410992E-2,-6.621383E-2,-2.3277828E-2,1.3346994E-2,-1.0571309E-2,2.7767038E-2,-1.09789185E-2,-4.715776E-2,-3.648971E-2,8.111072E-3,-3.2456204E-2,-6.9255546E-2,4.4516143E-3,-2.6253238E-2,3.332379E-2,-1.4505408E-2,2.6354948E-2,-1.4766635E-3,2.8959496E-2,-1.348535E-2,-1.1428712E-2,3.4875781E-3,-2.2196686E-2,9.80835E-3,3.151705E-2,-9.407391E-4,-1.2599125E-2,-5.971657E-2,-2.064637E-2,4.6245283E-3,-4.6117967E-3,-3.23006E-2,-8.019205E-2,-8.159862E-4,7.6812166E-3,2.2016998E-2,1.0361488E-2,3.775571E-2,8.432982E-3,2.3676982E-2,4.6528345E-3,-4.2968404E-2,-5.829098E-3,2.840194E-2,-1.091394E-3,-1.5896663E-2,9.972359E-3,-3.499866E-2,1.7390402E-2,5.1612068E-2,2.3397928E-2,-7.040296E-4,-3.5616815E-2,-7.7865333E-3,-5.2657607E-3,3.4275565E-2,-1.9910607E-2,-7.582175E-2,-2.7115894E-2,-6.406503E-2],"categories":[],"categories_nodes":[],"categories_segments":[],"categories_sizes":[],"default_left":[0,0,0,0,0,0,0,0,0,0,0,0,0,0,0,0,0,0,0,0,0,0,0,0,0,0,0,0,0,0,0,0,0,0,0,0,0,0,0,0,0,0,0,0,0,0,0,0,0,0,0,0,0,0,0,0,0,0,0,0,0,0,0,0,0,0,0,0,0,0,0,0,0,0,0,0,0,0,0,0,0,0,0,0,0,0,0,0,0,0,0,0,0,0,0,0,0,0,0,0,0,0,0,0,0,0,0,0,0,0,0,0,0,0,0,0,0,0,0,0,0,0,0],"id":9,"left_children":[1,3,5,7,9,11,13,15,17,19,21,23,25,27,29,31,33,35,37,39,41,43,45,47,49,51,53,55,57,59,61,63,65,67,69,71,73,75,77,79,81,83,85,87,89,91,93,95,97,99,101,103,105,107,109,111,-1,113,115,117,119,121,-1,-1,-1,-1,-1,-1,-1,-1,-1,-1,-1,-1,-1,-1,-1,-1,-1,-1,-1,-1,-1,-1,-1,-1,-1,-1,-1,-1,-1,-1,-1,-1,-1,-1,-1,-1,-1,-1,-1,-1,-1,-1,-1,-1,-1,-1,-1,-1,-1,-1,-1,-1,-1,-1,-1,-1,-1,-1,-1,-1,-1],"loss_changes":[2.916095E2,2.8138824E1,6.2674484E1,3.8387604E0,3.0637207E0,2.2229576E1,2.5652792E1,3.7444448E0,3.6033325E0,3.4825592E0,7.4487324E0,1.4495148E1,4.7604666E0,1.6238207E1,9.918301E0,5.108181E0,3.0273523E0,3.6787796E0,3.8432808E0,4.6971283E0,5.386116E0,8.3376E0,4.9879417E0,7.3109627E0,8.651939E0,1.088879E1,9.064209E0,4.873966E0,6.5140624E0,7.781084E0,3.111679E0,5.727663E0,4.18256E0,3.9917188E0,1.9436598E-1,2.4697256E0,4.756439E0,2.999134E0,1.9245648E0,1.3222637E0,3.6456337E0,1.5879414E0,3.4669228E0,3.1926603E0,2.0274942E0,5.3940067E0,5.7590995E0,2.7725081E0,6.5147896E0,1.0335804E1,5.2922363E0,7.8999653E0,3.9140034E0,5.517678E0,8.173332E0,4.3451014E0,0E0,3.787192E0,6.1641846E0,4.0514297E0,7.228346E0,2.9411182E0,0E0,0E0,0E0,0E0,0E0,0E0,0E0,0E0,0E0,0E0,0E0,0E0,0E0,0E0,0E0,0E0,0E0,0E0,0E0,0E0,0E0,0E0,0E0,0E0,0E0,0E0,0E0,0E0,0E0,0E0,0E0,0E0,0E0,0E0,0E0,0E0,0E0,0E0,0E0,0E0,0E0,0E0,0E0,0E0,0E0,0E0,0E0,0E0,0E0,0E0,0E0,0E0,0E0,0E0,0E0,0E0,0E0,0E0,0E0,0E0,0E0],"parents":[2147483647,0,0,1,1,2,2,3,3,4,4,5,5,6,6,7,7,8,8,9,9,10,10,11,11,12,12,13,13,14,14,15,15,16,16,17,17,18,18,19,19,20,20,21,21,22,22,23,23,24,24,25,25,26,26,27,27,28,28,29,29,30,30,31,31,32,32,33,33,34,34,35,35,36,36,37,37,38,38,39,39,40,40,41,41,42,42,43,43,44,44,45,45,46,46,47,47,48,48,49,49,50,50,51,51,52,52,53,53,54,54,55,55,57,57,58,58,59,59,60,60,61,61],"right_children":[2,4,6,8,10,12,14,16,18,20,22,24,26,28,30,32,34,36,38,40,42,44,46,48,50,52,54,56,58,60,62,64,66,68,70,72,74,76,78,80,82,84,86,88,90,92,94,96,98,100,102,104,106,108,110,112,-1,114,116,118,120,122,-1,-1,-1,-1,-1,-1,-1,-1,-1,-1,-1,-1,-1,-1,-1,-1,-1,-1,-1,-1,-1,-1,-1,-1,-1,-1,-1,-1,-1,-1,-1,-1,-1,-1,-1,-1,-1,-1,-1,-1,-1,-1,-1,-1,-1,-1,-1,-1,-1,-1,-1,-1,-1,-1,-1,-1,-1,-1,-1,-1,-1],"split_conditions":[1.67E1,6E0,8E0,3.72E1,9.4E0,5E0,9.7E0,7.9E1,5E0,8E0,9.5E0,4.22E1,-4.46605E1,-5.70289E1,1.331E1,3.52E1,8.4E0,-6.01211E1,-4.15026E1,-5.22921E1,6.3E0,8.2E1,7.4E1,2.62E1,7.6E1,-4.59105E1,7.7E1,4.68E1,3.35E1,7.2E0,1.17E1,7.5E1,7.1E1,7.2E0,8.1E1,6.8E1,1.16E1,5.3E1,7.8E1,4.65E1,4.7E1,3.99E1,4.85E1,9E0,9E1,-5.25553E1,-5.20289E1,3.76E1,9E1,1.84E1,7.7E0,-4.62395E1,3.59E1,7E0,4.27E1,8.97E1,-4.9570978E-2,7.6E-2,5.8E1,6.9E0,1E0,3.94E1,1.4726563E-2,-2.410992E-2,-6.621383E-2,-2.3277828E-2,1.3346994E-2,-1.0571309E-2,2.7767038E-2,-1.09789185E-2,-4.715776E-2,-3.648971E-2,8.111072E-3,-3.2456204E-2,-6.9255546E-2,4.4516143E-3,-2.6253238E-2,3.332379E-2,-1.4505408E-2,2.6354948E-2,-1.4766635E-3,2.8959496E-2,-1.348535E-2,-1.1428712E-2,3.4875781E-3,-2.2196686E-2,9.80835E-3,3.151705E-2,-9.407391E-4,-1.2599125E-2,-5.971657E-2,-2.064637E-2,4.6245283E-3,-4.6117967E-3,-3.23006E-2,-8.019205E-2,-8.159862E-4,7.6812166E-3,2.2016998E-2,1.0361488E-2,3.775571E-2,8.432982E-3,2.3676982E-2,4.6528345E-3,-4.2968404E-2,-5.829098E-3,2.840194E-2,-1.091394E-3,-1.5896663E-2,9.972359E-3,-3.499866E-2,1.7390402E-2,5.1612068E-2,2.3397928E-2,-7.040296E-4,-3.5616815E-2,-7.7865333E-3,-5.2657607E-3,3.4275565E-2,-1.9910607E-2,-7.582175E-2,-2.7115894E-2,-6.406503E-2],"split_indices":[1,46,46,26,27,46,0,44,46,46,27,26,37,37,16,26,27,37,37,37,27,44,44,2,44,37,44,1,2,27,27,44,44,27,44,44,27,44,44,26,44,26,26,46,44,37,37,26,44,0,27,37,26,27,26,3,0,0,44,27,54,26,0,0,0,0,0,0,0,0,0,0,0,0,0,0,0,0,0,0,0,0,0,0,0,0,0,0,0,0,0,0,0,0,0,0,0,0,0,0,0,0,0,0,0,0,0,0,0,0,0,0,0,0,0,0,0,0,0,0,0,0,0],"split_type":[0,0,0,0,0,0,0,0,0,0,0,0,0,0,0,0,0,0,0,0,0,0,0,0,0,0,0,0,0,0,0,0,0,0,0,0,0,0,0,0,0,0,0,0,0,0,0,0,0,0,0,0,0,0,0,0,0,0,0,0,0,0,0,0,0,0,0,0,0,0,0,0,0,0,0,0,0,0,0,0,0,0,0,0,0,0,0,0,0,0,0,0,0,0,0,0,0,0,0,0,0,0,0,0,0,0,0,0,0,0,0,0,0,0,0,0,0,0,0,0,0,0,0],"sum_hessian":[6.808265E3,1.786649E3,5.021616E3,5.2848047E2,1.2581685E3,4.195092E3,8.265247E2,1.0962648E2,4.18854E2,7.7169495E2,4.8647357E2,2.6282922E3,1.5667994E3,6.0497375E2,2.2155098E2,7.6414536E1,3.3211945E1,2.8249515E2,1.3635886E2,3.3704346E2,4.346515E2,4.7024967E1,4.394486E2,1.5781536E3,1.0501387E3,1.0883586E3,4.7844086E2,7.0662025E1,5.343117E2,1.9171883E2,2.9832157E1,4.6183815E1,3.023072E1,2.9214338E1,3.9976075E0,1.2716638E1,2.697785E2,1.29625E2,6.7338624E0,1.6136995E1,3.2090646E2,9.946614E1,3.3518536E2,3.408988E1,1.2935082E1,2.106971E2,2.287515E2,3.910686E0,1.5742428E3,6.1603546E2,4.341032E2,1.01499005E3,7.3368576E1,2.7649567E2,2.0194519E2,6.920176E1,1.4602697E0,2.994582E2,2.3485353E2,4.6799774E1,1.4491904E2,2.8344563E1,1.4875952E0,3.5695545E1,1.0488269E1,1.7740438E1,1.2490281E1,2.0227957E1,8.9863825E0,1.249234E0,2.7483735E0,3.4901383E0,9.2265E0,2.6078268E2,8.995834E0,8.219499E0,1.21405495E2,3.7369845E0,2.9968777E0,8.692396E0,7.4445996E0,4.2350373E0,3.1667142E2,7.6831154E1,2.2634987E1,3.2702988E2,8.155485E0,2.3128498E1,1.0961386E1,1.0700198E1,2.2348838E0,1.8728351E2,2.3413584E1,2.0904846E2,1.9703037E1,2.2036433E0,1.7070426E0,1.4911605E3,8.3082275E1,5.8021783E2,3.5817596E1,6.9168076E1,3.6493512E2,1.0071972E3,7.792874E0,9.226385E0,6.414219E1,1.8084483E2,9.565084E1,1.922522E2,9.692998E0,5.8567963E1,1.0633794E1,1.629129E1,2.831669E2,2.1098198E1,2.1375534E2,4.0109055E1,6.6907206E0,1.3971674E2,5.202314E0,1.094577E1,1.7398792E1],"tree_param":{"num_deleted":"0","num_feature":"60","num_nodes":"123","size_leaf_vector":"1"}},{"base_weights":[7.9307373E-4,-3.1016207E-1,1.228396E-1,-4.722923E-1,-2.4142322E-1,1.6857085E-1,-1.2813747E-1,-5.159973E-1,1.2367359E-1,-2.5451785E-1,9.092528E-2,1.16358854E-1,2.6193342E-1,9.239842E-3,-3.7688082E-1,-5.075934E-1,-7.550784E-2,-7.282661E-1,2.3170921E-1,-2.5956598E-1,3.2142404E-1,-5.277051E-1,1.9878548E-1,-1.8804467E-1,1.3444494E-1,1.8481095E-1,3.3431983E-1,3.8731486E-1,-3.5563167E-2,-3.154183E-1,-8.577188E-1,-5.7227284E-1,-4.1202894E-1,1.0963246E-3,-5.8521934E-2,8.4956783E-1,-5.419661E-2,-3.1067085E-1,-2.074483E-1,5.2654464E-2,-1.8018499E-2,-8.5919964E-1,2.095992E-2,5.471802E-1,-1.1212657E-1,-8.103589E-1,-9.645646E-2,3.1992668E-1,1.1302196E-1,-3.1509124E-2,2.5333256E-1,1.4882462E-1,3.8026932E-1,-2.9387832E-1,5.8123523E-1,-1.7042413E-1,1.3432452E-1,-9.353657E-1,-2.6144627E-1,-2.8191173E-1,-1.0144087E0,-3.8587324E-2,-2.3882214E-2,3.6119465E-3,-2.3541307E-2,5.6726497E-2,-4.1881982E-2,-4.7392316E-2,6.3235015E-3,-1.3727504E-2,-2.6563779E-2,-6.999787E-3,-1.7199637E-2,2.3602027E-2,-2.5168581E-2,4.4702413E-3,-5.5587627E-2,-3.7223168E-3,3.5235193E-2,1.9779507E-2,-1.9990413E-2,1.4388722E-2,-4.864949E-2,1.8458087E-2,-9.554455E-3,1.8944187E-2,-1.8254718E-3,-2.135559E-2,6.1014327E-3,-3.3287894E-2,1.5352407E-3,1.6248276E-2,5.7976674E-3,1.101659E-2,-2.0610662E-2,2.652055E-2,1.6577607E-2,1.1674449E-2,-3.5324555E-2,5.2093267E-2,1.01834005E-2,8.619988E-3,-1.3868595E-2,1.1270107E-3,1.6801778E-2,-5.407064E-2,4.7592013E-3,-6.789024E-2,-1.1755175E-2,3.0116457E-2,-3.4717694E-2,-2.9932236E-2,-6.0855713E-2],"categories":[],"categories_nodes":[],"categories_segments":[],"categories_sizes":[],"default_left":[0,0,0,0,0,0,0,0,0,0,0,0,0,0,0,0,0,0,0,0,0,0,0,0,0,0,0,0,0,0,0,0,0,0,0,0,0,0,0,0,0,0,0,0,0,0,0,0,0,0,0,0,0,0,0,0,0,0,0,0,0,0,0,0,0,0,0,0,0,0,0,0,0,0,0,0,0,0,0,0,0,0,0,0,0,0,0,0,0,0,0,0,0,0,0,0,0,0,0,0,0,0,0,0,0,0,0,0,0,0,0,0,0],"id":10,"left_children":[1,3,5,7,9,11,13,15,17,19,21,23,25,27,29,31,-1,33,35,37,39,41,43,45,47,49,51,53,55,57,59,61,63,-1,-1,65,67,69,71,-1,73,75,-1,77,79,81,83,85,87,89,91,93,95,97,99,101,103,105,107,109,111,-1,-1,-1,-1,-1,-1,-1,-1,-1,-1,-1,-1,-1,-1,-1,-1,-1,-1,-1,-1,-1,-1,-1,-1,-1,-1,-1,-1,-1,-1,-1,-1,-1,-1,-1,-1,-1,-1,-1,-1,-1,-1,-1,-1,-1,-1,-1,-1,-1,-1,-1,-1],"loss_changes":[2.5691388E2,2.1151031E1,5.581968E1,1.4834114E1,5.863632E0,2.0017265E1,2.5627731E1,3.6491547E0,3.8090386E0,3.8381271E0,3.5485227E0,1.4556423E1,8.168388E0,8.213038E0,7.6148796E0,3.0129242E0,0E0,1.5822241E0,6.380478E0,3.3467941E0,2.916739E0,2.8511825E0,4.9003243E0,8.382509E0,9.865818E0,1.0621134E1,6.4147186E0,6.956394E0,9.959061E0,7.724224E0,2.389923E0,5.4994736E0,6.176277E0,0E0,0E0,6.4332085E0,4.2296367E0,4.990963E0,5.819725E0,0E0,2.3671632E0,1.5861716E0,0E0,2.1319737E0,3.7273355E0,3.6569347E0,5.822168E0,5.4244614E0,1.0927361E1,6.852131E0,5.31456E0,6.2039366E0,4.27034E0,2.7863812E0,6.8003883E0,8.928059E0,4.3324223E0,2.9152622E0,6.048318E0,3.237058E0,1.2038231E0,0E0,0E0,0E0,0E0,0E0,0E0,0E0,0E0,0E0,0E0,0E0,0E0,0E0,0E0,0E0,0E0,0E0,0E0,0E0,0E0,0E0,0E0,0E0,0E0,0E0,0E0,0E0,0E0,0E0,0E0,0E0,0E0,0E0,0E0,0E0,0E0,0E0,0E0,0E0,0E0,0E0,0E0,0E0,0E0,0E0,0E0,0E0,0E0,0E0,0E0,0E0,0E0],"parents":[2147483647,0,0,1,1,2,2,3,3,4,4,5,5,6,6,7,7,8,8,9,9,10,10,11,11,12,12,13,13,14,14,15,15,17,17,18,18,19,19,20,20,21,21,22,22,23,23,24,24,25,25,26,26,27,27,28,28,29,29,30,30,31,31,32,32,35,35,36,36,37,37,38,38,40,40,41,41,43,43,44,44,45,45,46,46,47,47,48,48,49,49,50,50,51,51,52,52,53,53,54,54,55,55,56,56,57,57,58,58,59,59,60,60],"right_children":[2,4,6,8,10,12,14,16,18,20,22,24,26,28,30,32,-1,34,36,38,40,42,44,46,48,50,52,54,56,58,60,62,64,-1,-1,66,68,70,72,-1,74,76,-1,78,80,82,84,86,88,90,92,94,96,98,100,102,104,106,108,110,112,-1,-1,-1,-1,-1,-1,-1,-1,-1,-1,-1,-1,-1,-1,-1,-1,-1,-1,-1,-1,-1,-1,-1,-1,-1,-1,-1,-1,-1,-1,-1,-1,-1,-1,-1,-1,-1,-1,-1,-1,-1,-1,-1,-1,-1,-1,-1,-1,-1,-1,-1,-1],"split_conditions":[2.77E1,6E0,8E0,4.17394E1,9.17E1,9.09E1,8.64089E1,1.8E0,1.956E-1,9.6E1,5.7E1,1.772E-1,7.4E1,-5.70289E1,1.331E1,7.6E1,-7.550784E-2,7.3E1,2.62E-1,2.632E-1,8.84E1,5.796E-1,7.6E1,3.15E1,5.00886E1,2.248E-1,8.84E1,3.07E1,3.324E-1,1.516E-1,6.2E1,2.2E-1,8.8E1,1.0963246E-3,-5.8521934E-2,-4.06474E1,8.84E1,2.324E-1,9.5E0,5.2654464E-2,2.124E-1,2.048E-1,2.095992E-2,6.4E1,9.19E1,6.1E0,3.3E1,-4.05158E1,2.96E1,-5.70289E1,4E0,9.35E1,1E0,7.3E1,9.06E1,3.07E1,9.1E0,9.16E1,2.93E1,3.52E1,2.344E-1,-3.8587324E-2,-2.3882214E-2,3.6119465E-3,-2.3541307E-2,5.6726497E-2,-4.1881982E-2,-4.7392316E-2,6.3235015E-3,-1.3727504E-2,-2.6563779E-2,-6.999787E-3,-1.7199637E-2,2.3602027E-2,-2.5168581E-2,4.4702413E-3,-5.5587627E-2,-3.7223168E-3,3.5235193E-2,1.9779507E-2,-1.9990413E-2,1.4388722E-2,-4.864949E-2,1.8458087E-2,-9.554455E-3,1.8944187E-2,-1.8254718E-3,-2.135559E-2,6.1014327E-3,-3.3287894E-2,1.5352407E-3,1.6248276E-2,5.7976674E-3,1.101659E-2,-2.0610662E-2,2.652055E-2,1.6577607E-2,1.1674449E-2,-3.5324555E-2,5.2093267E-2,1.01834005E-2,8.619988E-3,-1.3868595E-2,1.1270107E-3,1.6801778E-2,-5.407064E-2,4.7592013E-3,-6.789024E-2,-1.1755175E-2,3.0116457E-2,-3.4717694E-2,-2.9932236E-2,-6.0855713E-2],"split_indices":[2,46,46,13,28,3,13,0,53,44,44,53,44,37,16,44,0,44,53,53,28,53,44,2,13,53,28,2,53,53,44,53,28,0,0,37,28,53,27,0,53,53,0,44,28,27,2,37,2,37,46,3,58,44,28,2,27,3,2,2,53,0,0,0,0,0,0,0,0,0,0,0,0,0,0,0,0,0,0,0,0,0,0,0,0,0,0,0,0,0,0,0,0,0,0,0,0,0,0,0,0,0,0,0,0,0,0,0,0,0,0,0,0],"split_type":[0,0,0,0,0,0,0,0,0,0,0,0,0,0,0,0,0,0,0,0,0,0,0,0,0,0,0,0,0,0,0,0,0,0,0,0,0,0,0,0,0,0,0,0,0,0,0,0,0,0,0,0,0,0,0,0,0,0,0,0,0,0,0,0,0,0,0,0,0,0,0,0,0,0,0,0,0,0,0,0,0,0,0,0,0,0,0,0,0,0,0,0,0,0,0,0,0,0,0,0,0,0,0,0,0,0,0,0,0,0,0,0,0],"sum_hessian":[6.7676187E3,1.9070972E3,4.8605215E3,5.6607007E2,1.3410271E3,4.111654E3,7.4886774E2,5.275188E2,3.855127E1,1.2904183E3,5.0608715E1,2.6384023E3,1.4732513E3,4.8304947E2,2.658183E2,5.245948E2,2.9239886E0,3.6924698E0,3.48588E1,1.2797507E3,1.0667675E1,6.935839E0,4.3672874E1,1.4744162E2,2.4909607E3,7.1501166E2,7.5823975E2,5.0368088E1,4.3268137E2,2.3715962E2,2.8658665E1,3.09877E2,2.147178E2,1.7217501E0,1.9707197E0,1.0403896E1,2.4454903E1,6.436489E2,6.361018E2,2.7144008E0,7.9532743E0,5.2059484E0,1.7298911E0,2.0236643E1,2.3436234E1,1.7908812E1,1.2953282E2,2.5647202E2,2.2344888E3,1.7213336E2,5.428783E2,1.5137744E2,6.068623E2,1.1047068E1,3.932102E1,2.4120436E2,1.9147702E2,1.7685482E1,2.1947415E2,6.7292085E0,2.1929457E1,9.740187E1,2.1247513E2,2.3222572E1,1.9149522E2,9.180858E0,1.2230381E0,3.3984456E0,2.1056458E1,5.550176E2,8.863137E1,4.2712738E2,2.0897441E2,3.9710999E0,3.9821742E0,1.2304175E0,3.9755306E0,4.1979427E0,1.60387E1,8.340809E0,1.5095424E1,2.2108684E0,1.5697944E1,2.1389532E1,1.0814328E2,2.200167E2,3.6455303E1,3.5887417E1,2.1986013E3,1.4509823E1,1.5762354E2,3.5592474E2,1.8695352E2,1.3480334E2,1.6574104E1,1.4624908E2,4.6061322E2,5.0397716E0,6.0072966E0,1.691968E1,2.240134E1,5.7208614E1,1.8399574E2,1.2391661E2,6.756041E1,1.5447012E1,2.2384696E0,3.9637403E0,2.155104E2,1.9939508E0,4.7352576E0,8.483154E0,1.3446302E1],"tree_param":{"num_deleted":"0","num_feature":"60","num_nodes":"113","size_leaf_vector":"1"}},{"base_weights":[3.9613754E-3,-2.988564E-1,1.11264884E-1,-3.101074E-1,-1.858811E-1,9.029943E-2,2.6442832E-1,-4.3913358E-1,-2.9548845E-1,4.9853917E-2,-2.0096526E-1,8.0050744E-2,4.51344E-1,7.9685724E-1,2.351981E-1,-5.9989315E-1,-2.0457783E-1,-2.7117637E-1,-4.0901953E-1,-2.317824E-1,2.614069E-1,5.0772205E-2,1.4811851E-1,-1.0101269E-1,5.364767E-1,8.8365126E-1,-1.861736E-2,1.83426E-1,4.8654816E-1,-1.0127317E0,-4.7482422E-1,-3.8833725E-1,-3.5327397E-2,4.211788E-2,-2.8595936E-1,-5.575528E-1,-3.1736085E-1,-4.114837E-1,-1.2605412E-1,3.9168462E-1,1.0458331E-1,1.963422E-2,1.287721E-1,-1.8348883E-1,1.646031E-1,7.4289656E-1,-4.0389195E-1,6.539002E-1,2.3931876E-1,2.4405013E-1,9.940597E-1,4.194524E-1,1.2286836E-1,8.002219E-2,6.3379765E-1,-6.900316E-2,-3.5877038E-2,-2.7006987E-2,1.8870061E-3,-2.6313191E-2,2.398294E-2,1.0020238E-2,-1.5120356E-2,-1.9774418E-2,1.583696E-2,-2.7159778E-2,-1.3338558E-2,-1.533161E-2,-3.242514E-2,-3.4853963E-3,-2.1757517E-2,-1.6781013E-2,-3.8118083E-2,-3.351739E-2,-3.431733E-3,2.080005E-3,3.1031141E-2,-5.6872903E-3,2.1171788E-2,2.609879E-3,-3.5831395E-3,-6.8379873E-3,8.325587E-3,-2.1769254E-2,3.2019706E-3,1.4156344E-2,5.579829E-3,4.6397507E-2,8.983014E-3,-4.1359786E-2,1.4812315E-2,1.2973833E-2,4.3606825E-2,-1.7556664E-2,2.6713109E-2,3.493921E-2,-2.7438713E-2,5.392016E-2,1.9155088E-3,4.7157343E-2,1.7378941E-2,4.0716906E-3,2.5643423E-2,1.5474257E-2,-4.4382334E-2,3.6955383E-2,1.4335069E-2],"categories":[],"categories_nodes":[],"categories_segments":[],"categories_sizes":[],"default_left":[0,0,0,0,0,0,0,0,0,0,0,0,0,0,0,0,0,0,0,0,0,0,0,0,0,0,0,0,0,0,0,0,0,0,0,0,0,0,0,0,0,0,0,0,0,0,0,0,0,0,0,0,0,0,0,0,0,0,0,0,0,0,0,0,0,0,0,0,0,0,0,0,0,0,0,0,0,0,0,0,0,0,0,0,0,0,0,0,0,0,0,0,0,0,0,0,0,0,0,0,0,0,0,0,0,0,0],"id":11,"left_children":[1,3,5,7,9,11,13,15,17,-1,19,21,23,25,27,29,31,33,35,37,39,41,43,45,47,49,-1,51,53,55,57,59,61,63,65,67,69,71,73,75,77,79,81,83,85,87,89,91,93,95,97,99,101,103,105,-1,-1,-1,-1,-1,-1,-1,-1,-1,-1,-1,-1,-1,-1,-1,-1,-1,-1,-1,-1,-1,-1,-1,-1,-1,-1,-1,-1,-1,-1,-1,-1,-1,-1,-1,-1,-1,-1,-1,-1,-1,-1,-1,-1,-1,-1,-1,-1,-1,-1,-1,-1],"loss_changes":[2.2144907E2,2.2088623E0,1.6134758E1,2.926178E0,3.1266274E0,1.6347393E1,9.233665E0,6.01696E0,3.9142609E0,0E0,2.3797355E0,8.575417E0,5.791107E0,3.4835587E0,7.396637E0,4.4807396E0,2.0928528E0,5.5885696E0,3.2980042E0,2.8573074E0,1.7641819E-1,7.315107E0,7.108059E0,4.6795397E0,3.5375557E0,1.8218021E0,0E0,6.7894363E0,5.7945595E0,1.3367119E0,2.552473E0,4.1282635E0,2.3496926E0,6.7501035E0,5.5310593E0,1.9938221E0,4.641712E0,1.2421427E0,3.0118618E0,4.1079682E-1,4.7924513E-1,6.4088783E0,8.635186E0,3.8805945E0,7.721058E0,3.4165692E-1,4.1739025E0,6.255722E0,5.6841736E0,2.4128158E0,1.9421082E0,3.3349705E0,6.136095E0,6.2941537E0,2.4030342E0,0E0,0E0,0E0,0E0,0E0,0E0,0E0,0E0,0E0,0E0,0E0,0E0,0E0,0E0,0E0,0E0,0E0,0E0,0E0,0E0,0E0,0E0,0E0,0E0,0E0,0E0,0E0,0E0,0E0,0E0,0E0,0E0,0E0,0E0,0E0,0E0,0E0,0E0,0E0,0E0,0E0,0E0,0E0,0E0,0E0,0E0,0E0,0E0,0E0,0E0,0E0,0E0],"parents":[2147483647,0,0,1,1,2,2,3,3,4,4,5,5,6,6,7,7,8,8,10,10,11,11,12,12,13,13,14,14,15,15,16,16,17,17,18,18,19,19,20,20,21,21,22,22,23,23,24,24,25,25,27,27,28,28,29,29,30,30,31,31,32,32,33,33,34,34,35,35,36,36,37,37,38,38,39,39,40,40,41,41,42,42,43,43,44,44,45,45,46,46,47,47,48,48,49,49,50,50,51,51,52,52,53,53,54,54],"right_children":[2,4,6,8,10,12,14,16,18,-1,20,22,24,26,28,30,32,34,36,38,40,42,44,46,48,50,-1,52,54,56,58,60,62,64,66,68,70,72,74,76,78,80,82,84,86,88,90,92,94,96,98,100,102,104,106,-1,-1,-1,-1,-1,-1,-1,-1,-1,-1,-1,-1,-1,-1,-1,-1,-1,-1,-1,-1,-1,-1,-1,-1,-1,-1,-1,-1,-1,-1,-1,-1,-1,-1,-1,-1,-1,-1,-1,-1,-1,-1,-1,-1,-1,-1,-1,-1,-1,-1,-1,-1],"split_conditions":[1.67E1,4.65E1,9.09E1,-5.65684E1,4.4E1,9.2E1,9.1E1,7.6E1,9.04E1,4.9853917E-2,-4.67E1,3.6E1,3.04E1,8.8E1,9.16E1,9.03E1,9.04E1,-5.50553E1,8.9E0,9.4E0,7.4E1,9.1E1,8.61E1,3.66E1,-4.42658E1,6E1,-1.861736E-2,-6.01211E1,3.26E1,5.9E1,1.19E1,9.2E1,8.4E1,4.06E1,-5.31474E1,7.2E1,9.5E0,8.6E1,5.5E1,6.6E1,8.2E1,1.04E1,8.79E1,3.88E1,8.92E1,7.5E0,4.37E1,-5.36737E1,-4.22263E1,1.23E1,5.15E1,4.6E1,3.93E1,1.14E1,5.53E1,-6.900316E-2,-3.5877038E-2,-2.7006987E-2,1.8870061E-3,-2.6313191E-2,2.398294E-2,1.0020238E-2,-1.5120356E-2,-1.9774418E-2,1.583696E-2,-2.7159778E-2,-1.3338558E-2,-1.533161E-2,-3.242514E-2,-3.4853963E-3,-2.1757517E-2,-1.6781013E-2,-3.8118083E-2,-3.351739E-2,-3.431733E-3,2.080005E-3,3.1031141E-2,-5.6872903E-3,2.1171788E-2,2.609879E-3,-3.5831395E-3,-6.8379873E-3,8.325587E-3,-2.1769254E-2,3.2019706E-3,1.4156344E-2,5.579829E-3,4.6397507E-2,8.983014E-3,-4.1359786E-2,1.4812315E-2,1.2973833E-2,4.3606825E-2,-1.7556664E-2,2.6713109E-2,3.493921E-2,-2.7438713E-2,5.392016E-2,1.9155088E-3,4.7157343E-2,1.7378941E-2,4.0716906E-3,2.5643423E-2,1.5474257E-2,-4.4382334E-2,3.6955383E-2,1.4335069E-2],"split_indices":[1,26,28,37,44,44,28,44,28,0,37,2,2,44,3,28,28,37,27,27,44,3,3,26,37,44,0,37,2,44,27,44,44,26,37,44,27,44,44,44,44,0,28,2,3,0,1,37,37,0,1,26,2,27,1,0,0,0,0,0,0,0,0,0,0,0,0,0,0,0,0,0,0,0,0,0,0,0,0,0,0,0,0,0,0,0,0,0,0,0,0,0,0,0,0,0,0,0,0,0,0,0,0,0,0,0,0],"split_type":[0,0,0,0,0,0,0,0,0,0,0,0,0,0,0,0,0,0,0,0,0,0,0,0,0,0,0,0,0,0,0,0,0,0,0,0,0,0,0,0,0,0,0,0,0,0,0,0,0,0,0,0,0,0,0,0,0,0,0,0,0,0,0,0,0,0,0,0,0,0,0,0,0,0,0,0,0,0,0,0,0,0,0,0,0,0,0,0,0,0,0,0,0,0,0,0,0,0,0,0,0,0,0,0,0,0,0],"sum_hessian":[6.813176E3,1.7821218E3,5.0310537E3,1.6191307E3,1.6299107E2,4.426703E3,6.043505E2,1.6182576E2,1.4573049E3,1.2325015E0,1.6175858E2,4.3057026E3,1.2100078E2,3.0085287E1,5.742652E2,9.509328E1,6.673248E1,1.2030636E3,2.5424136E2,1.5211856E2,9.640004E0,3.011911E3,1.2937916E3,1.613398E1,1.048668E2,2.8233637E1,1.8516502E0,4.7761725E2,9.664798E1,2.045993E1,7.463335E1,3.1374239E1,3.5358246E1,5.412613E1,1.1489375E3,9.508036E1,1.5916101E2,5.5276253E1,9.6842316E1,4.447625E0,5.192379E0,2.1534812E3,8.5842975E2,6.079028E1,1.2330013E3,3.8774633E0,1.2256516E1,7.430448E1,3.0562315E1,4.628861E0,2.3604776E1,9.631157E1,3.8130566E2,2.6109203E1,7.053878E1,7.478562E0,1.2981369E1,6.61501E1,8.48324E0,2.7412096E1,3.962144E0,1.8913923E1,1.6444323E1,2.0700296E1,3.3425835E1,7.785863E1,1.0710789E3,2.645779E1,6.862257E1,5.1813885E1,1.0734712E2,4.705828E1,8.217974E0,8.222699E0,8.861961E1,2.2257667E0,2.2218585E0,3.4638371E0,1.7285421E0,1.5876384E3,5.6584265E2,1.0649805E2,7.519317E2,2.9753153E1,3.1037125E1,3.7968207E2,8.5331934E2,2.4311624E0,1.4463011E0,7.5252647E0,4.7312517E0,2.7247826E1,4.705666E1,1.0117474E1,2.0444841E1,3.0170243E0,1.6118367E0,2.1572685E1,2.0320904E0,1.0160022E1,8.615154E1,3.4577817E2,3.55275E1,2.1654463E1,4.4547396E0,5.3252434E1,1.7286343E1],"tree_param":{"num_deleted":"0","num_feature":"60","num_nodes":"107","size_leaf_vector":"1"}},{"base_weights":[1.6639909E-3,-2.7652127E-1,1.10834755E-1,-4.2419237E-1,-2.1243885E-1,1.6986556E-1,-6.720828E-2,-4.6662214E-1,3.30452E-1,-2.8361958E-1,-1.4129081E-1,1.5634468E-1,4.3722498E-1,6.527923E-2,-1.6736898E-1,-4.7129846E-1,3.7224647E-2,8.348905E-1,1.2304573E-1,-3.454327E-1,-1.2638006E-1,-3.263339E-1,-1.0345299E-1,2.1557322E-1,8.947094E-2,4.6780965E-1,-2.3143622E-1,3.0177554E-1,4.640682E-3,-8.089328E-1,-1.3063826E-1,-6.940872E-2,-4.8598152E-1,5.782475E-2,-1.0693953E-2,4.6840763E-1,-3.933535E-1,-4.1536018E-1,-1.9723189E-1,4.461632E-1,-1.7432547E-1,-1.236027E-1,-5.073891E-1,1.4533275E-1,-1.4186865E-1,2.516408E-1,9.044761E-2,8.056948E-2,6.3456106E-1,2.8937253E-1,6.5825903E-1,-7.2782195E-1,4.0920522E-2,1.967849E-1,1.0278155E0,-5.826974E-2,3.240438E-1,-8.7604827E-1,3.153605E-2,3.2742622E-1,-1.557261E-1,4.0588666E-2,-1.4143661E-2,9.259742E-3,-2.4832726E-2,3.5186686E-2,-4.7861483E-2,2.4175398E-2,-4.8878197E-2,-1.9182533E-2,-3.387756E-2,2.7904215E-3,-2.0411726E-2,5.213616E-3,4.7040563E-2,1.2719474E-2,-1.0789496E-2,-1.72484E-2,2.1838738E-2,-3.43545E-2,-9.244842E-3,3.256434E-2,3.2366123E-3,2.0356977E-2,-7.6923496E-3,3.8938176E-2,1.187909E-2,-6.626492E-2,5.057377E-3,2.007454E-3,1.0264022E-2,4.483469E-2,-3.1717993E-2,2.6937177E-2,-4.0283157E-3,4.6486747E-2,2.46516E-2,-6.131214E-2,2.7649168E-2,6.9998424E-3,4.725269E-2,6.383465E-2,2.0729346E-2,-1.1653492E-2,2.9917338E-3,3.4100156E-2,-2.0902373E-3,-4.982559E-2,-5.0245617E-3,4.5007855E-2,7.6727004E-4,-2.1664172E-3,-1.1776845E-2],"categories":[],"categories_nodes":[],"categories_segments":[],"categories_sizes":[],"default_left":[0,0,0,0,0,0,0,0,0,0,0,0,0,0,0,0,0,0,0,0,0,0,0,0,0,0,0,0,0,0,0,0,0,0,0,0,0,0,0,0,0,0,0,0,0,0,0,0,0,0,0,0,0,0,0,0,0,0,0,0,0,0,0,0,0,0,0,0,0,0,0,0,0,0,0,0,0,0,0,0,0,0,0,0,0,0,0,0,0,0,0,0,0,0,0,0,0,0,0,0,0,0,0,0,0,0,0,0,0,0,0,0,0],"id":12,"left_children":[1,3,5,7,9,11,13,15,17,19,21,23,25,27,29,31,-1,33,35,37,39,41,43,45,47,49,51,53,55,57,59,61,63,-1,-1,65,67,69,71,73,75,77,79,81,83,85,87,89,91,93,95,97,-1,99,101,103,105,107,-1,109,111,-1,-1,-1,-1,-1,-1,-1,-1,-1,-1,-1,-1,-1,-1,-1,-1,-1,-1,-1,-1,-1,-1,-1,-1,-1,-1,-1,-1,-1,-1,-1,-1,-1,-1,-1,-1,-1,-1,-1,-1,-1,-1,-1,-1,-1,-1,-1,-1,-1,-1,-1,-1],"loss_changes":[2.0635155E2,1.8031555E1,5.1296825E1,1.86781E1,6.733303E0,1.3180084E1,1.6143862E1,3.4552917E0,3.18049E0,6.4448776E0,4.663456E0,1.38042755E1,3.7048187E0,7.5149746E0,1.6215878E1,3.1920013E0,0E0,3.2730055E0,4.359422E0,4.8782043E0,5.292273E0,4.100728E0,5.35784E0,8.326775E0,7.9108925E0,5.535774E0,4.952923E0,7.9500027E0,8.421679E0,4.1579E0,7.593115E0,4.0733542E0,3.868637E0,0E0,0E0,5.533207E0,5.557308E0,2.4361267E0,8.316791E0,2.4317105E0,3.1835217E0,6.9526024E0,3.3266277E0,3.02414E0,3.2472E0,1.0453842E1,6.4286823E0,8.136403E0,9.290612E0,8.233467E0,3.162468E0,4.6400747E0,0E0,3.890567E0,1.4966555E0,7.244003E0,9.060032E0,3.269764E0,0E0,6.134966E0,5.5775642E0,0E0,0E0,0E0,0E0,0E0,0E0,0E0,0E0,0E0,0E0,0E0,0E0,0E0,0E0,0E0,0E0,0E0,0E0,0E0,0E0,0E0,0E0,0E0,0E0,0E0,0E0,0E0,0E0,0E0,0E0,0E0,0E0,0E0,0E0,0E0,0E0,0E0,0E0,0E0,0E0,0E0,0E0,0E0,0E0,0E0,0E0,0E0,0E0,0E0,0E0,0E0,0E0],"parents":[2147483647,0,0,1,1,2,2,3,3,4,4,5,5,6,6,7,7,8,8,9,9,10,10,11,11,12,12,13,13,14,14,15,15,17,17,18,18,19,19,20,20,21,21,22,22,23,23,24,24,25,25,26,26,27,27,28,28,29,29,30,30,31,31,32,32,35,35,36,36,37,37,38,38,39,39,40,40,41,41,42,42,43,43,44,44,45,45,46,46,47,47,48,48,49,49,50,50,51,51,53,53,54,54,55,55,56,56,57,57,59,59,60,60],"right_children":[2,4,6,8,10,12,14,16,18,20,22,24,26,28,30,32,-1,34,36,38,40,42,44,46,48,50,52,54,56,58,60,62,64,-1,-1,66,68,70,72,74,76,78,80,82,84,86,88,90,92,94,96,98,-1,100,102,104,106,108,-1,110,112,-1,-1,-1,-1,-1,-1,-1,-1,-1,-1,-1,-1,-1,-1,-1,-1,-1,-1,-1,-1,-1,-1,-1,-1,-1,-1,-1,-1,-1,-1,-1,-1,-1,-1,-1,-1,-1,-1,-1,-1,-1,-1,-1,-1,-1,-1,-1,-1,-1,-1,-1,-1],"split_conditions":[2.71E1,6E0,7E0,4.17394E1,8.96E1,9E1,6.7E0,9.8E1,7.2E1,4.888E-1,6.3E1,4E0,4.12E1,-5.50553E1,1.516E-1,4.8E1,3.7224647E-2,2E0,4.604E-1,7.9E1,6.1E1,-5.38711E1,8.99E1,-4.295E1,9.936E-1,4.47E1,-4.24237E1,6.60585E1,6.736E-1,9.09E1,-5.97921E1,1.92E-1,1.376E-1,5.782475E-2,-1.0693953E-2,-4.06474E1,8.96E1,7.7E1,8.85E1,5.6E1,5.288E-1,-5.51211E1,-4.80158E1,6.6E1,-6.33447E1,1.2E0,7.6E-2,3.71E1,1.35E1,4.07E1,8.9E1,4.23E1,4.0920522E-2,9.872E-1,4.22E1,8.88E1,3.32E1,4.93E1,3.153605E-2,3.36E1,8E0,4.0588666E-2,-1.4143661E-2,9.259742E-3,-2.4832726E-2,3.5186686E-2,-4.7861483E-2,2.4175398E-2,-4.8878197E-2,-1.9182533E-2,-3.387756E-2,2.7904215E-3,-2.0411726E-2,5.213616E-3,4.7040563E-2,1.2719474E-2,-1.0789496E-2,-1.72484E-2,2.1838738E-2,-3.43545E-2,-9.244842E-3,3.256434E-2,3.2366123E-3,2.0356977E-2,-7.6923496E-3,3.8938176E-2,1.187909E-2,-6.626492E-2,5.057377E-3,2.007454E-3,1.0264022E-2,4.483469E-2,-3.1717993E-2,2.6937177E-2,-4.0283157E-3,4.6486747E-2,2.46516E-2,-6.131214E-2,2.7649168E-2,6.9998424E-3,4.725269E-2,6.383465E-2,2.0729346E-2,-1.1653492E-2,2.9917338E-3,3.4100156E-2,-2.0902373E-3,-4.982559E-2,-5.0245617E-3,4.5007855E-2,7.6727004E-4,-2.1664172E-3,-1.1776845E-2],"split_indices":[2,46,46,13,28,44,0,44,44,53,44,46,2,37,53,44,0,46,53,44,44,37,28,37,53,1,37,13,53,28,37,53,53,0,0,37,28,44,28,44,53,37,37,44,37,0,0,2,0,1,28,2,0,53,1,28,1,1,0,2,46,0,0,0,0,0,0,0,0,0,0,0,0,0,0,0,0,0,0,0,0,0,0,0,0,0,0,0,0,0,0,0,0,0,0,0,0,0,0,0,0,0,0,0,0,0,0,0,0,0,0,0,0],"split_type":[0,0,0,0,0,0,0,0,0,0,0,0,0,0,0,0,0,0,0,0,0,0,0,0,0,0,0,0,0,0,0,0,0,0,0,0,0,0,0,0,0,0,0,0,0,0,0,0,0,0,0,0,0,0,0,0,0,0,0,0,0,0,0,0,0,0,0,0,0,0,0,0,0,0,0,0,0,0,0,0,0,0,0,0,0,0,0,0,0,0,0,0,0,0,0,0,0,0,0,0,0,0,0,0,0,0,0,0,0,0,0,0,0],"sum_hessian":[6.7926436E3,1.9139775E3,4.878666E3,5.775214E2,1.3364562E3,3.6639246E3,1.2147412E3,5.471402E2,3.038122E1,6.665817E2,6.6987445E2,3.489061E3,1.7486366E2,5.231255E2,6.916157E2,5.456442E2,1.4959626E0,7.970517E0,2.2410702E1,4.7762402E2,1.889577E2,1.124282E2,5.574462E2,1.8491171E3,1.639944E3,1.6750246E2,7.361205E0,1.059466E2,4.1717886E2,3.631364E1,6.553021E2,1.9434362E1,5.262099E2,6.0213566E0,1.9491607E0,1.3485014E1,8.925688E0,3.2328275E2,1.543413E2,1.3959058E1,1.7499864E2,5.3832993E1,5.8595207E1,7.419098E1,4.8325525E2,1.4345852E3,4.1453183E2,1.6147229E3,2.5221018E1,8.7779205E1,7.972325E1,5.2063074E0,2.1548977E0,9.367199E1,1.2274613E1,3.4921432E2,6.796455E1,3.5070183E1,1.2434558E0,3.3401016E1,6.219011E2,3.243273E0,1.619109E1,7.980798E0,5.1822906E2,1.200908E1,1.475934E0,3.6378653E0,5.2878227E0,2.906006E2,3.268214E1,7.051419E1,8.38271E1,8.969984E0,4.989074E0,1.49800205E1,1.6001863E2,3.8864708E1,1.4968283E1,3.690195E1,2.1693254E1,9.221897E0,6.496908E1,9.614194E0,4.7364105E2,3.5855125E1,1.3987301E3,2.1878574E0,4.1234396E2,1.2204738E3,3.9424915E2,2.1146029E1,4.0749893E0,5.21615E1,3.5617706E1,2.8412746E1,5.1310505E1,3.7785127E0,1.4277947E0,8.81678E1,5.5041876E0,7.961525E0,4.313089E0,1.4041705E2,2.0879727E2,3.391587E1,3.4048676E1,3.0108652E1,4.961532E0,1.1116197E1,2.2284819E1,2.5887277E2,3.6302832E2],"tree_param":{"num_deleted":"0","num_feature":"60","num_nodes":"113","size_leaf_vector":"1"}},{"base_weights":[2.4419877E-4,-2.7170306E-1,9.63226E-2,-4.6036133E-1,-1.9185546E-1,1.4941184E-1,-5.7114992E-2,-4.4724908E-1,-8.405795E-1,-1.5904091E-1,-2.7248085E-1,1.0578037E-1,2.1454267E-1,4.629392E-2,-1.4502005E-1,-4.9259004E-1,-3.2890272E-1,-2.1526705E-1,-9.923024E-1,-2.5678903E-1,-1.04815684E-1,-2.9256964E-1,2.63666E-1,1.6764861E-1,7.1046285E-2,1.4380734E-1,3.3367974E-1,6.661477E-2,3.4264468E-2,-7.834687E-2,-3.4887165E-1,-9.53504E-1,-4.6223846E-1,-5.7579905E-1,-1.7146707E-1,-3.7744477E-2,3.2962393E-2,-1.165084E-2,-1.0532767E0,-3.408538E-1,-3.2631636E-2,-1.2476579E-1,3.4480998E-1,-2.2404112E-1,-5.442015E-1,4.1629005E-2,1.03392145E-2,1.1349172E-1,3.099195E-1,1.2523992E-1,-8.79219E-3,9.2207474E-1,1.2699312E-1,4.11045E-1,2.3195978E-1,-1.4569296E-2,3.388921E-1,2.3292571E-2,-2.8765497E-1,-5.4116476E-1,1.1608675E-1,-2.1543562E-2,-5.3163607E-2,-3.378132E-2,-2.1045461E-2,-3.501911E-2,1.8126851E-2,1.7537504E-2,-1.41251525E-2,-5.5680156E-2,-1.9229375E-2,-3.6092874E-2,-1.5362777E-2,1.4721246E-2,-6.7918184E-3,-5.5604014E-3,-3.303827E-2,3.8634602E-2,5.7007964E-3,1.8461367E-2,-1.2443039E-2,-3.1595785E-2,8.02315E-3,-9.516044E-3,3.9756526E-3,7.2076838E-3,-1.0976241E-2,2.5594035E-2,7.830429E-3,3.9320407E-3,1.1933484E-2,-3.9121807E-3,8.844393E-3,4.92063E-2,-1.3808989E-3,5.389693E-3,2.5558097E-2,1.922068E-2,5.4837525E-2,1.3347638E-2,-1.3824019E-2,1.3612165E-2,-2.9185654E-3,6.029518E-3,3.1814277E-2,9.45057E-3,-5.186768E-3,-3.2303404E-2,-8.36992E-3,-4.825053E-3,-3.326073E-2,6.873727E-2,-3.1337768E-3],"categories":[],"categories_nodes":[],"categories_segments":[],"categories_sizes":[],"default_left":[0,0,0,0,0,0,0,0,0,0,0,0,0,0,0,0,0,0,0,0,0,0,0,0,0,0,0,0,0,0,0,0,0,0,0,0,0,0,0,0,0,0,0,0,0,0,0,0,0,0,0,0,0,0,0,0,0,0,0,0,0,0,0,0,0,0,0,0,0,0,0,0,0,0,0,0,0,0,0,0,0,0,0,0,0,0,0,0,0,0,0,0,0,0,0,0,0,0,0,0,0,0,0,0,0,0,0,0,0,0,0,0,0],"id":13,"left_children":[1,3,5,7,9,11,13,15,17,19,21,23,25,27,29,31,33,35,37,39,41,43,45,47,49,51,53,-1,55,57,59,61,63,65,67,-1,-1,-1,69,71,73,75,77,79,81,-1,83,85,87,89,91,93,95,97,99,101,103,105,107,109,111,-1,-1,-1,-1,-1,-1,-1,-1,-1,-1,-1,-1,-1,-1,-1,-1,-1,-1,-1,-1,-1,-1,-1,-1,-1,-1,-1,-1,-1,-1,-1,-1,-1,-1,-1,-1,-1,-1,-1,-1,-1,-1,-1,-1,-1,-1,-1,-1,-1,-1,-1,-1],"loss_changes":[1.781768E2,2.672966E1,4.1055904E1,2.2598953E0,3.2705956E0,1.0616806E1,1.1787966E1,2.591858E0,1.3506699E0,4.7045E0,3.9645443E0,4.8103237E0,1.2601067E1,9.178506E0,9.497256E0,4.721985E0,5.543988E0,2.6195686E0,3.5603333E-1,5.9776955E0,5.2083135E0,5.8853207E0,1.945843E0,6.1758995E0,6.22682E0,1.2230284E1,4.2991905E0,0E0,8.808109E0,1.1268184E1,1.5478907E1,7.959156E-1,2.7863312E0,6.8120823E0,5.3216486E0,0E0,0E0,0E0,4.537773E-2,2.7356071E0,3.0031345E0,3.9386415E0,2.3540828E0,4.148568E0,4.6670113E0,0E0,1.5942891E-1,6.009531E0,6.783531E0,4.511981E0,7.5285406E0,1.1936588E0,6.765745E0,5.3468704E0,4.40672E0,6.4351506E0,5.2337685E0,7.5400467E0,7.352953E0,6.6738663E0,1.1621851E1,0E0,0E0,0E0,0E0,0E0,0E0,0E0,0E0,0E0,0E0,0E0,0E0,0E0,0E0,0E0,0E0,0E0,0E0,0E0,0E0,0E0,0E0,0E0,0E0,0E0,0E0,0E0,0E0,0E0,0E0,0E0,0E0,0E0,0E0,0E0,0E0,0E0,0E0,0E0,0E0,0E0,0E0,0E0,0E0,0E0,0E0,0E0,0E0,0E0,0E0,0E0,0E0],"parents":[2147483647,0,0,1,1,2,2,3,3,4,4,5,5,6,6,7,7,8,8,9,9,10,10,11,11,12,12,13,13,14,14,15,15,16,16,17,17,18,18,19,19,20,20,21,21,22,22,23,23,24,24,25,25,26,26,28,28,29,29,30,30,31,31,32,32,33,33,34,34,38,38,39,39,40,40,41,41,42,42,43,43,44,44,46,46,47,47,48,48,49,49,50,50,51,51,52,52,53,53,54,54,55,55,56,56,57,57,58,58,59,59,60,60],"right_children":[2,4,6,8,10,12,14,16,18,20,22,24,26,28,30,32,34,36,38,40,42,44,46,48,50,52,54,-1,56,58,60,62,64,66,68,-1,-1,-1,70,72,74,76,78,80,82,-1,84,86,88,90,92,94,96,98,100,102,104,106,108,110,112,-1,-1,-1,-1,-1,-1,-1,-1,-1,-1,-1,-1,-1,-1,-1,-1,-1,-1,-1,-1,-1,-1,-1,-1,-1,-1,-1,-1,-1,-1,-1,-1,-1,-1,-1,-1,-1,-1,-1,-1,-1,-1,-1,-1,-1,-1,-1,-1,-1,-1,-1,-1],"split_conditions":[1.67E1,6E0,7E0,4.86E1,9E0,4.21E1,6.8E0,4.36E1,3E0,8E0,4.85E1,3E0,4.66E1,1.99347E1,9E0,-5.65684E1,9.1E0,2E0,4.91E1,4.19E1,-4.42658E1,4.45E1,4.91E1,9.3E0,1.003935E2,1.2E0,5E1,6.661477E-2,3.99E1,-4.49237E1,-4.47263E1,1.14E1,2E0,-4.65026E1,9.5E0,-3.7744477E-2,3.2962393E-2,-1.165084E-2,5.22E1,-4.45947E1,6.3E0,5E1,8.1E0,-5.70947E1,-4.67E1,4.1629005E-2,4.96E1,1.372028E2,3.44E1,3.59E1,3.75E1,-4.67E1,1.22E1,9.23E1,6E0,-5.65026E1,9.3E0,4.2E1,8.7E0,8.86E1,7.1E0,-2.1543562E-2,-5.3163607E-2,-3.378132E-2,-2.1045461E-2,-3.501911E-2,1.8126851E-2,1.7537504E-2,-1.41251525E-2,-5.5680156E-2,