{"learner":{"attributes":{"best_iteration":"199","best_score":"0.608534708337099","scikit_learn":"{\"_estimator_type\": \"classifier\"}"},"feature_names":["b_barrel_rate","b_hard_hit_rate","b_sweet_spot_rate","b_avg_exit_velo","b_gb_rate","b_ld_rate","b_fb_rate","b_whiff_rate","b_chase_rate","b_zone_contact_rate","b_woba_vs_fastball","b_woba_vs_breaking","b_woba_vs_offspeed","b_power_speed_score","b_contact_quality_score","b_iso","b_xiso","b_xwOBA","b_HR_Rate","b_K_Rate","b_BB_Rate","b_Barrel_Rate","p_whiff_rate","p_csw_rate","p_k_rate","p_bb_rate","p_hard_hit_against","p_barrel_against","p_avg_exit_velo_against","p_gb_rate","p_fb_rate","p_fastball_pct","p_breaking_pct","p_offspeed_pct","p_avg_fastball_velo","p_hr_rate_allowed","p_stuff_plus","p_pitcher_quality_score","p_CALC_HR9","matchup_pitch_type_matchup","matchup_velo_matchup","matchup_contact_vs_whiff","matchup_hr_suppression","matchup_overall_matchup","Temp","Wind_Speed","Lineup_Spot","Platoon_Adv","park_hr_factor","park_avg_factor","park_runs_factor","Batter_xwOBA","Pitcher_HR9","Prob","Batter_Archetype_Slugger","Pitcher_Archetype_Slugger","Batter_Archetype_Contact","Pitcher_Archetype_Contact","Batter_Archetype_Balanced","Pitcher_Archetype_Balanced"],"feature_types":["float","float","float","float","float","float","float","float","float","float","float","float","float","float","float","float","float","float","float","float","float","float","float","float","float","float","float","float","float","float","float","float","float","float","float","float","float","float","float","float","float","float","float","float","float","float","int","int","float","float","float","float","float","float","int","int","int","int","int","int"],"gradient_booster":{"model":{"cats":{"enc":[],"feature_segments":[],"sorted_idx":[]},"gbtree_model_param":{"num_parallel_tree":"1","num_trees":"200"},"iteration_indptr":[0,1,2,3,4,5,6,7,8,9,10,11,12,13,14,15,16,17,18,19,20,21,22,23,24,25,26,27,28,29,30,31,32,33,34,35,36,37,38,39,40,41,42,43,44,45,46,47,48,49,50,51,52,53,54,55,56,57,58,59,60,61,62,63,64,65,66,67,68,69,70,71,72,73,74,75,76,77,78,79,80,81,82,83,84,85,86,87,88,89,90,91,92,93,94,95,96,97,98,99,100,101,102,103,104,105,106,107,108,109,110,111,112,113,114,115,116,117,118,119,120,121,122,123,124,125,126,127,128,129,130,131,132,133,134,135,136,137,138,139,140,141,142,143,144,145,146,147,148,149,150,151,152,153,154,155,156,157,158,159,160,161,162,163,164,165,166,167,168,169,170,171,172,173,174,175,176,177,178,179,180,181,182,183,184,185,186,187,188,189,190,191,192,193,194,195,196,197,198,199,200],"tree_info":[0,0,0,0,0,0,0,0,0,0,0,0,0,0,0,0,0,0,0,0,0,0,0,0,0,0,0,0,0,0,0,0,0,0,0,0,0,0,0,0,0,0,0,0,0,0,0,0,0,0,0,0,0,0,0,0,0,0,0,0,0,0,0,0,0,0,0,0,0,0,0,0,0,0,0,0,0,0,0,0,0,0,0,0,0,0,0,0,0,0,0,0,0,0,0,0,0,0,0,0,0,0,0,0,0,0,0,0,0,0,0,0,0,0,0,0,0,0,0,0,0,0,0,0,0,0,0,0,0,0,0,0,0,0,0,0,0,0,0,0,0,0,0,0,0,0,0,0,0,0,0,0,0,0,0,0,0,0,0,0,0,0,0,0,0,0,0,0,0,0,0,0,0,0,0,0,0,0,0,0,0,0,0,0,0,0,0,0,0,0,0,0,0,0,0,0,0,0,0,0],"trees":[{"base_weights":[-1.03357155E-2,-5.7637846E-1,3.0353123E-1,-6.661808E-1,-2.8333038E-1,1.1481439E-1,5.6516325E-1,-9.824319E-1,-5.510828E-1,-3.0723998E-1,9.23584E-1,-3.8834152E-1,1.5191649E-1,-1.0906379E0,5.88886E-1,-1.0149264E0,-2.2217612E-1,-1.041732E0,-4.9340883E-1,-3.2666627E-1,1.1312529E0,4.5618334E-1,8.608753E-2,-5.5424E-1,3.9665927E-3,-9.7436085E-2,1.9791837E-1,5.886883E-2,-1.675236E0,6.5792555E-1,2.5375545E-1,-1.0578423E0,-3.990918E-1,4.6710956E-1,-9.9316496E-1,-2.0551571E-1,-1.2428919E0,-1.6379564E0,-4.7843692E-1,1.2558414E0,-3.4339786E-1,1.442808E0,-5.555556E-2,1.3701024E0,-5.9825534E-1,-1.021673E0,-2.5886154E-1,-8.947369E-2,1.9933027E-1,-6.967226E-1,9.8707005E-2,9.655987E-2,2.9400748E-1,6.850512E-2,-9.813371E-1,-9.615385E-2,-4.3805838E-1,6.012334E-1,1.1051568E0,2.318534E-2,4.6366635E-1,-5.0373126E-2,-7.674326E-2,-4.196993E-2,4.849961E-2,6.2442716E-2,-4.0144365E-2,-8.947369E-2,-6.326978E-3,-8.9189194E-2,6.764932E-3,-8.470273E-2,-4.563707E-2,-9.569892E-2,-1.5462029E-2,1.8825803E-2,-2.4753492E-2,-5E-2,7.948802E-2,-2.0975394E-2,5.307459E-4,7.948802E-2,3.4427937E-2,3.4427937E-2,8.048856E-2,-7.333334E-2,1.2330673E-2,-3.347666E-2,-8.295158E-2,-7.311385E-2,-3.3171212E-3,2.9470762E-2,-1.8008044E-2,1.0571414E-2,-4.481937E-2,2.0263128E-2,-1.2176298E-2,2.4141612E-2,8.5072283E-4,1.782308E-2,1.9492398E-3,3.4427937E-2,-8.62069E-2,4.3861214E-2,-7.5E-2,2.1662408E-2,3.6104213E-2,4.9712487E-2,7.340631E-2,1.3466993E-2,-2.9570771E-2,2.508816E-2,-8.1818186E-2],"categories":[],"categories_nodes":[],"categories_segments":[],"categories_sizes":[],"default_left":[0,0,0,0,0,0,0,0,0,0,0,0,0,0,0,0,0,0,0,0,0,0,0,0,0,0,0,0,0,0,0,0,0,0,0,0,0,0,0,0,0,0,0,0,0,0,0,0,0,0,0,0,0,0,0,0,0,0,0,0,0,0,0,0,0,0,0,0,0,0,0,0,0,0,0,0,0,0,0,0,0,0,0,0,0,0,0,0,0,0,0,0,0,0,0,0,0,0,0,0,0,0,0,0,0,0,0,0,0,0,0,0,0],"id":0,"left_children":[1,3,5,7,9,11,13,15,17,19,21,23,25,27,29,31,33,35,37,39,41,43,-1,45,47,49,51,53,55,57,59,61,63,65,67,69,71,73,75,77,79,81,-1,83,85,87,89,-1,91,93,95,97,99,-1,101,-1,103,105,107,109,111,-1,-1,-1,-1,-1,-1,-1,-1,-1,-1,-1,-1,-1,-1,-1,-1,-1,-1,-1,-1,-1,-1,-1,-1,-1,-1,-1,-1,-1,-1,-1,-1,-1,-1,-1,-1,-1,-1,-1,-1,-1,-1,-1,-1,-1,-1,-1,-1,-1,-1,-1,-1],"loss_changes":[2.2030825E3,1.162157E2,3.9380225E2,1.22671875E2,3.0273865E1,8.659733E1,1.3193787E2,2.2056274E1,6.9778625E1,2.886834E1,6.8393116E0,2.0739769E1,4.9549583E1,3.2060917E1,7.6092896E1,2.243097E1,2.07916E1,4.354361E1,3.7338318E1,2.7095016E1,1.1253155E1,1.4552374E1,0E0,3.0655037E1,3.388382E1,7.920102E1,3.5479523E1,2.453227E1,8.835411E0,6.861267E1,2.7317371E1,1.7866028E1,3.574057E1,2.1728256E1,1.2454309E1,2.8044453E1,2.9687317E1,9.791901E0,3.1433502E1,9.687691E0,2.6874817E1,2.9782295E-1,0E0,1.881752E-1,5.726907E0,1.8275398E1,3.200589E1,0E0,1.9241373E1,3.0312721E1,5.34026E1,5.455327E1,2.9786743E1,0E0,1.3668818E1,0E0,1.0482169E1,4.8960815E1,1.0866638E1,4.102662E1,2.446307E1,0E0,0E0,0E0,0E0,0E0,0E0,0E0,0E0,0E0,0E0,0E0,0E0,0E0,0E0,0E0,0E0,0E0,0E0,0E0,0E0,0E0,0E0,0E0,0E0,0E0,0E0,0E0,0E0,0E0,0E0,0E0,0E0,0E0,0E0,0E0,0E0,0E0,0E0,0E0,0E0,0E0,0E0,0E0,0E0,0E0,0E0,0E0,0E0,0E0,0E0,0E0,0E0],"parents":[2147483647,0,0,1,1,2,2,3,3,4,4,5,5,6,6,7,7,8,8,9,9,10,10,11,11,12,12,13,13,14,14,15,15,16,16,17,17,18,18,19,19,20,20,21,21,23,23,24,24,25,25,26,26,27,27,28,28,29,29,30,30,31,31,32,32,33,33,34,34,35,35,36,36,37,37,38,38,39,39,40,40,41,41,43,43,44,44,45,45,46,46,48,48,49,49,50,50,51,51,52,52,54,54,56,56,57,57,58,58,59,59,60,60],"right_children":[2,4,6,8,10,12,14,16,18,20,22,24,26,28,30,32,34,36,38,40,42,44,-1,46,48,50,52,54,56,58,60,62,64,66,68,70,72,74,76,78,80,82,-1,84,86,88,90,-1,92,94,96,98,100,-1,102,-1,104,106,108,110,112,-1,-1,-1,-1,-1,-1,-1,-1,-1,-1,-1,-1,-1,-1,-1,-1,-1,-1,-1,-1,-1,-1,-1,-1,-1,-1,-1,-1,-1,-1,-1,-1,-1,-1,-1,-1,-1,-1,-1,-1,-1,-1,-1,-1,-1,-1,-1,-1,-1,-1,-1,-1],"split_conditions":[6.2E0,3.9E0,1.182E1,1.88E-2,1E0,1.72E-2,1.68E-2,3.88E1,8.71E1,9.5E1,9.06E1,1.035E1,6.4E1,1.29E1,6E0,-3.66342E1,2E0,2.32E-2,8.64E1,-6.45947E1,8.8E1,7.5E0,8.608753E-2,6.8E1,5E0,8.2E0,8.7E0,6.8E0,8.8E1,1.95E1,1.38E1,-4.17E1,3.15E1,6.3E1,8E0,3.35E0,2.1E0,9E0,-6.20947E1,5.2E0,1.04E-1,8.97E1,-5.555556E-2,7.3E0,9.6E0,8.99E1,6.8E0,-8.947369E-2,1.44E-2,8.83E1,3.36E-2,4E0,7E0,6.850512E-2,1.2E-2,-9.615385E-2,8.9E1,8.5E0,2.112E-1,1.239E1,9.18E1,-5.0373126E-2,-7.674326E-2,-4.196993E-2,4.849961E-2,6.2442716E-2,-4.0144365E-2,-8.947369E-2,-6.326978E-3,-8.9189194E-2,6.764932E-3,-8.470273E-2,-4.563707E-2,-9.569892E-2,-1.5462029E-2,1.8825803E-2,-2.4753492E-2,-5E-2,7.948802E-2,-2.0975394E-2,5.307459E-4,7.948802E-2,3.4427937E-2,3.4427937E-2,8.048856E-2,-7.333334E-2,1.2330673E-2,-3.347666E-2,-8.295158E-2,-7.311385E-2,-3.3171212E-3,2.9470762E-2,-1.8008044E-2,1.0571414E-2,-4.481937E-2,2.0263128E-2,-1.2176298E-2,2.4141612E-2,8.5072283E-4,1.782308E-2,1.9492398E-3,3.4427937E-2,-8.62069E-2,4.3861214E-2,-7.5E-2,2.1662408E-2,3.6104213E-2,4.9712487E-2,7.340631E-2,1.3466993E-2,-2.9570771E-2,2.508816E-2,-8.1818186E-2],"split_indices":[0,0,16,53,54,53,53,2,3,44,28,16,44,0,46,37,0,53,28,37,3,27,0,44,46,0,27,27,44,0,0,37,2,44,46,16,0,46,37,0,53,28,0,27,27,28,27,0,53,28,53,27,46,0,53,0,44,27,53,16,28,0,0,0,0,0,0,0,0,0,0,0,0,0,0,0,0,0,0,0,0,0,0,0,0,0,0,0,0,0,0,0,0,0,0,0,0,0,0,0,0,0,0,0,0,0,0,0,0,0,0,0,0],"split_type":[0,0,0,0,0,0,0,0,0,0,0,0,0,0,0,0,0,0,0,0,0,0,0,0,0,0,0,0,0,0,0,0,0,0,0,0,0,0,0,0,0,0,0,0,0,0,0,0,0,0,0,0,0,0,0,0,0,0,0,0,0,0,0,0,0,0,0,0,0,0,0,0,0,0,0,0,0,0,0,0,0,0,0,0,0,0,0,0,0,0,0,0,0,0,0,0,0,0,0,0,0,0,0,0,0,0,0,0,0,0,0,0,0],"sum_hessian":[1.2398422E4,4.422263E3,7.976158E3,3.3839917E3,1.0382715E3,4.6346177E3,3.3415405E3,9.009485E2,2.4830432E3,1.01883325E3,1.9438194E1,3.1763116E2,4.316987E3,4.6562996E1,3.2949775E3,8.636977E2,3.7250793E1,2.59378E2,2.2236653E3,1.00602026E3,1.2812996E1,1.3250397E1,6.1877975E0,2.2294138E2,9.468978E1,6.722029E2,3.6447837E3,1.6000397E1,3.05626E1,2.7313374E3,5.6364026E2,8.0675916E2,5.693859E1,1.9875595E1,1.7375198E1,5.068859E1,2.0868939E2,2.73126E1,2.1963528E3,9.750397E0,9.9626984E2,1.1562996E1,1.25E0,6.9377975E0,6.312599E0,8.537599E1,1.3756537E2,8.5E0,8.618978E1,1.6512758E2,5.070753E2,1.7747322E3,1.8700515E3,6.9377975E0,9.062599E0,2.5E1,5.562599E0,2.4261384E3,3.051989E2,2.6913153E2,2.9450873E2,7.325087E2,7.42504E1,4.3375595E1,1.3562996E1,1.2312996E1,7.562599E0,8.5E0,8.875198E0,8.25E0,4.243859E1,8.64378E1,1.2225159E2,2.225E1,5.062599E0,4.150119E1,2.1548516E3,1E0,8.750397E0,8.1982806E2,1.7644177E2,8.750397E0,2.8125992E0,2.8125992E0,4.1251984E0,2.75E0,3.5625992E0,5.6313393E1,2.90626E1,1.80626E1,1.1950278E2,5.0751587E1,3.5438194E1,2.9750793E1,1.3537679E2,2.6738275E2,2.3969257E2,3.0219653E2,1.4725356E3,1.5018551E3,3.6819653E2,2.8125992E0,6.25E0,2.5625992E0,3E0,1.0170298E3,1.4091086E3,2.3663353E2,6.856538E1,1.9256775E2,7.656379E1,2.9000873E2,4.5E0],"tree_param":{"num_deleted":"0","num_feature":"60","num_nodes":"113","size_leaf_vector":"1"}},{"base_weights":[-1.3050167E-3,-5.388216E-1,2.9639274E-1,-6.337584E-1,-2.3468187E-1,1.5248488E-1,6.329039E-1,-9.14357E-1,-5.4287696E-1,-2.5891724E-1,1.1092144E0,-1.0575729E-1,2.2750376E-1,6.552684E-1,-8.2054293E-1,-1.1639842E0,-7.258925E-1,-9.31802E-2,-5.2726644E-1,-2.9040807E-1,5.297373E-1,1.3578401E0,9.754047E-2,-3.9946634E-1,1.037632E-1,1.2634349E-1,3.7576368E-1,5.887436E-1,1.0654954E0,7.213264E-2,-1.1703802E0,-9.4991726E-1,-1.380131E0,-6.55399E-1,-1.287335E0,-5.388824E-1,9.066537E-1,2.753055E-1,-3.352644E-1,1.1643339E0,-6.935615E-1,2.3415117E-2,7.724037E-2,-6.326678E-2,6.45313E-2,-1.1375294E0,-2.8255314E-1,1.5836833E-1,-1.3345035E0,3.9062315E-1,5.756956E-2,2.2084652E-1,5.4247606E-1,1.6389849E-2,6.250999E-1,-2.707267E-1,1.1483601E0,-9.374794E-2,-2.98649E-1,-9.431171E-2,-3.9818976E-2,-8.025211E-2,-5.3400178E-2,-3.4203168E-2,2.4285315E-2,-7.082161E-2,3.5344932E-2,-2.4378013E-2,-4.015165E-2,7.313797E-2,2.084735E-3,-8.1842504E-2,2.1504937E-2,-1.1539743E-2,-2.6875148E-2,8.000501E-2,2.0512259E-2,8.176448E-3,-8.429972E-2,-9.379391E-2,-3.6930148E-2,3.4856472E-2,-1.7360583E-2,9.740084E-3,-4.432675E-2,-8.030001E-2,6.614687E-2,2.2512611E-2,-2.061028E-2,-5.3020953E-3,1.0392699E-2,3.0394266E-3,2.0243978E-2,2.876539E-2,-1.31380875E-2,-4.664683E-2,2.3357457E-2,2.8235441E-2,4.315164E-2,-8.606454E-2,2.176927E-2,5.136147E-2,6.987414E-2,1.9280558E-2,-8.180444E-2],"categories":[],"categories_nodes":[],"categories_segments":[],"categories_sizes":[],"default_left":[0,0,0,0,0,0,0,0,0,0,0,0,0,0,0,0,0,0,0,0,0,0,0,0,0,0,0,0,0,0,0,0,0,0,0,0,0,0,0,0,0,0,0,0,0,0,0,0,0,0,0,0,0,0,0,0,0,0,0,0,0,0,0,0,0,0,0,0,0,0,0,0,0,0,0,0,0,0,0,0,0,0,0,0,0,0,0,0,0,0,0,0,0,0,0,0,0,0,0,0,0,0,0,0,0],"id":1,"left_children":[1,3,5,7,9,11,13,15,17,19,21,23,25,27,29,31,33,-1,35,37,39,41,43,45,47,49,51,53,55,-1,57,59,61,63,65,67,69,71,73,75,77,-1,-1,-1,-1,79,81,83,85,87,89,91,93,95,97,99,101,-1,103,-1,-1,-1,-1,-1,-1,-1,-1,-1,-1,-1,-1,-1,-1,-1,-1,-1,-1,-1,-1,-1,-1,-1,-1,-1,-1,-1,-1,-1,-1,-1,-1,-1,-1,-1,-1,-1,-1,-1,-1,-1,-1,-1,-1,-1,-1],"loss_changes":[1.9915104E3,1.2793701E2,3.877798E2,8.570117E1,3.470951E1,1.0873874E2,7.851599E1,3.7990417E1,5.1707764E1,2.5956963E1,4.6242027E0,7.781913E1,6.517522E1,6.3862915E1,3.0822718E1,1.5043549E1,1.7877472E1,0E0,4.258246E1,2.5461006E1,3.2051254E1,1.7883987E0,9.4511175E0,4.510398E1,5.8207916E1,4.6988293E1,4.5419434E1,4.2348145E1,3.6685394E1,0E0,1.9354282E1,2.448851E1,1.0477386E1,1.4144943E1,1.4318886E1,3.3602234E1,9.886587E0,2.260563E1,1.9455566E1,8.174267E0,1.2502069E1,0E0,0E0,0E0,0E0,1.9720528E1,2.9113071E1,2.7291283E1,2.1689236E1,2.5745544E1,5.051553E1,2.6946835E1,2.2586304E1,5.290177E1,2.7015015E1,2.1226343E1,7.9045715E0,0E0,1.4982234E1,0E0,0E0,0E0,0E0,0E0,0E0,0E0,0E0,0E0,0E0,0E0,0E0,0E0,0E0,0E0,0E0,0E0,0E0,0E0,0E0,0E0,0E0,0E0,0E0,0E0,0E0,0E0,0E0,0E0,0E0,0E0,0E0,0E0,0E0,0E0,0E0,0E0,0E0,0E0,0E0,0E0,0E0,0E0,0E0,0E0,0E0],"parents":[2147483647,0,0,1,1,2,2,3,3,4,4,5,5,6,6,7,7,8,8,9,9,10,10,11,11,12,12,13,13,14,14,15,15,16,16,18,18,19,19,20,20,21,21,22,22,23,23,24,24,25,25,26,26,27,27,28,28,30,30,31,31,32,32,33,33,34,34,35,35,36,36,37,37,38,38,39,39,40,40,45,45,46,46,47,47,48,48,49,49,50,50,51,51,52,52,53,53,54,54,55,55,56,56,58,58],"right_children":[2,4,6,8,10,12,14,16,18,20,22,24,26,28,30,32,34,-1,36,38,40,42,44,46,48,50,52,54,56,-1,58,60,62,64,66,68,70,72,74,76,78,-1,-1,-1,-1,80,82,84,86,88,90,92,94,96,98,100,102,-1,104,-1,-1,-1,-1,-1,-1,-1,-1,-1,-1,-1,-1,-1,-1,-1,-1,-1,-1,-1,-1,-1,-1,-1,-1,-1,-1,-1,-1,-1,-1,-1,-1,-1,-1,-1,-1,-1,-1,-1,-1,-1,-1,-1,-1,-1,-1],"split_conditions":[6.2E0,3.9E0,1.3E1,6.8E1,1E0,6.7E1,9E0,8.4E0,7.6E-2,1E0,8.7E0,9.5E0,1.052E1,1.95E1,5.2E0,7E0,2.94E1,-9.31802E-2,1.45E1,8.75E1,4.9E0,7.3E0,9.03E1,5.2E1,1.109083E2,3.82E1,7.9E1,8.77E1,1E0,7.213264E-2,9.04E1,5.3E1,6.3E1,4.38355E1,1E0,2.75E1,7E0,8.61E1,6.20765E1,8.76E1,7.1E1,2.3415117E-2,7.724037E-2,-6.326678E-2,6.45313E-2,7.2E0,5.3E1,9E0,9.2E1,8.9E1,8.7E0,9.1E0,5.11E1,6.7E0,1.08E1,8.2E0,8.1E1,-9.374794E-2,9.6E0,-9.431171E-2,-3.9818976E-2,-8.025211E-2,-5.3400178E-2,-3.4203168E-2,2.4285315E-2,-7.082161E-2,3.5344932E-2,-2.4378013E-2,-4.015165E-2,7.313797E-2,2.084735E-3,-8.1842504E-2,2.1504937E-2,-1.1539743E-2,-2.6875148E-2,8.000501E-2,2.0512259E-2,8.176448E-3,-8.429972E-2,-9.379391E-2,-3.6930148E-2,3.4856472E-2,-1.7360583E-2,9.740084E-3,-4.432675E-2,-8.030001E-2,6.614687E-2,2.2512611E-2,-2.061028E-2,-5.3020953E-3,1.0392699E-2,3.0394266E-3,2.0243978E-2,2.876539E-2,-1.31380875E-2,-4.664683E-2,2.3357457E-2,2.8235441E-2,4.315164E-2,-8.606454E-2,2.176927E-2,5.136147E-2,6.987414E-2,1.9280558E-2,-8.180444E-2],"split_indices":[0,0,0,44,54,44,46,27,0,59,27,0,16,0,27,46,1,0,27,28,0,27,28,44,13,1,44,28,54,0,28,44,44,13,59,1,46,3,13,3,44,0,0,0,0,0,44,46,28,44,27,27,1,27,27,27,44,0,27,0,0,0,0,0,0,0,0,0,0,0,0,0,0,0,0,0,0,0,0,0,0,0,0,0,0,0,0,0,0,0,0,0,0,0,0,0,0,0,0,0,0,0,0,0,0],"split_type":[0,0,0,0,0,0,0,0,0,0,0,0,0,0,0,0,0,0,0,0,0,0,0,0,0,0,0,0,0,0,0,0,0,0,0,0,0,0,0,0,0,0,0,0,0,0,0,0,0,0,0,0,0,0,0,0,0,0,0,0,0,0,0,0,0,0,0,0,0,0,0,0,0,0,0,0,0,0,0,0,0,0,0,0,0,0,0,0,0,0,0,0,0,0,0,0,0,0,0,0,0,0,0,0,0],"sum_hessian":[1.2443583E4,4.435012E3,8.008571E3,3.3791353E3,1.0558771E3,5.6106484E3,2.397922E3,8.2447864E2,2.5546565E3,1.0379661E3,1.7911003E1,1.2628955E3,4.347753E3,2.3621248E3,3.579728E1,3.5245923E2,4.720194E2,2.8459421E1,2.526197E3,9.987192E2,3.9246902E1,1.410294E1,3.808063E0,5.2543134E2,7.3746423E2,2.5854849E3,1.7622682E3,2.0346152E3,3.2750958E2,4.374384E0,3.1422894E1,1.79792E2,1.726672E2,4.212905E2,5.0728912E1,2.5065164E3,1.9680662E1,7.29948E1,9.257244E2,2.5873175E1,1.3373728E1,3.0580976E0,1.1044842E1,1.7492808E0,2.0587823E0,7.0656044E1,4.5477527E2,7.1134717E2,2.6117065E1,5.329235E2,2.0525613E3,9.146532E2,8.4761505E2,1.2160757E2,1.9130077E3,1.89919E1,3.0851767E2,1.6741056E1,1.4681838E1,2.37391E1,1.560529E2,9.794686E1,7.4720345E1,4.1135782E2,9.932693E0,4.7916744E1,2.8121684E0,2.1011306E3,4.053857E2,1.1558352E1,8.122311E0,4.7495327E0,6.824526E1,6.1182007E2,3.139043E2,1.5686497E1,1.0186678E1,7.62436E0,5.749368E0,2.3485619E1,4.7170425E1,2.7550993E1,4.2722427E2,6.88166E2,2.3181181E1,2.4055138E1,2.061927E0,4.964868E2,3.6436737E1,9.82849E2,1.0697124E3,4.8990298E2,4.2475018E2,8.146837E2,3.293131E1,3.8807312E1,8.2800255E1,1.5284395E3,3.8456815E2,5.747378E0,1.3244522E1,2.110314E2,9.748628E1,1.0183461E1,4.4983773E0],"tree_param":{"num_deleted":"0","num_feature":"60","num_nodes":"105","size_leaf_vector":"1"}},{"base_weights":[8.486161E-3,-5.001135E-1,2.902088E-1,-5.2004135E-1,3.2857132E-1,1.3508056E-1,6.414631E-1,-5.8286124E-1,-3.1116587E-1,-7.8673765E-2,4.2928523E-1,3.1873886E-2,3.1415063E-1,6.882076E-1,-3.7959856E-1,-5.2119136E-1,-9.12384E-1,-3.445187E-1,4.8755038E-1,-7.4413225E-2,5.0866514E-1,-3.0391484E-1,1.2009135E-1,4.375933E-1,1.2730063E-1,6.2777567E-1,1.0582361E0,-6.6448036E-3,-9.6132994E-1,-1.5954584E0,-5.06155E-1,-1.2456454E0,-5.828213E-1,1.031052E-1,-4.1210917E-1,-8.217005E-2,8.314646E-1,1.1360449E0,2.8988922E-1,-1.03571E0,-2.211804E-1,1.2815851E-1,-8.506567E-1,4.9639565E-1,7.956786E-2,4.3680435E-1,1.5074178E-2,7.704073E-1,5.427136E-1,1.0970442E0,-6.765721E-1,-9.524814E-1,3.3695087E-1,-1.5421692E0,-1.85686E-1,4.7294766E-2,-9.017476E-2,-2.7414922E-2,-1.232715E-2,-6.564429E-2,8.478749E-3,-4.651168E-3,-4.164527E-2,1.0732703E-2,-8.55218E-2,-1.3129974E-2,-3.1253267E-2,7.1130775E-2,4.789269E-3,2.5131613E-2,7.627038E-2,-1.8607641E-3,5.3574968E-2,-2.1418331E-2,-8.3137825E-2,-2.5332779E-2,-6.5463356E-4,2.1386713E-2,5.07694E-3,7.28788E-3,-9.165479E-2,1.8471373E-2,2.9801061E-2,1.7071297E-2,-4.3633636E-2,-3.138781E-2,2.5233233E-2,-2.3976585E-2,8.804225E-3,4.0396925E-2,-6.6366754E-3,4.7670316E-2,2.3497062E-2,-5.8443557E-2,5.547563E-2,3.418899E-2,-7.892377E-2,2.5614887E-2,-8.955335E-2,5.74903E-2,-2.0260157E-2,3.6629472E-2,-9.389471E-2,-3.1976353E-2,3.879511E-2],"categories":[],"categories_nodes":[],"categories_segments":[],"categories_sizes":[],"default_left":[0,0,0,0,0,0,0,0,0,0,0,0,0,0,0,0,0,0,0,0,0,0,0,0,0,0,0,0,0,0,0,0,0,0,0,0,0,0,0,0,0,0,0,0,0,0,0,0,0,0,0,0,0,0,0,0,0,0,0,0,0,0,0,0,0,0,0,0,0,0,0,0,0,0,0,0,0,0,0,0,0,0,0,0,0,0,0,0,0,0,0,0,0,0,0,0,0,0,0,0,0,0,0,0,0],"id":2,"left_children":[1,3,5,7,9,11,13,15,17,-1,19,21,23,25,27,29,31,33,35,-1,37,39,41,43,45,47,49,51,53,55,57,59,61,63,65,-1,67,69,71,73,75,77,79,81,83,85,87,89,91,93,95,97,99,101,103,-1,-1,-1,-1,-1,-1,-1,-1,-1,-1,-1,-1,-1,-1,-1,-1,-1,-1,-1,-1,-1,-1,-1,-1,-1,-1,-1,-1,-1,-1,-1,-1,-1,-1,-1,-1,-1,-1,-1,-1,-1,-1,-1,-1,-1,-1,-1,-1,-1,-1],"loss_changes":[1.78571E3,7.3534546E1,4.3692853E2,5.674768E1,2.0777351E1,1.0282867E2,1.17516174E2,6.728308E1,2.6948395E1,0E0,1.6046259E1,1.0463639E2,4.6868057E1,5.1874023E1,2.3466122E1,4.4598633E1,5.685901E1,2.9256294E1,3.1201626E1,0E0,1.3011572E1,4.4268486E1,2.2014011E1,2.5742676E1,2.8154234E1,2.4115173E1,2.2850555E1,2.2072561E1,1.8751743E1,2.1974648E1,3.0211182E1,2.494629E1,3.244332E1,2.6154888E1,2.6552261E1,0E0,1.5397045E1,5.3467026E0,1.880833E1,2.761412E1,3.929344E1,2.2085873E1,2.2962755E1,1.3082947E1,4.367346E1,1.5900082E1,4.7550552E1,2.5632172E1,3.751059E1,1.0382294E1,1.0653916E1,2.3146229E1,3.0529312E1,1.9724415E1,8.888951E0,0E0,0E0,0E0,0E0,0E0,0E0,0E0,0E0,0E0,0E0,0E0,0E0,0E0,0E0,0E0,0E0,0E0,0E0,0E0,0E0,0E0,0E0,0E0,0E0,0E0,0E0,0E0,0E0,0E0,0E0,0E0,0E0,0E0,0E0,0E0,0E0,0E0,0E0,0E0,0E0,0E0,0E0,0E0,0E0,0E0,0E0,0E0,0E0,0E0,0E0],"parents":[2147483647,0,0,1,1,2,2,3,3,4,4,5,5,6,6,7,7,8,8,10,10,11,11,12,12,13,13,14,14,15,15,16,16,17,17,18,18,20,20,21,21,22,22,23,23,24,24,25,25,26,26,27,27,28,28,29,29,30,30,31,31,32,32,33,33,34,34,36,36,37,37,38,38,39,39,40,40,41,41,42,42,43,43,44,44,45,45,46,46,47,47,48,48,49,49,50,50,51,51,52,52,53,53,54,54],"right_children":[2,4,6,8,10,12,14,16,18,-1,20,22,24,26,28,30,32,34,36,-1,38,40,42,44,46,48,50,52,54,56,58,60,62,64,66,-1,68,70,72,74,76,78,80,82,84,86,88,90,92,94,96,98,100,102,104,-1,-1,-1,-1,-1,-1,-1,-1,-1,-1,-1,-1,-1,-1,-1,-1,-1,-1,-1,-1,-1,-1,-1,-1,-1,-1,-1,-1,-1,-1,-1,-1,-1,-1,-1,-1,-1,-1,-1,-1,-1,-1,-1,-1,-1,-1,-1,-1,-1,-1],"split_conditions":[6.2E0,1E0,1.3E1,3.9E0,5.4E1,9.58878E1,8E0,2.75E1,1E0,-7.8673765E-2,3E0,6.7E1,-4.78184E1,1.95E1,-4.78184E1,7.6E-2,2.7E0,3.42E1,3.81E1,-7.4413225E-2,6.4E1,4.9E1,4.26E1,7E0,3.27E1,-5.21605E1,6E0,1.166969E2,-4.05158E1,4.3E1,8.6E1,1E0,4E0,4.22E1,-4.96605E1,-8.217005E-2,5.74088E1,6.1E1,8E-1,4E0,8.4E0,3.05E1,3.98E1,7.3E1,-5.14368E1,-4.67E1,6.8E1,4.17E1,3.05E1,4.3E1,3.76E1,4.08E1,1.183582E2,8.98E1,5.05E1,4.7294766E-2,-9.017476E-2,-2.7414922E-2,-1.232715E-2,-6.564429E-2,8.478749E-3,-4.651168E-3,-4.164527E-2,1.0732703E-2,-8.55218E-2,-1.3129974E-2,-3.1253267E-2,7.1130775E-2,4.789269E-3,2.5131613E-2,7.627038E-2,-1.8607641E-3,5.3574968E-2,-2.1418331E-2,-8.3137825E-2,-2.5332779E-2,-6.5463356E-4,2.1386713E-2,5.07694E-3,7.28788E-3,-9.165479E-2,1.8471373E-2,2.9801061E-2,1.7071297E-2,-4.3633636E-2,-3.138781E-2,2.5233233E-2,-2.3976585E-2,8.804225E-3,4.0396925E-2,-6.6366754E-3,4.7670316E-2,2.3497062E-2,-5.8443557E-2,5.547563E-2,3.418899E-2,-7.892377E-2,2.5614887E-2,-8.955335E-2,5.74903E-2,-2.0260157E-2,3.6629472E-2,-9.389471E-2,-3.1976353E-2,3.879511E-2],"split_indices":[0,54,0,0,44,13,46,1,59,0,46,44,37,0,37,0,0,26,26,0,44,44,2,46,2,37,46,13,37,44,44,59,46,1,37,0,13,44,0,46,0,26,26,44,37,37,44,2,26,44,26,26,13,3,1,0,0,0,0,0,0,0,0,0,0,0,0,0,0,0,0,0,0,0,0,0,0,0,0,0,0,0,0,0,0,0,0,0,0,0,0,0,0,0,0,0,0,0,0,0,0,0,0,0,0],"split_type":[0,0,0,0,0,0,0,0,0,0,0,0,0,0,0,0,0,0,0,0,0,0,0,0,0,0,0,0,0,0,0,0,0,0,0,0,0,0,0,0,0,0,0,0,0,0,0,0,0,0,0,0,0,0,0,0,0,0,0,0,0,0,0,0,0,0,0,0,0,0,0,0,0,0,0,0,0,0,0,0,0,0,0,0,0,0,0,0,0,0,0,0,0,0,0,0,0,0,0,0,0,0,0,0,0],"sum_hessian":[1.2460716E4,4.441539E3,8.019177E3,4.3376025E3,1.0393637E2,5.563495E3,2.455682E3,3.3333098E3,1.00429285E3,4.4913406E0,9.944504E1,3.5301047E3,2.0333904E3,2.3484932E3,1.0718872E2,2.8100022E3,5.233078E2,9.6458246E2,3.971039E1,3.2475116E0,9.6197525E1,7.3395435E2,2.7961504E3,1.2236456E3,8.0974475E2,2.0211084E3,3.2738467E2,6.5931076E1,4.1257645E1,3.7337288E1,2.7726648E3,2.588117E2,2.6449606E2,1.26473724E2,8.3810876E2,4.9931927E0,3.4717194E1,2.3788097E1,7.2409424E1,7.338018E1,6.6057416E2,2.7739658E3,2.2184378E1,1.0506926E3,1.7295297E2,2.1471121E2,5.950335E2,7.520381E2,1.2690703E3,3.2058084E2,6.8038487E0,1.7096476E1,4.8834602E1,2.3026247E1,1.82314E1,2.5568087E0,3.478048E1,2.3844758E3,3.881891E2,2.4714175E2,1.166995E1,8.986483E1,1.7463124E2,1.19975784E2,6.4979367E0,4.937182E2,3.4439053E2,1.8731699E1,1.5985496E1,9.928079E0,1.3860019E1,5.171785E1,2.0691578E1,3.813074E1,3.524944E1,2.778953E2,3.826789E2,2.2514438E2,2.5488215E3,1.1436665E1,1.0747714E1,4.6402393E2,5.8666876E2,1.361534E2,3.6799576E1,1.2372138E1,2.0233908E2,1.4564622E2,4.493873E2,7.221343E2,2.9903826E1,1.892021E2,1.0798683E3,1.2468129E0,3.19334E2,2.8089392E0,3.9949098E0,6.3659678E0,1.0730508E1,2.3044973E1,2.5789627E1,2.8092957E0,2.0216951E1,1.2613247E1,5.618152E0],"tree_param":{"num_deleted":"0","num_feature":"60","num_nodes":"105","size_leaf_vector":"1"}},{"base_weights":[6.3067465E-4,-4.1301185E-1,2.9435706E-1,-5.4337806E-1,-1.5909705E-1,1.6757017E-1,5.703707E-1,-7.9175204E-1,-4.5088598E-1,-8.312305E-1,-1.0872789E-1,-3.9128816E-1,2.0573369E-1,6.0277563E-1,-2.292743E-1,-1.4435709E0,-7.2734934E-1,-8.444911E-2,-4.400805E-1,5.931526E-2,-1.2881066E0,5.1923074E-2,-2.5299165E-1,-1.1515706E0,-2.3618929E-1,3.425998E-1,5.3935964E-2,-8.521802E-2,6.111754E-1,8.983188E-1,-4.974165E-1,1.7412189E-1,-1.6170261E0,1.0767862E-2,-8.1101316E-1,-3.9154306E-1,-7.316955E-1,-8.6512856E-2,5.4291123E-1,-1.7402873E0,-1.6498289E-1,-5.7293457E-1,9.271073E-2,-2.1579325E-1,-1.3353086E0,-1.4780724E0,-2.6406103E-1,-1.1530927E-1,-1.481019E0,2.6173693E-1,5.182723E-1,1.8111385E-1,-1.9264401E-1,5.559794E-1,9.4430363E-1,1.4948193E0,-7.541972E-2,-1.1352803E0,-1.1850834E-2,4.294255E-2,-6.399352E-2,-8.591132E-2,-9.410688E-3,-4.7237087E-2,2.2737488E-2,-4.1866302E-2,3.9606642E-2,-2.1758541E-2,-5.168251E-3,-3.0696457E-2,-6.4882256E-2,-4.500561E-2,5.4047734E-2,-9.3828134E-2,-4.021005E-2,-8.404171E-2,3.0506188E-2,-4.064065E-2,7.845849E-2,-2.9279826E-2,6.4273104E-3,1.4665264E-2,-1.4774217E-2,-9.413029E-2,-5.9558703E-3,-3.7038375E-2,-9.326754E-2,2.0646296E-2,-7.970246E-2,-8.948545E-2,-1.8005165E-3,-8.928964E-2,-1.8330446E-2,2.6983498E-2,9.954335E-3,-4.9994648E-2,2.685524E-2,1.9572272E-3,1.6839296E-2,-7.046644E-2,-7.044703E-3,4.5859884E-2,2.5594307E-2,-2.2057354E-2,5.0779607E-2,3.2475285E-2,8.201524E-2,-9.3328714E-2,9.430227E-3,1.4226927E-2,-4.837191E-2],"categories":[],"categories_nodes":[],"categories_segments":[],"categories_sizes":[],"default_left":[0,0,0,0,0,0,0,0,0,0,0,0,0,0,0,0,0,0,0,0,0,0,0,0,0,0,0,0,0,0,0,0,0,0,0,0,0,0,0,0,0,0,0,0,0,0,0,0,0,0,0,0,0,0,0,0,0,0,0,0,0,0,0,0,0,0,0,0,0,0,0,0,0,0,0,0,0,0,0,0,0,0,0,0,0,0,0,0,0,0,0,0,0,0,0,0,0,0,0,0,0,0,0,0,0,0,0,0,0,0,0],"id":3,"left_children":[1,3,5,7,9,11,13,15,17,19,21,23,25,27,29,31,33,-1,35,37,39,41,43,45,47,49,51,-1,53,55,57,59,61,63,65,67,69,-1,71,73,75,77,79,81,83,85,87,89,91,93,95,97,99,101,103,105,-1,107,109,-1,-1,-1,-1,-1,-1,-1,-1,-1,-1,-1,-1,-1,-1,-1,-1,-1,-1,-1,-1,-1,-1,-1,-1,-1,-1,-1,-1,-1,-1,-1,-1,-1,-1,-1,-1,-1,-1,-1,-1,-1,-1,-1,-1,-1,-1,-1,-1,-1,-1,-1,-1],"loss_changes":[1.5097008E3,1.7070764E2,2.5418115E2,7.795288E1,5.921672E1,1.0630287E2,5.9391968E1,3.7723633E1,3.251758E1,4.9704887E1,3.780947E1,3.73098E1,9.6853806E1,4.3635742E1,2.7592802E1,2.3301392E1,5.2042847E1,0E0,3.4618347E1,3.756011E1,4.06772E1,1.9739439E1,3.431207E1,1.5182938E1,3.985044E1,3.4692566E1,6.940053E1,0E0,3.9755554E1,2.7528347E1,2.2651222E1,9.907647E0,1.0404388E1,3.724036E1,3.2589172E1,2.6562286E1,2.2579758E1,0E0,2.7428425E1,5.813553E0,2.9527443E1,2.5667503E1,1.7721334E1,3.3843296E1,1.8654709E1,9.774757E0,1.4768465E1,3.226828E1,7.3121223E0,2.9162361E1,2.2603561E1,3.224954E1,4.7221687E1,2.9501282E1,3.1060577E1,7.314148E-1,0E0,3.0962738E1,1.2329113E1,0E0,0E0,0E0,0E0,0E0,0E0,0E0,0E0,0E0,0E0,0E0,0E0,0E0,0E0,0E0,0E0,0E0,0E0,0E0,0E0,0E0,0E0,0E0,0E0,0E0,0E0,0E0,0E0,0E0,0E0,0E0,0E0,0E0,0E0,0E0,0E0,0E0,0E0,0E0,0E0,0E0,0E0,0E0,0E0,0E0,0E0,0E0,0E0,0E0,0E0,0E0,0E0],"parents":[2147483647,0,0,1,1,2,2,3,3,4,4,5,5,6,6,7,7,8,8,9,9,10,10,11,11,12,12,13,13,14,14,15,15,16,16,18,18,19,19,20,20,21,21,22,22,23,23,24,24,25,25,26,26,28,28,29,29,30,30,31,31,32,32,33,33,34,34,35,35,36,36,38,38,39,39,40,40,41,41,42,42,43,43,44,44,45,45,46,46,47,47,48,48,49,49,50,50,51,51,52,52,53,53,54,54,55,55,57,57,58,58],"right_children":[2,4,6,8,10,12,14,16,18,20,22,24,26,28,30,32,34,-1,36,38,40,42,44,46,48,50,52,-1,54,56,58,60,62,64,66,68,70,-1,72,74,76,78,80,82,84,86,88,90,92,94,96,98,100,102,104,106,-1,108,110,-1,-1,-1,-1,-1,-1,-1,-1,-1,-1,-1,-1,-1,-1,-1,-1,-1,-1,-1,-1,-1,-1,-1,-1,-1,-1,-1,-1,-1,-1,-1,-1,-1,-1,-1,-1,-1,-1,-1,-1,-1,-1,-1,-1,-1,-1,-1,-1,-1,-1,-1,-1],"split_conditions":[7E0,3.9E0,1.126771E2,1.88E-2,5.9E1,1.72E-2,8E0,8.55E1,7.6E-2,3.17E1,5E0,3.96E1,-4.90684E1,1.68E-2,-5.70289E1,4.9E1,8.66E1,-8.444911E-2,2.75E1,4.8E0,9.07E1,4.8E0,3.652E-1,1.04E1,1.29E1,1.12E1,3.98E1,-8.521802E-2,1.95E1,7.3E1,7.4E1,8.8E-3,8.9E1,1.28E-2,1.3E1,8.7E1,8.5E1,-8.6512856E-2,8.95E1,9.6E-2,6E0,9.5E1,-5.86737E1,8.6E1,7.948E-1,3.68E1,9.04E1,8.62E1,8.8E1,-5.76868E1,9.84889E1,7.5E1,-4.87395E1,5.3E0,3.4E-2,9.05E1,-7.541972E-2,9.23E1,9.18E1,4.294255E-2,-6.399352E-2,-8.591132E-2,-9.410688E-3,-4.7237087E-2,2.2737488E-2,-4.1866302E-2,3.9606642E-2,-2.1758541E-2,-5.168251E-3,-3.0696457E-2,-6.4882256E-2,-4.500561E-2,5.4047734E-2,-9.3828134E-2,-4.021005E-2,-8.404171E-2,3.0506188E-2,-4.064065E-2,7.845849E-2,-2.9279826E-2,6.4273104E-3,1.4665264E-2,-1.4774217E-2,-9.413029E-2,-5.9558703E-3,-3.7038375E-2,-9.326754E-2,2.0646296E-2,-7.970246E-2,-8.948545E-2,-1.8005165E-3,-8.928964E-2,-1.8330446E-2,2.6983498E-2,9.954335E-3,-4.9994648E-2,2.685524E-2,1.9572272E-3,1.6839296E-2,-7.046644E-2,-7.044703E-3,4.5859884E-2,2.5594307E-2,-2.2057354E-2,5.0779607E-2,3.2475285E-2,8.201524E-2,-9.3328714E-2,9.430227E-3,1.4226927E-2,-4.837191E-2],"split_indices":[0,0,13,53,44,53,46,3,0,2,46,1,37,53,37,44,3,0,1,0,28,27,53,27,0,0,26,0,0,44,44,53,44,53,27,44,44,0,28,53,46,44,37,3,53,26,28,28,44,37,13,44,37,27,53,3,0,3,3,0,0,0,0,0,0,0,0,0,0,0,0,0,0,0,0,0,0,0,0,0,0,0,0,0,0,0,0,0,0,0,0,0,0,0,0,0,0,0,0,0,0,0,0,0,0,0,0,0,0,0,0],"split_type":[0,0,0,0,0,0,0,0,0,0,0,0,0,0,0,0,0,0,0,0,0,0,0,0,0,0,0,0,0,0,0,0,0,0,0,0,0,0,0,0,0,0,0,0,0,0,0,0,0,0,0,0,0,0,0,0,0,0,0,0,0,0,0,0,0,0,0,0,0,0,0,0,0,0,0,0,0,0,0,0,0,0,0,0,0,0,0,0,0,0,0,0,0,0,0,0,0,0,0,0,0,0,0,0,0,0,0,0,0,0,0],"sum_hessian":[1.2423752E4,5.158644E3,7.2651074E3,3.407836E3,1.750808E3,4.979418E3,2.2856895E3,9.2264557E2,2.4851904E3,1.20976524E2,1.6298315E3,3.1770862E2,4.6617095E3,2.1969077E3,8.8781654E1,8.1038704E1,8.416069E2,2.0158125E1,2.4650322E3,4.1315075E1,7.9661446E1,7.714221E2,8.5840936E2,5.2742805E1,2.6496582E2,2.450761E3,2.2109485E3,7.236993E0,2.1896707E3,1.6604818E1,7.2176834E1,7.84744E0,7.319127E1,8.577093E1,7.5583594E2,2.1152974E3,3.4973495E2,8.240984E0,3.307409E1,5.640338E1,2.3258066E1,4.6469727E1,7.249524E2,8.310463E2,2.7363054E1,3.8071457E1,1.4671349E1,2.4250941E2,2.2456408E1,1.6799583E3,7.7080273E2,1.4588083E3,7.5214014E2,1.8807228E3,3.08948E2,1.3610397E1,2.9944217E0,3.0617748E1,4.155909E1,5.6132874E0,2.2341523E0,6.816099E1,5.030278E0,2.6852596E1,5.891833E1,7.441005E2,1.1735434E1,1.8367228E3,2.7857465E2,2.9122073E2,5.8514214E1,8.79992E0,2.427417E1,4.8358643E1,8.044737E0,7.473622E0,1.5784444E1,4.2348038E1,4.1216893E0,3.5608078E1,6.8934436E2,1.12117065E2,7.1892926E2,1.8493055E1,8.869998E0,1.4113937E1,2.3957521E1,1.017939E1,4.4919586E0,9.990502E0,2.3251892E2,1.7160753E1,5.2956543E0,3.0762756E2,1.3723307E3,8.806188E0,7.619965E2,7.636389E2,6.9516943E2,2.9615746E1,7.2252435E2,2.0244698E2,1.6782758E3,1.4865109E1,2.940829E2,2.8008764E0,1.0809521E1,1.9458979E1,1.1158769E1,3.22565E1,9.3025875E0],"tree_param":{"num_deleted":"0","num_feature":"60","num_nodes":"111","size_leaf_vector":"1"}},{"base_weights":[4.3428834E-3,-4.5594826E-1,2.554054E-1,-6.939448E-1,-3.451113E-1,7.756255E-2,4.949114E-1,-7.785694E-1,-2.7003938E-1,-7.819369E-1,-3.03884E-1,-4.0629372E-1,1.1286397E-1,-7.349296E-1,5.13208E-1,-8.089221E-1,1.0633068E-2,5.106575E-2,-7.943495E-1,-1.2297614E0,-5.4977876E-1,-6.1939853E-1,-2.538775E-1,-4.6756497E-1,8.1930023E-1,4.3925354E-1,7.928903E-2,-8.79434E-2,-1.4792876E-1,3.9721334E-1,6.490611E-1,-7.377025E-1,-1.111274E0,3.498586E-1,-8.141995E-2,-1.2363332E-1,8.0404985E-1,-3.1405115E-1,-9.266139E-2,-1.3765328E0,2.3328546E-1,-1.9155064E-1,-9.390339E-1,-1.3097106E0,-4.9085692E-1,5.9894395E-1,-2.682466E-1,-1.866275E-2,-6.6957086E-1,1.2981818E0,-6.792732E-2,-1.2474556E0,4.9362078E-1,-1.5838142E-1,1.1136969E-1,8.2448584E-1,-6.813933E-1,4.7242087E-1,1.5541962E-1,8.069892E-1,5.5229825E-1,-3.821702E-2,1.4206149E-2,-4.2088967E-2,-7.332358E-2,4.0004008E-2,-4.5556787E-2,-7.769612E-2,-2.7029028E-3,-7.669108E-2,6.3265786E-2,-3.2482374E-2,3.1574305E-2,-7.3170505E-2,1.8850721E-2,8.398358E-2,-6.988674E-2,2.9689727E-2,-2.0832596E-2,-7.658281E-2,1.1869892E-2,-8.303465E-2,-9.13988E-3,-5.2746475E-2,-1.9006757E-2,-7.680725E-2,4.4124424E-2,-1.5294112E-2,-5.4058875E-3,-3.1062407E-2,2.6299724E-2,5.5563867E-2,-3.7193146E-2,8.352339E-2,1.19244475E-2,-9.288534E-2,5.3124405E-2,-1.3783145E-2,2.950131E-2,-2.3989538E-2,2.621499E-3,1.06567945E-2,2.2161696E-3,-6.5764174E-2,6.8534546E-2,4.2036556E-2,-6.257025E-2,1.7243192E-2,3.4134354E-2,2.9392293E-2,-1.0754097E-3,4.883923E-2,2.2180265E-2,-1.7420998E-2,2.9017651E-2],"categories":[],"categories_nodes":[],"categories_segments":[],"categories_sizes":[],"default_left":[0,0,0,0,0,0,0,0,0,0,0,0,0,0,0,0,0,0,0,0,0,0,0,0,0,0,0,0,0,0,0,0,0,0,0,0,0,0,0,0,0,0,0,0,0,0,0,0,0,0,0,0,0,0,0,0,0,0,0,0,0,0,0,0,0,0,0,0,0,0,0,0,0,0,0,0,0,0,0,0,0,0,0,0,0,0,0,0,0,0,0,0,0,0,0,0,0,0,0,0,0,0,0,0,0,0,0,0,0,0,0,0,0,0,0],"id":4,"left_children":[1,3,5,7,9,11,13,15,17,19,21,23,25,27,29,31,33,35,37,39,41,43,45,47,49,51,53,-1,55,57,59,61,63,65,-1,67,69,71,-1,73,75,77,79,81,83,85,87,89,91,93,-1,95,97,99,101,103,105,107,109,111,113,-1,-1,-1,-1,-1,-1,-1,-1,-1,-1,-1,-1,-1,-1,-1,-1,-1,-1,-1,-1,-1,-1,-1,-1,-1,-1,-1,-1,-1,-1,-1,-1,-1,-1,-1,-1,-1,-1,-1,-1,-1,-1,-1,-1,-1,-1,-1,-1,-1,-1,-1,-1,-1,-1],"loss_changes":[1.4352838E3,1.15391785E2,3.42274E2,4.9717712E1,5.365808E1,7.884239E1,7.7432434E1,2.7787598E1,3.9291935E1,2.6090332E1,4.3014404E1,2.3955036E1,4.708962E1,3.015892E1,5.292279E1,2.322705E1,2.499805E1,1.9243155E1,4.448406E1,1.9022446E1,2.3715347E1,3.2512177E1,2.9124725E1,2.7154755E1,1.7729893E1,3.7376938E1,2.975659E1,0E0,1.7815466E1,3.3077698E1,2.3282959E1,2.4899597E1,1.8955994E1,2.1862568E1,0E0,1.1757051E1,3.1638292E1,2.0136297E1,0E0,1.2631836E1,2.3096788E1,1.624518E1,5.7440796E1,2.265857E1,1.9371758E1,2.5252491E1,1.3979355E1,3.1179573E1,2.8158577E1,4.7542534E0,0E0,2.0019236E1,2.9017738E1,3.1482796E1,2.3442104E1,1.61026E1,2.016171E1,3.7046326E1,3.3216923E1,3.583206E1,2.4612427E1,0E0,0E0,0E0,0E0,0E0,0E0,0E0,0E0,0E0,0E0,0E0,0E0,0E0,0E0,0E0,0E0,0E0,0E0,0E0,0E0,0E0,0E0,0E0,0E0,0E0,0E0,0E0,0E0,0E0,0E0,0E0,0E0,0E0,0E0,0E0,0E0,0E0,0E0,0E0,0E0,0E0,0E0,0E0,0E0,0E0,0E0,0E0,0E0,0E0,0E0,0E0,0E0,0E0,0E0],"parents":[2147483647,0,0,1,1,2,2,3,3,4,4,5,5,6,6,7,7,8,8,9,9,10,10,11,11,12,12,13,13,14,14,15,15,16,16,17,17,18,18,19,19,20,20,21,21,22,22,23,23,24,24,25,25,26,26,28,28,29,29,30,30,31,31,32,32,33,33,35,35,36,36,37,37,39,39,40,40,41,41,42,42,43,43,44,44,45,45,46,46,47,47,48,48,49,49,51,51,52,52,53,53,54,54,55,55,56,56,57,57,58,58,59,59,60,60],"right_children":[2,4,6,8,10,12,14,16,18,20,22,24,26,28,30,32,34,36,38,40,42,44,46,48,50,52,54,-1,56,58,60,62,64,66,-1,68,70,72,-1,74,76,78,80,82,84,86,88,90,92,94,-1,96,98,100,102,104,106,108,110,112,114,-1,-1,-1,-1,-1,-1,-1,-1,-1,-1,-1,-1,-1,-1,-1,-1,-1,-1,-1,-1,-1,-1,-1,-1,-1,-1,-1,-1,-1,-1,-1,-1,-1,-1,-1,-1,-1,-1,-1,-1,-1,-1,-1,-1,-1,-1,-1,-1,-1,-1,-1,-1,-1,-1],"split_conditions":[6.1E0,2.12E-2,1.056928E2,4.7E0,8.66E1,1.72E-2,1.68E-2,3.88E1,3.46E1,2.1E0,6.4E1,1.15E1,-5.76868E1,3.95E1,1.333E1,4.43E1,7.8E1,-4.06474E1,8E0,9.1E1,2.75E1,3E0,-6.33447E1,3.74E1,-4.83447E1,2.96E1,6.2E1,-8.79434E-2,1.29E1,6E0,-5.21605E1,4.41E1,8E0,-4.78184E1,-8.141995E-2,4.9E1,7.1E1,3.78E1,-9.266139E-2,4.572E-1,2.28E-2,3E0,9E0,3.58E1,2.68E-2,8.82E1,8.6E1,7.3E1,8.52E1,4.39E1,-6.792732E-2,6.66E-1,6.5E1,8.7298E1,3.95E1,-5.14368E1,-5.80158E1,7.9E1,2.68E-2,3.7E1,2.24E-2,-3.821702E-2,1.4206149E-2,-4.2088967E-2,-7.332358E-2,4.0004008E-2,-4.5556787E-2,-7.769612E-2,-2.7029028E-3,-7.669108E-2,6.3265786E-2,-3.2482374E-2,3.1574305E-2,-7.3170505E-2,1.8850721E-2,8.398358E-2,-6.988674E-2,2.9689727E-2,-2.0832596E-2,-7.658281E-2,1.1869892E-2,-8.303465E-2,-9.13988E-3,-5.2746475E-2,-1.9006757E-2,-7.680725E-2,4.4124424E-2,-1.5294112E-2,-5.4058875E-3,-3.1062407E-2,2.6299724E-2,5.5563867E-2,-3.7193146E-2,8.352339E-2,1.19244475E-2,-9.288534E-2,5.3124405E-2,-1.3783145E-2,2.950131E-2,-2.3989538E-2,2.621499E-3,1.06567945E-2,2.2161696E-3,-6.5764174E-2,6.8534546E-2,4.2036556E-2,-6.257025E-2,1.7243192E-2,3.4134354E-2,2.9392293E-2,-1.0754097E-3,4.883923E-2,2.2180265E-2,-1.7420998E-2,2.9017651E-2],"split_indices":[0,53,13,0,3,53,53,2,2,0,44,0,37,26,16,26,44,37,46,44,1,46,37,26,37,2,44,0,0,46,37,26,46,37,0,44,44,2,0,53,53,46,46,2,53,3,44,44,3,26,0,53,44,13,26,37,37,44,53,2,53,0,0,0,0,0,0,0,0,0,0,0,0,0,0,0,0,0,0,0,0,0,0,0,0,0,0,0,0,0,0,0,0,0,0,0,0,0,0,0,0,0,0,0,0,0,0,0,0,0,0,0,0,0,0],"split_type":[0,0,0,0,0,0,0,0,0,0,0,0,0,0,0,0,0,0,0,0,0,0,0,0,0,0,0,0,0,0,0,0,0,0,0,0,0,0,0,0,0,0,0,0,0,0,0,0,0,0,0,0,0,0,0,0,0,0,0,0,0,0,0,0,0,0,0,0,0,0,0,0,0,0,0,0,0,0,0,0,0,0,0,0,0,0,0,0,0,0,0,0,0,0,0,0,0,0,0,0,0,0,0,0,0,0,0,0,0,0,0,0,0,0,0],"sum_hessian":[1.2418041E4,4.3824893E3,8.035552E3,1.3908031E3,2.991686E3,4.61216E3,3.4233914E3,1.1586617E3,2.3214136E2,2.564537E2,2.7352324E3,3.1290076E2,4.2992593E3,4.960972E1,3.3737817E3,1.115726E3,4.293574E1,1.4452934E2,8.761202E1,8.609074E1,1.7036296E2,3.7264624E2,2.3625862E3,2.985917E2,1.4309028E1,3.9987753E2,3.8993818E3,1.7349558E1,3.2260162E1,1.8220208E3,1.551761E3,9.0580225E2,2.0992375E2,3.6224926E1,6.7108183E0,1.1799033E2,2.6539007E1,6.116478E1,2.6447245E1,7.829535E1,7.795382E0,8.949426E1,8.086869E1,5.705461E1,3.155916E2,3.847331E1,2.3241128E3,9.300538E1,2.0558633E2,1.20609E1,2.248128E0,1.1801406E1,3.880761E2,4.6327316E2,3.4361086E3,1.1235052E1,2.1025108E1,1.3890245E3,4.3299612E2,5.8676044E2,9.650005E2,8.8303455E2,2.2767727E1,1.2127795E2,8.8645805E1,2.6963482E1,9.261442E0,4.483646E0,1.1350668E2,3.9901516E0,2.2548857E1,4.5373463E1,1.5791317E1,7.4757065E1,3.5382857E0,4.1157303E0,3.6796517E0,1.9572119E1,6.992214E1,5.3577377E1,2.7291315E1,4.3143654E1,1.3910958E1,5.038373E1,2.652079E2,3.9924598E0,3.448085E1,1.8810847E3,4.4302805E2,4.4087852E1,4.8917526E1,7.6740465E0,1.979123E2,8.49878E0,3.5621192E0,9.490059E0,2.3113468E0,4.301011E1,3.45066E2,1.8299603E2,2.8027713E2,1.3638344E3,2.0722744E3,1.998368E0,9.236684E0,5.598985E0,1.5426124E1,8.661928E2,5.228318E2,1.25047386E2,3.0794873E2,3.987512E2,1.8800923E2,2.8804094E1,9.361964E2],"tree_param":{"num_deleted":"0","num_feature":"60","num_nodes":"115","size_leaf_vector":"1"}},{"base_weights":[1.5830273E-2,-3.8468277E-1,2.6736796E-1,-6.975618E-1,-3.2339323E-1,8.1721E-2,4.5387423E-1,-9.8048574E-1,-4.69048E-1,-3.8363302E-1,-9.207048E-2,-4.1407168E-1,1.1709528E-1,-5.8495295E-1,4.730977E-1,-1.0305767E0,5.719059E-3,-1.356659E0,-3.442881E-1,-8.1299745E-2,-3.7449282E-1,-5.276863E-1,8.3197905E-3,-3.2513854E-1,-8.997368E-2,1.6630898E-1,-1.0317489E-1,-8.724897E-2,2.8880423E-2,5.0355285E-1,-5.283928E-2,-9.142652E-1,-1.5191649E0,-7.833846E-2,8.1764495E-1,-8.939423E-2,-9.066347E-1,4.3219667E-2,-6.319253E-1,-4.0441808E-1,-1.21490754E-1,-1.0085642E0,-1.8828544E-1,5.28552E-2,-6.2391996E-1,7.672291E-2,-6.369204E-1,6.754833E-2,2.6401794E-1,-3.8337454E-1,3.2661918E-1,-3.8573217E-1,9.4985276E-1,4.432057E-1,7.699986E-1,2.2803725E-1,-7.373429E-1,-5.100126E-2,-1.0061985E-2,-8.204671E-2,6.2341723E-3,6.307183E-2,-6.0842194E-2,2.9100705E-2,-8.695937E-2,-1.5833274E-2,3.7637588E-2,-2.6095316E-2,-8.6810105E-2,-1.7872468E-2,-2.9277448E-2,1.8776449E-3,-3.1951703E-2,-7.930338E-2,-2.8403139E-2,2.072345E-2,-3.2921027E-2,-3.0218402E-2,5.2588233E-3,-9.259619E-2,2.1572246E-3,-4.2009596E-2,2.3995005E-2,-2.6012812E-2,-8.661216E-2,-1.3340505E-2,6.6421344E-3,2.6832813E-2,6.8285116E-3,-7.359152E-3,-5.6206174E-2,3.148561E-3,3.9458197E-2,2.7874356E-2,-5.0140496E-2,6.072083E-2,-5.3464312E-2,1.3849664E-2,2.7988328E-2,-8.4915854E-2,3.9339513E-2,-8.095342E-3,3.528696E-2,-5.01763E-2,4.267509E-2],"categories":[],"categories_nodes":[],"categories_segments":[],"categories_sizes":[],"default_left":[0,0,0,0,0,0,0,0,0,0,0,0,0,0,0,0,0,0,0,0,0,0,0,0,0,0,0,0,0,0,0,0,0,0,0,0,0,0,0,0,0,0,0,0,0,0,0,0,0,0,0,0,0,0,0,0,0,0,0,0,0,0,0,0,0,0,0,0,0,0,0,0,0,0,0,0,0,0,0,0,0,0,0,0,0,0,0,0,0,0,0,0,0,0,0,0,0,0,0,0,0,0,0,0,0],"id":5,"left_children":[1,3,5,7,9,11,13,15,17,19,21,23,25,27,29,31,33,35,37,-1,39,41,43,45,-1,47,49,-1,51,53,55,57,59,-1,61,-1,63,65,67,69,71,73,75,77,79,81,83,85,87,89,91,93,95,97,99,101,103,-1,-1,-1,-1,-1,-1,-1,-1,-1,-1,-1,-1,-1,-1,-1,-1,-1,-1,-1,-1,-1,-1,-1,-1,-1,-1,-1,-1,-1,-1,-1,-1,-1,-1,-1,-1,-1,-1,-1,-1,-1,-1,-1,-1,-1,-1,-1,-1],"loss_changes":[1.255452E3,9.196069E1,2.6499286E2,5.039438E1,5.6006927E1,6.734785E1,7.65249E1,1.7322266E1,4.7931137E1,3.5620514E1,3.639993E1,3.0928196E1,3.885262E1,4.9765564E1,6.0081726E1,1.7568848E1,2.4183437E1,8.765236E0,4.288773E1,0E0,2.3940002E1,2.525296E1,1.9105392E1,3.0315275E1,0E0,2.8242989E1,7.8989006E1,0E0,1.8176468E1,5.6647034E1,3.979937E1,2.0303345E1,1.2741913E1,0E0,1.2809373E1,0E0,3.5984966E1,4.230998E1,2.5915543E1,2.3891754E1,2.7727005E1,1.54492035E1,2.6518614E1,2.185467E1,3.6656837E1,3.9747845E1,1.649487E1,3.1862314E1,5.1068123E1,6.927211E1,3.153287E1,1.9692928E1,9.187557E0,5.5875732E1,2.8406769E1,2.7482494E1,2.6352913E1,0E0,0E0,0E0,0E0,0E0,0E0,0E0,0E0,0E0,0E0,0E0,0E0,0E0,0E0,0E0,0E0,0E0,0E0,0E0,0E0,0E0,0E0,0E0,0E0,0E0,0E0,0E0,0E0,0E0,0E0,0E0,0E0,0E0,0E0,0E0,0E0,0E0,0E0,0E0,0E0,0E0,0E0,0E0,0E0,0E0,0E0,0E0,0E0],"parents":[2147483647,0,0,1,1,2,2,3,3,4,4,5,5,6,6,7,7,8,8,9,9,10,10,11,11,12,12,13,13,14,14,15,15,16,16,17,17,18,18,20,20,21,21,22,22,23,23,25,25,26,26,28,28,29,29,30,30,31,31,32,32,34,34,36,36,37,37,38,38,39,39,40,40,41,41,42,42,43,43,44,44,45,45,46,46,47,47,48,48,49,49,50,50,51,51,52,52,53,53,54,54,55,55,56,56],"right_children":[2,4,6,8,10,12,14,16,18,20,22,24,26,28,30,32,34,36,38,-1,40,42,44,46,-1,48,50,-1,52,54,56,58,60,-1,62,-1,64,66,68,70,72,74,76,78,80,82,84,86,88,90,92,94,96,98,100,102,104,-1,-1,-1,-1,-1,-1,-1,-1,-1,-1,-1,-1,-1,-1,-1,-1,-1,-1,-1,-1,-1,-1,-1,-1,-1,-1,-1,-1,-1,-1,-1,-1,-1,-1,-1,-1,-1,-1,-1,-1,-1,-1,-1,-1,-1,-1,-1,-1],"split_conditions":[7.9E0,1.52E-2,1.12E1,7.2E1,6.69E0,1.72E-2,1.68E-2,3.9E1,3E0,8.45E1,6.9E0,1.68E-2,7E0,8.9E1,8E0,4.41E1,8.95E1,7.8E1,3.96E1,-8.1299745E-2,8.8E1,7.4E1,8.9E1,8.87E1,-8.997368E-2,8.9E0,8E1,-8.724897E-2,1.08E1,1.73E1,6.56E-2,4.33E1,4.91E1,-7.833846E-2,9.04E1,-8.939423E-2,8E1,3.3E0,8.8E1,-4.295E1,4.57E0,8.82E1,8.78E1,5.9E1,8.83E1,6.6E1,3.79E1,2.48E-2,9.5E0,9.05E1,8.6E-2,7.9E0,8.1E1,8.5E0,4.5E1,9.7E0,7.26E-1,-5.100126E-2,-1.0061985E-2,-8.204671E-2,6.2341723E-3,6.307183E-2,-6.0842194E-2,2.9100705E-2,-8.695937E-2,-1.5833274E-2,3.7637588E-2,-2.6095316E-2,-8.6810105E-2,-1.7872468E-2,-2.9277448E-2,1.8776449E-3,-3.1951703E-2,-7.930338E-2,-2.8403139E-2,2.072345E-2,-3.2921027E-2,-3.0218402E-2,5.2588233E-3,-9.259619E-2,2.1572246E-3,-4.2009596E-2,2.3995005E-2,-2.6012812E-2,-8.661216E-2,-1.3340505E-2,6.6421344E-3,2.6832813E-2,6.8285116E-3,-7.359152E-3,-5.6206174E-2,3.148561E-3,3.9458197E-2,2.7874356E-2,-5.0140496E-2,6.072083E-2,-5.3464312E-2,1.3849664E-2,2.7988328E-2,-8.4915854E-2,3.9339513E-2,-8.095342E-3,3.528696E-2,-5.01763E-2,4.267509E-2],"split_indices":[16,53,0,44,16,53,53,2,46,3,27,53,46,28,46,26,28,44,26,0,44,44,44,28,0,27,44,0,27,0,53,26,26,0,28,0,44,0,44,37,16,3,3,44,3,44,2,53,27,3,53,27,44,27,44,27,53,0,0,0,0,0,0,0,0,0,0,0,0,0,0,0,0,0,0,0,0,0,0,0,0,0,0,0,0,0,0,0,0,0,0,0,0,0,0,0,0,0,0,0,0,0,0,0,0],"split_type":[0,0,0,0,0,0,0,0,0,0,0,0,0,0,0,0,0,0,0,0,0,0,0,0,0,0,0,0,0,0,0,0,0,0,0,0,0,0,0,0,0,0,0,0,0,0,0,0,0,0,0,0,0,0,0,0,0,0,0,0,0,0,0,0,0,0,0,0,0,0,0,0,0,0,0,0,0,0,0,0,0,0,0,0,0,0,0,0,0,0,0,0,0,0,0,0,0,0,0,0,0,0,0,0,0],"sum_hessian":[1.2459769E4,4.8063257E3,7.6534424E3,7.855849E2,4.020741E3,3.8362778E3,3.8171646E3,3.4953427E2,4.3605066E2,3.1894927E3,8.312482E2,2.5477272E2,3.5815051E3,6.8818504E1,3.7483462E3,3.3259616E2,1.6938114E1,5.252E1,3.8353064E2,2.2002151E1,3.1674905E3,1.5488991E2,6.763583E2,2.4056483E2,1.4207893E1,2.9276436E3,6.5386176E2,2.317655E1,4.5641956E1,3.5432136E3,2.0513245E2,2.7096292E2,6.1633236E1,5.4510875E0,1.1487026E1,2.5302038E1,2.721796E1,1.6376051E2,2.1977013E2,2.8319294E3,3.355611E2,6.327191E1,9.1618E1,6.327064E2,4.3651886E1,1.05429146E2,1.3513568E2,1.456827E3,1.4708165E3,3.9588E2,2.5798175E2,3.1873838E1,1.3768117E1,2.8910781E3,6.521356E2,1.4592216E2,5.9210278E1,2.3558853E2,3.5374386E1,5.738423E1,4.249005E0,9.741947E0,1.7450786E0,9.870287E0,1.7347673E1,1.09018456E2,5.4742065E1,2.0119746E2,1.857266E1,2.251159E3,5.807707E2,2.57391E2,7.8170105E1,2.6253124E1,3.7018787E1,4.0198456E1,5.141954E1,4.5877254E1,5.8682916E2,1.474024E1,2.8911644E1,3.1868694E1,7.356045E1,1.2346072E2,1.1674973E1,2.3750885E2,1.2193181E3,4.6750693E2,1.0033096E3,3.0107837E2,9.480164E1,1.6504382E2,9.293792E1,1.2643891E1,1.9229946E1,1.25254755E1,1.2426416E0,1.1931116E3,1.6979664E3,3.7297826E0,6.484059E2,8.070468E1,6.521748E1,5.1039448E1,8.170829E0],"tree_param":{"num_deleted":"0","num_feature":"60","num_nodes":"105","size_leaf_vector":"1"}},{"base_weights":[-1.7435226E-3,-3.8345566E-1,2.659737E-1,-4.874226E-1,-1.7853802E-1,8.36183E-2,4.3271768E-1,-4.3301877E-1,-7.862062E-1,-8.3028173E-1,-1.4174998E-1,-5.5443507E-2,1.9834888E-1,4.5403108E-1,-5.800501E-1,-5.4508597E-1,-2.9447564E-1,-1.0609171E0,-5.222665E-1,2.1706206E-1,-1.2777325E0,1.3153316E-2,-2.829616E-1,-1.0307606E0,-2.1385325E-2,-3.7380863E-2,2.6461542E-1,3.2937893E-1,5.761898E-1,-1.0088695E0,4.2065367E-1,-8.6829096E-2,-5.218513E-1,-5.006591E-1,-1.6181643E-1,-1.4279066E0,-8.041528E-1,-3.4848103E-1,-1.185095E0,7.082079E-1,-7.7823125E-2,-8.721509E-2,-2.2044525E-1,2.453301E-1,-1.2269069E-1,-2.1239977E-1,-6.438255E-1,-6.6572785E-1,-9.273168E-2,-1.2560992E0,2.7821239E-3,3.0744805E-3,-8.713136E-2,5.043572E-1,1.9295783E-1,4.826941E-1,1.1491955E-1,4.7935525E-1,8.0604154E-1,-8.823816E-2,-1.435167E0,-7.973839E-2,9.8641574E-1,1.5982687E-2,-2.6832422E-2,-1.9283576E-2,-5.5524852E-2,-5.612736E-3,-4.348151E-2,6.1951917E-2,-7.503297E-2,-2.5539106E-2,-6.515125E-2,-3.0424535E-2,1.9009672E-2,2.6958883E-2,-7.151626E-2,-6.424115E-2,5.06366E-2,3.046584E-2,-7.936062E-2,4.6361494E-3,2.9242083E-2,-5.6795735E-2,-2.471794E-3,3.931451E-2,-1.2163742E-2,-1.825971E-2,-6.0873836E-2,-1.5100711E-3,-7.0880674E-2,1.3583175E-2,-7.4689396E-2,4.4574283E-2,-1.5399101E-3,-4.6862613E-2,2.4073317E-3,1.2457547E-3,3.0649079E-2,2.8402084E-2,6.700303E-3,2.8162781E-2,4.1972804E-3,3.0246342E-2,-4.9528945E-4,-5.6602236E-2,2.4642251E-2,4.0709592E-2,-6.6996954E-2,-3.168004E-2,6.4227544E-2,-9.213303E-2,-1.2312132E-2,6.3050866E-2,-5.8556397E-2],"categories":[],"categories_nodes":[],"categories_segments":[],"categories_sizes":[],"default_left":[0,0,0,0,0,0,0,0,0,0,0,0,0,0,0,0,0,0,0,0,0,0,0,0,0,0,0,0,0,0,0,0,0,0,0,0,0,0,0,0,0,0,0,0,0,0,0,0,0,0,0,0,0,0,0,0,0,0,0,0,0,0,0,0,0,0,0,0,0,0,0,0,0,0,0,0,0,0,0,0,0,0,0,0,0,0,0,0,0,0,0,0,0,0,0,0,0,0,0,0,0,0,0,0,0,0,0,0,0,0,0,0,0,0,0],"id":6,"left_children":[1,3,5,7,9,11,13,15,17,19,21,23,25,27,29,31,33,35,37,39,41,43,45,47,49,51,53,55,57,59,61,-1,63,65,67,69,71,73,75,77,-1,-1,79,81,83,85,87,89,-1,91,93,95,-1,97,99,101,103,105,107,109,111,-1,113,-1,-1,-1,-1,-1,-1,-1,-1,-1,-1,-1,-1,-1,-1,-1,-1,-1,-1,-1,-1,-1,-1,-1,-1,-1,-1,-1,-1,-1,-1,-1,-1,-1,-1,-1,-1,-1,-1,-1,-1,-1,-1,-1,-1,-1,-1,-1,-1,-1,-1,-1,-1],"loss_changes":[1.2654886E3,1.08671814E2,2.2128308E2,5.470044E1,4.1117825E1,5.5498245E1,8.23277E1,4.4348877E1,3.7175507E1,4.3243958E1,3.5640095E1,5.2228394E1,2.978093E1,5.6517395E1,3.423841E1,4.2934845E1,3.5042274E1,2.2786682E1,3.0383156E1,2.5752934E1,3.1376465E1,2.4563944E1,2.1565193E1,1.472081E1,4.538769E1,2.8915487E1,2.5461472E1,6.0625595E1,4.1446533E1,2.1637455E1,2.9330376E1,0E0,1.953125E1,3.4792244E1,2.7365215E1,2.1896774E1,2.1541588E1,4.063079E1,2.4077866E1,1.5169116E1,0E0,0E0,2.4621826E1,1.4839649E1,3.6417885E1,2.2219002E1,2.175729E1,1.8270346E1,0E0,1.1009346E1,4.457474E1,1.7437101E1,0E0,1.7782066E1,2.5286797E1,3.451375E1,4.714408E1,2.9356781E1,1.0809326E1,1.4751723E1,1.7878128E1,0E0,1.3104113E1,0E0,0E0,0E0,0E0,0E0,0E0,0E0,0E0,0E0,0E0,0E0,0E0,0E0,0E0,0E0,0E0,0E0,0E0,0E0,0E0,0E0,0E0,0E0,0E0,0E0,0E0,0E0,0E0,0E0,0E0,0E0,0E0,0E0,0E0,0E0,0E0,0E0,0E0,0E0,0E0,0E0,0E0,0E0,0E0,0E0,0E0,0E0,0E0,0E0,0E0,0E0,0E0],"parents":[2147483647,0,0,1,1,2,2,3,3,4,4,5,5,6,6,7,7,8,8,9,9,10,10,11,11,12,12,13,13,14,14,15,15,16,16,17,17,18,18,19,19,20,20,21,21,22,22,23,23,24,24,25,25,26,26,27,27,28,28,29,29,30,30,32,32,33,33,34,34,35,35,36,36,37,37,38,38,39,39,42,42,43,43,44,44,45,45,46,46,47,47,49,49,50,50,51,51,53,53,54,54,55,55,56,56,57,57,58,58,59,59,60,60,62,62],"right_children":[2,4,6,8,10,12,14,16,18,20,22,24,26,28,30,32,34,36,38,40,42,44,46,48,50,52,54,56,58,60,62,-1,64,66,68,70,72,74,76,78,-1,-1,80,82,84,86,88,90,-1,92,94,96,-1,98,100,102,104,106,108,110,112,-1,114,-1,-1,-1,-1,-1,-1,-1,-1,-1,-1,-1,-1,-1,-1,-1,-1,-1,-1,-1,-1,-1,-1,-1,-1,-1,-1,-1,-1,-1,-1,-1,-1,-1,-1,-1,-1,-1,-1,-1,-1,-1,-1,-1,-1,-1,-1,-1,-1,-1,-1,-1,-1],"split_conditions":[7E0,3.9E0,1.12E1,2.75E1,5.7E1,8.6E0,9E0,7.6E1,2.7E0,3.12E1,5E0,8.75E1,6.7E1,7.5E1,1.06E1,8.62E1,8.91E1,3.36E1,-4.33447E1,3.86E1,9.06E1,3.3E1,4.03E1,7.5E0,4.9E1,4.11E1,7.87049E1,-4.80158E1,1.286623E2,3.59E1,9.05E1,-8.6829096E-2,8.67E1,8.87E1,1.18E1,8.64E1,9.01E1,-4.63053E1,8.62E1,4.8E0,-7.7823125E-2,-8.721509E-2,6.29064E1,6.5E0,5.8E0,8.62E1,6.8E0,5E0,-9.273168E-2,3.73E1,7.20117E1,7.5E0,-8.713136E-2,3.68E1,-5.86737E1,6E0,5.3E0,9.84889E1,5E1,3.56E1,4.51E1,-7.973839E-2,4.84E1,1.5982687E-2,-2.6832422E-2,-1.9283576E-2,-5.5524852E-2,-5.612736E-3,-4.348151E-2,6.1951917E-2,-7.503297E-2,-2.5539106E-2,-6.515125E-2,-3.0424535E-2,1.9009672E-2,2.6958883E-2,-7.151626E-2,-6.424115E-2,5.06366E-2,3.046584E-2,-7.936062E-2,4.6361494E-3,2.9242083E-2,-5.6795735E-2,-2.471794E-3,3.931451E-2,-1.2163742E-2,-1.825971E-2,-6.0873836E-2,-1.5100711E-3,-7.0880674E-2,1.3583175E-2,-7.4689396E-2,4.4574283E-2,-1.5399101E-3,-4.6862613E-2,2.4073317E-3,1.2457547E-3,3.0649079E-2,2.8402084E-2,6.700303E-3,2.8162781E-2,4.1972804E-3,3.0246342E-2,-4.9528945E-4,-5.6602236E-2,2.4642251E-2,4.0709592E-2,-6.6996954E-2,-3.168004E-2,6.4227544E-2,-9.213303E-2,-1.2312132E-2,6.3050866E-2,-5.8556397E-2],"split_indices":[0,0,0,1,44,27,46,44,0,2,46,3,44,44,27,28,28,1,37,1,28,2,1,27,44,2,13,37,13,26,3,0,28,28,27,28,28,37,28,0,0,0,13,0,27,28,0,46,0,1,13,0,0,1,37,46,27,13,26,26,26,0,1,0,0,0,0,0,0,0,0,0,0,0,0,0,0,0,0,0,0,0,0,0,0,0,0,0,0,0,0,0,0,0,0,0,0,0,0,0,0,0,0,0,0,0,0,0,0,0,0,0,0,0,0],"split_type":[0,0,0,0,0,0,0,0,0,0,0,0,0,0,0,0,0,0,0,0,0,0,0,0,0,0,0,0,0,0,0,0,0,0,0,0,0,0,0,0,0,0,0,0,0,0,0,0,0,0,0,0,0,0,0,0,0,0,0,0,0,0,0,0,0,0,0,0,0,0,0,0,0,0,0,0,0,0,0,0,0,0,0,0,0,0,0,0,0,0,0,0,0,0,0,0,0,0,0,0,0,0,0,0,0,0,0,0,0,0,0,0,0,0,0],"sum_hessian":[1.2381575E4,5.1039346E3,7.2776406E3,3.3850955E3,1.7188394E3,3.476813E3,3.8008276E3,2.8657383E3,5.19357E2,9.068464E1,1.6281548E3,1.571978E3,1.904835E3,3.7230293E3,7.7798325E1,1.5826234E3,1.283115E3,2.5300616E2,2.6635086E2,2.7299606E1,6.3385033E1,7.768687E2,8.51286E2,5.2053986E1,1.5199241E3,4.180704E2,1.4867645E3,1.844538E3,1.8784912E3,5.4455162E1,2.3343164E1,2.8861073E1,1.5537623E3,5.0126218E2,7.818528E2,1.02270836E2,1.5073532E2,2.1223198E2,5.4118874E1,2.1849464E1,5.4501405E0,4.352718E1,1.9857855E1,2.8646066E2,4.9040808E2,7.133827E2,1.379033E2,3.732463E1,1.4729353E1,2.820024E1,1.4917238E3,4.09357E2,8.7134075E0,3.407369E2,1.1460276E3,1.0748711E3,7.696669E2,1.3238501E3,5.546412E2,1.7616842E1,3.6838318E1,4.7178636E0,1.8625301E1,2.6493477E1,1.5272689E3,4.2311447E2,7.814769E1,7.317721E2,5.0080708E1,2.2901077E0,9.998073E1,9.619186E1,5.4543465E1,1.5653958E2,5.5692394E1,6.589294E0,4.752958E1,2.4693162E0,1.9380148E1,1.270118E1,7.156674E0,1.985069E2,8.795377E1,3.208723E1,4.5832083E2,2.0659525E1,6.927232E2,9.392103E1,4.3982285E1,2.0791185E1,1.6533445E1,3.7774487E0,2.442279E1,5.338342E1,1.4383403E3,1.7818594E1,3.915384E2,6.316612E1,2.775708E2,1.5448335E2,9.9154425E2,8.9386566E2,1.8100546E2,1.5547943E2,6.1418744E2,1.0302171E1,1.3135479E3,5.531609E2,1.4802687E0,1.29934435E1,4.623398E0,2.7025654E1,9.812666E0,1.6891026E1,1.7342758E0],"tree_param":{"num_deleted":"0","num_feature":"60","num_nodes":"115","size_leaf_vector":"1"}},{"base_weights":[2.743464E-3,-3.994471E-1,2.257882E-1,-6.981227E-1,-3.456583E-1,1.1422395E-1,4.981654E-1,-8.4574455E-1,-3.5751826E-1,-3.98876E-1,-1.8745074E-1,-1.8943142E-3,2.2820236E-1,4.532681E-1,7.234776E-1,-7.4652296E-1,-1.225529E0,-2.879435E-1,-8.1844725E-2,-1.0189849E0,-3.8368097E-1,8.548644E-2,-3.4921506E-1,-3.3152422E-1,5.9848066E-2,2.7989E-1,2.7231224E-2,7.830517E-1,4.1565886E-1,-8.294416E-1,7.5468963E-1,-9.231564E-1,-4.528406E-1,-1.3597795E0,1.7386073E-1,-4.269375E-1,4.4419143E-1,-8.5460685E-2,-5.723763E-1,-3.9942783E-1,1.2506677E-1,1.6044134E-1,-1.0589623E0,6.5842316E-2,-4.6244252E-1,-8.0836934E-1,-1.3317999E-1,-1.3185035E-1,1.6320261E-1,-3.9817864E-1,3.0359372E-1,5.5884883E-2,-8.827282E-2,9.026168E-1,-1.9965716E-1,1.2299688E-1,5.29424E-1,-8.731072E-2,3.2407656E-2,8.591359E-1,3.7450153E-1,-5.9093263E-2,-2.4191102E-2,-2.7218504E-2,4.5159064E-2,1.7951211E-2,-7.180316E-2,-6.8129234E-2,7.112045E-2,-1.3827303E-2,-6.556224E-2,4.521704E-2,-7.930084E-2,4.1360658E-2,-4.155107E-2,-1.6648782E-2,-2.5793744E-2,4.487283E-2,-9.676913E-3,1.2558872E-2,-3.2754466E-2,-6.913098E-2,5.840987E-2,5.6474358E-2,-7.789743E-3,-1.8231317E-2,-4.8861984E-2,-7.661118E-2,-2.7078887E-2,-2.7239516E-3,-8.503802E-2,4.0976903E-3,-1.8557265E-2,3.7512144E-3,1.6400574E-2,-1.1012243E-2,-8.434812E-2,9.877921E-3,2.1437382E-2,1.3781349E-2,-5.276996E-3,-6.496348E-2,4.6446394E-2,-8.3482906E-2,9.422807E-3,2.8665483E-2,1.6869719E-3,2.7158812E-2,-3.200671E-2,4.3865822E-2,-6.9918655E-2,-9.175811E-2,2.732392E-2],"categories":[],"categories_nodes":[],"categories_segments":[],"categories_sizes":[],"default_left":[0,0,0,0,0,0,0,0,0,0,0,0,0,0,0,0,0,0,0,0,0,0,0,0,0,0,0,0,0,0,0,0,0,0,0,0,0,0,0,0,0,0,0,0,0,0,0,0,0,0,0,0,0,0,0,0,0,0,0,0,0,0,0,0,0,0,0,0,0,0,0,0,0,0,0,0,0,0,0,0,0,0,0,0,0,0,0,0,0,0,0,0,0,0,0,0,0,0,0,0,0,0,0,0,0,0,0,0,0,0,0,0,0],"id":7,"left_children":[1,3,5,7,9,11,13,15,17,19,21,23,25,27,29,31,33,35,-1,37,39,41,43,45,47,49,51,53,55,57,59,61,63,65,67,69,71,-1,73,75,77,79,81,83,85,87,89,91,93,95,97,99,-1,101,103,105,107,-1,-1,109,111,-1,-1,-1,-1,-1,-1,-1,-1,-1,-1,-1,-1,-1,-1,-1,-1,-1,-1,-1,-1,-1,-1,-1,-1,-1,-1,-1,-1,-1,-1,-1,-1,-1,-1,-1,-1,-1,-1,-1,-1,-1,-1,-1,-1,-1,-1,-1,-1,-1,-1,-1,-1],"loss_changes":[1.110795E3,7.072467E1,2.4198685E2,3.3543365E1,3.145755E1,7.480473E1,2.3082397E1,1.675351E1,1.7799707E1,2.6007385E1,4.1734642E1,5.702045E1,2.9621246E1,2.3641449E1,1.9182343E1,1.899887E1,1.8189896E1,2.0123955E1,0E0,1.9491524E1,2.1970123E1,3.0391672E1,2.7911926E1,4.1695576E1,4.677458E1,3.658487E1,3.0128677E1,2.3289711E1,5.7757233E1,1.1995265E1,1.4602005E1,2.5884598E1,1.8183071E1,1.1963638E1,1.9686565E1,2.1600403E1,3.1091091E1,0E0,1.5826345E1,2.0367493E1,2.0576845E1,2.4696482E1,1.732036E1,3.0358688E1,2.3121567E1,2.4206482E1,3.8565155E1,4.2349068E1,2.2262287E1,1.7300125E1,2.901297E1,2.0474632E1,0E0,1.1375946E1,1.2953578E1,1.9572159E1,2.0456818E1,0E0,0E0,1.329567E1,3.2456024E1,0E0,0E0,0E0,0E0,0E0,0E0,0E0,0E0,0E0,0E0,0E0,0E0,0E0,0E0,0E0,0E0,0E0,0E0,0E0,0E0,0E0,0E0,0E0,0E0,0E0,0E0,0E0,0E0,0E0,0E0,0E0,0E0,0E0,0E0,0E0,0E0,0E0,0E0,0E0,0E0,0E0,0E0,0E0,0E0,0E0,0E0,0E0,0E0,0E0,0E0,0E0,0E0],"parents":[2147483647,0,0,1,1,2,2,3,3,4,4,5,5,6,6,7,7,8,8,9,9,10,10,11,11,12,12,13,13,14,14,15,15,16,16,17,17,19,19,20,20,21,21,22,22,23,23,24,24,25,25,26,26,27,27,28,28,29,29,30,30,31,31,32,32,33,33,34,34,35,35,36,36,38,38,39,39,40,40,41,41,42,42,43,43,44,44,45,45,46,46,47,47,48,48,49,49,50,50,51,51,53,53,54,54,55,55,56,56,59,59,60,60],"right_children":[2,4,6,8,10,12,14,16,18,20,22,24,26,28,30,32,34,36,-1,38,40,42,44,46,48,50,52,54,56,58,60,62,64,66,68,70,72,-1,74,76,78,80,82,84,86,88,90,92,94,96,98,100,-1,102,104,106,108,-1,-1,110,112,-1,-1,-1,-1,-1,-1,-1,-1,-1,-1,-1,-1,-1,-1,-1,-1,-1,-1,-1,-1,-1,-1,-1,-1,-1,-1,-1,-1,-1,-1,-1,-1,-1,-1,-1,-1,-1,-1,-1,-1,-1,-1,-1,-1,-1,-1,-1,-1,-1,-1,-1,-1],"split_conditions":[6.57707E1,1.44E-2,1.126771E2,7.8E1,5.57E0,8.9E0,8.6E1,4.41E1,1.4E-2,5E1,4E0,2.2E-2,7E0,5.3E0,2.52E-2,4.08E1,1.4E-2,5.06093E1,-8.1844725E-2,6E0,1E0,6.43768E1,3.06E1,6.6E1,9.63E0,1.72E-2,1E0,6E0,8.1E0,9E0,1.248E-1,7.2E1,4.71672E1,4.5E1,4.90065E1,2.85E1,9E0,-8.5460685E-2,4E1,8E0,6.4E1,1.1E1,1.27E1,4.6E0,4.54E1,8.40677E1,1.08015E2,7.733E1,8E1,1.64E-2,1.052E1,7.2E1,-8.827282E-2,4.5E1,4.77E1,2E0,9E0,-8.731072E-2,3.2407656E-2,9.9E1,4.61E1,-5.9093263E-2,-2.4191102E-2,-2.7218504E-2,4.5159064E-2,1.7951211E-2,-7.180316E-2,-6.8129234E-2,7.112045E-2,-1.3827303E-2,-6.556224E-2,4.521704E-2,-7.930084E-2,4.1360658E-2,-4.155107E-2,-1.6648782E-2,-2.5793744E-2,4.487283E-2,-9.676913E-3,1.2558872E-2,-3.2754466E-2,-6.913098E-2,5.840987E-2,5.6474358E-2,-7.789743E-3,-1.8231317E-2,-4.8861984E-2,-7.661118E-2,-2.7078887E-2,-2.7239516E-3,-8.503802E-2,4.0976903E-3,-1.8557265E-2,3.7512144E-3,1.6400574E-2,-1.1012243E-2,-8.434812E-2,9.877921E-3,2.1437382E-2,1.3781349E-2,-5.276996E-3,-6.496348E-2,4.6446394E-2,-8.3482906E-2,9.422807E-3,2.8665483E-2,1.6869719E-3,2.7158812E-2,-3.200671E-2,4.3865822E-2,-6.9918655E-2,-9.175811E-2,2.732392E-2],"split_indices":[13,53,13,44,16,27,44,26,53,44,46,53,46,27,53,26,53,13,0,46,54,13,1,44,16,53,59,46,27,46,53,44,14,44,13,1,27,0,44,46,44,27,27,27,26,13,13,13,44,53,16,44,0,44,1,46,46,0,0,44,1,0,0,0,0,0,0,0,0,0,0,0,0,0,0,0,0,0,0,0,0,0,0,0,0,0,0,0,0,0,0,0,0,0,0,0,0,0,0,0,0,0,0,0,0,0,0,0,0,0,0,0,0],"split_type":[0,0,0,0,0,0,0,0,0,0,0,0,0,0,0,0,0,0,0,0,0,0,0,0,0,0,0,0,0,0,0,0,0,0,0,0,0,0,0,0,0,0,0,0,0,0,0,0,0,0,0,0,0,0,0,0,0,0,0,0,0,0,0,0,0,0,0,0,0,0,0,0,0,0,0,0,0,0,0,0,0,0,0,0,0,0,0,0,0,0,0,0,0,0,0,0,0,0,0,0,0,0,0,0,0,0,0,0,0,0,0,0,0],"sum_hessian":[1.2380543E4,4.416319E3,7.9642236E3,6.721364E2,3.7441826E3,5.6510166E3,2.3132073E3,4.6787213E2,2.042643E2,2.8005989E3,9.4358374E2,2.7997188E3,2.8512979E3,1.931362E3,3.818451E2,3.7330817E2,9.456398E1,1.9489085E2,9.373445E0,6.5404015E1,2.7351948E3,3.513088E2,5.922749E2,4.4099063E2,2.358728E3,2.2676816E3,5.836162E2,1.9568057E2,1.7356815E3,7.0195656E0,3.7482553E2,2.3176884E2,1.4153932E2,8.631195E1,8.25203E0,1.6414516E2,3.0745686E1,2.4583458E1,4.0820557E1,2.6532847E3,8.191022E1,3.3052133E2,2.0787462E1,1.2703217E2,4.6524277E2,1.2864232E2,3.1234833E2,8.261458E2,1.5325822E3,7.606179E1,2.1916199E3,5.7538824E2,8.227968E0,1.7452751E2,2.1153067E1,4.8642627E2,1.2492552E3,4.2196755E0,2.79989E0,2.930565E2,8.176904E1,1.4480693E2,8.6961914E1,1.3315042E2,8.388904E0,3.5103903E0,8.280156E1,3.6585438E0,4.5934863E0,1.414089E2,2.2736252E1,2.5516823E1,5.2288637E0,6.024158E0,3.47964E1,1.6917322E3,9.615524E2,2.3389803E1,5.8520416E1,2.98052E2,3.2469315E1,1.8480959E1,2.3065038E0,2.1199396E1,1.0583278E2,3.9239282E2,7.2849945E1,3.3367374E1,9.527494E1,2.984017E2,1.3946618E1,4.3665915E2,3.8948666E2,9.993508E2,5.332313E2,6.786326E1,8.198534E0,1.1878258E3,1.003794E3,2.4337825E2,3.3201E2,1.4895651E0,1.7303793E2,3.7286415E0,1.7424425E1,7.956909E1,4.0685718E2,1.235266E3,1.3989265E1,2.9132175E2,1.734735E0,5.206159E0,7.656288E1],"tree_param":{"num_deleted":"0","num_feature":"60","num_nodes":"113","size_leaf_vector":"1"}},{"base_weights":[6.055599E-3,-3.8108876E-1,2.169284E-1,-5.7909447E-1,-2.8919277E-1,1.0410177E-1,4.9374315E-1,-6.8689233E-1,-3.8963786E-1,-3.1724492E-1,4.3092987E-1,-1.7348245E-1,1.522834E-1,-8.905363E-1,5.1147383E-1,-1.3169936E0,-6.3004017E-1,-2.9127213E-1,-1.2121881E0,-7.949429E-2,-3.043608E-1,2.3818168E-1,1.1502987E0,-5.6970215E-1,-2.5433568E-2,6.1206225E-2,2.8800702E-1,-1.3235226E0,7.509659E-1,4.5933238E-1,8.2377803E-1,4.3245175E-1,-1.4129031E0,-5.4380214E-1,-9.6111894E-1,-5.7929593E-1,-4.0756E-2,-4.172476E-2,-1.58318E0,-5.5953026E-1,-2.6310188E-1,8.331315E-1,-7.043547E-2,1.473388E0,3.204485E-1,-8.326167E-2,-4.5152816E-1,1.00711964E-1,-4.0676293E-1,2.8334498E-1,6.9304104E-3,1.4764175E-1,4.7227195E-1,-8.148983E-2,7.232966E-2,2.3748952E-1,6.5359496E-2,6.89855E-1,4.0010038E-1,-7.651111E-2,8.5022366E-1,6.0595363E-2,-4.6357974E-2,1.1317084E-2,-7.6145016E-2,-4.4812176E-2,-2.0445956E-2,-6.186059E-2,-2.7823377E-2,-4.47004E-2,-1.1891953E-2,1.6615381E-2,-1.7435532E-2,-3.8585696E-2,4.7157217E-2,-8.875953E-2,-6.0747596E-3,-3.0830342E-2,4.1722145E-2,1.2518604E-3,-1.558376E-2,-6.382545E-2,5.4052174E-2,-7.798312E-2,4.9864054E-3,4.5693945E-2,8.208591E-2,-6.4472266E-2,5.447141E-2,-1.759356E-2,-6.8830244E-2,1.2125286E-2,-1.3489229E-2,-5.3505957E-2,-6.2706233E-3,-3.912795E-2,1.6362397E-2,-8.247528E-3,5.8448277E-3,5.0610104E-3,3.5386052E-2,-4.5180958E-2,2.5566721E-2,-5.6997754E-2,5.6576665E-2,-5.3768963E-2,5.7271626E-2,-7.671192E-2,3.537891E-2,3.7860204E-2,1.8326832E-2,4.3858524E-2,-1.1782827E-2],"categories":[],"categories_nodes":[],"categories_segments":[],"categories_sizes":[],"default_left":[0,0,0,0,0,0,0,0,0,0,0,0,0,0,0,0,0,0,0,0,0,0,0,0,0,0,0,0,0,0,0,0,0,0,0,0,0,0,0,0,0,0,0,0,0,0,0,0,0,0,0,0,0,0,0,0,0,0,0,0,0,0,0,0,0,0,0,0,0,0,0,0,0,0,0,0,0,0,0,0,0,0,0,0,0,0,0,0,0,0,0,0,0,0,0,0,0,0,0,0,0,0,0,0,0,0,0,0,0,0,0,0,0],"id":8,"left_children":[1,3,5,7,9,11,13,15,17,19,21,23,25,27,29,31,33,35,37,-1,39,41,43,45,47,49,51,53,55,57,59,61,63,65,67,69,71,73,75,77,79,81,83,85,87,-1,89,91,93,95,97,99,101,-1,103,105,-1,107,109,-1,111,-1,-1,-1,-1,-1,-1,-1,-1,-1,-1,-1,-1,-1,-1,-1,-1,-1,-1,-1,-1,-1,-1,-1,-1,-1,-1,-1,-1,-1,-1,-1,-1,-1,-1,-1,-1,-1,-1,-1,-1,-1,-1,-1,-1,-1,-1,-1,-1,-1,-1,-1,-1],"loss_changes":[1.0106069E3,7.926001E1,2.5024112E2,2.7971344E1,6.040468E1,7.618945E1,5.7405334E1,3.069278E1,4.0405006E1,4.6609955E1,1.5295063E1,4.941954E1,5.9971115E1,2.2109291E1,3.6937805E1,1.2676399E1,2.2577118E1,3.2536263E1,2.3160934E1,0E0,2.9800629E1,1.6550274E1,5.8196697E0,2.8919281E1,2.9602032E1,3.502771E1,5.032811E1,1.0322586E1,1.6427653E0,2.6568237E1,2.1632767E1,5.8956966E0,1.2679031E1,3.0256104E1,1.7844635E1,2.233648E1,2.7966194E1,1.07217245E1,1.1175972E1,3.1945282E1,3.4305267E1,1.7465296E1,1.5376025E1,6.429291E-2,1.1127894E1,0E0,1.8713604E1,2.436665E1,2.8413004E1,2.6951908E1,4.4170868E1,2.8722445E1,4.5719437E1,0E0,8.034484E0,6.927258E0,0E0,1.6872879E1,1.8497894E1,0E0,9.675964E0,0E0,0E0,0E0,0E0,0E0,0E0,0E0,0E0,0E0,0E0,0E0,0E0,0E0,0E0,0E0,0E0,0E0,0E0,0E0,0E0,0E0,0E0,0E0,0E0,0E0,0E0,0E0,0E0,0E0,0E0,0E0,0E0,0E0,0E0,0E0,0E0,0E0,0E0,0E0,0E0,0E0,0E0,0E0,0E0,0E0,0E0,0E0,0E0,0E0,0E0,0E0,0E0],"parents":[2147483647,0,0,1,1,2,2,3,3,4,4,5,5,6,6,7,7,8,8,9,9,10,10,11,11,12,12,13,13,14,14,15,15,16,16,17,17,18,18,20,20,21,21,22,22,23,23,24,24,25,25,26,26,27,27,28,28,29,29,30,30,31,31,32,32,33,33,34,34,35,35,36,36,37,37,38,38,39,39,40,40,41,41,42,42,43,43,44,44,46,46,47,47,48,48,49,49,50,50,51,51,52,52,54,54,55,55,57,57,58,58,60,60],"right_children":[2,4,6,8,10,12,14,16,18,20,22,24,26,28,30,32,34,36,38,-1,40,42,44,46,48,50,52,54,56,58,60,62,64,66,68,70,72,74,76,78,80,82,84,86,88,-1,90,92,94,96,98,100,102,-1,104,106,-1,108,110,-1,112,-1,-1,-1,-1,-1,-1,-1,-1,-1,-1,-1,-1,-1,-1,-1,-1,-1,-1,-1,-1,-1,-1,-1,-1,-1,-1,-1,-1,-1,-1,-1,-1,-1,-1,-1,-1,-1,-1,-1,-1,-1,-1,-1,-1,-1,-1,-1,-1,-1,-1,-1,-1],"split_conditions":[6.2E0,2.12E-2,1.33E1,3.07E1,1E0,6.3E1,1.68E-2,8.78E1,6.19969E1,8.46E1,8E-1,8.8E0,9.49634E1,1.1E1,1.95E1,4.3E1,-4.33447E1,1.44E-2,3.09E1,-7.949429E-2,6.4E1,6.4E1,8.7E0,1.52E-2,1.16E1,3.82E1,7.9E1,8.8E1,1.53E1,3.3E1,2.48E-2,8.8E-3,8.67E1,6.7E1,-3.97263E1,3.5E0,3.99E1,4.38E1,9.09E1,5.9E0,6.9E1,5.1E1,3.36E-2,8.89E1,4.2E1,-8.326167E-2,9.1E1,4.76E-2,8.1E0,1.68E-2,8.2E0,4.572E-1,2E-2,-8.148983E-2,8.6E0,1.36E-2,6.5359496E-2,4.3E1,-5.80158E1,-7.651111E-2,1.19E1,6.0595363E-2,-4.6357974E-2,1.1317084E-2,-7.6145016E-2,-4.4812176E-2,-2.0445956E-2,-6.186059E-2,-2.7823377E-2,-4.47004E-2,-1.1891953E-2,1.6615381E-2,-1.7435532E-2,-3.8585696E-2,4.7157217E-2,-8.875953E-2,-6.0747596E-3,-3.0830342E-2,4.1722145E-2,1.2518604E-3,-1.558376E-2,-6.382545E-2,5.4052174E-2,-7.798312E-2,4.9864054E-3,4.5693945E-2,8.208591E-2,-6.4472266E-2,5.447141E-2,-1.759356E-2,-6.8830244E-2,1.2125286E-2,-1.3489229E-2,-5.3505957E-2,-6.2706233E-3,-3.912795E-2,1.6362397E-2,-8.247528E-3,5.8448277E-3,5.0610104E-3,3.5386052E-2,-4.5180958E-2,2.5566721E-2,-5.6997754E-2,5.6576665E-2,-5.3768963E-2,5.7271626E-2,-7.671192E-2,3.537891E-2,3.7860204E-2,1.8326832E-2,4.3858524E-2,-1.1782827E-2],"split_indices":[0,53,0,2,54,44,53,3,13,3,0,0,13,27,0,44,37,53,2,0,44,44,27,53,0,1,44,44,0,2,53,53,28,44,37,0,26,26,28,0,44,44,53,28,26,0,3,53,27,53,27,53,53,0,27,53,0,44,37,0,27,0,0,0,0,0,0,0,0,0,0,0,0,0,0,0,0,0,0,0,0,0,0,0,0,0,0,0,0,0,0,0,0,0,0,0,0,0,0,0,0,0,0,0,0,0,0,0,0,0,0,0,0],"split_type":[0,0,0,0,0,0,0,0,0,0,0,0,0,0,0,0,0,0,0,0,0,0,0,0,0,0,0,0,0,0,0,0,0,0,0,0,0,0,0,0,0,0,0,0,0,0,0,0,0,0,0,0,0,0,0,0,0,0,0,0,0,0,0,0,0,0,0,0,0,0,0,0,0,0,0,0,0,0,0,0,0,0,0,0,0,0,0,0,0,0,0,0,0,0,0,0,0,0,0,0,0,0,0,0,0,0,0,0,0,0,0,0,0],"sum_hessian":[1.2377078E4,4.3641206E3,8.012958E3,1.381703E3,2.9824175E3,5.693661E3,2.319297E3,8.789617E2,5.027413E2,2.8711328E3,1.11284546E2,8.4172296E2,4.851938E3,2.8708672E1,2.2905884E3,7.090836E1,8.080533E2,4.5025153E2,5.248978E1,2.7549007E1,2.8435837E3,8.881776E1,2.2466793E1,2.2818605E2,6.135369E2,2.9043967E3,1.9475413E3,2.2869892E1,5.838779E0,1.9649899E3,3.2559848E2,3.502983E0,6.740538E1,6.4316644E2,1.6488687E2,2.0883595E2,2.4141557E2,1.2900791E1,3.958899E1,3.9404126E2,2.4495425E3,2.975559E1,5.9062164E1,1.5612733E1,6.8540606E0,2.094297E1,2.0724309E2,4.6158002E2,1.5195692E2,5.694686E2,2.3349282E3,1.1064757E3,8.410655E2,1.8617329E1,4.252563E0,3.7780507E0,2.060728E0,3.995092E2,1.5654807E3,2.9855208E0,3.2261295E2,2.2955801E0,1.2074028E0,4.1721263E0,6.3233253E1,1.7645508E2,4.6671133E2,9.678986E1,6.8097015E1,1.07831856E2,1.0100409E2,1.0913172E2,1.3228386E2,7.5334187E0,5.367372E0,3.4802734E1,4.7862554E0,3.7907748E2,1.4963761E1,3.534349E2,2.0961077E3,2.6926956E0,2.7062895E1,5.2192245E0,5.384294E1,5.097697E0,1.0515036E1,1.996814E0,4.857247E0,1.883345E2,1.890858E1,3.3407187E2,1.2750813E2,4.442054E1,1.0753639E2,2.1862064E1,5.476065E2,9.10806E2,1.4241221E3,1.02287646E3,8.359925E1,2.260818E1,8.1845734E2,1.9474362E0,2.3051267E0,1.4692007E0,2.30885E0,2.4819453E0,3.9702725E2,1.3264429E2,1.4328364E3,3.149885E2,7.6244473E0],"tree_param":{"num_deleted":"0","num_feature":"60","num_nodes":"113","size_leaf_vector":"1"}},{"base_weights":[-3.5435704E-3,-3.532899E-1,1.8724978E-1,-5.194013E-1,-2.9287973E-1,7.98162E-2,4.1216138E-1,-6.4869994E-1,-1.2513961E-1,2.4946137E-1,-3.1240174E-1,-3.6131954E-1,1.09804064E-1,4.545015E-1,-3.4549955E-1,-6.7733806E-1,1.0904909E0,1.6963285E-1,-4.1115218E-1,-4.749059E-1,6.240892E-1,-7.4326165E-2,-3.040577E-1,-3.2530746E-1,-8.056804E-2,-3.8476925E-2,1.9043034E-1,-1.1096134E0,4.6414185E-1,2.472351E-1,-6.2278056E-1,-1.3121817E0,-6.23352E-1,8.0532365E-2,-4.0862672E-2,4.1699564E-1,-3.6468884E-1,-8.690687E-1,7.2422847E-3,-1.322302E0,7.125236E-1,-6.726439E-2,7.447455E-1,-3.2119936E-1,2.0538656E-1,-1.2340571E0,-2.7642274E-1,-2.68642E-1,5.9576027E-2,-1.6746772E-2,2.298198E-1,-7.932788E-2,4.493206E-2,2.980468E-1,5.336258E-1,-1.1090597E0,7.425349E-1,-1.1817541E0,-2.1654351E-1,-7.649002E-2,-6.2165665E-3,-2.6004164E-2,-5.0044604E-2,-6.414687E-2,5.9421267E-2,-7.3061995E-2,2.7344346E-2,3.50929E-2,-3.2545045E-2,-1.1404442E-2,-6.787653E-2,1.1759277E-2,-5.36074E-2,3.491618E-2,-8.327774E-2,7.1446806E-2,-2.1136632E-2,8.431063E-2,2.4503645E-2,-1.6597584E-2,2.5349423E-2,2.4208581E-2,-2.4105174E-2,-8.430261E-2,3.796069E-2,2.3211173E-3,-2.4789637E-2,-7.581635E-2,-1.0837155E-2,-2.393776E-2,5.5896905E-3,-1.4106303E-2,9.274318E-3,1.1913915E-2,-4.2426713E-2,-1.30504845E-2,1.9440416E-2,1.5202895E-2,2.973545E-2,4.4039138E-2,-8.631189E-2,-6.5480344E-2,4.4921692E-2,-2.1417195E-3,-7.491555E-2,5.3380158E-2,-2.131875E-2],"categories":[],"categories_nodes":[],"categories_segments":[],"categories_sizes":[],"default_left":[0,0,0,0,0,0,0,0,0,0,0,0,0,0,0,0,0,0,0,0,0,0,0,0,0,0,0,0,0,0,0,0,0,0,0,0,0,0,0,0,0,0,0,0,0,0,0,0,0,0,0,0,0,0,0,0,0,0,0,0,0,0,0,0,0,0,0,0,0,0,0,0,0,0,0,0,0,0,0,0,0,0,0,0,0,0,0,0,0,0,0,0,0,0,0,0,0,0,0,0,0,0,0,0,0,0,0],"id":9,"left_children":[1,3,5,7,9,11,13,15,17,19,21,23,25,27,29,31,33,35,37,39,41,-1,43,45,-1,47,49,51,53,55,57,59,61,-1,63,65,67,69,71,73,75,-1,77,79,81,83,85,87,89,91,93,-1,-1,95,97,99,101,103,105,-1,-1,-1,-1,-1,-1,-1,-1,-1,-1,-1,-1,-1,-1,-1,-1,-1,-1,-1,-1,-1,-1,-1,-1,-1,-1,-1,-1,-1,-1,-1,-1,-1,-1,-1,-1,-1,-1,-1,-1,-1,-1,-1,-1,-1,-1,-1,-1],"loss_changes":[8.208731E2,4.3419556E1,1.9229297E2,5.8883057E1,3.3813965E1,7.131284E1,8.268921E1,4.410968E1,2.4257133E1,3.0490711E1,2.9684448E1,1.4924316E1,6.0329063E1,3.726169E1,2.2626228E1,2.8563751E1,8.592569E0,1.8919062E1,2.7959452E1,3.9678562E1,1.853101E1,0E0,2.6750214E1,1.45327835E1,0E0,4.0142586E1,2.667746E1,1.6006985E1,2.7802185E1,3.0578348E1,2.0961529E1,1.6944122E1,3.0358307E1,0E0,9.981722E0,2.4591694E1,1.4335703E1,2.1503242E1,1.9254395E1,1.698732E1,1.4171485E1,0E0,1.5994453E1,2.649646E1,1.9414824E1,1.6418602E1,2.2616413E1,3.4077938E1,3.5125637E1,2.8126032E1,2.5253601E1,0E0,0E0,3.647581E1,2.3754852E1,1.6563725E1,1.1748142E1,1.4033253E1,1.5365746E1,0E0,0E0,0E0,0E0,0E0,0E0,0E0,0E0,0E0,0E0,0E0,0E0,0E0,0E0,0E0,0E0,0E0,0E0,0E0,0E0,0E0,0E0,0E0,0E0,0E0,0E0,0E0,0E0,0E0,0E0,0E0,0E0,0E0,0E0,0E0,0E0,0E0,0E0,0E0,0E0,0E0,0E0,0E0,0E0,0E0,0E0,0E0,0E0],"parents":[2147483647,0,0,1,1,2,2,3,3,4,4,5,5,6,6,7,7,8,8,9,9,10,10,11,11,12,12,13,13,14,14,15,15,16,16,17,17,18,18,19,19,20,20,22,22,23,23,25,25,26,26,27,27,28,28,29,29,30,30,31,31,32,32,34,34,35,35,36,36,37,37,38,38,39,39,40,40,42,42,43,43,44,44,45,45,46,46,47,47,48,48,49,49,50,50,53,53,54,54,55,55,56,56,57,57,58,58],"right_children":[2,4,6,8,10,12,14,16,18,20,22,24,26,28,30,32,34,36,38,40,42,-1,44,46,-1,48,50,52,54,56,58,60,62,-1,64,66,68,70,72,74,76,-1,78,80,82,84,86,88,90,92,94,-1,-1,96,98,100,102,104,106,-1,-1,-1,-1,-1,-1,-1,-1,-1,-1,-1,-1,-1,-1,-1,-1,-1,-1,-1,-1,-1,-1,-1,-1,-1,-1,-1,-1,-1,-1,-1,-1,-1,-1,-1,-1,-1,-1,-1,-1,-1,-1,-1,-1,-1,-1,-1,-1],"split_conditions":[6.1E0,1.88E-2,1.10655E2,3.7E0,8.7E1,1.72E-2,8E0,1.3E1,4.07194E1,8.62E1,8.45E1,4.9794E1,8.1E0,1.68E-2,4.07194E1,-5.73579E1,7E0,6.11346E1,8.95E1,8E1,8.65E1,-7.4326165E-2,1E0,8.64E1,-8.056804E-2,-4.43316E1,6.4E1,1.14E1,7.7E0,8.87E1,1.38E1,1.26E1,3.13461E1,8.0532365E-2,9.4E1,5.7E1,8.75E1,6E0,8.82E1,5.6E1,6E0,-6.726439E-2,8.72E1,9.5E1,-4.69632E1,1.68E-2,8.88E1,3.60627E1,2.16E-2,9.6E0,5.14657E1,-7.932788E-2,4.493206E-2,3.04E-2,6.8E1,8.62E1,-5.61079E1,6.4E0,-5.80158E1,-7.649002E-2,-6.2165665E-3,-2.6004164E-2,-5.0044604E-2,-6.414687E-2,5.9421267E-2,-7.3061995E-2,2.7344346E-2,3.50929E-2,-3.2545045E-2,-1.1404442E-2,-6.787653E-2,1.1759277E-2,-5.36074E-2,3.491618E-2,-8.327774E-2,7.1446806E-2,-2.1136632E-2,8.431063E-2,2.4503645E-2,-1.6597584E-2,2.5349423E-2,2.4208581E-2,-2.4105174E-2,-8.430261E-2,3.796069E-2,2.3211173E-3,-2.4789637E-2,-7.581635E-2,-1.0837155E-2,-2.393776E-2,5.5896905E-3,-1.4106303E-2,9.274318E-3,1.1913915E-2,-4.2426713E-2,-1.30504845E-2,1.9440416E-2,1.5202895E-2,2.973545E-2,4.4039138E-2,-8.631189E-2,-6.5480344E-2,4.4921692E-2,-2.1417195E-3,-7.491555E-2,5.3380158E-2,-2.131875E-2],"split_indices":[0,53,13,0,28,53,46,27,14,28,3,14,27,53,14,37,46,13,28,44,3,0,54,28,0,37,44,27,27,28,0,27,13,0,44,44,28,46,3,44,46,0,3,44,37,53,28,14,53,0,14,0,0,53,44,28,37,27,37,0,0,0,0,0,0,0,0,0,0,0,0,0,0,0,0,0,0,0,0,0,0,0,0,0,0,0,0,0,0,0,0,0,0,0,0,0,0,0,0,0,0,0,0,0,0,0,0],"split_type":[0,0,0,0,0,0,0,0,0,0,0,0,0,0,0,0,0,0,0,0,0,0,0,0,0,0,0,0,0,0,0,0,0,0,0,0,0,0,0,0,0,0,0,0,0,0,0,0,0,0,0,0,0,0,0,0,0,0,0,0,0,0,0,0,0,0,0,0,0,0,0,0,0,0,0,0,0,0,0,0,0,0,0,0,0,0,0,0,0,0,0,0,0,0,0,0,0,0,0,0,0,0,0,0,0,0,0],"sum_hessian":[1.2299553E4,4.3410513E3,7.9585015E3,1.1556718E3,3.1853794E3,5.3867607E3,2.5717407E3,8.6978076E2,2.8589102E2,1.1026704E2,3.0751123E3,3.4217374E2,5.044587E3,2.43601E3,1.3573073E2,8.562913E2,1.3489436E1,1.4098987E2,1.4490115E2,3.749682E1,7.277022E1,2.044937E1,3.0546628E3,3.3381714E2,8.356606E0,1.777001E3,3.2675862E3,1.4223274E1,2.4217866E3,4.3293015E1,9.2437706E1,6.528406E1,7.9100726E2,8.950614E0,4.5388227E0,9.652395E1,4.4465923E1,6.866874E1,7.6232414E1,2.1815117E1,1.5681703E1,3.6150405E0,6.915518E1,2.9555835E3,9.907935E1,1.5802881E1,3.1801425E2,5.303474E2,1.2466536E3,5.220947E2,2.7454915E3,1.1663313E1,2.5599606E0,7.158653E2,1.7059214E3,1.1249364E1,3.204365E1,3.8101643E1,5.4336067E1,5.4932365E1,1.0351689E1,6.229806E2,1.6802666E2,2.235961E0,2.3028615E0,5.580458E0,9.094349E1,9.100689E0,3.5365234E1,3.0332342E1,3.8336395E1,6.358647E1,1.264594E1,3.0175111E0,1.8797607E1,9.4558325E0,6.22587E0,1.3527176E1,5.5628002E1,2.9182947E3,3.7288834E1,7.070387E1,2.8375484E1,1.3007437E1,2.795445E0,1.2898152E2,1.8903271E2,2.0052591E1,5.1029486E2,1.09509865E2,1.1371437E3,2.2562479E2,2.9646994E2,2.7248967E3,2.0594755E1,9.97245E1,6.161408E2,3.5977252E2,1.3461489E3,2.5620267E0,8.687337E0,1.7399424E0,3.0303709E1,8.533787E0,2.9567854E1,7.0574307E0,4.7278637E1],"tree_param":{"num_deleted":"0","num_feature":"60","num_nodes":"107","size_leaf_vector":"1"}},{"base_weights":[1.1946148E-2,-2.4174596E-1,2.8023064E-1,-3.9133033E-1,-6.878317E-2,1.4803746E-1,3.87255E-1,-6.5704083E-1,-2.9737005E-1,-4.7552088E-1,-2.032032E-2,5.4826444E-1,1.20046355E-1,4.25346E-1,-3.0729797E-1,-7.604431E-1,-3.5754672E-1,-2.53518E-1,-7.8936464E-1,-1.12710215E-1,-8.186545E-1,8.198734E-2,-2.0365173E-1,6.423314E-1,-1.110691E0,7.512972E-2,3.1779656E-1,3.8793698E-1,7.719598E-1,-1.3603386E-1,-1.2488419E0,-6.8377715E-1,-1.3786259E0,6.018013E-1,-4.2056987E-1,-1.278617E0,-2.3473248E-1,1.1098093E0,-8.71109E-1,-6.272853E-1,2.4633965E-1,-3.1006494E-1,-1.2292252E0,5.802865E-1,4.1134953E-2,-1.7846361E-1,-1.4120903E0,6.8287396E-1,-7.19634E-2,-9.1519944E-2,1.8243857E-2,-3.179837E-1,9.9556476E-2,3.549121E-1,-8.873672E-2,5.164724E-1,3.108159E-1,-7.745219E-2,8.073854E-1,-7.0697683E-1,2.1464199E-1,1.7621426E-1,-1.4934059E0,-4.6231803E-2,-2.4980113E-2,-3.3902064E-2,-7.92773E-2,4.337067E-2,-5.2363604E-2,-3.1939786E-2,-6.2581613E-3,-7.153355E-2,-1.7938593E-2,-1.3355005E-2,1.614679E-2,1.3403269E-2,8.386832E-2,-4.780153E-2,3.6017835E-2,2.9237542E-2,-5.4310765E-2,-7.9012595E-2,2.0490764E-2,-6.5242685E-2,8.391752E-3,-7.164911E-2,-1.1237304E-2,1.7021404E-3,4.1608125E-2,4.7946074E-3,-1.513578E-2,1.8080985E-2,-1.1671196E-2,-9.16346E-2,6.909142E-2,-1.35838585E-2,3.8753495E-2,-4.757352E-2,1.0219353E-3,-2.0031177E-2,5.8156825E-3,-5.5892717E-2,1.9532114E-2,2.6757507E-2,-1.7301627E-2,-5.3447474E-2,1.6106062E-2,7.570352E-3,4.295464E-2,9.719048E-3,-5.7740487E-2,-4.5171324E-2,1.8668441E-2,-5.7468195E-2,6.449952E-2,7.5880587E-3,-9.161012E-2],"categories":[],"categories_nodes":[],"categories_segments":[],"categories_sizes":[],"default_left":[0,0,0,0,0,0,0,0,0,0,0,0,0,0,0,0,0,0,0,0,0,0,0,0,0,0,0,0,0,0,0,0,0,0,0,0,0,0,0,0,0,0,0,0,0,0,0,0,0,0,0,0,0,0,0,0,0,0,0,0,0,0,0,0,0,0,0,0,0,0,0,0,0,0,0,0,0,0,0,0,0,0,0,0,0,0,0,0,0,0,0,0,0,0,0,0,0,0,0,0,0,0,0,0,0,0,0,0,0,0,0,0,0,0,0,0,0],"id":10,"left_children":[1,3,5,7,9,11,13,15,17,19,21,23,25,27,29,31,33,35,37,39,41,43,45,47,49,51,53,55,57,59,61,63,65,67,69,71,73,75,77,79,81,83,85,87,89,91,93,95,-1,-1,-1,97,99,101,-1,103,105,-1,107,109,111,113,115,-1,-1,-1,-1,-1,-1,-1,-1,-1,-1,-1,-1,-1,-1,-1,-1,-1,-1,-1,-1,-1,-1,-1,-1,-1,-1,-1,-1,-1,-1,-1,-1,-1,-1,-1,-1,-1,-1,-1,-1,-1,-1,-1,-1,-1,-1,-1,-1,-1,-1,-1,-1,-1,-1],"loss_changes":[8.373244E2,1.6357047E2,8.4536194E1,8.44538E1,5.7817703E1,2.99206E1,8.752994E1,2.713263E1,5.388028E1,3.878515E1,4.92025E1,2.7973602E1,2.2208496E1,4.031427E1,2.76197E1,3.019101E1,1.4098654E1,4.404814E1,3.2739784E1,2.8413456E1,3.3098953E1,3.4253345E1,2.8346172E1,1.4987526E1,1.1011551E1,1.9630499E1,3.6587875E1,2.788379E1,2.6255447E1,2.9570465E1,9.46426E0,2.555185E1,9.28949E0,7.2718053E0,1.3810497E1,5.2518387E0,4.0929703E1,3.7951946E0,2.7282974E1,3.575785E1,2.7763132E1,3.4903133E1,1.7766632E1,1.751524E1,2.935068E1,2.7437635E1,2.4905617E1,1.4595398E1,0E0,0E0,0E0,2.5668854E1,1.6159197E1,2.4419292E1,0E0,1.7251709E1,2.7964905E1,0E0,1.0052216E1,2.2886473E1,1.6627642E1,8.512682E0,1.2896545E1,0E0,0E0,0E0,0E0,0E0,0E0,0E0,0E0,0E0,0E0,0E0,0E0,0E0,0E0,0E0,0E0,0E0,0E0,0E0,0E0,0E0,0E0,0E0,0E0,0E0,0E0,0E0,0E0,0E0,0E0,0E0,0E0,0E0,0E0,0E0,0E0,0E0,0E0,0E0,0E0,0E0,0E0,0E0,0E0,0E0,0E0,0E0,0E0,0E0,0E0,0E0,0E0,0E0,0E0],"parents":[2147483647,0,0,1,1,2,2,3,3,4,4,5,5,6,6,7,7,8,8,9,9,10,10,11,11,12,12,13,13,14,14,15,15,16,16,17,17,18,18,19,19,20,20,21,21,22,22,23,23,24,24,25,25,26,26,27,27,28,28,29,29,30,30,31,31,32,32,33,33,34,34,35,35,36,36,37,37,38,38,39,39,40,40,41,41,42,42,43,43,44,44,45,45,46,46,47,47,51,51,52,52,53,53,55,55,56,56,58,58,59,59,60,60,61,61,62,62],"right_children":[2,4,6,8,10,12,14,16,18,20,22,24,26,28,30,32,34,36,38,40,42,44,46,48,50,52,54,56,58,60,62,64,66,68,70,72,74,76,78,80,82,84,86,88,90,92,94,96,-1,-1,-1,98,100,102,-1,104,106,-1,108,110,112,114,116,-1,-1,-1,-1,-1,-1,-1,-1,-1,-1,-1,-1,-1,-1,-1,-1,-1,-1,-1,-1,-1,-1,-1,-1,-1,-1,-1,-1,-1,-1,-1,-1,-1,-1,-1,-1,-1,-1,-1,-1,-1,-1,-1,-1,-1,-1,-1,-1,-1,-1,-1,-1,-1,-1],"split_conditions":[8.8E0,4.5E0,1.184E1,1.88E-2,6.2E1,-5.97921E1,8E0,3.05E1,3.29E1,-5.05816E1,6E0,1.030718E2,1.296E-1,1.95E1,5.05E1,2.62E1,8.62E1,5E1,8.7E1,-5.53184E1,6.86216E1,8.75E1,1E0,4.11E1,1.16E1,8.53293E1,9E0,-5.21605E1,2.6E-2,8.92E1,5.1E1,7.2E1,3.68E1,7.8E1,9.4E0,1.15E1,3.05E1,4E0,9.3E1,4.7E1,5.72047E1,1.88E-2,8.4E0,6.7E0,3.75E1,4E0,4.82E1,2.16E-2,-7.19634E-2,-9.1519944E-2,1.8243857E-2,5E0,8.71E1,8.77E1,-8.873672E-2,4.23E1,1.6E-2,-7.745219E-2,5.7E1,1.29E1,4.28E1,5E1,8.8E1,-4.6231803E-2,-2.4980113E-2,-3.3902064E-2,-7.92773E-2,4.337067E-2,-5.2363604E-2,-3.1939786E-2,-6.2581613E-3,-7.153355E-2,-1.7938593E-2,-1.3355005E-2,1.614679E-2,1.3403269E-2,8.386832E-2,-4.780153E-2,3.6017835E-2,2.9237542E-2,-5.4310765E-2,-7.9012595E-2,2.0490764E-2,-6.5242685E-2,8.391752E-3,-7.164911E-2,-1.1237304E-2,1.7021404E-3,4.1608125E-2,4.7946074E-3,-1.513578E-2,1.8080985E-2,-1.1671196E-2,-9.16346E-2,6.909142E-2,-1.35838585E-2,3.8753495E-2,-4.757352E-2,1.0219353E-3,-2.0031177E-2,5.8156825E-3,-5.5892717E-2,1.9532114E-2,2.6757507E-2,-1.7301627E-2,-5.3447474E-2,1.6106062E-2,7.570352E-3,4.295464E-2,9.719048E-3,-5.7740487E-2,-4.5171324E-2,1.8668441E-2,-5.7468195E-2,6.449952E-2,7.5880587E-3,-9.161012E-2],"split_indices":[0,0,16,53,44,37,46,2,2,37,46,13,53,0,1,2,28,44,28,37,13,28,54,2,0,13,46,37,53,28,44,44,26,44,27,27,2,46,44,44,13,53,0,27,2,27,26,53,0,0,0,46,28,28,0,2,53,0,44,0,1,44,28,0,0,0,0,0,0,0,0,0,0,0,0,0,0,0,0,0,0,0,0,0,0,0,0,0,0,0,0,0,0,0,0,0,0,0,0,0,0,0,0,0,0,0,0,0,0,0,0,0,0,0,0,0,0],"split_type":[0,0,0,0,0,0,0,0,0,0,0,0,0,0,0,0,0,0,0,0,0,0,0,0,0,0,0,0,0,0,0,0,0,0,0,0,0,0,0,0,0,0,0,0,0,0,0,0,0,0,0,0,0,0,0,0,0,0,0,0,0,0,0,0,0,0,0,0,0,0,0,0,0,0,0,0,0,0,0,0,0,0,0,0,0,0,0,0,0,0,0,0,0,0,0,0,0,0,0,0,0,0,0,0,0,0,0,0,0,0,0,0,0,0,0,0,0],"sum_hessian":[1.2300442E4,6.3222075E3,5.978235E3,3.3895457E3,2.9326619E3,2.6756897E3,3.3025452E3,8.8391846E2,2.5056272E3,3.1128714E2,2.6213748E3,1.7368544E2,2.5020042E3,3.1312097E3,1.7133565E2,6.559191E2,2.2799933E2,2.3019658E3,2.0366154E2,1.5195096E2,1.5933617E2,1.6828289E3,9.385459E2,1.6494543E2,8.740014E0,2.0400181E3,4.6198618E2,2.8281003E3,3.031094E2,1.4593497E2,2.5400673E1,5.8542224E2,7.0496925E1,1.352782E1,2.144715E2,4.02188E1,2.2617468E3,7.8852916E0,1.9577626E2,6.214307E1,8.980789E1,7.195633E1,8.7379845E1,1.2651013E2,1.5563187E3,9.2050696E2,1.8038925E1,1.6245334E2,2.4920943E0,5.71302E0,3.026994E0,1.1864119E2,1.921377E3,4.547506E2,7.235587E0,1.0583998E3,1.7697004E3,3.9144905E0,2.9919492E2,5.5141636E1,9.0793335E1,3.7616E0,2.1639072E1,2.5193195E2,3.3349026E2,1.7049156E1,5.3447765E1,1.2059436E1,1.4683839E0,1.2268094E2,9.1790565E1,3.4037006E1,6.181791E0,2.1381667E3,1.23580246E2,3.7685173E0,4.1167746E0,1.8623776E2,9.538486E0,1.6992264E1,4.5150806E1,6.665415E0,8.314248E1,2.2788912E1,4.9167416E1,7.2289444E1,1.5090401E1,4.028316E1,8.6226974E1,1.3431475E3,2.1317119E2,8.4505905E1,8.360011E2,1.5977661E1,2.0612645E0,1.4137182E1,1.4831616E2,4.068054E1,7.796065E1,6.1541275E1,1.8598356E3,1.0053854E1,4.4469675E2,1.0363373E3,2.2062574E1,1.3622139E1,1.7560782E3,2.2147823E1,2.770471E2,1.8490854E1,3.665078E1,1.070386E1,8.008947E1,1.7029067E0,2.0586934E0,3.789522E0,1.784955E1],"tree_param":{"num_deleted":"0","num_feature":"60","num_nodes":"117","size_leaf_vector":"1"}},{"base_weights":[1.6979013E-2,-3.3952186E-1,1.7637944E-1,-6.2197137E-1,-2.876771E-1,6.284873E-2,3.6178008E-1,-9.124858E-1,-4.0069836E-1,-7.2303884E-2,-2.7909315E-1,-2.8270668E-1,1.019239E-1,3.965789E-1,-2.685171E-1,-2.950019E-1,-1.0279849E0,-1.4418465E0,-2.5032127E-1,-2.671551E-1,-9.256443E-1,-1.1561204E0,-2.2693792E-1,1.5940133E-2,1.8546137E-1,2.2984757E-1,4.6956244E-1,-5.5225784E-1,4.325304E-1,8.6678505E-1,-6.3237923E-1,2.9750556E-1,-1.1118039E0,-5.882192E-2,-8.147026E-2,-3.0677426E-1,1.0886346E0,-3.7221113E-1,-2.0626587E-1,-8.435466E-2,-5.422844E-1,-4.959606E-1,-8.199058E-2,-3.9251593E-1,7.499892E-2,1.8971087E-1,-6.163373E-2,3.506952E-2,2.5985408E-1,6.033414E-1,6.7719296E-2,5.0959367E-1,1.7497465E-1,-2.8981635E-1,-1.0764806E0,-6.933117E-1,6.600207E-1,-4.852762E-2,6.481444E-2,-7.184396E-3,-7.6309435E-2,7.931012E-2,-6.877365E-2,6.656634E-3,-5.8580723E-2,8.0418706E-2,-6.312849E-2,-1.9165186E-2,4.1649163E-2,9.2844926E-2,-6.127706E-2,-2.7549136E-2,-1.3742168E-2,-1.8150387E-2,-2.9738313E-3,1.4897989E-2,-6.64364E-2,-7.197156E-2,2.6185716E-2,5.4288775E-2,-2.2275895E-2,-5.2851707E-2,1.1465953E-2,1.0126821E-3,1.6249215E-2,-5.764454E-3,1.8788172E-2,3.2189817E-3,-5.6302696E-2,7.216887E-3,2.0467412E-2,-1.965986E-2,3.266231E-2,-9.3748694E-4,2.4952775E-2,1.9711733E-2,3.0888006E-2,2.5569255E-2,-1.1218036E-2,-3.564106E-2,1.9785237E-2,5.4095317E-2,-6.1809745E-2,-7.5048774E-2,6.620359E-2,3.9314467E-2,-6.263624E-2],"categories":[],"categories_nodes":[],"categories_segments":[],"categories_sizes":[],"default_left":[0,0,0,0,0,0,0,0,0,0,0,0,0,0,0,0,0,0,0,0,0,0,0,0,0,0,0,0,0,0,0,0,0,0,0,0,0,0,0,0,0,0,0,0,0,0,0,0,0,0,0,0,0,0,0,0,0,0,0,0,0,0,0,0,0,0,0,0,0,0,0,0,0,0,0,0,0,0,0,0,0,0,0,0,0,0,0,0,0,0,0,0,0,0,0,0,0,0,0,0,0,0,0,0,0,0,0],"id":11,"left_children":[1,3,5,7,9,11,13,15,17,-1,19,21,23,25,27,29,31,33,35,37,39,41,43,45,47,49,51,53,55,57,59,61,63,65,-1,67,69,71,73,-1,75,77,-1,79,81,83,85,87,89,91,93,95,97,99,101,103,105,-1,-1,-1,-1,-1,-1,-1,-1,-1,-1,-1,-1,-1,-1,-1,-1,-1,-1,-1,-1,-1,-1,-1,-1,-1,-1,-1,-1,-1,-1,-1,-1,-1,-1,-1,-1,-1,-1,-1,-1,-1,-1,-1,-1,-1,-1,-1,-1,-1,-1],"loss_changes":[7.042174E2,5.5890625E1,1.8022574E2,3.77518E1,3.1784088E1,7.1759384E1,7.143625E1,1.7924866E1,5.2616905E1,0E0,2.4563446E1,2.6038307E1,3.428363E1,3.739984E1,3.4203697E1,1.6883585E1,2.4207596E1,1.0927246E1,2.2774658E1,2.0121445E1,1.5977901E1,9.456894E0,2.5465927E1,3.1734953E1,2.707763E1,5.6904266E1,2.5181702E1,1.6471409E1,1.32014885E1,8.99235E0,1.4140607E1,3.1439793E1,1.5222229E1,1.4297115E1,0E0,2.5235188E1,2.4020374E1,1.9993927E1,4.6022514E1,0E0,2.6804913E1,1.5217274E1,0E0,2.6242386E1,3.1868528E1,1.6648653E1,3.8245075E1,2.7380367E1,2.791047E1,1.4406906E1,2.4509083E1,2.3290405E1,3.4759228E1,2.4252369E1,1.5240112E1,1.641026E1,1.110614E1,0E0,0E0,0E0,0E0,0E0,0E0,0E0,0E0,0E0,0E0,0E0,0E0,0E0,0E0,0E0,0E0,0E0,0E0,0E0,0E0,0E0,0E0,0E0,0E0,0E0,0E0,0E0,0E0,0E0,0E0,0E0,0E0,0E0,0E0,0E0,0E0,0E0,0E0,0E0,0E0,0E0,0E0,0E0,0E0,0E0,0E0,0E0,0E0,0E0,0E0],"parents":[2147483647,0,0,1,1,2,2,3,3,4,4,5,5,6,6,7,7,8,8,10,10,11,11,12,12,13,13,14,14,15,15,16,16,17,17,18,18,19,19,20,20,21,21,22,22,23,23,24,24,25,25,26,26,27,27,28,28,29,29,30,30,31,31,32,32,33,33,35,35,36,36,37,37,38,38,40,40,41,41,43,43,44,44,45,45,46,46,47,47,48,48,49,49,50,50,51,51,52,52,53,53,54,54,55,55,56,56],"right_children":[2,4,6,8,10,12,14,16,18,-1,20,22,24,26,28,30,32,34,36,38,40,42,44,46,48,50,52,54,56,58,60,62,64,66,-1,68,70,72,74,-1,76,78,-1,80,82,84,86,88,90,92,94,96,98,100,102,104,106,-1,-1,-1,-1,-1,-1,-1,-1,-1,-1,-1,-1,-1,-1,-1,-1,-1,-1,-1,-1,-1,-1,-1,-1,-1,-1,-1,-1,-1,-1,-1,-1,-1,-1,-1,-1,-1,-1,-1,-1,-1,-1,-1,-1,-1,-1,-1,-1,-1,-1],"split_conditions":[6.02449E1,1.44E-2,1.059651E2,7.2E1,8.45E1,1.84E-2,8E0,4E0,4E0,-7.2303884E-2,4.96E1,4.8E1,8.9E0,7.9E0,1.03E1,-5.65026E1,3.6E-3,5.9E0,9.5E1,8.9E1,3.2E-2,1.28E-2,4.46E1,3.59E1,4.18E1,5.3E0,6E0,4.17E1,9.04E1,1.73E1,8.95E1,7E0,3.19E1,8.57E1,-8.147026E-2,5.72047E1,8.84E1,2.68E-2,-5.22921E1,-8.435466E-2,5.04E-2,4.3E1,-8.199058E-2,5E1,3.54E1,7.5E1,1E0,9.05E1,7.7E1,9E1,8.6E1,4.21E1,3.56E-2,3.91E1,1.077406E2,-5.40684E1,3.75E1,-4.852762E-2,6.481444E-2,-7.184396E-3,-7.6309435E-2,7.931012E-2,-6.877365E-2,6.656634E-3,-5.8580723E-2,8.0418706E-2,-6.312849E-2,-1.9165186E-2,4.1649163E-2,9.2844926E-2,-6.127706E-2,-2.7549136E-2,-1.3742168E-2,-1.8150387E-2,-2.9738313E-3,1.4897989E-2,-6.64364E-2,-7.197156E-2,2.6185716E-2,5.4288775E-2,-2.2275895E-2,-5.2851707E-2,1.1465953E-2,1.0126821E-3,1.6249215E-2,-5.764454E-3,1.8788172E-2,3.2189817E-3,-5.6302696E-2,7.216887E-3,2.0467412E-2,-1.965986E-2,3.266231E-2,-9.3748694E-4,2.4952775E-2,1.9711733E-2,3.0888006E-2,2.5569255E-2,-1.1218036E-2,-3.564106E-2,1.9785237E-2,5.4095317E-2,-6.1809745E-2,-7.5048774E-2,6.620359E-2,3.9314467E-2,-6.263624E-2],"split_indices":[13,53,13,44,3,53,46,46,46,0,26,44,27,27,27,37,53,27,44,28,53,53,1,26,26,27,46,26,3,1,28,46,26,3,0,13,28,53,37,0,53,26,0,44,26,44,54,28,44,3,44,26,53,26,13,37,2,0,0,0,0,0,0,0,0,0,0,0,0,0,0,0,0,0,0,0,0,0,0,0,0,0,0,0,0,0,0,0,0,0,0,0,0,0,0,0,0,0,0,0,0,0,0,0,0,0,0],"split_type":[0,0,0,0,0,0,0,0,0,0,0,0,0,0,0,0,0,0,0,0,0,0,0,0,0,0,0,0,0,0,0,0,0,0,0,0,0,0,0,0,0,0,0,0,0,0,0,0,0,0,0,0,0,0,0,0,0,0,0,0,0,0,0,0,0,0,0,0,0,0,0,0,0,0,0,0,0,0,0,0,0,0,0,0,0,0,0,0,0,0,0,0,0,0,0,0,0,0,0,0,0,0,0,0,0,0,0],"sum_hessian":[1.2390381E4,3.8279646E3,8.562416E3,5.9196277E2,3.2360017E3,5.311339E3,3.2510774E3,2.545865E2,3.3737625E2,2.2571203E1,3.2134307E3,5.3895306E2,4.7723857E3,3.0813276E3,1.6974985E2,4.0676254E1,2.1391025E2,4.1494877E1,2.9588138E2,3.1565605E3,5.6870056E1,3.11633E1,5.0778976E2,2.3523457E3,2.4200403E3,9.394039E2,2.1419238E3,1.20992E2,4.8757847E1,8.800796E0,3.187546E1,1.2570746E1,2.013395E2,5.1121793E0,3.6382698E1,2.8465082E2,1.1230551E1,1.1563407E3,2.0002198E3,1.7905144E1,3.8964912E1,1.4034226E1,1.7129072E1,3.2775397E2,1.8003578E2,7.2557117E2,1.6267745E3,8.0140204E2,1.6186382E3,2.8352585E2,6.55878E2,1.8850382E3,2.5688556E2,8.1662285E1,3.9329712E1,7.8518147E0,4.0906033E1,1.4288282E0,7.3719673E0,2.135846E1,1.0517001E1,7.1302094E0,5.440537E0,9.173334E0,1.9216615E2,2.002529E0,3.1096501E0,2.6736237E2,1.7288452E1,8.57981E0,2.6507409E0,4.060873E2,7.502534E2,9.666044E2,1.0336155E3,1.9138393E1,1.9826519E1,7.075682E0,6.9585447E0,1.0669957E1,3.17084E2,2.0896618E1,1.5913916E2,3.2259976E2,4.0297144E2,1.4496792E3,1.7709523E2,7.825917E2,1.881032E1,9.141932E2,7.04445E2,1.3193252E1,2.7033258E2,5.471488E2,1.08729195E2,9.1443866E2,9.7059955E2,1.392756E2,1.1760996E2,5.0475967E1,3.1186321E1,2.3119454E0,3.701777E1,5.789825E0,2.0619898E0,3.8925323E1,1.9807086E0],"tree_param":{"num_deleted":"0","num_feature":"60","num_nodes":"107","size_leaf_vector":"1"}},{"base_weights":[1.9854976E-2,-1.5229256E-1,3.0306348E-1,-3.105917E-1,-2.6207348E-2,2.6601896E-1,6.994012E-1,-5.409326E-1,-2.2880195E-1,-3.3484024E-1,3.6580649E-3,1.7425169E-1,3.6179966E-1,-8.230899E-2,7.386229E-1,-5.661922E-1,9.758701E-1,-1.916246E-1,-6.316159E-1,-2.201714E-1,-9.6349436E-1,1.9686672E-1,-2.9443001E-2,3.049384E-1,-8.781165E-3,-7.7345383E-1,3.757334E-1,-1.22106366E-1,7.96844E-1,-6.029797E-1,1.6529357E-1,6.408739E-2,5.091776E-1,-7.106736E-2,-1.8148458E-1,-7.909563E-1,2.2428277E-1,6.328222E-2,-4.928664E-1,4.5988926E-1,-1.1744769E0,-8.747224E-2,2.3188911E-1,-2.7972457E-1,1.12686725E-2,2.7579552E-1,7.872571E-1,-3.6000046E-1,1.0104241E-1,-7.373658E-2,-8.017413E-2,-1.1810341E-1,3.9444393E-1,4.072662E-1,-1.182454E0,2.1623516E-1,8.565271E-1,-5.0297465E-2,-2.75622E-2,3.3503816E-2,-4.9333762E-2,5.5708017E-2,1.6694395E-3,-9.715556E-3,2.8348705E-2,4.2849384E-2,-4.397581E-2,-2.6842156E-2,7.237784E-2,8.124661E-3,-8.111039E-2,-5.8451332E-2,-1.7365932E-2,-6.24229E-2,7.47359E-2,-7.0817165E-2,1.3395823E-2,-5.654152E-2,1.2968835E-2,-1.7212545E-2,2.7532602E-2,3.731068E-2,-3.083319E-5,2.548309E-2,1.0306661E-2,-3.917372E-3,5.1402282E-2,-1.1921177E-2,-5.9099533E-2,-2.8767124E-2,7.211613E-3,-6.9021694E-2,3.454363E-2,-3.4180008E-2,3.51648E-2,2.4833081E-2,1.4785196E-2,3.2854468E-2,-7.174752E-2,-1.0141808E-1,4.5101833E-2,3.7653785E-2,-4.3524142E-2,4.359285E-2,-1.8146655E-2],"categories":[],"categories_nodes":[],"categories_segments":[],"categories_sizes":[],"default_left":[0,0,0,0,0,0,0,0,0,0,0,0,0,0,0,0,0,0,0,0,0,0,0,0,0,0,0,0,0,0,0,0,0,0,0,0,0,0,0,0,0,0,0,0,0,0,0,0,0,0,0,0,0,0,0,0,0,0,0,0,0,0,0,0,0,0,0,0,0,0,0,0,0,0,0,0,0,0,0,0,0,0,0,0,0,0,0,0,0,0,0,0,0,0,0,0,0,0,0,0,0,0,0,0,0],"id":12,"left_children":[1,3,5,7,9,11,13,15,17,19,21,23,25,-1,27,29,31,33,35,37,39,41,43,45,47,49,51,53,55,57,59,-1,61,-1,63,65,67,69,71,73,75,-1,77,79,81,83,85,87,89,91,-1,93,95,97,99,101,103,-1,-1,-1,-1,-1,-1,-1,-1,-1,-1,-1,-1,-1,-1,-1,-1,-1,-1,-1,-1,-1,-1,-1,-1,-1,-1,-1,-1,-1,-1,-1,-1,-1,-1,-1,-1,-1,-1,-1,-1,-1,-1,-1,-1,-1,-1,-1,-1],"loss_changes":[6.0211237E2,1.5330263E2,6.836395E1,6.403363E1,3.9421936E1,3.748111E1,3.7874847E1,3.4714203E1,3.7540115E1,2.6989525E1,2.495049E1,5.2228638E1,3.333664E1,0E0,1.9772186E1,2.3716888E1,1.484683E0,2.846888E1,2.9097672E1,2.4799252E1,1.7932503E1,3.9301735E1,3.394178E1,1.7688507E1,3.5156296E1,1.47829685E1,1.9121918E1,1.49308E1,1.2562454E1,1.6871094E1,2.5554775E1,0E0,2.146662E0,0E0,2.2056938E1,2.6876785E1,3.2490383E1,2.6684513E1,1.5677513E1,1.635347E1,1.8073975E1,0E0,2.1322802E1,2.5160248E1,2.5032963E1,1.9490852E1,1.5096725E1,2.1414719E1,2.0368256E1,1.5909912E1,0E0,3.5843964E1,1.9931122E1,9.187193E0,1.7396053E1,2.1440628E1,6.5461273E0,0E0,0E0,0E0,0E0,0E0,0E0,0E0,0E0,0E0,0E0,0E0,0E0,0E0,0E0,0E0,0E0,0E0,0E0,0E0,0E0,0E0,0E0,0E0,0E0,0E0,0E0,0E0,0E0,0E0,0E0,0E0,0E0,0E0,0E0,0E0,0E0,0E0,0E0,0E0,0E0,0E0,0E0,0E0,0E0,0E0,0E0,0E0,0E0],"parents":[2147483647,0,0,1,1,2,2,3,3,4,4,5,5,6,6,7,7,8,8,9,9,10,10,11,11,12,12,14,14,15,15,16,16,17,17,18,18,19,19,20,20,21,21,22,22,23,23,24,24,25,25,26,26,27,27,28,28,29,29,30,30,32,32,34,34,35,35,36,36,37,37,38,38,39,39,40,40,42,42,43,43,44,44,45,45,46,46,47,47,48,48,49,49,51,51,52,52,53,53,54,54,55,55,56,56],"right_children":[2,4,6,8,10,12,14,16,18,20,22,24,26,-1,28,30,32,34,36,38,40,42,44,46,48,50,52,54,56,58,60,-1,62,-1,64,66,68,70,72,74,76,-1,78,80,82,84,86,88,90,92,-1,94,96,98,100,102,104,-1,-1,-1,-1,-1,-1,-1,-1,-1,-1,-1,-1,-1,-1,-1,-1,-1,-1,-1,-1,-1,-1,-1,-1,-1,-1,-1,-1,-1,-1,-1,-1,-1,-1,-1,-1,-1,-1,-1,-1,-1,-1,-1,-1,-1,-1,-1,-1],"split_conditions":[1.052E1,3.9E0,1.4841E2,1.88E-2,6E1,7.5E1,2.44E-2,1.3E1,3.29E1,9.06E1,3.46E1,-4.80158E1,1.72E-2,-8.230899E-2,5.7E1,3.88E1,7.9E1,7.6E-2,8.7E1,-5.06474E1,8.77E1,2.89E1,6.9E0,4.91E1,-4.57132E1,1.4E-2,8.73E1,-5.05158E1,3.6E-2,-5.69632E1,7.3E1,6.408739E-2,1.04E-2,-7.106736E-2,3.1E0,8.7E1,4.35E1,9.23E1,-4.78842E1,5.6E1,1E0,-8.747224E-2,8.59E1,4E1,8.73E1,2.6E-2,1.16E1,8.6E-2,9.58878E1,9.4E0,-8.017413E-2,3.72E1,8.94E1,1.1E1,1.844E-1,4.08E1,5E1,-5.0297465E-2,-2.75622E-2,3.3503816E-2,-4.9333762E-2,5.5708017E-2,1.6694395E-3,-9.715556E-3,2.8348705E-2,4.2849384E-2,-4.397581E-2,-2.6842156E-2,7.237784E-2,8.124661E-3,-8.111039E-2,-5.8451332E-2,-1.7365932E-2,-6.24229E-2,7.47359E-2,-7.0817165E-2,1.3395823E-2,-5.654152E-2,1.2968835E-2,-1.7212545E-2,2.7532602E-2,3.731068E-2,-3.083319E-5,2.548309E-2,1.0306661E-2,-3.917372E-3,5.1402282E-2,-1.1921177E-2,-5.9099533E-2,-2.8767124E-2,7.211613E-3,-6.9021694E-2,3.454363E-2,-3.4180008E-2,3.51648E-2,2.4833081E-2,1.4785196E-2,3.2854468E-2,-7.174752E-2,-1.0141808E-1,4.5101833E-2,3.7653785E-2,-4.3524142E-2,4.359285E-2,-1.8146655E-2],"split_indices":[16,0,13,53,44,44,53,27,2,3,26,37,53,0,44,2,44,0,44,37,28,2,27,26,37,53,28,37,53,37,44,0,53,0,0,28,26,28,37,44,54,0,3,2,28,53,0,53,13,27,0,2,28,27,53,26,26,0,0,0,0,0,0,0,0,0,0,0,0,0,0,0,0,0,0,0,0,0,0,0,0,0,0,0,0,0,0,0,0,0,0,0,0,0,0,0,0,0,0,0,0,0,0,0,0],"split_type":[0,0,0,0,0,0,0,0,0,0,0,0,0,0,0,0,0,0,0,0,0,0,0,0,0,0,0,0,0,0,0,0,0,0,0,0,0,0,0,0,0,0,0,0,0,0,0,0,0,0,0,0,0,0,0,0,0,0,0,0,0,0,0,0,0,0,0,0,0,0,0,0,0,0,0,0,0,0,0,0,0,0,0,0,0,0,0,0,0,0,0,0,0,0,0,0,0,0,0,0,0,0,0,0,0],"sum_hessian":[1.2348152E4,7.680216E3,4.6679365E3,3.404467E3,4.275749E3,4.27046E3,3.974764E2,8.906252E2,2.5138418E3,3.7634467E2,3.8994043E3,2.1823628E3,2.0880972E3,5.863274E0,3.9161313E2,8.7665283E2,1.397238E1,2.3027842E3,2.1105768E2,3.1942975E2,5.6914932E1,5.6962054E2,3.3297837E3,1.2728634E3,9.0949927E2,2.4656986E1,2.0634402E3,2.4741566E1,3.6687155E2,8.34843E2,4.1809776E1,7.385412E0,6.5869675E0,1.769475E1,2.2850894E3,1.7799641E2,3.3061268E1,1.5700174E2,1.62428E2,7.1949277E0,4.9720005E1,9.203423E0,5.604171E2,4.6503503E2,2.8647485E3,1.2018184E3,7.104503E1,2.1610634E2,6.9339294E2,1.396949E1,1.0687495E1,7.513195E1,1.9883082E3,1.6913506E1,7.8280597E0,3.462786E1,3.322437E2,9.28888E1,7.419542E2,2.9361948E1,1.244783E1,2.309123E0,4.2778444E0,2.247317E3,3.7772503E1,8.635113E0,1.693613E2,2.0726377E1,1.233489E1,1.4912743E2,7.874317E0,2.7525047E1,1.3490295E2,2.6363194E0,4.558608E0,4.259548E1,7.1245236E0,1.028708E1,5.5013007E2,4.3204724E2,3.2987793E1,4.4607426E1,2.820141E3,2.743776E2,9.274408E2,1.5608625E1,5.5436405E1,1.8938525E2,2.672108E1,4.0878838E1,6.525141E2,4.8594337E0,9.110057E0,4.459681E1,3.0535145E1,9.749698E2,1.0133385E3,1.5460255E1,1.4532506E0,5.587516E0,2.240544E0,2.3383427E1,1.1244432E1,3.2840042E2,3.8432891E0],"tree_param":{"num_deleted":"0","num_feature":"60","num_nodes":"105","size_leaf_vector":"1"}},{"base_weights":[-1.4440995E-2,-2.9990637E-1,1.3958684E-1,-4.8819488E-1,-2.3459601E-1,9.636566E-3,2.852634E-1,-5.867287E-1,-1.4964166E-1,-6.975643E-2,-2.2711281E-1,-2.906242E-1,4.1175023E-2,3.0139464E-1,-4.9520227E-1,-6.0829073E-1,8.088266E-1,-1.1551592E0,8.619346E-3,-2.3644923E-1,5.675163E-1,-8.251711E-2,-2.4099499E-1,-6.0208198E-2,1.3638572E-1,4.536031E-1,2.2452497E-1,-7.8397684E-2,-2.6417825E-1,-5.4616463E-1,-9.474932E-1,1.6019218E0,-6.231744E-2,-7.939472E-2,7.2300804E-1,2.9845625E-1,-4.4913614E-1,2.4569486E-1,-2.5031543E-1,8.770576E-1,-7.4658774E-2,4.9309477E-1,-3.9628345E-1,-7.7351034E-1,-3.3249773E-2,2.0459378E-1,-1.8147781E-2,4.0671518E-1,8.1363654E-1,5.4113436E-1,1.8504575E-1,3.4187976E-2,-7.986852E-2,-3.0687058E-2,-1.1644515E-3,3.5884988E-3,-5.6461256E-2,9.232772E-2,3.8139578E-2,6.6949196E-2,-4.959799E-2,2.7183829E-2,-3.0103877E-2,-3.151278E-2,1.8826654E-2,-2.9829806E-2,4.14521E-2,-1.9669542E-2,-9.1334395E-3,5.3908832E-2,-6.4818434E-2,-8.21074E-2,4.619622E-2,-1.5496038E-2,-8.904251E-2,2.411553E-2,-5.4188635E-2,-4.5163953E-3,1.1450563E-2,1.0783046E-2,-5.401838E-2,-3.0850116E-2,5.138992E-3,1.2888123E-2,2.5718678E-2,-2.3985973E-2,4.293741E-2,3.5010826E-2,-5.0560674E-3,7.340641E-3,2.9040802E-2,-1.4660047E-2,3.576311E-2],"categories":[],"categories_nodes":[],"categories_segments":[],"categories_sizes":[],"default_left":[0,0,0,0,0,0,0,0,0,0,0,0,0,0,0,0,0,0,0,0,0,0,0,0,0,0,0,0,0,0,0,0,0,0,0,0,0,0,0,0,0,0,0,0,0,0,0,0,0,0,0,0,0,0,0,0,0,0,0,0,0,0,0,0,0,0,0,0,0,0,0,0,0,0,0,0,0,0,0,0,0,0,0,0,0,0,0,0,0,0,0,0,0],"id":13,"left_children":[1,3,5,7,9,11,13,15,17,-1,19,21,23,25,27,29,31,33,35,37,39,-1,41,43,45,47,49,-1,51,53,55,57,-1,-1,59,61,63,65,67,69,-1,71,73,75,77,79,81,83,85,87,89,91,-1,-1,-1,-1,-1,-1,-1,-1,-1,-1,-1,-1,-1,-1,-1,-1,-1,-1,-1,-1,-1,-1,-1,-1,-1,-1,-1,-1,-1,-1,-1,-1,-1,-1,-1,-1,-1,-1,-1,-1,-1],"loss_changes":[5.378975E2,5.2608185E1,1.5042172E2,3.6714508E1,2.7344666E1,3.9792065E1,4.731488E1,2.6195038E1,3.9800674E1,0E0,2.3622345E1,2.6555645E1,3.671125E1,4.2850403E1,1.8480906E1,1.7221039E1,2.3880093E1,2.8790272E1,2.8928946E1,2.098639E1,2.4949131E1,0E0,4.425736E1,3.539827E1,2.0675224E1,2.0447952E1,3.0413345E1,0E0,2.5486536E1,2.5207504E1,2.3965515E1,6.699219E-1,0E0,0E0,8.781945E0,2.9806307E1,1.2880127E1,4.373429E1,2.9378937E1,1.5757122E1,0E0,6.401129E1,3.766294E1,2.6644642E1,2.6608177E1,1.9583218E1,4.3620506E1,1.7363586E1,8.628761E0,2.7670532E1,3.2780975E1,1.2076934E1,0E0,0E0,0E0,0E0,0E0,0E0,0E0,0E0,0E0,0E0,0E0,0E0,0E0,0E0,0E0,0E0,0E0,0E0,0E0,0E0,0E0,0E0,0E0,0E0,0E0,0E0,0E0,0E0,0E0,0E0,0E0,0E0,0E0,0E0,0E0,0E0,0E0,0E0,0E0,0E0,0E0],"parents":[2147483647,0,0,1,1,2,2,3,3,4,4,5,5,6,6,7,7,8,8,10,10,11,11,12,12,13,13,14,14,15,15,16,16,17,17,18,18,19,19,20,20,22,22,23,23,24,24,25,25,26,26,28,28,29,29,30,30,31,31,34,34,35,35,36,36,37,37,38,38,39,39,41,41,42,42,43,43,44,44,45,45,46,46,47,47,48,48,49,49,50,50,51,51],"right_children":[2,4,6,8,10,12,14,16,18,-1,20,22,24,26,28,30,32,34,36,38,40,-1,42,44,46,48,50,-1,52,54,56,58,-1,-1,60,62,64,66,68,70,-1,72,74,76,78,80,82,84,86,88,90,92,-1,-1,-1,-1,-1,-1,-1,-1,-1,-1,-1,-1,-1,-1,-1,-1,-1,-1,-1,-1,-1,-1,-1,-1,-1,-1,-1,-1,-1,-1,-1,-1,-1,-1,-1,-1,-1,-1,-1,-1,-1],"split_conditions":[6.1E0,1.88E-2,1.12E1,3.9E0,7.6E-2,1.84E-2,9E0,9.5E1,6.1E1,-6.975643E-2,9.5E1,8.64E1,8.8E0,-5.30158E1,2E-2,2.85E1,8.84E1,1.76E-2,5E0,8.67E1,8E0,-8.251711E-2,8.78E1,-5.09763E1,4.48E1,1.4841E2,2E0,-7.8397684E-2,1.179411E2,3.22E1,5.7E1,1.04E-2,-6.231744E-2,-7.939472E-2,5E0,6.06686E1,9.08E1,8.62E1,3.95E1,9.5E0,-7.4658774E-2,6.8E1,4.9E1,3.73E1,8.5E1,4.17E1,4.06E1,7.3E1,5.3E1,8.7E0,8.9E1,1.05E1,-7.986852E-2,-3.0687058E-2,-1.1644515E-3,3.5884988E-3,-5.6461256E-2,9.232772E-2,3.8139578E-2,6.6949196E-2,-4.959799E-2,2.7183829E-2,-3.0103877E-2,-3.151278E-2,1.8826654E-2,-2.9829806E-2,4.14521E-2,-1.9669542E-2,-9.1334395E-3,5.3908832E-2,-6.4818434E-2,-8.21074E-2,4.619622E-2,-1.5496038E-2,-8.904251E-2,2.411553E-2,-5.4188635E-2,-4.5163953E-3,1.1450563E-2,1.0783046E-2,-5.401838E-2,-3.0850116E-2,5.138992E-3,1.2888123E-2,2.5718678E-2,-2.3985973E-2,4.293741E-2,3.5010826E-2,-5.0560674E-3,7.340641E-3,2.9040802E-2,-1.4660047E-2,3.576311E-2],"split_indices":[0,53,0,0,0,53,46,44,44,0,44,28,27,37,53,1,28,53,0,28,46,0,28,37,1,13,46,0,13,2,44,53,0,0,0,13,28,28,26,27,0,44,1,1,44,2,26,44,44,27,44,27,0,0,0,0,0,0,0,0,0,0,0,0,0,0,0,0,0,0,0,0,0,0,0,0,0,0,0,0,0,0,0,0,0,0,0,0,0,0,0,0,0],"split_type":[0,0,0,0,0,0,0,0,0,0,0,0,0,0,0,0,0,0,0,0,0,0,0,0,0,0,0,0,0,0,0,0,0,0,0,0,0,0,0,0,0,0,0,0,0,0,0,0,0,0,0,0,0,0,0,0,0,0,0,0,0,0,0,0,0,0,0,0,0,0,0,0,0,0,0,0,0,0,0,0,0,0,0,0,0,0,0,0,0,0,0,0,0],"sum_hessian":[1.223144E4,4.2863833E3,7.9450566E3,1.1022223E3,3.1841611E3,4.19975E3,3.7453066E3,8.531773E2,2.4904503E2,1.9212118E1,3.164949E3,3.9841733E2,3.8013328E3,3.6700647E3,7.524188E1,8.407514E2,1.2425899E1,3.3010765E1,2.1603427E2,3.1288887E3,3.606015E1,1.289421E1,3.855231E2,1.8411687E3,1.9601642E3,1.229886E3,2.4401787E3,1.2307144E1,6.2934734E1,7.128083E2,1.2794307E2,9.125066E0,3.3008335E0,2.6954842E1,6.0559216E0,1.3249222E2,8.354205E1,8.7002174E1,3.0418867E3,3.1850239E1,4.209911E0,6.693382E1,3.185893E2,6.604223E1,1.7751265E3,1.3596968E3,6.0046735E2,1.0900554E3,1.3983054E2,2.6913156E2,2.1710474E3,5.2221912E1,1.0712823E1,6.310744E2,8.173392E1,1.9451626E1,1.0849145E2,6.1357474E0,2.9893181E0,4.616883E0,1.4390386E0,1.04447E2,2.8045214E1,6.870709E1,1.4834964E1,3.5590527E1,5.1411644E1,9.749699E2,2.0669167E3,2.9613836E1,2.236402E0,1.0765772E1,5.616805E1,3.0103595E2,1.7553354E1,1.2974002E1,5.3068226E1,1.4583818E3,3.1674466E2,1.3489111E3,1.078574E1,1.00192825E2,5.002745E2,4.587448E2,6.3131067E2,4.38813E0,1.3544241E2,2.1563106E2,5.3500507E1,1.9810419E3,1.9000534E2,3.5653133E1,1.6568777E1],"tree_param":{"num_deleted":"0","num_feature":"60","num_nodes":"93","size_leaf_vector":"1"}},{"base_weights":[3.6224115E-4,-2.9732767E-1,1.5993018E-1,-4.833315E-1,-2.2093394E-1,7.846575E-2,3.6732396E-1,-5.0285846E-1,7.890139E-1,-2.4091204E-1,3.30272E-1,-7.935434E-2,1.626388E-1,-3.1677735E-1,4.0397745E-1,1.8625876E-2,-5.352849E-1,4.8262022E-2,-4.9322758E-2,-6.784278E-2,-2.3344418E-1,-9.378063E-1,4.770425E-1,-2.96851E-1,1.3836637E-2,-2.9134768E-1,1.9189426E-1,-9.068643E-1,3.662401E-1,1.1062824E-2,4.2718506E-1,8.985254E-1,-2.4178141E-1,-6.366346E-1,-3.0409122E-1,-3.4732756E-1,-1.7284477E-1,3.8927976E-2,-7.9182796E-2,3.46595E-1,1.6034186E0,-5.6582326E-1,-1.5131737E-1,-3.4905842E-1,7.6415755E-2,-5.933589E-2,-7.87908E-1,9.140746E-2,2.5429296E-1,-1.2422373E0,4.0123925E-1,6.71455E-1,-8.99242E-2,-9.594331E-2,1.6942367E-1,3.8622954E-1,6.265347E-1,9.607424E-2,4.3438612E-3,-7.7363655E-2,9.451226E-4,-7.0509106E-2,-2.9267235E-2,-5.5036596E-3,-3.916676E-2,-6.793232E-3,-3.1102566E-2,-1.7252415E-3,-1.5838007E-2,2.4376998E-2,-7.865272E-2,9.049482E-2,3.6358267E-2,4.154924E-3,-3.9488442E-2,2.0439797E-3,-3.336382E-2,-3.6309984E-2,4.936312E-4,4.421703E-3,-9.604611E-2,8.635869E-3,-5.790909E-2,-5.9552263E-2,1.9510726E-2,8.680866E-3,-2.0134551E-2,2.7444392E-2,1.0216545E-2,-2.96164E-2,-8.0714665E-2,-5.648631E-2,3.5930853E-2,5.305634E-2,-1.7876701E-2,-8.4529094E-2,1.2003409E-2,1.998543E-2,-1.3357492E-2,3.2327197E-2,-8.653629E-2],"categories":[],"categories_nodes":[],"categories_segments":[],"categories_sizes":[],"default_left":[0,0,0,0,0,0,0,0,0,0,0,0,0,0,0,0,0,0,0,0,0,0,0,0,0,0,0,0,0,0,0,0,0,0,0,0,0,0,0,0,0,0,0,0,0,0,0,0,0,0,0,0,0,0,0,0,0,0,0,0,0,0,0,0,0,0,0,0,0,0,0,0,0,0,0,0,0,0,0,0,0,0,0,0,0,0,0,0,0,0,0,0,0,0,0,0,0,0,0,0,0],"id":14,"left_children":[1,3,5,7,9,11,13,15,17,19,21,23,25,27,29,31,33,-1,-1,-1,35,37,39,41,43,45,47,49,51,53,55,57,59,61,63,65,67,-1,-1,69,71,73,75,77,79,81,83,85,87,89,91,93,-1,-1,95,97,99,-1,-1,-1,-1,-1,-1,-1,-1,-1,-1,-1,-1,-1,-1,-1,-1,-1,-1,-1,-1,-1,-1,-1,-1,-1,-1,-1,-1,-1,-1,-1,-1,-1,-1,-1,-1,-1,-1,-1,-1,-1,-1,-1,-1],"loss_changes":[5.8137683E2,6.058252E1,1.3459271E2,3.126947E1,3.3439606E1,7.602692E1,5.646805E1,2.0715149E1,6.950676E0,2.405127E1,2.024654E1,4.035948E1,4.9624405E1,4.6610947E1,1.9445831E1,1.686286E1,2.6818054E1,0E0,0E0,0E0,1.9993683E1,1.38397E1,1.35509815E1,2.3293495E1,3.170131E1,2.6029371E1,2.1965134E1,2.765007E1,3.6841953E1,3.699707E1,1.6201874E1,1.3783466E1,1.9374542E1,3.0936188E1,3.2760002E1,5.8486946E1,3.778842E1,0E0,0E0,2.4392342E1,4.3691063E-1,3.0486244E1,3.8594887E1,2.7801264E1,2.8745972E1,3.9811306E1,3.4658836E1,5.470147E1,3.1721619E1,1.1014305E1,7.315771E0,1.9624733E1,0E0,0E0,1.5097555E1,1.4844467E1,1.723375E1,0E0,0E0,0E0,0E0,0E0,0E0,0E0,0E0,0E0,0E0,0E0,0E0,0E0,0E0,0E0,0E0,0E0,0E0,0E0,0E0,0E0,0E0,0E0,0E0,0E0,0E0,0E0,0E0,0E0,0E0,0E0,0E0,0E0,0E0,0E0,0E0,0E0,0E0,0E0,0E0,0E0,0E0,0E0,0E0],"parents":[2147483647,0,0,1,1,2,2,3,3,4,4,5,5,6,6,7,7,8,8,9,9,10,10,11,11,12,12,13,13,14,14,15,15,16,16,20,20,21,21,22,22,23,23,24,24,25,25,26,26,27,27,28,28,29,29,30,30,31,31,32,32,33,33,34,34,35,35,36,36,39,39,40,40,41,41,42,42,43,43,44,44,45,45,46,46,47,47,48,48,49,49,50,50,51,51,54,54,55,55,56,56],"right_children":[2,4,6,8,10,12,14,16,18,20,22,24,26,28,30,32,34,-1,-1,-1,36,38,40,42,44,46,48,50,52,54,56,58,60,62,64,66,68,-1,-1,70,72,74,76,78,80,82,84,86,88,90,92,94,-1,-1,96,98,100,-1,-1,-1,-1,-1,-1,-1,-1,-1,-1,-1,-1,-1,-1,-1,-1,-1,-1,-1,-1,-1,-1,-1,-1,-1,-1,-1,-1,-1,-1,-1,-1,-1,-1,-1,-1,-1,-1,-1,-1,-1,-1,-1,-1],"split_conditions":[6.1E0,2.04E-2,1.33E1,1.3E1,1E0,8.1E0,2.24E-2,5.7E0,3E0,8.45E1,3.28E-2,-4.43316E1,1.72E-2,3.75E1,8.77E1,8.8E-3,3E0,4.8262022E-2,-4.9322758E-2,-6.784278E-2,3.98E1,2.36E-2,6.66E-1,3.36E-2,2.16E-2,1.52E-2,4.16E1,1.08E1,-4.19632E1,3.22E1,1.4841E2,8.67E1,8.78E1,6.3E0,3.45E1,3.7E1,9.03E1,3.8927976E-2,-7.9182796E-2,1.844E-1,8.93E1,7.51046E1,-4.51211E1,6.8E0,1.166698E2,4.38E1,4.43E1,4.08E1,8.96E1,7.3E0,1.36E-2,2E-2,-8.99242E-2,-9.594331E-2,9E1,1E0,5E1,9.607424E-2,