{"learner":{"attributes":{"scikit_learn":"{\"_estimator_type\": \"regressor\"}"},"feature_names":["park_factor","temp","wind_speed","wind_out"],"feature_types":["float","int","int","int"],"gradient_booster":{"model":{"cats":{"enc":[],"feature_segments":[],"sorted_idx":[]},"gbtree_model_param":{"num_parallel_tree":"1","num_trees":"300"},"iteration_indptr":[0,1,2,3,4,5,6,7,8,9,10,11,12,13,14,15,16,17,18,19,20,21,22,23,24,25,26,27,28,29,30,31,32,33,34,35,36,37,38,39,40,41,42,43,44,45,46,47,48,49,50,51,52,53,54,55,56,57,58,59,60,61,62,63,64,65,66,67,68,69,70,71,72,73,74,75,76,77,78,79,80,81,82,83,84,85,86,87,88,89,90,91,92,93,94,95,96,97,98,99,100,101,102,103,104,105,106,107,108,109,110,111,112,113,114,115,116,117,118,119,120,121,122,123,124,125,126,127,128,129,130,131,132,133,134,135,136,137,138,139,140,141,142,143,144,145,146,147,148,149,150,151,152,153,154,155,156,157,158,159,160,161,162,163,164,165,166,167,168,169,170,171,172,173,174,175,176,177,178,179,180,181,182,183,184,185,186,187,188,189,190,191,192,193,194,195,196,197,198,199,200,201,202,203,204,205,206,207,208,209,210,211,212,213,214,215,216,217,218,219,220,221,222,223,224,225,226,227,228,229,230,231,232,233,234,235,236,237,238,239,240,241,242,243,244,245,246,247,248,249,250,251,252,253,254,255,256,257,258,259,260,261,262,263,264,265,266,267,268,269,270,271,272,273,274,275,276,277,278,279,280,281,282,283,284,285,286,287,288,289,290,291,292,293,294,295,296,297,298,299,300],"tree_info":[0,0,0,0,0,0,0,0,0,0,0,0,0,0,0,0,0,0,0,0,0,0,0,0,0,0,0,0,0,0,0,0,0,0,0,0,0,0,0,0,0,0,0,0,0,0,0,0,0,0,0,0,0,0,0,0,0,0,0,0,0,0,0,0,0,0,0,0,0,0,0,0,0,0,0,0,0,0,0,0,0,0,0,0,0,0,0,0,0,0,0,0,0,0,0,0,0,0,0,0,0,0,0,0,0,0,0,0,0,0,0,0,0,0,0,0,0,0,0,0,0,0,0,0,0,0,0,0,0,0,0,0,0,0,0,0,0,0,0,0,0,0,0,0,0,0,0,0,0,0,0,0,0,0,0,0,0,0,0,0,0,0,0,0,0,0,0,0,0,0,0,0,0,0,0,0,0,0,0,0,0,0,0,0,0,0,0,0,0,0,0,0,0,0,0,0,0,0,0,0,0,0,0,0,0,0,0,0,0,0,0,0,0,0,0,0,0,0,0,0,0,0,0,0,0,0,0,0,0,0,0,0,0,0,0,0,0,0,0,0,0,0,0,0,0,0,0,0,0,0,0,0,0,0,0,0,0,0,0,0,0,0,0,0,0,0,0,0,0,0,0,0,0,0,0,0,0,0,0,0,0,0,0,0,0,0,0,0,0,0,0,0,0,0,0,0,0,0,0,0],"trees":[{"base_weights":[1.7684748E-2,-6.3220575E-2,2.382009E0,-4.0894932E-1,2.6272905E-1,2.9826406E-1,2.824975E0,-8.2667077E-1,-8.673235E-2,5.7725084E-1,-1.0450964E-1,1.7710614E0,-1.5349622E0,3.531533E0,1.2857331E0,-3.7511517E-3,-5.3276576E-2,2.2592671E-1,-5.7456843E-3,4.0233224E-3,5.212171E-2,-1.0823994E-2,1.5501636E-1,-7.129581E-2,1.11667536E-1,5.5556286E-2,-1.5215968E-1,1.4801194E-1,5.1805633E-1,3.404652E-2,3.049389E-1],"categories":[],"categories_nodes":[],"categories_segments":[],"categories_sizes":[],"default_left":[0,0,0,0,0,0,0,0,0,0,0,0,0,0,0,0,0,0,0,0,0,0,0,0,0,0,0,0,0,0,0],"id":0,"left_children":[1,3,5,7,9,11,13,15,17,19,21,23,25,27,29,-1,-1,-1,-1,-1,-1,-1,-1,-1,-1,-1,-1,-1,-1,-1,-1],"loss_changes":[5.8969543E2,3.3603677E2,9.330621E1,1.9469008E2,1.7735983E2,5.401796E1,8.681476E1,1.1302969E2,1.0668134E2,1.9103238E2,2.5509322E2,1.9441792E1,3.9299587E1,1.9172601E2,7.7353546E1,0E0,0E0,0E0,0E0,0E0,0E0,0E0,0E0,0E0,0E0,0E0,0E0,0E0,0E0,0E0,0E0],"parents":[2147483647,0,0,1,1,2,2,3,3,4,4,5,5,6,6,7,7,8,8,9,9,10,10,11,11,12,12,13,13,14,14],"right_children":[2,4,6,8,10,12,14,16,18,20,22,24,26,28,30,-1,-1,-1,-1,-1,-1,-1,-1,-1,-1,-1,-1,-1,-1,-1,-1],"split_conditions":[1.35E0,7.4E1,6.8E1,9.9E-1,1.01E0,5.7E1,8.5E1,1E0,3.7E1,9.9E-1,9.2E1,4E0,6E0,8.4E1,9.3E1,-3.7511517E-3,-5.3276576E-2,2.2592671E-1,-5.7456843E-3,4.0233224E-3,5.212171E-2,-1.0823994E-2,1.5501636E-1,-7.129581E-2,1.11667536E-1,5.5556286E-2,-1.5215968E-1,1.4801194E-1,5.1805633E-1,3.404652E-2,3.049389E-1],"split_indices":[0,1,1,0,0,1,1,2,1,0,1,2,2,1,1,0,0,0,0,0,0,0,0,0,0,0,0,0,0,0,0],"split_type":[0,0,0,0,0,0,0,0,0,0,0,0,0,0,0,0,0,0,0,0,0,0,0,0,0,0,0,0,0,0,0],"sum_hessian":[3.081E3,2.98E3,1.01E2,1.446E3,1.534E3,1.8E1,8.3E1,6.29E2,8.17E2,8.26E2,7.08E2,1E1,8E0,5.6E1,2.7E1,1.52E2,4.77E2,4E0,8.13E2,4E2,4.26E2,6.85E2,2.3E1,1E0,9E0,3E0,5E0,5.3E1,3E0,2.5E1,2E0],"tree_param":{"num_deleted":"0","num_feature":"4","num_nodes":"31","size_leaf_vector":"1"}},{"base_weights":[1.7543275E-2,-3.0020985E-1,3.8921663E-1,-4.6070984E-1,1.1221931E0,3.4695178E-1,4.307988E0,-9.692568E-1,-2.7395967E-1,9.7701746E-1,2.7779784E0,-3.73266E-2,4.8452312E-1,5.498656E0,-1.1437841E-1,-6.1267998E-2,-3.2858517E-2,-1.7893359E-2,2.2696538E-2,6.394236E-2,-1.0878714E-1,2.0681393E-1,5.114121E-2,-1.7965028E-2,1.4504991E-2,2.1146739E-2,1.13903575E-1,8.813813E-2,3.008829E-1],"categories":[],"categories_nodes":[],"categories_segments":[],"categories_sizes":[],"default_left":[0,0,0,0,0,0,0,0,0,0,0,0,0,0,0,0,0,0,0,0,0,0,0,0,0,0,0,0,0],"id":1,"left_children":[1,3,5,7,9,11,13,15,17,19,21,23,25,27,-1,-1,-1,-1,-1,-1,-1,-1,-1,-1,-1,-1,-1,-1,-1],"loss_changes":[3.623307E2,3.781181E2,2.327009E2,1.409567E2,3.7669662E1,7.403006E1,1.303753E2,3.1085358E1,6.667364E1,1.5123145E2,2.6761658E1,3.911066E1,1.12922516E2,1.459848E1,0E0,0E0,0E0,0E0,0E0,0E0,0E0,0E0,0E0,0E0,0E0,0E0,0E0,0E0,0E0],"parents":[2147483647,0,0,1,1,2,2,3,3,4,4,5,5,6,6,7,7,8,8,9,9,10,10,11,11,12,12,13,13],"right_children":[2,4,6,8,10,12,14,16,18,20,22,24,26,28,-1,-1,-1,-1,-1,-1,-1,-1,-1,-1,-1,-1,-1,-1,-1],"split_conditions":[7.5E1,1.08E0,9.6E1,6.4E1,7.4E1,9.9E-1,9.9E1,9.9E-1,1.05E0,7.3E1,1.18E0,8.2E1,9.2E1,9.8E-1,-1.1437841E-1,-6.1267998E-2,-3.2858517E-2,-1.7893359E-2,2.2696538E-2,6.394236E-2,-1.0878714E-1,2.0681393E-1,5.114121E-2,-1.7965028E-2,1.4504991E-2,2.1146739E-2,1.13903575E-1,8.813813E-2,3.008829E-1],"split_indices":[1,0,1,1,1,0,1,0,0,1,0,1,1,0,0,0,0,0,0,0,0,0,0,0,0,0,0,0,0],"split_type":[0,0,0,0,0,0,0,0,0,0,0,0,0,0,0,0,0,0,0,0,0,0,0,0,0,0,0,0,0],"sum_hessian":[3.066E3,1.653E3,1.413E3,1.486E3,1.67E2,1.399E3,1.4E1,3.98E2,1.088E3,1.55E2,1.2E1,3.69E2,1.03E3,1.2E1,2E0,2.17E2,1.81E2,9.76E2,1.12E2,1.42E2,1.3E1,6E0,6E0,1.86E2,1.83E2,9.97E2,3.3E1,2E0,1E1],"tree_param":{"num_deleted":"0","num_feature":"4","num_nodes":"29","size_leaf_vector":"1"}},{"base_weights":[2.3553286E-2,-4.537501E-2,2.0296066E0,-3.3197382E-1,1.07696354E-1,2.8413746E0,1.2101766E0,-3.5161898E-1,2.6285467E0,3.888029E-1,-5.8312617E-2,-3.9074525E-2,3.166331E0,1.579677E0,-3.4425017E-1,6.294226E-4,-2.0778272E-2,2.081883E-1,2.1809543E-2,2.9460086E-2,9.930842E-3,-1.8804293E-2,1.51572665E-2,1.3182989E-1,2.1133302E-1,2.3878504E-2,1.0765177E-1,-1.0516373E-1,7.360747E-2],"categories":[],"categories_nodes":[],"categories_segments":[],"categories_sizes":[],"default_left":[0,0,0,0,0,0,0,0,0,0,0,0,0,0,0,0,0,0,0,0,0,0,0,0,0,0,0,0,0],"id":2,"left_children":[1,3,5,7,9,11,13,15,17,19,21,-1,23,25,27,-1,-1,-1,-1,-1,-1,-1,-1,-1,-1,-1,-1,-1,-1],"loss_changes":[4.2874097E2,1.3155821E2,6.507565E1,6.164318E1,9.1255104E1,6.251544E1,3.0984955E1,2.4180008E1,2.174403E1,2.7553055E1,1.4139384E2,0E0,1.5255493E1,2.6143585E1,3.824234E1,0E0,0E0,0E0,0E0,0E0,0E0,0E0,0E0,0E0,0E0,0E0,0E0,0E0,0E0],"parents":[2147483647,0,0,1,1,2,2,3,3,4,4,5,5,6,6,7,7,8,8,9,9,10,10,12,12,13,13,14,14],"right_children":[2,4,6,8,10,12,14,16,18,20,22,-1,24,26,28,-1,-1,-1,-1,-1,-1,-1,-1,-1,-1,-1,-1,-1,-1],"split_conditions":[1.35E0,9.9E-1,7E0,2E1,1.01E0,3E0,1.1E1,1E0,1E0,6E0,1.05E0,-3.9074525E-2,1E0,8E0,1.3E1,6.294226E-4,-2.0778272E-2,2.081883E-1,2.1809543E-2,2.9460086E-2,9.930842E-3,-1.8804293E-2,1.51572665E-2,1.3182989E-1,2.1133302E-1,2.3878504E-2,1.0765177E-1,-1.0516373E-1,7.360747E-2],"split_indices":[0,0,2,2,0,2,2,2,3,2,0,0,3,2,2,0,0,0,0,0,0,0,0,0,0,0,0,0,0],"split_type":[0,0,0,0,0,0,0,0,0,0,0,0,0,0,0,0,0,0,0,0,0,0,0,0,0,0,0,0,0],"sum_hessian":[3.099E3,2.997E3,1.02E2,1.043E3,1.954E3,5E1,5.2E1,1.037E3,6E0,7.25E2,1.229E3,4E0,4.6E1,4.2E1,1E1,1.55E2,8.82E2,3E0,3E0,3.52E2,3.73E2,6.54E2,5.75E2,3.3E1,1.3E1,1.5E1,2.7E1,5E0,5E0],"tree_param":{"num_deleted":"0","num_feature":"4","num_nodes":"29","size_leaf_vector":"1"}},{"base_weights":[1.5547911E-2,-4.3904334E-2,1.6946467E0,-9.6428566E-2,1.57755E0,-1.6705982E-1,2.212554E0,-7.4646366E-1,7.5324476E-3,9.829358E-1,2.8764117E0,2.3500507E0,-1.1366551E0,2.9876783E0,6.661957E-1,-4.785363E-2,5.8647174E-2,6.447129E-2,-1.2784352E-3,3.2167096E-2,1.158973E-1,2.3525599E-1,8.3314806E-2,-2.5262355E-3,1.3792838E-1,-9.206123E-2,8.948221E-2,1.1922278E-1,5.0413275E-1,7.198433E-3,1.9470613E-1],"categories":[],"categories_nodes":[],"categories_segments":[],"categories_sizes":[],"default_left":[0,0,0,0,0,0,0,0,0,0,0,0,0,0,0,0,0,0,0,0,0,0,0,0,0,0,0,0,0,0,0],"id":3,"left_children":[1,3,5,7,9,11,13,15,17,19,21,23,25,27,29,-1,-1,-1,-1,-1,-1,-1,-1,-1,-1,-1,-1,-1,-1,-1,-1],"loss_changes":[3.094358E2,2.5513806E2,1.0257391E2,1.9605031E2,6.9770935E1,6.1245083E1,9.749512E1,1.6282028E2,1.061982E2,2.8430614E1,5.6335358E1,7.004101E0,4.0407196E1,2.1135025E2,4.832498E1,0E0,0E0,0E0,0E0,0E0,0E0,0E0,0E0,0E0,0E0,0E0,0E0,0E0,0E0,0E0,0E0],"parents":[2147483647,0,0,1,1,2,2,3,3,4,4,5,5,6,6,7,7,8,8,9,9,10,10,11,11,12,12,13,13,14,14],"right_children":[2,4,6,8,10,12,14,16,18,20,22,24,26,28,30,-1,-1,-1,-1,-1,-1,-1,-1,-1,-1,-1,-1,-1,-1,-1,-1],"split_conditions":[1.35E0,9.1E1,6.8E1,6.3E1,1.04E0,5.3E1,8.5E1,1.08E0,9.2E-1,9.6E1,1.05E0,3.8E1,1E0,8.4E1,9.3E1,-4.785363E-2,5.8647174E-2,6.447129E-2,-1.2784352E-3,3.2167096E-2,1.158973E-1,2.3525599E-1,8.3314806E-2,-2.5262355E-3,1.3792838E-1,-9.206123E-2,8.948221E-2,1.1922278E-1,5.0413275E-1,7.198433E-3,1.9470613E-1],"split_indices":[0,1,1,1,0,1,1,0,0,1,0,1,3,1,1,0,0,0,0,0,0,0,0,0,0,0,0,0,0,0,0],"split_type":[0,0,0,0,0,0,0,0,0,0,0,0,0,0,0,0,0,0,0,0,0,0,0,0,0,0,0,0,0,0,0],"sum_hessian":[3.098E3,2.993E3,1.05E2,2.9E3,9.3E1,2.3E1,8.2E1,3.99E2,2.501E3,6.5E1,2.8E1,6E0,1.7E1,5.4E1,2.8E1,3.6E2,3.9E1,6.2E1,2.439E3,5.3E1,1.2E1,1E1,1.8E1,1E0,5E0,1.4E1,3E0,5.1E1,3E0,2.5E1,3E0],"tree_param":{"num_deleted":"0","num_feature":"4","num_nodes":"31","size_leaf_vector":"1"}},{"base_weights":[-3.185561E-2,-3.034741E-1,4.6539852E-1,-3.5484067E-1,1.7594783E0,3.844496E-1,2.7133298E0,-7.665144E-1,-2.4050894E-1,-5.1782256E-1,3.3478866E0,7.972381E-1,1.7838642E-1,1.9572899E-1,4.014653E0,-4.6527695E-2,4.0518558E-3,-1.6131734E-2,7.745611E-3,-5.4279756E-2,1.6253391E-1,1.316586E-2,2.3613885E-1,-3.522062E-2,4.4477135E-2,-7.458745E-3,2.6817089E-2,5.1910635E-2,-1.6197245E-1,2.2450283E-1,-4.8416123E-2],"categories":[],"categories_nodes":[],"categories_segments":[],"categories_sizes":[],"default_left":[0,0,0,0,0,0,0,0,0,0,0,0,0,0,0,0,0,0,0,0,0,0,0,0,0,0,0,0,0,0,0],"id":4,"left_children":[1,3,5,7,9,11,13,15,17,19,21,23,25,27,29,-1,-1,-1,-1,-1,-1,-1,-1,-1,-1,-1,-1,-1,-1,-1,-1],"loss_changes":[4.1978326E2,2.1361754E2,1.9875728E2,9.216182E1,1.7898051E2,9.0106995E1,1.237103E2,5.930298E1,4.996292E1,4.84616E1,1.21743805E2,4.955568E1,8.3211914E1,4.3880375E1,6.3570892E1,0E0,0E0,0E0,0E0,0E0,0E0,0E0,0E0,0E0,0E0,0E0,0E0,0E0,0E0,0E0,0E0],"parents":[2147483647,0,0,1,1,2,2,3,3,4,4,5,5,6,6,7,7,8,8,9,9,10,10,11,11,12,12,13,13,14,14],"right_children":[2,4,6,8,10,12,14,16,18,20,22,24,26,28,30,-1,-1,-1,-1,-1,-1,-1,-1,-1,-1,-1,-1,-1,-1,-1,-1],"split_conditions":[7.8E1,1.35E0,9.4E1,6.4E1,6.8E1,6E0,9.9E-1,1.06E0,1.05E0,1.5E1,5E0,9.6E-1,9E0,1.2E1,9.9E1,-4.6527695E-2,4.0518558E-3,-1.6131734E-2,7.745611E-3,-5.4279756E-2,1.6253391E-1,1.316586E-2,2.3613885E-1,-3.522062E-2,4.4477135E-2,-7.458745E-3,2.6817089E-2,5.1910635E-2,-1.6197245E-1,2.2450283E-1,-4.8416123E-2],"split_indices":[1,0,1,1,1,2,0,0,0,2,2,0,2,2,1,0,0,0,0,0,0,0,0,0,0,0,0,0,0,0,0],"split_type":[0,0,0,0,0,0,0,0,0,0,0,0,0,0,0,0,0,0,0,0,0,0,0,0,0,0,0,0,0,0,0],"sum_hessian":[3.106E3,2.009E3,1.097E3,1.961E3,4.8E1,1.06E3,3.7E1,4.25E2,1.536E3,2E1,2.8E1,3.52E2,7.08E2,1.3E1,2.4E1,3.56E2,6.9E1,1.272E3,2.64E2,1.8E1,2E0,9E0,1.9E1,2E1,3.32E2,3.7E2,3.38E2,1.1E1,2E0,2.2E1,2E0],"tree_param":{"num_deleted":"0","num_feature":"4","num_nodes":"31","size_leaf_vector":"1"}},{"base_weights":[3.4501858E-2,-3.333561E-2,2.0340388E0,-3.3616692E-1,2.4927646E-1,-7.80155E-1,2.646368E0,4.4309278E0,-3.523957E-1,5.28802E-1,-8.024772E-2,1.6235719E0,-1.3323271E0,3.666327E0,6.8823063E-1,3.0213618E-1,-5.0406408E-2,-2.3954643E-2,1.0881822E-2,5.3346106E-3,4.5257058E-2,-9.961758E-3,9.403245E-2,-1.1060954E-3,1.0897552E-1,-9.138595E-2,7.118058E-2,1.5205541E-1,4.6551475E-1,-3.3161126E-2,4.6082754E-2],"categories":[],"categories_nodes":[],"categories_segments":[],"categories_sizes":[],"default_left":[0,0,0,0,0,0,0,0,0,0,0,0,0,0,0,0,0,0,0,0,0,0,0,0,0,0,0,0,0,0,0],"id":5,"left_children":[1,3,5,7,9,11,13,15,17,19,21,23,25,27,29,-1,-1,-1,-1,-1,-1,-1,-1,-1,-1,-1,-1,-1,-1,-1,-1],"loss_changes":[4.216479E2,2.574342E2,1.7783228E2,1.1389432E2,1.4336624E2,2.7381273E1,1.6524329E2,4.992508E1,1.0468089E2,1.3366052E2,1.6719997E2,3.7078333E0,2.4446281E1,1.6576569E2,1.0075129E1,0E0,0E0,0E0,0E0,0E0,0E0,0E0,0E0,0E0,0E0,0E0,0E0,0E0,0E0,0E0,0E0],"parents":[2147483647,0,0,1,1,2,2,3,3,4,4,5,5,6,6,7,7,8,8,9,9,10,10,11,11,12,12,13,13,14,14],"right_children":[2,4,6,8,10,12,14,16,18,20,22,24,26,28,30,-1,-1,-1,-1,-1,-1,-1,-1,-1,-1,-1,-1,-1,-1,-1,-1],"split_conditions":[1.35E0,7.4E1,6.8E1,3.7E1,1.01E0,4.7E1,8.5E1,1.06E0,1.05E0,9.9E-1,9.1E1,3.8E1,1E0,8.4E1,8.6E1,3.0213618E-1,-5.0406408E-2,-2.3954643E-2,1.0881822E-2,5.3346106E-3,4.5257058E-2,-9.961758E-3,9.403245E-2,-1.1060954E-3,1.0897552E-1,-9.138595E-2,7.118058E-2,1.5205541E-1,4.6551475E-1,-3.3161126E-2,4.6082754E-2],"split_indices":[0,1,1,1,0,1,1,0,0,0,1,1,3,1,1,0,0,0,0,0,0,0,0,0,0,0,0,0,0,0,0],"split_type":[0,0,0,0,0,0,0,0,0,0,0,0,0,0,0,0,0,0,0,0,0,0,0,0,0,0,0,0,0,0,0],"sum_hessian":[3.107E3,3.006E3,1.01E2,1.451E3,1.555E3,1.8E1,8.3E1,4E0,1.447E3,8.41E2,7.14E2,3E0,1.5E1,5.4E1,2.9E1,3E0,1E0,1.184E3,2.63E2,3.97E2,4.44E2,6.74E2,4E1,1E0,2E0,1.3E1,2E0,5E1,4E0,4E0,2.5E1],"tree_param":{"num_deleted":"0","num_feature":"4","num_nodes":"31","size_leaf_vector":"1"}},{"base_weights":[-2.8568162E-2,-8.70084E-2,1.685959E0,-2.05793E-1,4.6014202E-1,-4.0032525E-2,2.1074207E0,-5.549276E-1,-1.1895409E-2,1.0138948E0,3.1385306E-2,2.389945E0,-7.52377E-1,4.1277037E0,1.2498919E0,-2.9892096E-2,8.9722216E-2,1.4938818E-2,-9.097424E-3,3.4146544E-2,1.07638516E-1,-3.823358E-2,2.9133419E-2,-1.0784388E-3,1.499108E-1,-5.53446E-2,1.2299659E-1,1.542116E-2,2.6918313E-1,5.227844E-2,2.3576997E-1],"categories":[],"categories_nodes":[],"categories_segments":[],"categories_sizes":[],"default_left":[0,0,0,0,0,0,0,0,0,0,0,0,0,0,0,0,0,0,0,0,0,0,0,0,0,0,0,0,0,0,0],"id":6,"left_children":[1,3,5,7,9,11,13,15,17,19,21,23,25,27,29,-1,-1,-1,-1,-1,-1,-1,-1,-1,-1,-1,-1,-1,-1,-1,-1],"loss_changes":[3.100572E2,1.945539E2,7.428317E1,1.6645872E2,1.2675324E2,3.814874E1,1.3690176E2,8.959418E1,8.3632515E1,8.6353714E1,1.3297905E2,7.3989334E0,2.208268E1,1.134642E2,3.684664E1,0E0,0E0,0E0,0E0,0E0,0E0,0E0,0E0,0E0,0E0,0E0,0E0,0E0,0E0,0E0,0E0],"parents":[2147483647,0,0,1,1,2,2,3,3,4,4,5,5,6,6,7,7,8,8,9,9,10,10,11,11,12,12,13,13,14,14],"right_children":[2,4,6,8,10,12,14,16,18,20,22,24,26,28,30,-1,-1,-1,-1,-1,-1,-1,-1,-1,-1,-1,-1,-1,-1,-1,-1],"split_conditions":[1.35E0,8.3E1,6.8E1,9.9E-1,7E0,4.7E1,7.6E1,1.9E1,1.01E0,9E1,9E0,3.8E1,1.5E1,5E0,1.3E1,-2.9892096E-2,8.9722216E-2,1.4938818E-2,-9.097424E-3,3.4146544E-2,1.07638516E-1,-3.823358E-2,2.9133419E-2,-1.0784388E-3,1.499108E-1,-5.53446E-2,1.2299659E-1,1.542116E-2,2.6918313E-1,5.227844E-2,2.3576997E-1],"split_indices":[0,1,1,0,2,1,1,2,0,1,2,1,2,2,2,0,0,0,0,0,0,0,0,0,0,0,0,0,0,0,0],"split_type":[0,0,0,0,0,0,0,0,0,0,0,0,0,0,0,0,0,0,0,0,0,0,0,0,0,0,0,0,0,0,0],"sum_hessian":[3.092E3,2.991E3,1.01E2,2.458E3,5.33E2,2E1,8.1E1,8.77E2,1.581E3,2.32E2,3.01E2,4E0,1.6E1,2.3E1,5.8E1,8.62E2,1.5E1,5.59E2,1.022E3,1.81E2,5.1E1,1.23E2,1.78E2,1E0,3E0,1.5E1,1E0,6E0,1.7E1,5.6E1,2E0],"tree_param":{"num_deleted":"0","num_feature":"4","num_nodes":"31","size_leaf_vector":"1"}},{"base_weights":[-2.4286559E-2,-1.6963191E-1,5.945732E-1,-6.0597914E-1,-1.8989174E-2,4.8039046E-1,2.351061E0,-7.810564E-1,6.141412E-1,6.4629096E-1,-8.933667E-2,3.924122E-1,2.0186603E0,3.109827E0,-1.236659E0,1.5925227E-1,-4.1096833E-2,1.0326592E-2,6.2228836E-2,1.6527174E-1,2.3521349E-2,-6.3780323E-3,7.31156E-2,2.5979523E-2,5.2709687E-3,3.7902072E-1,-1.7418003E-2,2.7918104E-2,2.2788016E-1,6.990009E-2,-9.543847E-2],"categories":[],"categories_nodes":[],"categories_segments":[],"categories_sizes":[],"default_left":[0,0,0,0,0,0,0,0,0,0,0,0,0,0,0,0,0,0,0,0,0,0,0,0,0,0,0,0,0,0,0],"id":7,"left_children":[1,3,5,7,9,11,13,15,17,19,21,23,25,27,29,-1,-1,-1,-1,-1,-1,-1,-1,-1,-1,-1,-1,-1,-1,-1,-1],"loss_changes":[2.8091974E2,1.6622609E2,1.1800354E2,1.3911606E2,8.809003E1,7.4859726E1,1.01846466E2,9.471057E1,2.0814613E1,8.262159E1,1.0113246E2,1.9289825E1,3.9758426E2,1.0827371E2,1.5063943E1,0E0,0E0,0E0,0E0,0E0,0E0,0E0,0E0,0E0,0E0,0E0,0E0,0E0,0E0,0E0,0E0],"parents":[2147483647,0,0,1,1,2,2,3,3,4,4,5,5,6,6,7,7,8,8,9,9,10,10,11,11,12,12,13,13,14,14],"right_children":[2,4,6,8,10,12,14,16,18,20,22,24,26,28,30,-1,-1,-1,-1,-1,-1,-1,-1,-1,-1,-1,-1,-1,-1,-1,-1],"split_conditions":[8.3E1,6.7E1,9.4E1,1.08E0,6.9E1,1.35E0,9.8E1,3.7E1,6.2E1,9.4E-1,1.35E0,1.03E0,8.5E1,9.9E-1,9.8E-1,1.5925227E-1,-4.1096833E-2,1.0326592E-2,6.2228836E-2,1.6527174E-1,2.3521349E-2,-6.3780323E-3,7.31156E-2,2.5979523E-2,5.2709687E-3,3.7902072E-1,-1.7418003E-2,2.7918104E-2,2.2788016E-1,6.990009E-2,-9.543847E-2],"split_indices":[1,1,1,0,1,0,1,1,1,0,0,0,1,0,0,0,0,0,0,0,0,0,0,0,0,0,0,0,0,0,0],"split_type":[0,0,0,0,0,0,0,0,0,0,0,0,0,0,0,0,0,0,0,0,0,0,0,0,0,0,0,0,0,0,0],"sum_hessian":[3.121E3,2.528E3,5.93E2,6.48E2,1.88E3,5.58E2,3.5E1,5.67E2,8.1E1,1.79E2,1.701E3,5.29E2,2.9E1,2.9E1,6E0,5E0,5.62E2,5E1,3.1E1,1E1,1.69E2,1.661E3,4E1,3.66E2,1.63E2,8E0,2.1E1,1.1E1,1.8E1,1E0,5E0],"tree_param":{"num_deleted":"0","num_feature":"4","num_nodes":"31","size_leaf_vector":"1"}},{"base_weights":[-5.99492E-4,-3.9457506E-1,1.9252977E-1,2.9852447E-1,-5.0624776E-1,4.666252E-1,3.4934685E-2,3.726686E-2,-5.738375E-1,-5.674922E-1,1.1421187E0,4.37196E-1,1.4434165E-1,-2.7350107E-1,3.512981E-1,-1.929616E-1,-2.1249555E-2,-9.112408E-2,-2.565836E-2,4.5933496E-2,2.0172577E-1,4.1080013E-2,1.2619932E-2,-2.3269376E-2,8.082518E-3,-1.4421714E-2,2.6019884E-2],"categories":[],"categories_nodes":[],"categories_segments":[],"categories_sizes":[],"default_left":[0,0,0,0,0,0,0,0,0,0,0,0,0,0,0,0,0,0,0,0,0,0,0,0,0,0,0],"id":8,"left_children":[1,3,5,7,9,11,13,-1,15,17,19,21,-1,23,25,-1,-1,-1,-1,-1,-1,-1,-1,-1,-1,-1,-1],"loss_changes":[2.3731902E2,7.956381E1,9.039311E1,5.6166588E1,8.989079E1,5.315367E1,1.2987454E2,0E0,2.2321795E1,5.721994E1,1.6975292E1,5.3496536E1,0E0,5.6353992E1,7.122334E1,0E0,0E0,0E0,0E0,0E0,0E0,0E0,0E0,0E0,0E0,0E0,0E0],"parents":[2147483647,0,0,1,1,2,2,3,3,4,4,5,5,6,6,8,8,9,9,10,10,11,11,13,13,14,14],"right_children":[2,4,6,8,10,12,14,-1,16,18,20,22,-1,24,26,-1,-1,-1,-1,-1,-1,-1,-1,-1,-1,-1,-1],"split_conditions":[9.9E-1,1E0,1.01E0,9.6E-1,1.7E1,1.8E1,1.05E0,3.726686E-2,9.7E-1,3E0,2.5E1,3E0,1.4434165E-1,1E0,4E0,-1.929616E-1,-2.1249555E-2,-9.112408E-2,-2.565836E-2,4.5933496E-2,2.0172577E-1,4.1080013E-2,1.2619932E-2,-2.3269376E-2,8.082518E-3,-1.4421714E-2,2.6019884E-2],"split_indices":[0,2,0,0,2,2,0,0,0,2,2,2,0,3,2,0,0,0,0,0,0,0,0,0,0,0,0],"split_type":[0,0,0,0,0,0,0,0,0,0,0,0,0,0,0,0,0,0,0,0,0,0,0,0,0,0,0],"sum_hessian":[3.117E3,1.025E3,2.092E3,1.42E2,8.83E2,7.63E2,1.329E3,9.4E1,4.8E1,8.52E2,3.1E1,7.55E2,8E0,6.73E2,6.56E2,1E0,4.7E1,3.4E1,8.18E2,3E1,1E0,2.44E2,5.11E2,4.67E2,2.06E2,1.37E2,5.19E2],"tree_param":{"num_deleted":"0","num_feature":"4","num_nodes":"27","size_leaf_vector":"1"}},{"base_weights":[-3.0300502E-2,-3.3870724E-1,2.4684821E-1,-4.4712812E-1,5.918158E-1,2.1323678E-1,3.0802143E0,3.0620368E0,-4.6291956E-1,8.4808E-1,-1.6554507E0,1.5945391E-1,1.4883335E0,4.0599203E0,-1.6086628E0,2.0732956E-1,-5.90184E-2,-3.3071015E-2,-1.1173472E-2,5.765853E-2,-2.2444589E-2,-1.2712334E-1,8.2060695E-2,2.0851588E-2,-7.2029764E-3,1.1535565E-1,1.9618094E-2,3.1865272E-1,1.3788939E-1,5.220175E-3,-1.1072431E-1],"categories":[],"categories_nodes":[],"categories_segments":[],"categories_sizes":[],"default_left":[0,0,0,0,0,0,0,0,0,0,0,0,0,0,0,0,0,0,0,0,0,0,0,0,0,0,0,0,0,0,0],"id":9,"left_children":[1,3,5,7,9,11,13,15,17,19,21,23,25,27,29,-1,-1,-1,-1,-1,-1,-1,-1,-1,-1,-1,-1,-1,-1,-1,-1],"loss_changes":[2.64029E2,1.4776308E2,1.5428812E2,7.4010895E1,8.95157E1,1.1010525E2,9.381175E1,3.2501217E1,6.1880188E1,5.5123413E1,5.095983E1,1.20845604E2,5.742311E1,3.0616547E1,4.3824615E0,0E0,0E0,0E0,0E0,0E0,0E0,0E0,0E0,0E0,0E0,0E0,0E0,0E0,0E0,0E0,0E0],"parents":[2147483647,0,0,1,1,2,2,3,3,4,4,5,5,6,6,7,7,8,8,9,9,10,10,11,11,12,12,13,13,14,14],"right_children":[2,4,6,8,10,12,14,16,18,20,22,24,26,28,30,-1,-1,-1,-1,-1,-1,-1,-1,-1,-1,-1,-1,-1,-1,-1,-1],"split_conditions":[7.4E1,1.08E0,9.6E1,3.7E1,7.3E1,1.35E0,9.9E1,1.2E1,1E0,1.1E1,8E0,1.01E0,8.5E1,4E0,1E2,2.0732956E-1,-5.90184E-2,-3.3071015E-2,-1.1173472E-2,5.765853E-2,-2.2444589E-2,-1.2712334E-1,8.2060695E-2,2.0851588E-2,-7.2029764E-3,1.1535565E-1,1.9618094E-2,3.1865272E-1,1.3788939E-1,5.220175E-3,-1.1072431E-1],"split_indices":[1,0,1,1,1,0,1,2,0,2,2,0,1,2,1,0,0,0,0,0,0,0,0,0,0,0,0,0,0,0,0],"split_type":[0,0,0,0,0,0,0,0,0,0,0,0,0,0,0,0,0,0,0,0,0,0,0,0,0,0,0,0,0,0,0],"sum_hessian":[3.087E3,1.461E3,1.626E3,1.309E3,1.52E2,1.608E3,1.8E1,5E0,1.304E3,1.37E2,1.5E1,1.544E3,6.4E1,1.5E1,3E0,4E0,1E0,7.12E2,5.92E2,1.11E2,2.6E1,1.2E1,3E0,8.35E2,7.09E2,3.6E1,2.8E1,4E0,1.1E1,1E0,2E0],"tree_param":{"num_deleted":"0","num_feature":"4","num_nodes":"31","size_leaf_vector":"1"}},{"base_weights":[1.2475264E-2,-4.1679114E-2,1.569161E0,-3.08335E-1,7.287948E-2,-4.3889594E-1,1.916431E0,-3.1750798E-1,1.9616134E-1,3.652909E-1,-1.2282646E-1,-5.8142126E-2,2.0236545E0,9.305067E-1,2.003392E0,-2.2861797E-2,-3.8564017E-3,1.7487522E-2,1.7454256E-1,-1.9350719E-2,9.116214E-3,2.5443817E-2,1.1794776E-1,9.688341E-2,-8.648529E-2,1.24350585E-1,8.5504755E-2],"categories":[],"categories_nodes":[],"categories_segments":[],"categories_sizes":[],"default_left":[0,0,0,0,0,0,0,0,0,0,0,0,0,0,0,0,0,0,0,0,0,0,0,0,0,0,0],"id":10,"left_children":[1,3,5,7,9,11,13,15,-1,17,19,-1,21,23,25,-1,-1,-1,-1,-1,-1,-1,-1,-1,-1,-1,-1],"loss_changes":[2.5828043E2,9.047427E1,7.2666885E1,3.579196E1,1.1861851E2,3.0877268E1,5.680664E0,2.9824295E1,0E0,3.914303E1,1.0019705E2,0E0,8.312073E-1,2.7464968E1,7.0945435E0,0E0,0E0,0E0,0E0,0E0,0E0,0E0,0E0,0E0,0E0,0E0,0E0],"parents":[2147483647,0,0,1,1,2,2,3,3,4,4,5,5,6,6,7,7,9,9,10,10,12,12,13,13,14,14],"right_children":[2,4,6,8,10,12,14,16,-1,18,20,-1,22,24,26,-1,-1,-1,-1,-1,-1,-1,-1,-1,-1,-1,-1],"split_conditions":[1.35E0,9.8E-1,4E0,2.3E1,1.01E0,1E0,5E0,1E0,1.9616134E-1,2.1E1,1.05E0,-5.8142126E-2,3E0,1E0,7E0,-2.2861797E-2,-3.8564017E-3,1.7487522E-2,1.7454256E-1,-1.9350719E-2,9.116214E-3,2.5443817E-2,1.1794776E-1,9.688341E-2,-8.648529E-2,1.24350585E-1,8.5504755E-2],"split_indices":[0,0,2,2,0,3,2,3,0,2,0,0,2,3,2,0,0,0,0,0,0,0,0,0,0,0,0],"split_type":[0,0,0,0,0,0,0,0,0,0,0,0,0,0,0,0,0,0,0,0,0,0,0,0,0,0,0],"sum_hessian":[3.062E3,2.96E3,1.02E2,8.89E2,2.071E3,1.5E1,8.7E1,8.88E2,1E0,8.3E2,1.241E3,1.2E1,3E0,8E0,7.9E1,5.61E2,3.27E2,8.27E2,3E0,6.65E2,5.76E2,1E0,2E0,6E0,2E0,2.7E1,5.2E1],"tree_param":{"num_deleted":"0","num_feature":"4","num_nodes":"27","size_leaf_vector":"1"}},{"base_weights":[3.5334963E-2,-1.8528176E-2,1.6417191E0,-2.2217356E-1,8.914629E-2,1.7080151E0,-5.35594E-2,-2.613439E-1,1.0100664E0,4.1449916E-1,-1.0175048E-1,2.1057367E0,1.4210291E0,-2.6322369E-2,-9.70393E-3,8.515494E-2,-6.6917385E-3,3.5076097E-2,1.27658E-2,-1.9783122E-2,1.1767512E-2,2.6540196E-2,1.11111835E-1,3.0425314E-2,9.5483236E-2],"categories":[],"categories_nodes":[],"categories_segments":[],"categories_sizes":[],"default_left":[0,0,0,0,0,0,0,0,0,0,0,0,0,0,0,0,0,0,0,0,0,0,0,0,0],"id":11,"left_children":[1,3,5,7,9,11,-1,13,15,17,19,21,23,-1,-1,-1,-1,-1,-1,-1,-1,-1,-1,-1,-1],"loss_changes":[2.6670016E2,6.542926E1,1.9815063E1,5.007577E1,1.21278564E2,8.193481E0,0E0,1.7747925E1,2.5596268E1,3.2808487E1,1.2205806E2,5.9761353E0,2.2659615E1,0E0,0E0,0E0,0E0,0E0,0E0,0E0,0E0,0E0,0E0,0E0,0E0],"parents":[2147483647,0,0,1,1,2,2,3,3,4,4,5,5,7,7,8,8,9,9,10,10,11,11,12,12],"right_children":[2,4,6,8,10,12,-1,14,16,18,20,22,24,-1,-1,-1,-1,-1,-1,-1,-1,-1,-1,-1,-1],"split_conditions":[1.35E0,9.9E-1,1.4E1,1.7E1,1.01E0,6E0,-5.35594E-2,9.4E-1,2E1,4E0,1.05E0,3E0,8E0,-2.6322369E-2,-9.70393E-3,8.515494E-2,-6.6917385E-3,3.5076097E-2,1.27658E-2,-1.9783122E-2,1.1767512E-2,2.6540196E-2,1.11111835E-1,3.0425314E-2,9.5483236E-2],"split_indices":[0,0,2,2,0,2,0,0,2,2,0,2,2,0,0,0,0,0,0,0,0,0,0,0,0],"split_type":[0,0,0,0,0,0,0,0,0,0,0,0,0,0,0,0,0,0,0,0,0,0,0,0,0],"sum_hessian":[3.081E3,2.982E3,9.9E1,1.031E3,1.951E3,9.7E1,2E0,1E3,3.1E1,7.21E2,1.23E3,3.8E1,5.9E1,2.01E2,7.99E2,1.9E1,1.2E1,2.56E2,4.65E2,6.57E2,5.73E2,3E0,3.5E1,2.3E1,3.6E1],"tree_param":{"num_deleted":"0","num_feature":"4","num_nodes":"25","size_leaf_vector":"1"}},{"base_weights":[-2.3096944E-3,-5.2228186E-2,1.5493044E0,-1.589861E-1,4.4182378E-1,5.5776976E-2,1.9123973E0,-5.3906053E-1,-9.523764E-2,2.9000357E-1,1.2553087E0,1.2685819E-1,-9.404962E-1,4.213333E0,1.4717461E0,1.4731297E-1,-2.9855141E-2,4.5242902E-2,-6.4369277E-3,2.3786778E-2,-9.008697E-3,4.5064003E-3,9.504812E-2,-8.436087E-2,7.6739565E-2,7.369533E-2,3.876874E-1,4.7466274E-2,1.609758E-1],"categories":[],"categories_nodes":[],"categories_segments":[],"categories_sizes":[],"default_left":[0,0,0,0,0,0,0,0,0,0,0,0,0,0,0,0,0,0,0,0,0,0,0,0,0,0,0,0,0],"id":12,"left_children":[1,3,5,7,9,11,13,15,17,19,21,-1,23,25,27,-1,-1,-1,-1,-1,-1,-1,-1,-1,-1,-1,-1,-1,-1],"loss_changes":[2.4104103E2,1.5909326E2,5.2495407E1,6.0036976E1,6.583382E1,5.1828976E1,7.288397E1,7.377661E1,7.131273E1,3.9644848E1,6.3022125E1,0E0,3.0314768E1,1.0495622E2,5.81194E1,0E0,0E0,0E0,0E0,0E0,0E0,0E0,0E0,0E0,0E0,0E0,0E0,0E0,0E0],"parents":[2147483647,0,0,1,1,2,2,3,3,4,4,5,5,6,6,7,7,8,8,9,9,10,10,12,12,13,13,14,14],"right_children":[2,4,6,8,10,12,14,16,18,20,22,-1,24,26,28,-1,-1,-1,-1,-1,-1,-1,-1,-1,-1,-1,-1,-1,-1],"split_conditions":[1.35E0,8.3E1,6.9E1,6.2E1,9.1E1,5.5E1,7.3E1,3.7E1,9.2E-1,1.04E0,9.9E-1,1.2685819E-1,1E0,7.1E1,1E0,1.4731297E-1,-2.9855141E-2,4.5242902E-2,-6.4369277E-3,2.3786778E-2,-9.008697E-3,4.5064003E-3,9.504812E-2,-8.436087E-2,7.6739565E-2,7.369533E-2,3.876874E-1,4.7466274E-2,1.609758E-1],"split_indices":[0,1,1,1,1,1,1,1,0,0,0,0,3,1,3,0,0,0,0,0,0,0,0,0,0,0,0,0,0],"split_type":[0,0,0,0,0,0,0,0,0,0,0,0,0,0,0,0,0,0,0,0,0,0,0,0,0,0,0,0,0],"sum_hessian":[3.11E3,3.014E3,9.6E1,2.479E3,5.35E2,1.9E1,7.7E1,3.55E2,2.124E3,4.52E2,8.3E1,5E0,1.4E1,1.1E1,6.6E1,5E0,3.5E2,6.8E1,2.056E3,3.24E2,1.28E2,3E1,5.3E1,1.1E1,3E0,7E0,4E0,5.2E1,1.4E1],"tree_param":{"num_deleted":"0","num_feature":"4","num_nodes":"29","size_leaf_vector":"1"}},{"base_weights":[-1.4981451E-2,-4.210369E-2,2.8604922E0,-2.0636216E-1,2.657284E-1,2.3779376E0,3.124993E-1,-3.8204852E-1,1.7762363E-2,9.1155887E-1,1.9227596E-1,2.8860402E0,-1.2651622E0,-5.039664E-2,-1.40821105E-2,6.6471114E-3,-2.129838E-2,3.1483278E-2,1.1508524E-1,3.6954104E-3,2.832655E-2,1.8210235E-1,2.6486581E-2,-8.56489E-2,1.9571304E-3],"categories":[],"categories_nodes":[],"categories_segments":[],"categories_sizes":[],"default_left":[0,0,0,0,0,0,0,0,0,0,0,0,0,0,0,0,0,0,0,0,0,0,0,0,0],"id":13,"left_children":[1,3,5,7,9,11,-1,13,15,17,19,21,23,-1,-1,-1,-1,-1,-1,-1,-1,-1,-1,-1,-1],"loss_changes":[2.4204317E2,1.5548868E2,3.2570786E1,7.89549E1,5.0583206E1,5.3630173E1,0E0,7.035135E1,4.5134556E1,4.126483E1,4.257447E1,4.082393E1,2.4034038E0,0E0,0E0,0E0,0E0,0E0,0E0,0E0,0E0,0E0,0E0,0E0,0E0],"parents":[2147483647,0,0,1,1,2,2,3,3,4,4,5,5,7,7,8,8,9,9,10,10,11,11,12,12],"right_children":[2,4,6,8,10,12,-1,14,16,18,20,22,24,-1,-1,-1,-1,-1,-1,-1,-1,-1,-1,-1,-1],"split_conditions":[9.4E1,7.8E1,1.2E1,8E0,3E0,9.8E1,3.124993E-1,6.2E1,1.4E1,1E0,1E1,8E0,9.9E1,-5.039664E-2,-1.40821105E-2,6.6471114E-3,-2.129838E-2,3.1483278E-2,1.1508524E-1,3.6954104E-3,2.832655E-2,1.8210235E-1,2.6486581E-2,-8.56489E-2,1.9571304E-3],"split_indices":[1,1,2,2,2,1,0,1,2,3,2,2,1,0,0,0,0,0,0,0,0,0,0,0,0],"split_type":[0,0,0,0,0,0,0,0,0,0,0,0,0,0,0,0,0,0,0,0,0,0,0,0,0],"sum_hessian":[3.101E3,3.073E3,2.8E1,2.004E3,1.069E3,2.6E1,2E0,1.123E3,8.81E2,1.08E2,9.61E2,2.3E1,3E0,1.54E2,9.69E2,7E2,1.81E2,9.1E1,1.7E1,7.31E2,2.3E2,1.7E1,6E0,2E0,1E0],"tree_param":{"num_deleted":"0","num_feature":"4","num_nodes":"25","size_leaf_vector":"1"}},{"base_weights":[2.9177075E-2,-4.59496E-1,1.7519331E-1,-8.298952E-1,-2.9518992E-2,1.2343458E-1,1.5748804E0,-1.4203162E0,-6.839034E-1,-4.9184605E-1,5.3850365E-1,1.1034169E0,6.998159E-2,2.3681278E0,-3.856751E-2,-7.826616E-2,2.3275483E-1,-2.4917366E-2,-1.038597E-1,5.3985445E-3,-6.0790896E-2,1.054005E-1,2.05212E-2,3.8913388E-2,1.5739615E-1,-6.2386417E-3,1.4495688E-2,7.112327E-2,3.3352473E-1,-2.5800517E-2,1.5372263E-1],"categories":[],"categories_nodes":[],"categories_segments":[],"categories_sizes":[],"default_left":[0,0,0,0,0,0,0,0,0,0,0,0,0,0,0,0,0,0,0,0,0,0,0,0,0,0,0,0,0,0,0],"id":14,"left_children":[1,3,5,7,9,11,13,15,17,19,21,23,25,27,29,-1,-1,-1,-1,-1,-1,-1,-1,-1,-1,-1,-1,-1,-1,-1,-1],"loss_changes":[2.2113582E2,1.1353012E2,1.7266182E2,3.204196E1,8.7189514E1,1.20508415E2,1.08879715E2,7.335997E1,7.88517E1,7.959914E1,2.9087082E1,7.665765E1,9.358292E1,2.2242087E2,4.468883E1,0E0,0E0,0E0,0E0,0E0,0E0,0E0,0E0,0E0,0E0,0E0,0E0,0E0,0E0,0E0,0E0],"parents":[2147483647,0,0,1,1,2,2,3,3,4,4,5,5,6,6,7,7,8,8,9,9,10,10,11,11,12,12,13,13,14,14],"right_children":[2,4,6,8,10,12,14,16,18,20,22,24,26,28,30,-1,-1,-1,-1,-1,-1,-1,-1,-1,-1,-1,-1,-1,-1,-1,-1],"split_conditions":[6.8E1,1E0,1.35E0,5.5E1,9E0,6.9E1,8.5E1,1.8E1,9.8E-1,6E0,4.5E1,1.05E0,7.8E1,8.3E1,9.6E1,-7.826616E-2,2.3275483E-1,-2.4917366E-2,-1.038597E-1,5.3985445E-3,-6.0790896E-2,1.054005E-1,2.05212E-2,3.8913388E-2,1.5739615E-1,-6.2386417E-3,1.4495688E-2,7.112327E-2,3.3352473E-1,-2.5800517E-2,1.5372263E-1],"split_indices":[1,0,0,1,2,1,1,2,0,2,1,0,1,1,1,0,0,0,0,0,0,0,0,0,0,0,0,0,0,0,0],"split_type":[0,0,0,0,0,0,0,0,0,0,0,0,0,0,0,0,0,0,0,0,0,0,0,0,0,0,0,0,0,0,0],"sum_hessian":[3.097E3,7.12E2,2.385E3,3.82E2,3.3E2,2.301E3,8.4E1,7.4E1,3.08E2,1.82E2,1.48E2,1.18E2,2.183E3,5.6E1,2.8E1,7.3E1,1E0,2.73E2,3.5E1,1E2,8.2E1,1E1,1.38E2,1.03E2,1.5E1,1.158E3,1.025E3,4.7E1,9E0,2.5E1,3E0],"tree_param":{"num_deleted":"0","num_feature":"4","num_nodes":"31","size_leaf_vector":"1"}},{"base_weights":[5.0356165E-2,-2.102614E-1,2.9771534E-1,-3.1615865E-1,6.7004085E-1,2.4440001E-1,1.2425985E0,-6.047747E-1,-9.882092E-2,9.0492547E-1,-1.5445199E0,1.9536637E-1,1.4486458E0,1.4420851E0,-1.1188018E-1,-3.14792E-2,1.56568E-1,2.5872234E-2,-1.3089429E-2,-1.2217677E-2,5.3804666E-2,-1.2383109E-1,9.354708E-2,2.0450447E-1,9.090078E-3,8.5089736E-2,-5.355673E-2,8.039865E-2,-4.49754E-2],"categories":[],"categories_nodes":[],"categories_segments":[],"categories_sizes":[],"default_left":[0,0,0,0,0,0,0,0,0,0,0,0,0,0,0,0,0,0,0,0,0,0,0,0,0,0,0,0,0],"id":15,"left_children":[1,3,5,7,9,11,13,15,17,19,21,23,25,27,-1,-1,-1,-1,-1,-1,-1,-1,-1,-1,-1,-1,-1,-1,-1],"loss_changes":[2.0055232E2,1.4144257E2,8.0097626E1,8.4810074E1,8.618478E1,8.899839E1,6.2238373E1,5.58248E1,7.77689E1,2.9377449E1,5.557055E1,7.607297E1,3.9457733E1,3.291017E1,0E0,0E0,0E0,0E0,0E0,0E0,0E0,0E0,0E0,0E0,0E0,0E0,0E0,0E0,0E0],"parents":[2147483647,0,0,1,1,2,2,3,3,4,4,5,5,6,6,7,7,8,8,9,9,10,10,11,11,12,12,13,13],"right_children":[2,4,6,8,10,12,14,16,18,20,22,24,26,28,-1,-1,-1,-1,-1,-1,-1,-1,-1,-1,-1,-1,-1,-1,-1],"split_conditions":[7.4E1,1.08E0,9.1E1,6.7E1,7.3E1,1.35E0,1.4E1,2.2E1,6.9E1,4E0,8E0,9.2E-1,1.1E1,9.8E1,-1.1188018E-1,-3.14792E-2,1.56568E-1,2.5872234E-2,-1.3089429E-2,-1.2217677E-2,5.3804666E-2,-1.2383109E-1,9.354708E-2,2.0450447E-1,9.090078E-3,8.5089736E-2,-5.355673E-2,8.039865E-2,-4.49754E-2],"split_indices":[1,0,1,1,1,0,2,2,1,2,2,0,2,1,0,0,0,0,0,0,0,0,0,0,0,0,0,0,0],"split_type":[0,0,0,0,0,0,0,0,0,0,0,0,0,0,0,0,0,0,0,0,0,0,0,0,0,0,0,0,0],"sum_hessian":[3.109E3,1.514E3,1.595E3,1.352E3,1.62E2,1.511E3,8.4E1,5.8E2,7.72E2,1.47E2,1.5E1,1.453E3,5.8E1,8E1,4E0,5.77E2,3E0,1.61E2,6.11E2,1.9E1,1.28E2,1.2E1,3E0,4E0,1.449E3,5.3E1,5E0,7.5E1,5E0],"tree_param":{"num_deleted":"0","num_feature":"4","num_nodes":"29","size_leaf_vector":"1"}},{"base_weights":[4.10099E-2,-3.1674302E-1,2.1001953E-1,-6.9812626E-1,1.6122578E-2,1.541127E-1,1.7302648E0,-1.0405469E0,-4.307236E-1,1.9487451E-1,-2.0944139E-2,1.295922E-1,1.77305E0,3.6753878E-1,1.3040816E0,-6.5258235E-2,-3.3339956E-3,3.3294287E-2,-3.709594E-2,7.4606882E-3,-3.8576405E-2,1.4711627E-1,5.8367555E-3,1.1962856E-1,-5.518983E-2,2.3416076E-2,1.08761504E-1],"categories":[],"categories_nodes":[],"categories_segments":[],"categories_sizes":[],"default_left":[0,0,0,0,0,0,0,0,0,0,0,0,0,0,0,0,0,0,0,0,0,0,0,0,0,0,0],"id":16,"left_children":[1,3,5,7,9,11,13,15,17,-1,19,21,23,-1,25,-1,-1,-1,-1,-1,-1,-1,-1,-1,-1,-1,-1],"loss_changes":[1.8599236E2,1.2531027E2,1.7728183E2,4.1671356E1,7.604475E1,7.979968E1,1.6767114E2,5.1711197E1,8.922152E1,0E0,6.7039246E1,7.151355E1,5.6108925E1,0E0,4.9946266E1,0E0,0E0,0E0,0E0,0E0,0E0,0E0,0E0,0E0,0E0,0E0,0E0],"parents":[2147483647,0,0,1,1,2,2,3,3,4,4,5,5,6,6,7,7,8,8,10,10,11,11,12,12,14,14],"right_children":[2,4,6,8,10,12,14,16,18,-1,20,22,24,-1,26,-1,-1,-1,-1,-1,-1,-1,-1,-1,-1,-1,-1],"split_conditions":[7.1E1,1E0,1.35E0,6.3E1,3.7E1,9.4E1,7.3E1,9.8E-1,9.2E-1,1.9487451E-1,6.9E1,9.2E-1,9.8E1,3.6753878E-1,8.3E1,-6.5258235E-2,-3.3339956E-3,3.3294287E-2,-3.709594E-2,7.4606882E-3,-3.8576405E-2,1.4711627E-1,5.8367555E-3,1.1962856E-1,-5.518983E-2,2.3416076E-2,1.08761504E-1],"split_indices":[1,0,0,1,1,1,1,0,0,0,1,0,1,0,1,0,0,0,0,0,0,0,0,0,0,0,0],"split_type":[0,0,0,0,0,0,0,0,0,0,0,0,0,0,0,0,0,0,0,0,0,0,0,0,0,0,0],"sum_hessian":[3.074E3,9.86E2,2.088E3,4.59E2,5.27E2,2.015E3,7.3E1,2E2,2.59E2,4E0,5.23E2,1.986E3,2.9E1,4E0,6.9E1,1.57E2,4.3E1,5.7E1,2.02E2,4.27E2,9.6E1,8E0,1.978E3,2.4E1,5E0,3.6E1,3.3E1],"tree_param":{"num_deleted":"0","num_feature":"4","num_nodes":"27","size_leaf_vector":"1"}},{"base_weights":[-7.392771E-2,-3.8117954E-1,7.6827034E-2,-4.2245415E-1,8.172834E-1,3.0773512E-1,-4.7379944E-2,-3.674576E-1,-8.0531955E-1,1.358809E0,-8.379331E-1,2.3167253E-1,1.0984892E0,-3.5545835E-1,2.5350866E-1,-5.060917E-2,-1.2007901E-2,9.925866E-3,-8.027018E-2,1.4092843E-1,2.1009853E-2,-9.519552E-2,4.85258E-2,2.9731337E-2,-3.0256908E-3,1.5656681E-1,3.0412292E-2,-1.9200116E-2,6.856655E-2,-2.6585385E-2,2.3292523E-2],"categories":[],"categories_nodes":[],"categories_segments":[],"categories_sizes":[],"default_left":[0,0,0,0,0,0,0,0,0,0,0,0,0,0,0,0,0,0,0,0,0,0,0,0,0,0,0,0,0,0,0],"id":17,"left_children":[1,3,5,7,9,11,13,15,17,19,21,23,25,27,29,-1,-1,-1,-1,-1,-1,-1,-1,-1,-1,-1,-1,-1,-1,-1,-1],"loss_changes":[1.42277E2,5.035547E1,5.912487E1,2.029712E1,3.1614223E1,4.311135E1,1.2439716E2,7.009376E1,9.8303444E1,3.443949E1,1.9197664E1,6.9923096E1,6.088053E1,3.3205498E1,1.1346024E2,0E0,0E0,0E0,0E0,0E0,0E0,0E0,0E0,0E0,0E0,0E0,0E0,0E0,0E0,0E0,0E0],"parents":[2147483647,0,0,1,1,2,2,3,3,4,4,5,5,6,6,7,7,8,8,9,9,10,10,11,11,12,12,13,13,14,14],"right_children":[2,4,6,8,10,12,14,16,18,20,22,24,26,28,30,-1,-1,-1,-1,-1,-1,-1,-1,-1,-1,-1,-1,-1,-1,-1,-1],"split_conditions":[9.9E-1,1.7E1,1.01E0,1.3E1,2.1E1,1.3E1,1.05E0,9.4E-1,9.4E-1,9.2E-1,2.2E1,5E0,1.4E1,1.7E1,4E0,-5.060917E-2,-1.2007901E-2,9.925866E-3,-8.027018E-2,1.4092843E-1,2.1009853E-2,-9.519552E-2,4.85258E-2,2.9731337E-2,-3.0256908E-3,1.5656681E-1,3.0412292E-2,-1.9200116E-2,6.856655E-2,-2.6585385E-2,2.3292523E-2],"split_indices":[0,2,0,2,2,2,0,0,0,0,2,2,2,2,2,0,0,0,0,0,0,0,0,0,0,0,0,0,0,0,0],"split_type":[0,0,0,0,0,0,0,0,0,0,0,0,0,0,0,0,0,0,0,0,0,0,0,0,0,0,0,0,0,0,0],"sum_hessian":[3.07E3,1.01E3,2.06E3,9.77E2,3.3E1,7.2E2,1.34E3,8.56E2,1.21E2,2.5E1,8E0,6.58E2,6.2E1,6.62E2,6.78E2,1.4E2,7.16E2,5.4E1,6.7E1,9E0,1.6E1,5E0,3E0,2.93E2,3.65E2,1.1E1,5.1E1,6.52E2,1E1,1.44E2,5.34E2],"tree_param":{"num_deleted":"0","num_feature":"4","num_nodes":"31","size_leaf_vector":"1"}},{"base_weights":[3.1402092E-2,9.801458E-3,2.2458606E0,-1.9216351E-1,2.0078109E-1,4.262562E0,1.178581E0,1.5879472E-1,-2.0105839E-1,1.8672091E-1,2.1918576E0,2.1791906E0,2.9550475E-1,5.8303773E-1,2.967712E0,-1.8685838E-2,-2.3883216E-3,9.793366E-3,-9.430679E-2,1.4565586E-1,-1.2551837E-1,-4.9966525E-2,2.845411E-1,8.0960125E-2,-3.92524E-2,2.300972E-1,-8.923042E-2],"categories":[],"categories_nodes":[],"categories_segments":[],"categories_sizes":[],"default_left":[0,0,0,0,0,0,0,0,0,0,0,0,0,0,0,0,0,0,0,0,0,0,0,0,0,0,0],"id":18,"left_children":[1,3,5,7,9,11,13,-1,15,17,19,21,-1,23,25,-1,-1,-1,-1,-1,-1,-1,-1,-1,-1,-1,-1],"loss_changes":[1.485495E2,1.1872215E2,5.9547745E1,4.5456448E1,4.387869E1,2.1444992E1,2.0645317E1,0E0,3.949759E1,3.0173283E1,4.461976E1,7.2657776E1,0E0,2.5369709E1,4.7044643E1,0E0,0E0,0E0,0E0,0E0,0E0,0E0,0E0,0E0,0E0,0E0,0E0],"parents":[2147483647,0,0,1,1,2,2,3,3,4,4,5,5,6,6,8,8,9,9,10,10,11,11,13,13,14,14],"right_children":[2,4,6,8,10,12,14,-1,16,18,20,22,-1,24,26,-1,-1,-1,-1,-1,-1,-1,-1,-1,-1,-1,-1],"split_conditions":[9.4E1,7.4E1,5E0,3.7E1,1.8E1,9.7E1,1.1E1,1.5879472E-1,7E0,1.7E1,8.3E1,4E0,2.9550475E-1,7E0,9.9E1,-1.8685838E-2,-2.3883216E-3,9.793366E-3,-9.430679E-2,1.4565586E-1,-1.2551837E-1,-4.9966525E-2,2.845411E-1,8.0960125E-2,-3.92524E-2,2.300972E-1,-8.923042E-2],"split_indices":[1,1,2,1,2,1,2,0,2,2,1,2,0,2,1,0,0,0,0,0,0,0,0,0,0,0,0],"split_type":[0,0,0,0,0,0,0,0,0,0,0,0,0,0,0,0,0,0,0,0,0,0,0,0,0,0,0],"sum_hessian":[3.105E3,3.076E3,2.9E1,1.495E3,1.581E3,9E0,2E1,3E0,1.492E3,1.571E3,1E1,5E0,4E0,1.6E1,4E0,7.01E2,7.91E2,1.565E3,6E0,9E0,1E0,3E0,2E0,9E0,7E0,3E0,1E0],"tree_param":{"num_deleted":"0","num_feature":"4","num_nodes":"27","size_leaf_vector":"1"}},{"base_weights":[-3.5561446E-2,-4.03459E-1,6.1664887E-2,-8.513945E-1,-1.0839503E-1,1.9701933E-2,1.2686272E0,-1.0774606E0,4.7386548E-1,-3.9459792E-1,5.5467093E-1,7.496481E-1,-3.8022194E-2,-2.851638E0,1.4611896E0,-3.2502618E-2,-8.849802E-2,-8.043857E-2,4.9801707E-2,-1.34823425E-2,-1.5449065E-1,1.3771121E-1,1.1604715E-2,2.5472885E-2,1.964874E-1,9.315376E-3,-1.641941E-2,2.1860529E-2,-2.046829E-1,1.0524135E-1,1.0683893E-2],"categories":[],"categories_nodes":[],"categories_segments":[],"categories_sizes":[],"default_left":[0,0,0,0,0,0,0,0,0,0,0,0,0,0,0,0,0,0,0,0,0,0,0,0,0,0,0,0,0,0,0],"id":19,"left_children":[1,3,5,7,9,11,13,15,17,19,21,23,25,27,29,-1,-1,-1,-1,-1,-1,-1,-1,-1,-1,-1,-1,-1,-1,-1,-1],"loss_changes":[1.1037326E2,8.515713E1,1.2360605E2,7.7207245E1,7.422971E1,9.946829E1,6.922627E1,6.3669098E1,4.2926926E1,9.110504E1,8.308464E1,1.3014047E2,1.4258252E2,1.8129051E1,6.298291E1,0E0,0E0,0E0,0E0,0E0,0E0,0E0,0E0,0E0,0E0,0E0,0E0,0E0,0E0,0E0,0E0],"parents":[2147483647,0,0,1,1,2,2,3,3,4,4,5,5,6,6,7,7,8,8,9,9,10,10,11,11,12,12,13,13,14,14],"right_children":[2,4,6,8,10,12,14,16,18,20,22,24,26,28,30,-1,-1,-1,-1,-1,-1,-1,-1,-1,-1,-1,-1,-1,-1,-1,-1],"split_conditions":[6.7E1,8E0,1.35E0,1.08E0,1.02E0,6.9E1,6.8E1,6E0,5.7E1,1.01E0,1.03E0,1.08E0,1.01E0,6E0,8.5E1,-3.2502618E-2,-8.849802E-2,-8.043857E-2,4.9801707E-2,-1.34823425E-2,-1.5449065E-1,1.3771121E-1,1.1604715E-2,2.5472885E-2,1.964874E-1,9.315376E-3,-1.641941E-2,2.1860529E-2,-2.046829E-1,1.0524135E-1,1.0683893E-2],"split_indices":[1,2,0,0,0,1,1,2,1,0,0,0,0,2,1,0,0,0,0,0,0,0,0,0,0,0,0,0,0,0,0],"split_type":[0,0,0,0,0,0,0,0,0,0,0,0,0,0,0,0,0,0,0,0,0,0,0,0,0,0,0,0,0,0,0],"sum_hessian":[3.084E3,6.44E2,2.44E3,2.55E2,3.89E2,2.359E3,8.1E1,2.18E2,3.7E1,2.72E2,1.17E2,1.72E2,2.187E3,3E0,7.8E1,1.36E2,8.2E1,7E0,3E1,2.61E2,1.1E1,1.4E1,1.03E2,1.61E2,1.1E1,1.234E3,9.53E2,1E0,2E0,5.1E1,2.7E1],"tree_param":{"num_deleted":"0","num_feature":"4","num_nodes":"31","size_leaf_vector":"1"}},{"base_weights":[8.639206E-3,-8.477683E-2,4.1939434E-1,-3.4389815E-1,6.4048977E-3,9.6488017E-1,1.3141531E-2,2.5468915E0,-3.6997303E-1,-1.112974E-2,1.8091943E0,9.0773547E-1,3.52628E0,-6.499561E-1,4.697999E-1,1.8177707E-1,-7.240899E-2,-1.4403983E-2,-5.403563E-2,-3.8505115E-3,8.0889985E-3,3.4538605E-3,1.7708181E-1,7.0087425E-2,3.3362154E-2,2.9565534E-1,-1.7986617E-3,4.5399066E-2,-4.4869967E-2,3.855554E-2,-2.5091315E-2],"categories":[],"categories_nodes":[],"categories_segments":[],"categories_sizes":[],"default_left":[0,0,0,0,0,0,0,0,0,0,0,0,0,0,0,0,0,0,0,0,0,0,0,0,0,0,0,0,0,0,0],"id":20,"left_children":[1,3,5,7,9,11,13,15,17,19,21,23,25,27,29,-1,-1,-1,-1,-1,-1,-1,-1,-1,-1,-1,-1,-1,-1,-1,-1],"loss_changes":[1.188709E2,5.9637077E1,1.2718867E2,5.046501E1,5.906997E1,3.2659836E1,1.00232346E2,3.1360325E1,3.7638237E1,2.1097895E1,5.401908E1,2.7697052E1,4.2725113E1,5.285746E1,5.776823E1,0E0,0E0,0E0,0E0,0E0,0E0,0E0,0E0,0E0,0E0,0E0,0E0,0E0,0E0,0E0,0E0],"parents":[2147483647,0,0,1,1,2,2,3,3,4,4,5,5,6,6,7,7,8,8,9,9,10,10,11,11,12,12,13,13,14,14],"right_children":[2,4,6,8,10,12,14,16,18,20,22,24,26,28,30,-1,-1,-1,-1,-1,-1,-1,-1,-1,-1,-1,-1,-1,-1,-1,-1],"split_conditions":[8.3E1,6.7E1,7E0,3.7E1,1.8E1,9.7E1,9E0,1.2E1,6.6E1,1E0,1E0,8.5E1,9.8E1,8.4E1,9E1,1.8177707E-1,-7.240899E-2,-1.4403983E-2,-5.403563E-2,-3.8505115E-3,8.0889985E-3,3.4538605E-3,1.7708181E-1,7.0087425E-2,3.3362154E-2,2.9565534E-1,-1.7986617E-3,4.5399066E-2,-4.4869967E-2,3.855554E-2,-2.5091315E-2],"split_indices":[1,1,2,1,2,1,2,2,1,3,3,1,1,1,1,0,0,0,0,0,0,0,0,0,0,0,0,0,0,0,0],"split_type":[0,0,0,0,0,0,0,0,0,0,0,0,0,0,0,0,0,0,0,0,0,0,0,0,0,0,0,0,0,0,0],"sum_hessian":[3.096E3,2.523E3,5.73E2,6.56E2,1.867E3,2.44E2,3.29E2,5E0,6.51E2,1.85E3,1.7E1,2.4E2,4E0,1.34E2,1.95E2,4E0,1E0,5.85E2,6.6E1,1.34E3,5.1E2,9E0,8E0,7.7E1,1.63E2,2E0,2E0,1.8E1,1.16E2,1.49E2,4.6E1],"tree_param":{"num_deleted":"0","num_feature":"4","num_nodes":"31","size_leaf_vector":"1"}},{"base_weights":[5.4016905E-3,-3.0204173E-2,1.1352623E0,-4.311055E-2,1.5628408E0,2.7772903E-2,1.1841754E0,-2.4528946E-1,6.620631E-2,1.1168436E-1,7.0585376E-1,-4.4121626E-3,1.2295938E-2,1.4265084E0,9.5229447E-1,1.0163445E-2,-1.6238334E-2,1.7268619E-2,-4.8443363E-3,-6.588723E-2,9.411855E-2,9.0891205E-2,7.922649E-3,-1.8702494E-2,6.5098695E-2],"categories":[],"categories_nodes":[],"categories_segments":[],"categories_sizes":[],"default_left":[0,0,0,0,0,0,0,0,0,0,0,0,0,0,0,0,0,0,0,0,0,0,0,0,0],"id":21,"left_children":[1,3,5,7,9,11,13,15,17,-1,19,-1,-1,21,23,-1,-1,-1,-1,-1,-1,-1,-1,-1,-1],"loss_changes":[1.23780716E2,6.1399162E1,5.0591736E0,6.543686E1,1.2221104E1,1.4824288E-1,3.6988602E0,3.7106544E1,8.7542206E1,0E0,3.1050062E1,0E0,0E0,2.0552773E1,2.321297E1,0E0,0E0,0E0,0E0,0E0,0E0,0E0,0E0,0E0,0E0],"parents":[2147483647,0,0,1,1,2,2,3,3,4,4,5,5,6,6,7,7,8,8,10,10,13,13,14,14],"right_children":[2,4,6,8,10,12,14,16,18,-1,20,-1,-1,22,24,-1,-1,-1,-1,-1,-1,-1,-1,-1,-1],"split_conditions":[1.35E0,1.9E1,3E0,9.9E-1,1E0,1E0,7E0,1E0,1.01E0,1.1168436E-1,1.02E0,-4.4121626E-3,1.2295938E-2,1E0,8E0,1.0163445E-2,-1.6238334E-2,1.7268619E-2,-4.8443363E-3,-6.588723E-2,9.411855E-2,9.0891205E-2,7.922649E-3,-1.8702494E-2,6.5098695E-2],"split_indices":[0,2,2,0,0,3,2,2,0,0,0,0,0,3,2,0,0,0,0,0,0,0,0,0,0],"split_type":[0,0,0,0,0,0,0,0,0,0,0,0,0,0,0,0,0,0,0,0,0,0,0,0,0],"sum_hessian":[3.075E3,2.982E3,9.3E1,2.959E3,2.3E1,4E0,8.9E1,1.038E3,1.921E3,1.2E1,1.1E1,3E0,1E0,4.1E1,4.8E1,1.56E2,8.82E2,7.08E2,1.213E3,4E0,7E0,3.1E1,1E1,1E1,3.8E1],"tree_param":{"num_deleted":"0","num_feature":"4","num_nodes":"25","size_leaf_vector":"1"}},{"base_weights":[-6.651213E-2,-9.4198614E-2,7.55611E-1,-2.3278484E-1,-2.0275483E-2,3.410695E-1,2.0541146E0,6.478524E-2,-2.8625146E-1,-1.3095681E-1,2.4193016E-1,-5.4215457E-2,7.629986E-1,4.31919E0,1.0591344E0,2.4147665E-2,-3.635552E-2,-3.691083E-2,-1.1048708E-2,1.9407216E-2,-1.2660051E-2,1.7157312E-2,-3.245489E-2,6.2141526E-2,-7.437094E-2,1.1998867E-1,3.039244E-1,2.405589E-2,2.721354E-1],"categories":[],"categories_nodes":[],"categories_segments":[],"categories_sizes":[],"default_left":[0,0,0,0,0,0,0,0,0,0,0,0,0,0,0,0,0,0,0,0,0,0,0,0,0,0,0,0,0],"id":22,"left_children":[1,3,5,7,9,11,13,15,17,19,21,-1,23,25,27,-1,-1,-1,-1,-1,-1,-1,-1,-1,-1,-1,-1,-1,-1],"loss_changes":[6.985855E1,3.0391388E1,5.3127766E1,1.6437733E1,5.6216858E1,4.71358E1,4.951432E1,5.2672142E1,2.5652054E1,8.652684E1,5.207989E1,0E0,6.6637924E1,9.050781E0,4.298942E1,0E0,0E0,0E0,0E0,0E0,0E0,0E0,0E0,0E0,0E0,0E0,0E0,0E0,0E0],"parents":[2147483647,0,0,1,1,2,2,3,3,4,4,5,5,6,6,7,7,8,8,9,9,10,10,12,12,13,13,14,14],"right_children":[2,4,6,8,10,12,14,16,18,20,22,-1,24,26,28,-1,-1,-1,-1,-1,-1,-1,-1,-1,-1,-1,-1,-1,-1],"split_conditions":[1.35E0,9.9E-1,1E0,1E0,9E0,5E0,5E0,9.6E-1,5E0,1E0,1.6E1,-5.4215457E-2,1.1E1,4E0,1.1E1,2.4147665E-2,-3.635552E-2,-3.691083E-2,-1.1048708E-2,1.9407216E-2,-1.2660051E-2,1.7157312E-2,-3.245489E-2,6.2141526E-2,-7.437094E-2,1.1998867E-1,3.039244E-1,2.405589E-2,2.721354E-1],"split_indices":[0,0,3,2,2,2,2,0,2,0,2,0,2,2,2,0,0,0,0,0,0,0,0,0,0,0,0,0,0],"split_type":[0,0,0,0,0,0,0,0,0,0,0,0,0,0,0,0,0,0,0,0,0,0,0,0,0,0,0,0,0],"sum_hessian":[3.065E3,2.966E3,9.9E1,1.031E3,1.935E3,7.6E1,2.3E1,1.57E2,8.74E2,1.361E3,5.74E2,1.7E1,5.9E1,6E0,1.7E1,1.03E2,5.4E1,1.09E2,7.65E2,2.59E2,1.102E3,5.16E2,5.8E1,4.9E1,1E1,4E0,2E0,1.6E1,1E0],"tree_param":{"num_deleted":"0","num_feature":"4","num_nodes":"29","size_leaf_vector":"1"}},{"base_weights":[1.3790937E-2,-1.4756228E-1,2.6832357E-1,-2.9031107E-1,1.1809849E-1,9.2576444E-1,1.9522956E-1,-7.384861E-1,-1.4521487E-1,-6.587266E-2,9.5183456E-1,-6.3121414E-1,1.0717194E0,9.334311E-2,5.00547E-1,-4.777413E-2,2.3419915E-2,-9.059831E-3,7.198779E-2,1.1914968E-3,-7.579374E-2,7.154766E-2,-6.9891155E-2,-1.5552664E-1,3.436735E-2,5.0221443E-2,2.1184185E-1,-5.4189738E-2,8.074234E-3,3.576199E-2,-2.8723195E-2],"categories":[],"categories_nodes":[],"categories_segments":[],"categories_sizes":[],"default_left":[0,0,0,0,0,0,0,0,0,0,0,0,0,0,0,0,0,0,0,0,0,0,0,0,0,0,0,0,0,0,0],"id":23,"left_children":[1,3,5,7,9,11,13,15,17,19,21,23,25,27,29,-1,-1,-1,-1,-1,-1,-1,-1,-1,-1,-1,-1,-1,-1,-1,-1],"loss_changes":[1.2830014E2,7.254259E1,5.806192E1,8.07882E1,1.02676186E2,2.8173576E1,3.3922894E1,8.006198E1,5.392609E1,7.1443985E1,1.3821774E2,3.809848E1,1.938543E1,6.594887E1,6.341848E1,0E0,0E0,0E0,0E0,0E0,0E0,0E0,0E0,0E0,0E0,0E0,0E0,0E0,0E0,0E0,0E0],"parents":[2147483647,0,0,1,1,2,2,3,3,4,4,5,5,6,6,7,7,8,8,9,9,10,10,11,11,12,12,13,13,14,14],"right_children":[2,4,6,8,10,12,14,16,18,20,22,24,26,28,30,-1,-1,-1,-1,-1,-1,-1,-1,-1,-1,-1,-1,-1,-1,-1,-1],"split_conditions":[7.7E1,9E0,3E0,6.7E1,1.05E0,9.9E-1,1E1,1.08E0,1.35E0,7.6E1,1.6E1,2E0,9.5E1,9.4E-1,1.08E0,-4.777413E-2,2.3419915E-2,-9.059831E-3,7.198779E-2,1.1914968E-3,-7.579374E-2,7.154766E-2,-6.9891155E-2,-1.5552664E-1,3.436735E-2,5.0221443E-2,2.1184185E-1,-5.4189738E-2,8.074234E-3,3.576199E-2,-2.8723195E-2],"split_indices":[1,2,2,1,0,0,2,0,0,1,2,2,1,0,0,0,0,0,0,0,0,0,0,0,0,0,0,0,0,0,0],"split_type":[0,0,0,0,0,0,0,0,0,0,0,0,0,0,0,0,0,0,0,0,0,0,0,0,0,0,0,0,0,0,0],"sum_hessian":[3.122E3,1.911E3,1.211E3,1.243E3,6.68E2,1.2E2,1.091E3,3.03E2,9.4E2,5.48E2,1.2E2,1E1,1.1E2,8.19E2,2.72E2,2.57E2,4.6E1,9.2E2,2E1,5.17E2,3.1E1,1E2,2E1,3E0,7E0,1.09E2,1E0,4.4E1,7.75E2,2.27E2,4.5E1],"tree_param":{"num_deleted":"0","num_feature":"4","num_nodes":"31","size_leaf_vector":"1"}},{"base_weights":[7.798068E-2,5.2283317E-2,2.2615185E0,-1.114139E-1,2.0690502E-1,2.6548865E0,-1.5491467E0,-3.1013638E-1,1.3100992E-1,1.8408991E-1,1.3373059E0,1.8360039E0,4.125742E0,5.6787254E-3,-1.0706226E-1,-6.422003E-2,-1.1146058E-2,1.17824925E-2,-1.4309748E-2,2.1739176E-2,5.7952455E-3,-2.130463E-1,9.351596E-2,-5.9152406E-2,1.3701771E-1,2.5382322E-1,1.2436982E-1],"categories":[],"categories_nodes":[],"categories_segments":[],"categories_sizes":[],"default_left":[0,0,0,0,0,0,0,0,0,0,0,0,0,0,0,0,0,0,0,0,0,0,0,0,0,0,0],"id":24,"left_children":[1,3,5,7,9,11,13,15,17,19,21,23,25,-1,-1,-1,-1,-1,-1,-1,-1,-1,-1,-1,-1,-1,-1],"loss_changes":[1.7365808E2,7.752577E1,5.807657E1,7.172513E1,4.0373405E1,3.2172256E1,4.1811695E0,6.921969E1,2.9360811E1,2.635913E1,1.0047119E2,6.603844E1,4.506531E0,0E0,0E0,0E0,0E0,0E0,0E0,0E0,0E0,0E0,0E0,0E0,0E0,0E0,0E0],"parents":[2147483647,0,0,1,1,2,2,3,3,4,4,5,5,6,6,7,7,8,8,9,9,10,10,11,11,12,12],"right_children":[2,4,6,8,10,12,14,16,18,20,22,24,26,-1,-1,-1,-1,-1,-1,-1,-1,-1,-1,-1,-1,-1,-1],"split_conditions":[9.4E1,7.4E1,9.9E1,8E0,1.6E1,9.7E1,1E2,5.5E1,7.1E1,4E0,7.5E1,4E0,5E0,5.6787254E-3,-1.0706226E-1,-6.422003E-2,-1.1146058E-2,1.17824925E-2,-1.4309748E-2,2.1739176E-2,5.7952455E-3,-2.130463E-1,9.351596E-2,-5.9152406E-2,1.3701771E-1,2.5382322E-1,1.2436982E-1],"split_indices":[1,1,1,2,2,1,1,1,1,2,1,2,2,0,0,0,0,0,0,0,0,0,0,0,0,0,0],"split_type":[0,0,0,0,0,0,0,0,0,0,0,0,0,0,0,0,0,0,0,0,0,0,0,0,0,0,0],"sum_hessian":[3.096E3,3.061E3,3.5E1,1.487E3,1.574E3,3.2E1,3E0,8.17E2,6.7E2,1.544E3,3E1,2.2E1,1E1,1E0,2E0,6.6E1,7.51E2,5.36E2,1.34E2,3.29E2,1.215E3,2E0,2.8E1,5E0,1.7E1,5E0,5E0],"tree_param":{"num_deleted":"0","num_feature":"4","num_nodes":"27","size_leaf_vector":"1"}},{"base_weights":[-1.7584099E-2,-5.03093E-1,5.513232E-2,-1.0906253E0,-3.7101948E-1,2.3175806E-2,1.0073909E0,-1.2941853E0,1.9773401E0,-6.402416E-1,8.208808E-2,1.0220493E0,-1.3957027E-3,6.459116E-1,2.0008798E0,-4.194467E-2,-1.0940454E-1,-1.5732003E-2,1.3144976E-1,-5.6520976E-2,-1.6060978E-2,-6.783291E-2,3.064532E-2,9.312495E-2,2.1005435E-2,-5.41692E-3,1.15865255E-2,4.824681E-2,-1.090429E-1,1.7861513E-2,1.7388947E-1],"categories":[],"categories_nodes":[],"categories_segments":[],"categories_sizes":[],"default_left":[0,0,0,0,0,0,0,0,0,0,0,0,0,0,0,0,0,0,0,0,0,0,0,0,0,0,0,0,0,0,0],"id":25,"left_children":[1,3,5,7,9,11,13,15,17,19,21,23,25,27,29,-1,-1,-1,-1,-1,-1,-1,-1,-1,-1,-1,-1,-1,-1,-1,-1],"loss_changes":[1.1003646E2,3.1099922E1,8.247473E1,4.877317E1,4.067409E1,6.440442E1,3.0310677E1,2.6653572E1,8.29509E0,3.2319794E1,9.62956E1,3.1089302E1,6.38987E1,6.162377E1,5.459063E1,0E0,0E0,0E0,0E0,0E0,0E0,0E0,0E0,0E0,0E0,0E0,0E0,0E0,0E0,0E0,0E0],"parents":[2147483647,0,0,1,1,2,2,3,3,4,4,5,5,6,6,7,7,8,8,9,9,10,10,11,11,12,12,13,13,14,14],"right_children":[2,4,6,8,10,12,14,16,18,20,22,24,26,28,30,-1,-1,-1,-1,-1,-1,-1,-1,-1,-1,-1,-1,-1,-1,-1,-1],"split_conditions":[6.3E1,5.1E1,1.35E0,1.35E0,1E0,9.2E-1,1E0,1E0,3.8E1,9.8E-1,9.2E-1,1E0,1E0,9.1E1,8.3E1,-4.194467E-2,-1.0940454E-1,-1.5732003E-2,1.3144976E-1,-5.6520976E-2,-1.6060978E-2,-6.783291E-2,3.064532E-2,9.312495E-2,2.1005435E-2,-5.41692E-3,1.15865255E-2,4.824681E-2,-1.090429E-1,1.7861513E-2,1.7388947E-1],"split_indices":[1,1,0,0,3,0,3,3,1,0,0,3,3,1,1,0,0,0,0,0,0,0,0,0,0,0,0,0,0,0,0],"split_type":[0,0,0,0,0,0,0,0,0,0,0,0,0,0,0,0,0,0,0,0,0,0,0,0,0,0,0,0,0,0,0],"sum_hessian":[3.115E3,4.05E2,2.71E3,7.3E1,3.32E2,2.623E3,8.7E1,6.9E1,4E0,2.08E2,1.24E2,6.2E1,2.561E3,6.5E1,2.2E1,4.7E1,2.2E1,1E0,3E0,8.1E1,1.27E2,3.3E1,9.1E1,2.5E1,3.7E1,1.756E3,8.05E2,5.9E1,6E0,1.1E1,1.1E1],"tree_param":{"num_deleted":"0","num_feature":"4","num_nodes":"31","size_leaf_vector":"1"}},{"base_weights":[-2.0468617E-2,-3.197317E-2,3.9010234E0,-1.2805422E-1,3.0920473E-1,1.5643078E0,2.728767E-1,-2.8961974E-1,1.05192445E-1,-4.9452206E-1,5.0956386E-1,2.0033565E-1,-4.7971725E-2,-1.6087867E-2,3.8393475E-2,5.7662953E-2,-2.6101144E-3,1.5408441E-2,-5.005628E-2,4.3560613E-2,9.855914E-3,-7.5070076E-2,4.68486E-2],"categories":[],"categories_nodes":[],"categories_segments":[],"categories_sizes":[],"default_left":[0,0,0,0,0,0,0,0,0,0,0,0,0,0,0,0,0,0,0,0,0,0,0],"id":26,"left_children":[1,3,5,7,9,11,-1,13,15,17,19,-1,21,-1,-1,-1,-1,-1,-1,-1,-1,-1,-1],"loss_changes":[1.3880827E2,1.005453E2,2.4196854E1,9.020976E1,1.08788895E2,1.9881409E1,0E0,4.83021E1,1.6172115E2,5.520573E1,6.0845795E1,0E0,7.1329565E0,0E0,0E0,0E0,0E0,0E0,0E0,0E0,0E0,0E0,0E0],"parents":[2147483647,0,0,1,1,2,2,3,3,4,4,5,5,7,7,8,8,9,9,10,10,12,12],"right_children":[2,4,6,8,10,12,-1,14,16,18,20,-1,22,-1,-1,-1,-1,-1,-1,-1,-1,-1,-1],"split_conditions":[9.7E1,1.05E0,1.01E0,7.6E1,4E0,9.8E1,2.728767E-1,1.7E1,3E0,1E0,7.5E1,2.0033565E-1,6E0,-1.6087867E-2,3.8393475E-2,5.7662953E-2,-2.6101144E-3,1.5408441E-2,-5.005628E-2,4.3560613E-2,9.855914E-3,-7.5070076E-2,4.68486E-2],"split_indices":[1,0,0,1,2,1,0,2,2,2,1,0,2,0,0,0,0,0,0,0,0,0,0],"split_type":[0,0,0,0,0,0,0,0,0,0,0,0,0,0,0,0,0,0,0,0,0,0,0],"sum_hessian":[3.073E3,3.065E3,8E0,2.392E3,6.73E2,4E0,4E0,1.413E3,9.79E2,1.34E2,5.39E2,1E0,3E0,1.372E3,4.1E1,1.27E2,8.52E2,5.2E1,8.2E1,2.49E2,2.9E2,1E0,2E0],"tree_param":{"num_deleted":"0","num_feature":"4","num_nodes":"23","size_leaf_vector":"1"}},{"base_weights":[2.1903025E-2,2.5897774E-1,1.5340422E-2,-3.2929775E-1,1.1460799E-1,-4.167909E-1,1.2151033E0,9.170403E-2,1.6440809E0,-3.2249164E-2,-9.019788E-3,2.1627484E-2,1.03028834E-1,3.9495067E-3,9.941449E-2,1.414736E-1,5.0466504E-2],"categories":[],"categories_nodes":[],"categories_segments":[],"categories_sizes":[],"default_left":[0,0,0,0,0,0,0,0,0,0,0,0,0,0,0,0,0],"id":27,"left_children":[1,-1,3,5,7,9,11,13,15,-1,-1,-1,-1,-1,-1,-1,-1],"loss_changes":[1.0654054E2,0E0,1.07701E2,9.56341E1,8.546495E1,3.5864014E1,2.425058E1,5.7931168E1,2.4231552E1,0E0,0E0,0E0,0E0,0E0,0E0,0E0,0E0],"parents":[2147483647,0,0,2,2,3,3,4,4,5,5,6,6,7,7,8,8],"right_children":[2,-1,4,6,8,10,12,14,16,-1,-1,-1,-1,-1,-1,-1,-1],"split_conditions":[3.7E1,2.5897774E-1,6.8E1,1.7E1,9.4E1,9E0,5.9E1,1.8E1,5E0,-3.2249164E-2,-9.019788E-3,2.1627484E-2,1.03028834E-1,3.9495067E-3,9.941449E-2,1.414736E-1,5.0466504E-2],"split_indices":[1,0,1,2,1,2,1,2,2,0,0,0,0,0,0,0,0],"split_type":[0,0,0,0,0,0,0,0,0,0,0,0,0,0,0,0,0],"sum_hessian":[3.149E3,3E0,3.146E3,7.03E2,2.443E3,6.66E2,3.7E1,2.408E3,3.5E1,3.38E2,3.28E2,2E1,1.7E1,2.393E3,1.5E1,1.1E1,2.4E1],"tree_param":{"num_deleted":"0","num_feature":"4","num_nodes":"17","size_leaf_vector":"1"}},{"base_weights":[1.0880076E-2,-8.135493E-4,3.0201075E0,-6.934498E-2,3.041346E-1,4.2877727E0,-1.106073E-1,-2.6352692E-1,7.1437326E-3,7.1202E-1,-1.6338766E-1,6.2360335E-2,2.4460068E-1,-1.8260088E-2,2.2672141E-2,4.1790526E-2,-2.6077994E-3,-5.710919E-2,4.4143677E-2,-2.9941726E-2,1.7988957E-2],"categories":[],"categories_nodes":[],"categories_segments":[],"categories_sizes":[],"default_left":[0,0,0,0,0,0,0,0,0,0,0,0,0,0,0,0,0,0,0,0,0],"id":28,"left_children":[1,3,5,7,9,11,-1,13,15,17,19,-1,-1,-1,-1,-1,-1,-1,-1,-1,-1],"loss_changes":[1.0908768E2,6.457666E1,8.907813E1,3.7475315E1,1.0824068E2,1.2270996E1,0E0,5.2141712E1,8.90356E1,9.699797E1,6.0585453E1,0E0,0E0,0E0,0E0,0E0,0E0,0E0,0E0,0E0,0E0],"parents":[2147483647,0,0,1,1,2,2,3,3,4,4,5,5,7,7,8,8,9,9,10,10],"right_children":[2,4,6,8,10,12,-1,14,16,18,20,-1,-1,-1,-1,-1,-1,-1,-1,-1,-1],"split_conditions":[9.7E1,8.3E1,9.9E1,6.8E1,8.7E1,9.8E-1,-1.106073E-1,1.08E0,6.9E1,9.5E-1,1E0,6.2360335E-2,2.4460068E-1,-1.8260088E-2,2.2672141E-2,4.1790526E-2,-2.6077994E-3,-5.710919E-2,4.4143677E-2,-2.9941726E-2,1.7988957E-2],"split_indices":[1,1,1,1,1,0,0,0,1,0,3,0,0,0,0,0,0,0,0,0,0],"split_type":[0,0,0,0,0,0,0,0,0,0,0,0,0,0,0,0,0,0,0,0,0],"sum_hessian":[3.099E3,3.088E3,1.1E1,2.522E3,5.66E2,9E0,2E0,7.12E2,1.81E3,3.02E2,2.64E2,2E0,7E0,6.24E2,8.8E1,1.2E2,1.69E3,2.5E1,2.77E2,1.44E2,1.2E2],"tree_param":{"num_deleted":"0","num_feature":"4","num_nodes":"21","size_leaf_vector":"1"}},{"base_weights":[-2.7469771E-2,-5.4456983E-2,7.494552E-1,-2.2377686E-1,3.410624E-2,-2.598519E0,9.0935934E-1,-1.6814046E-1,-7.384013E-1,2.7013677E-1,-1.046059E-1,-1.6145205E-1,-1.9107818E-3,6.498996E-1,1.7497289E0,-8.790723E-3,1.7383306E-1,-1.8505847E-1,-2.2026958E-2,2.5815263E-2,6.6546076E-3,-1.7025566E-2,1.1111676E-2,-4.836702E-2,5.093928E-2,1.7307855E-1,4.7096375E-2],"categories":[],"categories_nodes":[],"categories_segments":[],"categories_sizes":[],"default_left":[0,0,0,0,0,0,0,0,0,0,0,0,0,0,0,0,0,0,0,0,0,0,0,0,0,0,0],"id":29,"left_children":[1,3,5,7,9,11,13,15,17,19,21,-1,-1,23,25,-1,-1,-1,-1,-1,-1,-1,-1,-1,-1,-1,-1],"loss_changes":[6.4954765E1,4.4889206E1,5.8039917E1,2.9309391E1,6.439569E1,7.9482384E0,2.0667053E1,2.6595537E1,8.661915E1,2.4491142E1,9.560653E1,0E0,0E0,4.7518528E1,2.8544502E1,0E0,0E0,0E0,0E0,0E0,0E0,0E0,0E0,0E0,0E0,0E0,0E0],"parents":[2147483647,0,0,1,1,2,2,3,3,4,4,5,5,6,6,7,7,8,8,9,9,10,10,13,13,14,14],"right_children":[2,4,6,8,10,12,14,16,18,20,22,-1,-1,24,26,-1,-1,-1,-1,-1,-1,-1,-1,-1,-1,-1,-1],"split_conditions":[1.35E0,9.9E-1,3E0,9.8E-1,1.01E0,1E0,1E0,2.3E1,4E0,4E0,8E0,-1.6145205E-1,-1.9107818E-3,5E0,5E0,-8.790723E-3,1.7383306E-1,-1.8505847E-1,-2.2026958E-2,2.5815263E-2,6.6546076E-3,-1.7025566E-2,1.1111676E-2,-4.836702E-2,5.093928E-2,1.7307855E-1,4.7096375E-2],"split_indices":[0,0,2,0,0,3,3,2,2,2,2,0,0,2,2,0,0,0,0,0,0,0,0,0,0,0,0],"split_type":[0,0,0,0,0,0,0,0,0,0,0,0,0,0,0,0,0,0,0,0,0,0,0,0,0,0,0],"sum_hessian":[3.095E3,2.992E3,1.03E2,1.027E3,1.965E3,4E0,9.9E1,9.28E2,9.9E1,7.27E2,1.238E3,3E0,1E0,7.7E1,2.2E1,9.27E2,1E0,8E0,9.1E1,2.59E2,4.68E2,7.19E2,5.19E2,1.4E1,6.3E1,6E0,1.6E1],"tree_param":{"num_deleted":"0","num_feature":"4","num_nodes":"27","size_leaf_vector":"1"}},{"base_weights":[-2.8937578E-2,-1.3923159E-1,1.982361E-1,-1.5139303E-1,2.00265E0,-3.612759E-1,3.8086957E-1,-2.3308985E-1,1.894158E-1,3.0355093E0,-1.05388224E-1,-5.758846E-1,1.6717674E-1,-1.1698872E0,4.1097546E-1,-4.191044E-3,-3.0999979E-2,1.5016387E-2,-5.180934E-2,7.781798E-2,1.8811081E-1,-2.3918536E-2,-1.0579338E-1,3.0207222E-2,-9.34956E-2,8.362281E-2,1.846692E-2],"categories":[],"categories_nodes":[],"categories_segments":[],"categories_sizes":[],"default_left":[0,0,0,0,0,0,0,0,0,0,0,0,0,0,0,0,0,0,0,0,0,0,0,0,0,0,0],"id":30,"left_children":[1,3,5,7,9,11,13,15,17,19,-1,21,-1,23,25,-1,-1,-1,-1,-1,-1,-1,-1,-1,-1,-1,-1],"loss_changes":[7.865301E1,5.5343384E1,1.0498004E2,5.8570126E1,5.7343906E1,2.0308185E2,3.661647E1,9.7898186E1,5.563633E1,4.8937225E0,0E0,3.5028557E1,0E0,1.9757687E1,3.930081E1,0E0,0E0,0E0,0E0,0E0,0E0,0E0,0E0,0E0,0E0,0E0,0E0],"parents":[2147483647,0,0,1,1,2,2,3,3,4,4,5,5,6,6,7,7,8,8,9,9,11,11,13,13,14,14],"right_children":[2,4,6,8,10,12,14,16,18,20,-1,22,-1,24,26,-1,-1,-1,-1,-1,-1,-1,-1,-1,-1,-1,-1],"split_conditions":[1E0,9.5E1,9.7E-1,1.05E0,9.8E1,8.6E1,5E1,1.01E0,8.7E1,9.7E1,-1.05388224E-1,8.3E1,1.6717674E-1,4.5E1,5.7E1,-4.191044E-3,-3.0999979E-2,1.5016387E-2,-5.180934E-2,7.781798E-2,1.8811081E-1,-2.3918536E-2,-1.0579338E-1,3.0207222E-2,-9.34956E-2,8.362281E-2,1.846692E-2],"split_indices":[3,1,0,0,1,1,1,0,1,1,0,1,0,1,1,0,0,0,0,0,0,0,0,0,0,0,0],"split_type":[0,0,0,0,0,0,0,0,0,0,0,0,0,0,0,0,0,0,0,0,0,0,0,0,0,0,0],"sum_hessian":[3.137E3,2.112E3,1.025E3,2.101E3,1.1E1,2.52E2,7.73E2,1.695E3,4.06E2,9E0,2E0,2.39E2,1.3E1,1.4E1,7.59E2,1.224E3,4.71E2,3.73E2,3.3E1,4E0,5E0,2.26E2,1.3E1,4E0,1E1,2.3E1,7.36E2],"tree_param":{"num_deleted":"0","num_feature":"4","num_nodes":"27","size_leaf_vector":"1"}},{"base_weights":[1.2115193E-2,-2.8969157E-1,9.311259E-2,-5.676866E-1,4.9501378E-2,5.9288923E-2,1.0547706E0,-4.1375098E-1,-1.2339385E0,1.3740345E0,-5.0015394E-2,2.8744414E-2,6.691232E-1,-1.484311E-1,1.2404349E0,-5.3433727E-2,-8.63101E-3,-4.2693213E-2,-1.5628949E-1,-7.212831E-2,9.618052E-2,-7.8137904E-2,2.993911E-3,7.3237414E-3,-6.2697926E-3,1.5609157E-1,2.519779E-2,1.687432E-1,4.1015934E-2],"categories":[],"categories_nodes":[],"categories_segments":[],"categories_sizes":[],"default_left":[0,0,0,0,0,0,0,0,0,0,0,0,0,0,0,0,0,0,0,0,0,0,0,0,0,0,0,0,0],"id":31,"left_children":[1,3,5,7,9,11,13,15,17,19,21,23,25,-1,27,-1,-1,-1,-1,-1,-1,-1,-1,-1,-1,-1,-1,-1,-1],"loss_changes":[7.67127E1,6.2639286E1,8.040877E1,3.6923805E1,3.96127E1,4.4518135E1,6.643038E1,4.6876354E1,4.622599E1,3.52816E1,4.664099E1,4.1357224E1,4.4608986E1,0E0,6.9864876E1,0E0,0E0,0E0,0E0,0E0,0E0,0E0,0E0,0E0,0E0,0E0,0E0,0E0,0E0],"parents":[2147483647,0,0,1,1,2,2,3,3,4,4,5,5,6,6,7,7,8,8,9,9,10,10,11,11,12,12,14,14],"right_children":[2,4,6,8,10,12,14,16,18,20,22,24,26,-1,28,-1,-1,-1,-1,-1,-1,-1,-1,-1,-1,-1,-1,-1,-1],"split_conditions":[6.7E1,1E0,1.35E0,6.5E1,4.5E1,9E1,6.8E1,5.5E1,9.9E-1,1.02E0,5E1,1.01E0,9.4E-1,-1.484311E-1,7.3E1,-5.3433727E-2,-8.63101E-3,-4.2693213E-2,-1.5628949E-1,-7.212831E-2,9.618052E-2,-7.8137904E-2,2.993911E-3,7.3237414E-3,-6.2697926E-3,1.5609157E-1,2.519779E-2,1.687432E-1,4.1015934E-2],"split_indices":[1,0,0,1,1,1,1,1,0,0,1,0,0,0,1,0,0,0,0,0,0,0,0,0,0,0,0,0,0],"split_type":[0,0,0,0,0,0,0,0,0,0,0,0,0,0,0,0,0,0,0,0,0,0,0,0,0,0,0,0,0],"sum_hessian":[3.136E3,6.63E2,2.473E3,3.64E2,2.99E2,2.39E3,8.3E1,2.97E2,6.7E1,2E1,2.79E2,2.277E3,1.13E2,3E0,8E1,7.9E1,2.18E2,5.7E1,1E1,3E0,1.7E1,1.8E1,2.61E2,1.291E3,9.86E2,6E0,1.07E2,1.2E1,6.8E1],"tree_param":{"num_deleted":"0","num_feature":"4","num_nodes":"29","size_leaf_vector":"1"}},{"base_weights":[-8.545063E-2,-4.2240322E-1,2.9673749E-3,-5.3404826E-1,3.5064796E-1,-1.8578833E-2,1.3761765E0,1.910548E-1,-5.485709E-1,-1.0578697E-1,1.2843409E0,5.067008E-1,-6.250044E-2,3.1135056E0,5.5306077E-1,-2.84053E-2,8.7258495E-2,-2.5234912E-2,1.1753839E-1,1.7644402E-1,4.2836837E-2,4.3648276E-3,6.1133888E-2,3.402256E-3,-1.1836153E-2,-8.576267E-2,1.854208E-1,-3.3314917E-2,1.5329061E-1],"categories":[],"categories_nodes":[],"categories_segments":[],"categories_sizes":[],"default_left":[0,0,0,0,0,0,0,0,0,0,0,0,0,0,0,0,0,0,0,0,0,0,0,0,0,0,0,0,0],"id":32,"left_children":[1,3,5,7,9,11,13,-1,15,17,19,21,23,25,27,-1,-1,-1,-1,-1,-1,-1,-1,-1,-1,-1,-1,-1,-1],"loss_changes":[9.2447914E1,5.585549E1,7.27811E1,3.7768097E1,3.508181E1,5.590994E1,5.261892E1,0E0,2.6218628E1,5.606348E1,2.2890587E1,5.6046333E1,5.0871674E1,4.0833E1,8.476928E1,0E0,0E0,0E0,0E0,0E0,0E0,0E0,0E0,0E0,0E0,0E0,0E0,0E0,0E0],"parents":[2147483647,0,0,1,1,2,2,3,3,4,4,5,5,6,6,8,8,9,9,10,10,11,11,12,12,13,13,14,14],"right_children":[2,4,6,8,10,12,14,-1,16,18,20,22,24,26,28,-1,-1,-1,-1,-1,-1,-1,-1,-1,-1,-1,-1,-1,-1],"split_conditions":[6.7E1,1.08E0,9.4E1,3.4E1,6.2E1,6.9E1,5E0,1.910548E-1,2.2E1,1.5E1,3E0,1.02E0,1.02E0,9.8E-1,1.05E0,-2.84053E-2,8.7258495E-2,-2.5234912E-2,1.1753839E-1,1.7644402E-1,4.2836837E-2,4.3648276E-3,6.1133888E-2,3.402256E-3,-1.1836153E-2,-8.576267E-2,1.854208E-1,-3.3314917E-2,1.5329061E-1],"split_indices":[1,0,1,1,1,1,2,0,2,2,2,0,0,0,0,0,0,0,0,0,0,0,0,0,0,0,0,0,0],"split_type":[0,0,0,0,0,0,0,0,0,0,0,0,0,0,0,0,0,0,0,0,0,0,0,0,0,0,0,0,0],"sum_hessian":[3.102E3,6.44E2,2.458E3,5.63E2,8.1E1,2.421E3,3.7E1,1E0,5.62E2,5.5E1,2.6E1,1.86E2,2.235E3,1.1E1,2.6E1,5.58E2,4E0,4.8E1,7E0,3E0,2.3E1,1.18E2,6.8E1,1.278E3,9.57E2,1E0,1E1,1.8E1,8E0],"tree_param":{"num_deleted":"0","num_feature":"4","num_nodes":"29","size_leaf_vector":"1"}},{"base_weights":[6.1905677E-3,-5.1018264E-2,2.498225E-1,4.845408E-2,-1.8738444E-1,1.5956469E-1,9.244765E-1,-9.246903E-2,3.0964333E-1,2.1570258E0,-2.2505547E-1,1.09602414E-1,9.538138E-1,1.5780929E0,3.6447138E-1,-4.0952902E-2,-2.6936093E-3,1.9856084E-3,4.948729E-2,6.6674605E-2,2.2500686E-1,-9.41886E-2,-9.637716E-3,2.7970916E-2,7.6068385E-4,6.1795246E-2,-1.04550265E-1,1.1121976E-1,2.9412387E-2,-2.0815052E-2,7.5642526E-2],"categories":[],"categories_nodes":[],"categories_segments":[],"categories_sizes":[],"default_left":[0,0,0,0,0,0,0,0,0,0,0,0,0,0,0,0,0,0,0,0,0,0,0,0,0,0,0,0,0,0,0],"id":33,"left_children":[1,3,5,7,9,11,13,15,17,19,21,23,25,27,29,-1,-1,-1,-1,-1,-1,-1,-1,-1,-1,-1,-1,-1,-1,-1,-1],"loss_changes":[4.3610493E1,3.4381935E1,3.60837E1,5.3988575E1,9.4895615E1,2.076845E1,2.5046825E1,2.668185E1,9.432124E1,2.6802834E1,5.6055E1,2.1050438E1,2.9210697E1,1.9163155E1,3.559809E1,0E0,0E0,0E0,0E0,0E0,0E0,0E0,0E0,0E0,0E0,0E0,0E0,0E0,0E0,0E0,0E0],"parents":[2147483647,0,0,1,1,2,2,3,3,4,4,5,5,6,6,7,7,8,8,9,9,10,10,11,11,12,12,13,13,14,14],"right_children":[2,4,6,8,10,12,14,16,18,20,22,24,26,28,30,-1,-1,-1,-1,-1,-1,-1,-1,-1,-1,-1,-1,-1,-1,-1,-1],"split_conditions":[8.3E1,1.01E0,1.18E0,7.4E1,4.5E1,9.4E1,8.6E1,5.2E1,1E0,4.3E1,5.2E1,8.4E1,9.9E1,1E0,1E0,-4.0952902E-2,-2.6936093E-3,1.9856084E-3,4.948729E-2,6.6674605E-2,2.2500686E-1,-9.41886E-2,-9.637716E-3,2.7970916E-2,7.6068385E-4,6.1795246E-2,-1.04550265E-1,1.1121976E-1,2.9412387E-2,-2.0815052E-2,7.5642526E-2],"split_indices":[1,0,0,1,1,1,1,1,3,1,1,1,1,3,3,0,0,0,0,0,0,0,0,0,0,0,0,0,0,0,0],"split_type":[0,0,0,0,0,0,0,0,0,0,0,0,0,0,0,0,0,0,0,0,0,0,0,0,0,0,0,0,0,0,0],"sum_hessian":[3.127E3,2.533E3,5.94E2,1.465E3,1.068E3,5.25E2,6.9E1,9.52E2,5.13E2,1.6E1,1.052E3,4.95E2,3E1,3.1E1,3.8E1,4.7E1,9.05E2,3.68E2,1.45E2,1.3E1,3E0,1.9E1,1.033E3,8.5E1,4.1E2,2.8E1,2E0,1.8E1,1.3E1,2.3E1,1.5E1],"tree_param":{"num_deleted":"0","num_feature":"4","num_nodes":"31","size_leaf_vector":"1"}},{"base_weights":[-5.0263017E-2,-1.8303318E-1,1.8658967E-1,2.717722E0,-1.8881544E-1,4.336998E-1,-1.9235544E-2,2.3370402E-1,-7.8783825E-2,-2.1192136E-1,5.1579446E-1,3.000769E-1,1.47632E0,-3.6051753E-1,4.7152022E-1,-2.3422219E-2,-7.577155E-3,4.341003E-2,-3.898206E-2,-4.836944E-2,1.8547269E-2,2.9097483E-1,6.062887E-2,7.206518E-4,-4.020604E-2,1.4562702E-1,1.6235799E-2],"categories":[],"categories_nodes":[],"categories_segments":[],"categories_sizes":[],"default_left":[0,0,0,0,0,0,0,0,0,0,0,0,0,0,0,0,0,0,0,0,0,0,0,0,0,0,0],"id":34,"left_children":[1,3,5,7,9,11,13,-1,-1,15,17,19,21,23,25,-1,-1,-1,-1,-1,-1,-1,-1,-1,-1,-1,-1],"loss_changes":[9.70795E1,3.3690056E1,5.6413734E1,4.096254E1,3.2263603E1,6.977323E1,1.0166657E2,0E0,0E0,2.9558342E1,2.9437607E1,4.0599712E1,5.8235832E1,5.9554306E1,8.828394E1,0E0,0E0,0E0,0E0,0E0,0E0,0E0,0E0,0E0,0E0,0E0,0E0],"parents":[2147483647,0,0,1,1,2,2,3,3,4,4,5,5,6,6,9,9,10,10,11,11,12,12,13,13,14,14],"right_children":[2,4,6,8,10,12,14,-1,-1,16,18,20,22,24,26,-1,-1,-1,-1,-1,-1,-1,-1,-1,-1,-1,-1],"split_conditions":[7.8E1,3.7E1,7E0,9E0,1.7E1,9E1,1E1,2.3370402E-1,-7.8783825E-2,6.3E1,7.1E1,9.4E-1,9.4E-1,8.4E1,9.5E-1,-2.3422219E-2,-7.577155E-3,4.341003E-2,-3.898206E-2,-4.836944E-2,1.8547269E-2,2.9097483E-1,6.062887E-2,7.206518E-4,-4.020604E-2,1.4562702E-1,1.6235799E-2],"split_indices":[1,1,2,2,2,1,2,0,0,1,1,0,0,1,0,0,0,0,0,0,0,0,0,0,0,0,0],"split_type":[0,0,0,0,0,0,0,0,0,0,0,0,0,0,0,0,0,0,0,0,0,0,0,0,0,0,0],"sum_hessian":[3.085E3,1.977E3,1.108E3,3E0,1.974E3,5.03E2,6.05E2,2E0,1E0,1.912E3,6.2E1,4.47E2,5.6E1,3.57E2,2.48E2,3.63E2,1.549E3,4.9E1,1.3E1,2.3E1,4.24E2,2E0,5.4E1,1.94E2,1.63E2,1.3E1,2.35E2],"tree_param":{"num_deleted":"0","num_feature":"4","num_nodes":"27","size_leaf_vector":"1"}},{"base_weights":[4.961365E-2,2.422714E-2,7.7673256E-1,-2.3164593E-1,6.288969E-2,1.1231432E0,-9.758814E-2,-1.5330796E0,-8.236898E-2,7.81324E-1,4.301742E-2,7.258833E-1,1.9999343E-1,-2.3701031E0,4.305918E-1,1.4279914E-2,-1.0267538E-1,6.929716E-2,-9.584932E-3,1.19853215E-2,1.0297376E-1,-2.8200025E-2,3.7925958E-3,6.4378105E-2,-3.952116E-2,-1.6119194E-1,-5.6863785E-2,1.3387536E-1,1.0551288E-3],"categories":[],"categories_nodes":[],"categories_segments":[],"categories_sizes":[],"default_left":[0,0,0,0,0,0,0,0,0,0,0,0,0,0,0,0,0,0,0,0,0,0,0,0,0,0,0,0,0],"id":35,"left_children":[1,3,5,7,9,11,13,15,17,19,21,23,-1,25,27,-1,-1,-1,-1,-1,-1,-1,-1,-1,-1,-1,-1,-1,-1],"loss_changes":[5.7997852E1,3.0068605E1,3.2214252E1,7.738907E1,3.7657455E1,8.394994E1,3.8229748E1,3.939261E1,5.789596E1,4.8657444E1,5.126579E1,5.893177E1,0E0,2.6486626E0,2.3865776E1,0E0,0E0,0E0,0E0,0E0,0E0,0E0,0E0,0E0,0E0,0E0,0E0,0E0,0E0],"parents":[2147483647,0,0,1,1,2,2,3,3,4,4,5,5,6,6,7,7,8,8,9,9,10,10,11,11,13,13,14,14],"right_children":[2,4,6,8,10,12,14,16,18,20,22,24,-1,26,28,-1,-1,-1,-1,-1,-1,-1,-1,-1,-1,-1,-1,-1,-1],"split_conditions":[1.35E0,6.3E1,8.5E1,9.2E-1,9.2E-1,8.3E1,8.6E1,1E0,9.5E-1,6.8E1,9.5E-1,7.9E1,1.9999343E-1,1E0,8.7E1,1.4279914E-2,-1.0267538E-1,6.929716E-2,-9.584932E-3,1.19853215E-2,1.0297376E-1,-2.8200025E-2,3.7925958E-3,6.4378105E-2,-3.952116E-2,-1.6119194E-1,-5.6863785E-2,1.3387536E-1,1.0551288E-3],"split_indices":[0,1,1,0,0,1,1,3,0,1,0,1,0,3,1,0,0,0,0,0,0,0,0,0,0,0,0,0,0],"split_type":[0,0,0,0,0,0,0,0,0,0,0,0,0,0,0,0,0,0,0,0,0,0,0,0,0,0,0,0,0],"sum_hessian":[3.142E3,3.037E3,1.05E2,3.98E2,2.639E3,7.5E1,3E1,4E1,3.58E2,7E1,2.569E3,6.7E1,8E0,5E0,2.5E1,9E0,3.1E1,2.4E1,3.34E2,5E1,2E1,1.31E2,2.438E3,4.9E1,1.8E1,2E0,3E0,3E0,2.2E1],"tree_param":{"num_deleted":"0","num_feature":"4","num_nodes":"29","size_leaf_vector":"1"}},{"base_weights":[2.2485035E-2,-1.9530305E-1,1.3850595E-1,3.1984386E0,-2.1087725E-1,1.1725258E-1,1.4204602E0,2.381897E-1,-7.657459E-2,-5.06172E-1,-2.7166558E-2,2.4715064E-1,-3.3859745E-2,1.7104372E0,-1.02472745E-1,-1.4540854E-2,-6.491061E-2,-1.0729863E-2,9.738336E-3,6.2940777E-3,3.915194E-2,-1.8617973E-2,2.2306356E-3,6.47882E-2,2.5743994E-1],"categories":[],"categories_nodes":[],"categories_segments":[],"categories_sizes":[],"default_left":[0,0,0,0,0,0,0,0,0,0,0,0,0,0,0,0,0,0,0,0,0,0,0,0,0],"id":36,"left_children":[1,3,5,7,9,11,13,-1,-1,15,17,19,21,23,-1,-1,-1,-1,-1,-1,-1,-1,-1,-1,-1],"loss_changes":[7.858518E1,5.7810505E1,5.51153E1,4.4315826E1,5.8412212E1,3.9207882E1,3.6709915E1,0E0,0E0,7.0067764E1,2.7703873E1,6.969711E1,2.4560736E1,3.752806E1,0E0,0E0,0E0,0E0,0E0,0E0,0E0,0E0,0E0,0E0,0E0],"parents":[2147483647,0,0,1,1,2,2,3,3,4,4,5,5,6,6,9,9,10,10,11,11,12,12,13,13],"right_children":[2,4,6,8,10,12,14,-1,-1,16,18,20,22,24,-1,-1,-1,-1,-1,-1,-1,-1,-1,-1,-1],"split_conditions":[7.2E1,3.7E1,9.4E1,1.2E1,7E0,7E0,1E2,2.381897E-1,-7.657459E-2,6E0,6.5E1,8.4E1,8E0,1.2E1,-1.02472745E-1,-1.4540854E-2,-6.491061E-2,-1.0729863E-2,9.738336E-3,6.2940777E-3,3.915194E-2,-1.8617973E-2,2.2306356E-3,6.47882E-2,2.5743994E-1],"split_indices":[1,1,1,2,2,2,1,0,0,2,1,1,2,2,0,0,0,0,0,0,0,0,0,0,0],"split_type":[0,0,0,0,0,0,0,0,0,0,0,0,0,0,0,0,0,0,0,0,0,0,0,0,0],"sum_hessian":[3.108E3,1.08E3,2.028E3,4E0,1.076E3,1.996E3,3.2E1,3E0,1E0,4.12E2,6.64E2,1.073E3,9.23E2,3E1,2E0,3.25E2,8.7E1,3.6E2,3.04E2,8.76E2,1.97E2,1.73E2,7.5E2,2.8E1,2E0],"tree_param":{"num_deleted":"0","num_feature":"4","num_nodes":"25","size_leaf_vector":"1"}},{"base_weights":[-4.3754117E-3,-9.903165E-2,4.179191E-1,3.0708396E0,-1.0525707E-1,7.599856E-1,1.67117E-1,2.2925758E-1,-7.4660234E-2,-8.783388E-1,-8.419306E-2,1.449972E0,4.3139452E-1,-2.9027063E-1,7.6407063E-1,-1.2065581E-2,-9.694461E-2,-2.386859E-3,-2.5289804E-2,-6.4260036E-2,8.08725E-2,4.1597635E-3,7.5436614E-2,3.97344E-3,-3.4059938E-2,4.9824856E-2,-5.0861835E-2],"categories":[],"categories_nodes":[],"categories_segments":[],"categories_sizes":[],"default_left":[0,0,0,0,0,0,0,0,0,0,0,0,0,0,0,0,0,0,0,0,0,0,0,0,0,0,0],"id":37,"left_children":[1,3,5,7,9,11,13,-1,-1,15,17,19,21,23,25,-1,-1,-1,-1,-1,-1,-1,-1,-1,-1,-1,-1],"loss_changes":[1.2399707E2,5.0328667E1,4.8602264E1,4.1403515E1,4.112509E1,5.3788116E1,9.005168E1,0E0,0E0,4.4797405E1,3.784731E1,3.7350998E1,6.1395504E1,2.7083399E1,6.021895E1,0E0,0E0,0E0,0E0,0E0,0E0,0E0,0E0,0E0,0E0,0E0,0E0],"parents":[2147483647,0,0,1,1,2,2,3,3,4,4,5,5,6,6,9,9,10,10,11,11,12,12,13,13,14,14],"right_children":[2,4,6,8,10,12,14,-1,-1,16,18,20,22,24,26,-1,-1,-1,-1,-1,-1,-1,-1,-1,-1,-1,-1],"split_conditions":[8.3E1,3.7E1,7E0,1.2E1,5.1E1,8.5E1,1E1,2.2925758E-1,-7.4660234E-2,4.8E1,8.1E1,2E0,9.2E1,8.7E1,1.5E1,-1.2065581E-2,-9.694461E-2,-2.386859E-3,-2.5289804E-2,-6.4260036E-2,8.08725E-2,4.1597635E-3,7.5436614E-2,3.97344E-3,-3.4059938E-2,4.9824856E-2,-5.0861835E-2],"split_indices":[1,1,2,2,1,1,2,0,0,1,1,2,1,1,2,0,0,0,0,0,0,0,0,0,0,0,0],"split_type":[0,0,0,0,0,0,0,0,0,0,0,0,0,0,0,0,0,0,0,0,0,0,0,0,0,0,0],"sum_hessian":[3.1E3,2.533E3,5.67E2,4E0,2.529E3,2.39E2,3.28E2,3E0,1E0,6.6E1,2.463E3,7.6E1,1.63E2,1.86E2,1.42E2,4.2E1,2.4E1,2.268E3,1.95E2,4E0,7.2E1,1.24E2,3.9E1,9.6E1,9E1,1.26E2,1.6E1],"tree_param":{"num_deleted":"0","num_feature":"4","num_nodes":"27","size_leaf_vector":"1"}},{"base_weights":[7.706914E-4,-8.1096925E-2,3.6204228E-1,-2.3756422E-2,-8.045077E-1,9.5454484E-1,-6.351787E-2,-5.845529E-1,1.8070469E-2,1.5594814E0,-9.195155E-1,7.136278E-1,1.751927E0,-7.8943634E-1,4.3655422E-1,-3.317069E-2,1.9212498E-1,3.297187E-5,3.8092826E-2,2.4425681E-1,-4.429116E-3,-7.958685E-2,-3.5010688E-2,4.663786E-2,-5.2625995E-2,2.7915674E-1,7.510055E-2,-8.767244E-3,-6.7890614E-2,3.2693386E-2,-3.3820625E-2],"categories":[],"categories_nodes":[],"categories_segments":[],"categories_sizes":[],"default_left":[0,0,0,0,0,0,0,0,0,0,0,0,0,0,0,0,0,0,0,0,0,0,0,0,0,0,0,0,0,0,0],"id":38,"left_children":[1,3,5,7,9,11,13,15,17,19,21,23,25,27,29,-1,-1,-1,-1,-1,-1,-1,-1,-1,-1,-1,-1,-1,-1,-1,-1],"loss_changes":[9.189379E1,1.0505159E2,1.4479213E2,5.508613E1,5.2003136E1,4.485446E1,1.2195351E2,5.945594E1,2.8308376E1,4.976075E1,2.5126083E1,7.296651E1,4.4275497E1,4.757968E1,4.8572952E1,0E0,0E0,0E0,0E0,0E0,0E0,0E0,0E0,0E0,0E0,0E0,0E0,0E0,0E0,0E0,0E0],"parents":[2147483647,0,0,1,1,2,2,3,3,4,4,5,5,6,6,7,7,8,8,9,9,10,10,11,11,12,12,13,13,14,14],"right_children":[2,4,6,8,10,12,14,16,18,20,22,24,26,28,30,-1,-1,-1,-1,-1,-1,-1,-1,-1,-1,-1,-1,-1,-1,-1,-1],"split_conditions":[8.3E1,8.1E1,7E0,9.4E-1,9.5E-1,9E1,9E0,8E1,1.35E0,7E0,9.9E-1,8.9E1,9.4E-1,8E0,1.08E0,-3.317069E-2,1.9212498E-1,3.297187E-5,3.8092826E-2,2.4425681E-1,-4.429116E-3,-7.958685E-2,-3.5010688E-2,4.663786E-2,-5.2625995E-2,2.7915674E-1,7.510055E-2,-8.767244E-3,-6.7890614E-2,3.2693386E-2,-3.3820625E-2],"split_indices":[1,1,2,0,0,1,2,1,0,2,0,1,0,2,0,0,0,0,0,0,0,0,0,0,0,0,0,0,0,0,0],"split_type":[0,0,0,0,0,0,0,0,0,0,0,0,0,0,0,0,0,0,0,0,0,0,0,0,0,0,0,0,0,0,0],"sum_hessian":[3.105E3,2.532E3,5.73E2,2.347E3,1.85E2,2.39E2,3.34E2,1.62E2,2.185E3,8E0,1.77E2,1.85E2,5.4E1,1.36E2,1.98E2,1.6E2,2E0,2.136E3,4.9E1,2E0,6E0,4.2E1,1.35E2,1.65E2,2E1,2E0,5.2E1,6.6E1,7E1,1.66E2,3.2E1],"tree_param":{"num_deleted":"0","num_feature":"4","num_nodes":"31","size_leaf_vector":"1"}},{"base_weights":[4.2455852E-2,3.021538E-2,1.3471726E0,-7.713041E-1,4.8302986E-2,4.0207205E0,7.671742E-2,-2.8592512E-1,-1.7977864E0,3.200096E-2,7.5349826E-1,3.390748E-1,2.8279366E0,1.6358505E0,-1.0990256E0,4.608761E-3,-8.281519E-2,1.2471421E-1,-1.06855206E-1,-1.1316507E-2,3.0240098E-3,2.2561605E-1,3.1312495E-2,9.640217E-4,1.8804711E-1,-5.418237E-2,2.0140891E-1,-1.0270961E-1,-1.8233418E-2],"categories":[],"categories_nodes":[],"categories_segments":[],"categories_sizes":[],"default_left":[0,0,0,0,0,0,0,0,0,0,0,0,0,0,0,0,0,0,0,0,0,0,0,0,0,0,0,0,0],"id":39,"left_children":[1,3,5,7,9,11,13,15,17,19,21,-1,23,25,27,-1,-1,-1,-1,-1,-1,-1,-1,-1,-1,-1,-1,-1,-1],"loss_changes":[4.810989E1,4.335599E1,9.4796974E1,3.236934E1,3.357902E1,1.0459427E1,3.846064E1,2.398714E1,3.5914436E1,2.1040203E1,2.874223E1,0E0,2.0891415E1,6.29185E1,7.6680994E0,0E0,0E0,0E0,0E0,0E0,0E0,0E0,0E0,0E0,0E0,0E0,0E0,0E0,0E0],"parents":[2147483647,0,0,1,1,2,2,3,3,4,4,5,5,6,6,7,7,8,8,9,9,10,10,12,12,13,13,14,14],"right_children":[2,4,6,8,10,12,14,16,18,20,22,-1,24,26,28,-1,-1,-1,-1,-1,-1,-1,-1,-1,-1,-1,-1,-1,-1],"split_conditions":[9.4E1,5.1E1,5E0,4.8E1,1.7E1,9.5E1,9.5E1,1E0,2E0,6.3E1,5.2E1,3.390748E-1,9.7E1,1E0,6E0,4.608761E-3,-8.281519E-2,1.2471421E-1,-1.06855206E-1,-1.1316507E-2,3.0240098E-3,2.2561605E-1,3.1312495E-2,9.640217E-4,1.8804711E-1,-5.418237E-2,2.0140891E-1,-1.0270961E-1,-1.8233418E-2],"split_indices":[1,1,2,1,2,1,1,3,2,1,1,0,1,3,2,0,0,0,0,0,0,0,0,0,0,0,0,0,0],"split_type":[0,0,0,0,0,0,0,0,0,0,0,0,0,0,0,0,0,0,0,0,0,0,0,0,0,0,0,0,0],"sum_hessian":[3.014E3,2.987E3,2.7E1,6.5E1,2.922E3,8E0,1.9E1,4.5E1,2E1,2.857E3,6.5E1,1E0,7E0,8E0,1.1E1,3.6E1,9E0,1E0,1.9E1,2.83E2,2.574E3,1E0,6.4E1,2E0,5E0,4E0,4E0,4E0,7E0],"tree_param":{"num_deleted":"0","num_feature":"4","num_nodes":"29","size_leaf_vector":"1"}},{"base_weights":[4.1318443E-2,-5.630901E-1,8.2929425E-2,-7.0867145E-1,2.2447057E0,5.523444E-2,8.353113E-1,-3.2866818E-1,-1.6775728E0,3.302868E-1,1.0261761E0,-4.394933E-2,2.4032725E-1,-4.2838714E-1,1.1487547E0,-3.570252E-2,2.8001541E-2,1.13358155E-1,-1.06785774E-1,-6.046003E-2,1.17269896E-1,8.2166446E-4,-1.6555378E-2,1.568806E-1,1.0493256E-2,4.393999E-2,-1.1344738E-1,1.4898367E-1,3.6399107E-2],"categories":[],"categories_nodes":[],"categories_segments":[],"categories_sizes":[],"default_left":[0,0,0,0,0,0,0,0,0,0,0,0,0,0,0,0,0,0,0,0,0,0,0,0,0,0,0,0,0],"id":40,"left_children":[1,3,5,7,9,11,13,15,17,-1,19,21,23,25,27,-1,-1,-1,-1,-1,-1,-1,-1,-1,-1,-1,-1,-1,-1],"loss_changes":[7.73076E1,8.252576E1,5.9860825E1,6.9035736E1,4.636179E1,5.093622E1,4.0894096E1,4.7320854E1,1.0062633E2,0E0,2.9376675E1,3.133767E1,8.477473E1,5.251904E1,6.1003685E1,0E0,0E0,0E0,0E0,0E0,0E0,0E0,0E0,0E0,0E0,0E0,0E0,0E0,0E0],"parents":[2147483647,0,0,1,1,2,2,3,3,4,4,5,5,6,6,7,7,8,8,10,10,11,11,12,12,13,13,14,14],"right_children":[2,4,6,8,10,12,14,16,18,-1,20,22,24,26,28,-1,-1,-1,-1,-1,-1,-1,-1,-1,-1,-1,-1,-1,-1],"split_conditions":[9.4E-1,8.8E1,1.35E0,7.6E1,1E0,7.8E1,6.8E1,6.7E1,9.2E-1,3.302868E-1,8.9E1,7.5E1,9.5E-1,5.7E1,7.3E1,-3.570252E-2,2.8001541E-2,1.13358155E-1,-1.06785774E-1,-6.046003E-2,1.17269896E-1,8.2166446E-4,-1.6555378E-2,1.568806E-1,1.0493256E-2,4.393999E-2,-1.1344738E-1,1.4898367E-1,3.6399107E-2],"split_indices":[0,1,0,1,3,1,1,1,0,0,1,1,0,1,1,0,0,0,0,0,0,0,0,0,0,0,0,0,0],"split_type":[0,0,0,0,0,0,0,0,0,0,0,0,0,0,0,0,0,0,0,0,0,0,0,0,0,0,0,0,0],"sum_hessian":[3.071E3,1.97E2,2.874E3,1.88E2,9E0,2.773E3,1.01E2,1.36E2,5.2E1,1E0,8E0,1.806E3,9.67E2,2E1,8.1E1,9.5E1,4.1E1,5E0,4.7E1,3E0,5E0,1.493E3,3.13E2,9E0,9.58E2,1.2E1,8E0,1.4E1,6.7E1],"tree_param":{"num_deleted":"0","num_feature":"4","num_nodes":"29","size_leaf_vector":"1"}},{"base_weights":[8.3571E-3,-6.50617E-2,2.8203705E-1,4.385863E-2,-2.0205954E-1,-4.0585053E-1,4.6008086E-1,-3.1460038E-1,1.7828171E-1,-6.913592E-2,-9.772902E-1,4.941633E-1,-1.0698884E0,3.0179286E-1,1.1137528E0,-2.3811297E-2,2.5729125E-2,-3.100265E-3,1.7010214E-2,4.8031402E-4,-3.4466155E-2,-9.7945474E-2,-2.5902007E-2,1.8438804E-1,1.2645845E-2,-1.1230494E-1,-3.7709296E-2,3.4655206E-2,-2.428902E-2,1.2044867E-1,9.426791E-3],"categories":[],"categories_nodes":[],"categories_segments":[],"categories_sizes":[],"default_left":[0,0,0,0,0,0,0,0,0,0,0,0,0,0,0,0,0,0,0,0,0,0,0,0,0,0,0,0,0,0,0],"id":41,"left_children":[1,3,5,7,9,11,13,15,17,19,21,23,25,27,29,-1,-1,-1,-1,-1,-1,-1,-1,-1,-1,-1,-1,-1,-1,-1,-1],"loss_changes":[6.2126595E1,3.638833E1,8.0284805E1,6.553973E1,1.1122261E2,8.121054E1,5.346747E1,4.9965427E1,3.8501003E1,4.5081234E1,7.0213E1,4.375305E1,2.7269958E1,1.2977493E2,1.20580215E2,0E0,0E0,0E0,0E0,0E0,0E0,0E0,0E0,0E0,0E0,0E0,0E0,0E0,0E0,0E0,0E0],"parents":[2147483647,0,0,1,1,2,2,3,3,4,4,5,5,6,6,7,7,8,8,9,9,10,10,11,11,12,12,13,13,14,14],"right_children":[2,4,6,8,10,12,14,16,18,20,22,24,26,28,30,-1,-1,-1,-1,-1,-1,-1,-1,-1,-1,-1,-1,-1,-1,-1,-1],"split_conditions":[1.05E0,8E0,4E0,7.2E1,1.03E0,2E0,8.4E1,1.03E0,2E0,8.6E1,9E0,5.9E1,6.5E1,7.7E1,8.7E1,-2.3811297E-2,2.5729125E-2,-3.100265E-3,1.7010214E-2,4.8031402E-4,-3.4466155E-2,-9.7945474E-2,-2.5902007E-2,1.8438804E-1,1.2645845E-2,-1.1230494E-1,-3.7709296E-2,3.4655206E-2,-2.428902E-2,1.2044867E-1,9.426791E-3],"split_indices":[0,2,2,1,0,2,1,0,2,1,2,1,1,1,1,0,0,0,0,0,0,0,0,0,0,0,0,0,0,0,0],"split_type":[0,0,0,0,0,0,0,0,0,0,0,0,0,0,0,0,0,0,0,0,0,0,0,0,0,0,0,0,0,0,0],"sum_hessian":[3.09E3,2.437E3,6.53E2,1.358E3,1.079E3,1.34E2,5.19E2,3.7E2,9.88E2,9.22E2,1.57E2,5.7E1,7.7E1,4.19E2,1E2,3.1E2,6E1,3.98E2,5.9E2,8.19E2,1.03E2,4.9E1,1.08E2,3E0,5.4E1,1.5E1,6.2E1,2.8E2,1.39E2,4.1E1,5.9E1],"tree_param":{"num_deleted":"0","num_feature":"4","num_nodes":"31","size_leaf_vector":"1"}},{"base_weights":[3.261031E-2,2.58079E-2,2.6491623E0,-1.1132314E-1,9.469499E-2,2.2206914E-1,1.3115249E0,2.6681247E-1,-1.7955439E-1,3.4807584E-1,-4.4000708E-2,1.5641202E-1,-3.788929E-1,4.0038634E-2,-3.4668807E-2,-3.7704438E-2,-4.662576E-3,2.9508386E-2,1.0627349E-2,-1.2283057E-2,8.1947E-3,-7.9019405E-2,2.7420077E-2],"categories":[],"categories_nodes":[],"categories_segments":[],"categories_sizes":[],"default_left":[0,0,0,0,0,0,0,0,0,0,0,0,0,0,0,0,0,0,0,0,0,0,0],"id":42,"left_children":[1,3,5,7,9,-1,11,13,15,17,19,-1,21,-1,-1,-1,-1,-1,-1,-1,-1,-1,-1],"loss_changes":[5.49123E1,2.9124832E1,1.3353748E1,2.6648392E1,7.2128395E1,0E0,1.9611317E1,8.156222E1,4.326606E1,2.3694939E1,5.567359E1,0E0,5.3232465E0,0E0,0E0,0E0,0E0,0E0,0E0,0E0,0E0,0E0,0E0],"parents":[2147483647,0,0,1,1,2,2,3,3,4,4,6,6,7,7,8,8,9,9,10,10,12,12],"right_children":[2,4,6,8,10,-1,12,14,16,18,20,-1,22,-1,-1,-1,-1,-1,-1,-1,-1,-1,-1],"split_conditions":[2.2E1,9.9E-1,9.9E-1,1E0,1.01E0,2.2206914E-1,2.3E1,9.6E-1,5E0,4E0,1.05E0,1.5641202E-1,2.5E1,4.0038634E-2,-3.4668807E-2,-3.7704438E-2,-4.662576E-3,2.9508386E-2,1.0627349E-2,-1.2283057E-2,8.1947E-3,-7.9019405E-2,2.7420077E-2],"split_indices":[2,0,0,2,0,0,2,0,2,2,0,0,2,0,0,0,0,0,0,0,0,0,0],"split_type":[0,0,0,0,0,0,0,0,0,0,0,0,0,0,0,0,0,0,0,0,0,0,0],"sum_hessian":[3.088E3,3.081E3,7E0,1.03E3,2.051E3,2E0,5E0,1.57E2,8.73E2,7.25E2,1.326E3,2E0,3E0,1.01E2,5.6E1,1.13E2,7.6E2,2.59E2,4.66E2,6.73E2,6.53E2,1E0,2E0],"tree_param":{"num_deleted":"0","num_feature":"4","num_nodes":"23","size_leaf_vector":"1"}},{"base_weights":[4.8455694E-3,-3.6322158E-3,2.385892E0,-2.4324233E-2,7.9570985E-1,1.7960878E-1,7.819597E-1,2.727961E0,-2.888957E-2,1.133306E0,-3.1226292E-1,-1.1003126E-1,2.8234084E0,2.199034E-1,-9.881168E-2,-4.030748E-2,-5.322067E-4,3.5295933E-2,1.13225065E-1,-4.8578985E-2,8.6407E-2,3.6331113E-2,2.2784416E-1],"categories":[],"categories_nodes":[],"categories_segments":[],"categories_sizes":[],"default_left":[0,0,0,0,0,0,0,0,0,0,0,0,0,0,0,0,0,0,0,0,0,0,0],"id":43,"left_children":[1,3,5,7,9,-1,11,13,15,17,19,-1,21,-1,-1,-1,-1,-1,-1,-1,-1,-1,-1],"loss_changes":[6.2585262E1,5.1127953E1,1.8473827E1,3.7937492E1,2.9529587E1,0E0,4.2746025E1,4.797415E1,4.2663403E1,2.7408958E1,2.7239187E1,0E0,1.1227772E1,0E0,0E0,0E0,0E0,0E0,0E0,0E0,0E0,0E0,0E0],"parents":[2147483647,0,0,1,1,2,2,3,3,4,4,6,6,7,7,8,8,9,9,10,10,12,12],"right_children":[2,4,6,8,10,-1,12,14,16,18,20,-1,22,-1,-1,-1,-1,-1,-1,-1,-1,-1,-1],"split_conditions":[9.7E1,1.7E1,5E0,3.7E1,2.1E1,1.7960878E-1,8E0,1.06E0,5.2E1,1.9E1,7.2E1,-1.1003126E-1,1.18E0,2.199034E-1,-9.881168E-2,-4.030748E-2,-5.322067E-4,3.5295933E-2,1.13225065E-1,-4.8578985E-2,8.6407E-2,3.6331113E-2,2.2784416E-1],"split_indices":[1,2,2,1,2,0,2,0,1,2,1,0,0,0,0,0,0,0,0,0,0,0,0],"split_type":[0,0,0,0,0,0,0,0,0,0,0,0,0,0,0,0,0,0,0,0,0,0,0],"sum_hessian":[3.099E3,3.089E3,1E1,3.012E3,7.7E1,5E0,5E0,4E0,3.008E3,5.9E1,1.8E1,2E0,3E0,3E0,1E0,6.8E1,2.94E3,4.4E1,1.5E1,1.4E1,4E0,2E0,1E0],"tree_param":{"num_deleted":"0","num_feature":"4","num_nodes":"23","size_leaf_vector":"1"}},{"base_weights":[9.279619E-3,-2.2528668E-1,7.3865026E-2,5.954086E-1,-2.8230232E-1,6.246133E-2,1.3551639E0,1.2907753E0,-7.886608E-1,-5.9361964E-1,-4.8012327E-2,1.695698E-1,-5.6848254E-2,-1.21142216E-1,2.7082732E0,3.517874E-2,1.258745E-1,-1.7494923E-2,-7.98103E-2,-8.016351E-3,-4.6607204E-2,1.916796E-2,-1.215429E-2,-1.4906074E-4,1.8086033E-2,-1.1561666E-2,9.832481E-3,6.449615E-2,-1.4564936E-1,2.880548E-1,4.216639E-2],"categories":[],"categories_nodes":[],"categories_segments":[],"categories_sizes":[],"default_left":[0,0,0,0,0,0,0,0,0,0,0,0,0,0,0,0,0,0,0,0,0,0,0,0,0,0,0,0,0,0,0],"id":44,"left_children":[1,3,5,7,9,11,13,15,17,19,21,23,25,27,29,-1,-1,-1,-1,-1,-1,-1,-1,-1,-1,-1,-1,-1,-1,-1,-1],"loss_changes":[4.61016E1,3.0910728E1,3.4778492E1,4.2402718E1,4.4828693E1,3.0244915E1,4.227776E1,1.911826E1,4.756296E0,3.8574104E1,2.9713688E1,4.1346397E1,4.9556458E1,4.7091755E1,5.776835E1,0E0,0E0,0E0,0E0,0E0,0E0,0E0,0E0,0E0,0E0,0E0,0E0,0E0,0E0,0E0,0E0],"parents":[2147483647,0,0,1,1,2,2,3,3,4,4,5,5,6,6,7,7,8,8,9,9,10,10,11,11,12,12,13,13,14,14],"right_children":[2,4,6,8,10,12,14,16,18,20,22,24,26,28,30,-1,-1,-1,-1,-1,-1,-1,-1,-1,-1,-1,-1,-1,-1,-1,-1],"split_conditions":[6.7E1,2E0,1.8E1,6.4E1,9E0,7E0,1E0,6.1E1,6.6E1,6E0,5.8E1,7.6E1,1E0,2.2E1,7.6E1,3.517874E-2,1.258745E-1,-1.7494923E-2,-7.98103E-2,-8.016351E-3,-4.6607204E-2,1.916796E-2,-1.215429E-2,-1.4906074E-4,1.8086033E-2,-1.1561666E-2,9.832481E-3,6.449615E-2,-1.4564936E-1,2.880548E-1,4.216639E-2],"split_indices":[1,2,2,1,2,2,3,1,1,2,1,1,3,2,1,0,0,0,0,0,0,0,0,0,0,0,0,0,0,0,0],"split_type":[0,0,0,0,0,0,0,0,0,0,0,0,0,0,0,0,0,0,0,0,0,0,0,0,0,0,0,0,0,0,0],"sum_hessian":[3.041E3,6.56E2,2.385E3,4.2E1,6.14E2,2.365E3,2E1,2.8E1,1.4E1,2.63E2,3.51E2,1.246E3,1.119E3,1E1,1E1,2E1,8E0,1E1,4E0,1.16E2,1.47E2,1.09E2,2.42E2,6.57E2,5.89E2,6.63E2,4.56E2,7E0,3E0,3E0,7E0],"tree_param":{"num_deleted":"0","num_feature":"4","num_nodes":"31","size_leaf_vector":"1"}},{"base_weights":[-4.429288E-2,-4.3118292E-1,-8.092175E-3,2.0821604E-1,-8.507157E-1,-1.6367557E-2,1.4390535E0,-1.027053E0,1.0815003E0,-1.0041085E0,2.6235435E0,7.097125E-2,-1.1801376E-1,2.0642223E0,-9.790427E-2,-7.045325E-2,3.0755574E-2,1.5176843E-1,3.2369196E-2,-4.3911275E-2,-1.3582063E-1,2.5951302E-1,-2.9952956E-2,-5.266571E-3,1.3141255E-2,-1.9185493E-2,7.2299265E-3,2.048357E-1,5.68739E-2],"categories":[],"categories_nodes":[],"categories_segments":[],"categories_sizes":[],"default_left":[0,0,0,0,0,0,0,0,0,0,0,0,0,0,0,0,0,0,0,0,0,0,0,0,0,0,0,0,0],"id":45,"left_children":[1,3,5,7,9,11,13,15,17,19,21,23,25,27,-1,-1,-1,-1,-1,-1,-1,-1,-1,-1,-1,-1,-1,-1,-1],"loss_changes":[4.3050007E1,7.072658E1,3.369917E1,1.1437856E2,8.7369606E1,2.4839186E1,3.802249E1,2.846909E1,5.0623734E1,3.0593521E1,6.1009827E1,5.0933327E1,9.027463E1,2.171048E1,0E0,0E0,0E0,0E0,0E0,0E0,0E0,0E0,0E0,0E0,0E0,0E0,0E0,0E0,0E0],"parents":[2147483647,0,0,1,1,2,2,3,3,4,4,5,5,6,6,7,7,8,8,9,9,10,10,11,11,12,12,13,13],"right_children":[2,4,6,8,10,12,14,16,18,20,22,24,26,28,-1,-1,-1,-1,-1,-1,-1,-1,-1,-1,-1,-1,-1,-1,-1],"split_conditions":[9.5E-1,9.2E-1,9.6E1,6.3E1,8.9E1,1.01E0,1E2,1.7E1,6.4E1,1.5E1,8E0,9.9E-1,1.05E0,4E0,-9.790427E-2,-7.045325E-2,3.0755574E-2,1.5176843E-1,3.2369196E-2,-4.3911275E-2,-1.3582063E-1,2.5951302E-1,-2.9952956E-2,-5.266571E-3,1.3141255E-2,-1.9185493E-2,7.2299265E-3,2.048357E-1,5.68739E-2],"split_indices":[0,0,1,1,1,0,1,2,1,2,2,0,0,2,0,0,0,0,0,0,0,0,0,0,0,0,0,0,0],"split_type":[0,0,0,0,0,0,0,0,0,0,0,0,0,0,0,0,0,0,0,0,0,0,0,0,0,0,0,0,0],"sum_hessian":[3.073E3,2.62E2,2.811E3,1.04E2,1.58E2,2.796E3,1.5E1,4.3E1,6.1E1,1.52E2,6E0,1.504E3,1.292E3,1.3E1,2E0,3.5E1,8E0,1E1,5.1E1,1.43E2,9E0,3E0,3E0,7.84E2,7.2E2,6.42E2,6.5E2,3E0,1E1],"tree_param":{"num_deleted":"0","num_feature":"4","num_nodes":"29","size_leaf_vector":"1"}},{"base_weights":[7.3156156E-2,-3.9765397E-3,3.5687128E-1,-1.1792089E-1,2.1815109E-1,3.308567E-1,2.7549736E0,-9.8962224E-1,-9.292439E-2,5.553955E-1,7.5962596E-2,4.105924E-1,-3.5689172E-1,-7.550972E-2,1.8587671E-1,9.761398E-2,-6.2312044E-2,2.6601076E-4,-1.7884498E-2,3.7728224E-2,1.6773999E-3,-4.2467644E-3,2.5566587E-2,1.3183246E-2,8.532531E-2,-4.1064795E-2,-9.853038E-4],"categories":[],"categories_nodes":[],"categories_segments":[],"categories_sizes":[],"default_left":[0,0,0,0,0,0,0,0,0,0,0,0,0,0,0,0,0,0,0,0,0,0,0,0,0,0,0],"id":46,"left_children":[1,3,5,7,9,11,13,15,17,19,21,23,25,-1,-1,-1,-1,-1,-1,-1,-1,-1,-1,-1,-1,-1,-1],"loss_changes":[6.808165E1,6.195976E1,4.057489E1,3.5163414E1,3.9758198E1,3.6284843E1,3.435257E1,3.6405624E1,4.0944458E1,2.5542908E1,4.1022667E1,1.1207959E2,1.0788553E1,0E0,0E0,0E0,0E0,0E0,0E0,0E0,0E0,0E0,0E0,0E0,0E0,0E0,0E0],"parents":[2147483647,0,0,1,1,2,2,3,3,4,4,5,5,6,6,7,7,8,8,9,9,10,10,11,11,12,12],"right_children":[2,4,6,8,10,12,14,16,18,20,22,24,26,-1,-1,-1,-1,-1,-1,-1,-1,-1,-1,-1,-1,-1,-1],"split_conditions":[1.05E0,7.8E1,9.4E1,5E1,8.1E1,8.7E1,1E0,3.7E1,1.01E0,1.01E0,8.8E1,8.4E1,1.18E0,-7.550972E-2,1.8587671E-1,9.761398E-2,-6.2312044E-2,2.6601076E-4,-1.7884498E-2,3.7728224E-2,1.6773999E-3,-4.2467644E-3,2.5566587E-2,1.3183246E-2,8.532531E-2,-4.1064795E-2,-9.853038E-4],"split_indices":[0,1,1,1,1,1,3,1,0,0,1,1,0,0,0,0,0,0,0,0,0,0,0,0,0,0,0],"split_type":[0,0,0,0,0,0,0,0,0,0,0,0,0,0,0,0,0,0,0,0,0,0,0,0,0,0,0],"sum_hessian":[3.11E3,2.446E3,6.64E2,1.617E3,8.29E2,6.58E2,6E0,4.4E1,1.573E3,2.45E2,5.84E2,5.9E2,6.8E1,1E0,5E0,3E0,4.1E1,1.148E3,4.25E2,1.77E2,6.8E1,4.27E2,1.57E2,5.31E2,5.9E1,2.8E1,4E1],"tree_param":{"num_deleted":"0","num_feature":"4","num_nodes":"27","size_leaf_vector":"1"}},{"base_weights":[2.6425727E-2,-2.1905845E-1,9.083211E-2,-1.2877923E-1,-1.0510224E0,8.152972E-2,1.0308517E0,3.1676558E-1,-2.810951E-1,-1.6520998E0,-1.8839705E-1,8.584504E-2,-8.398812E-2,-5.908789E-1,2.7018223E0,-4.551603E-2,3.9551638E-2,-1.5650256E-2,1.0263192E-1,-1.17848754E-1,-6.706775E-2,7.527626E-2,-7.23532E-2,3.986117E-3,1.0968925E-1,-8.660397E-2,7.9072885E-2,2.5970694E-1,4.0319838E-2],"categories":[],"categories_nodes":[],"categories_segments":[],"categories_sizes":[],"default_left":[0,0,0,0,0,0,0,0,0,0,0,0,0,0,0,0,0,0,0,0,0,0,0,0,0,0,0,0,0],"id":47,"left_children":[1,3,5,7,9,11,13,15,17,19,21,23,-1,25,27,-1,-1,-1,-1,-1,-1,-1,-1,-1,-1,-1,-1,-1,-1],"loss_changes":[4.906483E1,4.8309998E1,2.1409746E1,3.965349E1,3.235453E1,1.8651503E1,6.6633194E1,8.743312E1,3.30367E1,4.94281E0,5.974486E1,3.1187372E1,0E0,3.4967144E1,5.2499474E1,0E0,0E0,0E0,0E0,0E0,0E0,0E0,0E0,0E0,0E0,0E0,0E0,0E0,0E0],"parents":[2147483647,0,0,1,1,2,2,3,3,4,4,5,5,6,6,7,7,8,8,9,9,10,10,11,11,13,13,14,14],"right_children":[2,4,6,8,10,12,14,16,18,20,22,24,-1,26,28,-1,-1,-1,-1,-1,-1,-1,-1,-1,-1,-1,-1,-1,-1],"split_conditions":[6.7E1,6.6E1,1.8E1,6E0,9E0,9.8E1,1E0,5.5E1,2.2E1,3E0,1E1,9.7E1,-8.398812E-2,7.4E1,7.6E1,-4.551603E-2,3.9551638E-2,-1.5650256E-2,1.0263192E-1,-1.17848754E-1,-6.706775E-2,7.527626E-2,-7.23532E-2,3.986117E-3,1.0968925E-1,-8.660397E-2,7.9072885E-2,2.5970694E-1,4.0319838E-2],"split_indices":[1,1,2,2,2,1,3,1,2,2,2,1,0,1,1,0,0,0,0,0,0,0,0,0,0,0,0,0,0],"split_type":[0,0,0,0,0,0,0,0,0,0,0,0,0,0,0,0,0,0,0,0,0,0,0,0,0,0,0,0,0],"sum_hessian":[3.101E3,6.44E2,2.457E3,5.82E2,6.2E1,2.434E3,2.3E1,1.48E2,4.34E2,3.6E1,2.6E1,2.429E3,5E0,1.2E1,1.1E1,4.1E1,1.07E2,4.29E2,5E0,9E0,2.7E1,1.1E1,1.5E1,2.423E3,6E0,8E0,4E0,4E0,7E0],"tree_param":{"num_deleted":"0","num_feature":"4","num_nodes":"29","size_leaf_vector":"1"}},{"base_weights":[6.543243E-3,1.2728806E0,-4.4918167E-3,-2.0175083E-1,2.4660356E0,-1.3391967E0,1.3841112E-2,1.1670548E-1,-6.075817E-1,3.2022884E0,-3.5923123E-1,-7.5654125E-1,-2.73279E0,-4.2286858E-2,2.2388619E-1,-8.964374E-2,4.3826196E-2,9.557305E-2,2.0872696E-1,-1.0980721E-1,1.2878768E-1,-5.6171753E-2,1.5211393E-1,-4.04996E-2,-2.2602947E-1,3.42645E-4,-1.9696245E-2,-2.2384293E-2,1.922911E-2],"categories":[],"categories_nodes":[],"categories_segments":[],"categories_sizes":[],"default_left":[0,0,0,0,0,0,0,0,0,0,0,0,0,0,0,0,0,0,0,0,0,0,0,0,0,0,0,0,0],"id":48,"left_children":[1,3,5,7,9,11,13,-1,15,17,19,21,23,25,27,-1,-1,-1,-1,-1,-1,-1,-1,-1,-1,-1,-1,-1,-1],"loss_changes":[4.3674805E1,4.800305E1,7.5848114E1,1.4796856E1,3.235202E1,3.2035896E1,3.6061462E1,0E0,2.2680698E1,7.08062E0,2.7221973E1,4.662446E1,3.7589287E1,4.171519E1,6.977989E1,0E0,0E0,0E0,0E0,0E0,0E0,0E0,0E0,0E0,0E0,0E0,0E0,0E0,0E0],"parents":[2147483647,0,0,1,1,2,2,3,3,4,4,5,5,6,6,8,8,9,9,10,10,11,11,12,12,13,13,14,14],"right_children":[2,4,6,8,10,12,14,-1,16,18,20,22,24,26,28,-1,-1,-1,-1,-1,-1,-1,-1,-1,-1,-1,-1,-1,-1],"split_conditions":[4.5E1,1.02E0,5.1E1,4E0,1.2E1,1.4E1,1.05E0,1.1670548E-1,1E1,7E0,1.8E1,1.3E1,1.01E0,1.03E0,4E0,-8.964374E-2,4.3826196E-2,9.557305E-2,2.0872696E-1,-1.0980721E-1,1.2878768E-1,-5.6171753E-2,1.5211393E-1,-4.04996E-2,-2.2602947E-1,3.42645E-4,-1.9696245E-2,-2.2384293E-2,1.922911E-2],"split_indices":[1,0,1,2,2,2,0,0,2,2,2,2,0,0,2,0,0,0,0,0,0,0,0,0,0,0,0,0,0],"split_type":[0,0,0,0,0,0,0,0,0,0,0,0,0,0,0,0,0,0,0,0,0,0,0,0,0,0,0,0,0],"sum_hessian":[3.124E3,2.6E1,3.098E3,1.2E1,1.4E1,4.1E1,3.057E3,1E0,1.1E1,1.1E1,3E0,3E1,1.1E1,2.413E3,6.44E2,6E0,5E0,6E0,5E0,2E0,1E0,2.8E1,2E0,6E0,5E0,2.118E3,2.95E2,1.24E2,5.2E2],"tree_param":{"num_deleted":"0","num_feature":"4","num_nodes":"29","size_leaf_vector":"1"}},{"base_weights":[3.723157E-2,-3.0782059E-2,2.8092563E-1,-1.7177968E-1,2.0189747E-1,2.4941975E-1,2.602152E0,3.2837966E-1,-2.0766145E-1,2.7548456E-1,-3.7190226E-1,2.8984565E-1,-1.2354906E0,2.527109E-1,2.2155814E-1,-4.685811E-3,1.3015012E-1,-1.4280409E-2,1.6299526E-3,2.603787E-2,6.555989E-3,-3.4623455E-2,1.3713646E-1,1.0681099E-1,1.3185698E-2,-1.04526356E-1,-2.506642E-2,5.1795926E-2,-7.2002985E-2],"categories":[],"categories_nodes":[],"categories_segments":[],"categories_sizes":[],"default_left":[0,0,0,0,0,0,0,0,0,0,0,0,0,0,0,0,0,0,0,0,0,0,0,0,0,0,0,0,0],"id":49,"left_children":[1,3,5,7,9,11,13,15,17,19,21,23,25,27,-1,-1,-1,-1,-1,-1,-1,-1,-1,-1,-1,-1,-1,-1,-1],"loss_changes":[5.1654846E1,7.998598E1,4.9080948E1,2.7311142E1,3.8948765E1,4.0697487E1,3.7554585E1,9.817506E1,2.6546207E1,2.8825272E1,1.0673622E2,3.1039673E1,1.0251202E1,8.120738E0,0E0,0E0,0E0,0E0,0E0,0E0,0E0,0E0,0E0,0E0,0E0,0E0,0E0,0E0,0E0],"parents":[2147483647,0,0,1,1,2,2,3,3,4,4,5,5,6,6,7,7,8,8,9,9,10,10,11,11,12,12,13,13],"right_children":[2,4,6,8,10,12,14,16,18,20,22,24,26,28,-1,-1,-1,-1,-1,-1,-1,-1,-1,-1,-1,-1,-1,-1,-1],"split_conditions":[1.05E0,7.7E1,9.4E1,9.2E-1,1.04E0,9.1E1,1E0,6.8E1,1E0,8.1E1,9.1E1,4.5E1,1E0,9.7E1,2.2155814E-1,-4.685811E-3,1.3015012E-1,-1.4280409E-2,1.6299526E-3,2.603787E-2,6.555989E-3,-3.4623455E-2,1.3713646E-1,1.0681099E-1,1.3185698E-2,-1.04526356E-1,-2.506642E-2,5.1795926E-2,-7.2002985E-2],"split_indices":[0,1,1,0,0,1,3,1,3,1,1,1,3,1,0,0,0,0,0,0,0,0,0,0,0,0,0,0,0],"split_type":[0,0,0,0,0,0,0,0,0,0,0,0,0,0,0,0,0,0,0,0,0,0,0,0,0,0,0,0,0],"sum_hessian":[3.115E3,2.436E3,6.79E2,1.517E3,9.19E2,6.71E2,8E0,1.01E2,1.416E3,8.15E2,1.04E2,6.54E2,1.7E1,4E0,4E0,8.6E1,1.5E1,1.069E3,3.47E2,3.01E2,5.14E2,9.5E1,9E0,8E0,6.46E2,7E0,1E1,3E0,1E0],"tree_param":{"num_deleted":"0","num_feature":"4","num_nodes":"29","size_leaf_vector":"1"}},{"base_weights":[8.671061E-3,-3.9905965E-1,4.6757486E-2,-7.6388615E-1,-1.3757592E-1,-4.697007E-3,2.5921425E-1,-1.2275128E0,-2.034649E-1,1.3046029E-1,-8.860293E-1,4.5368474E-2,-5.274677E-1,3.5022445E-2,5.231436E-1,-4.0952794E-2,-9.244923E-2,3.0172959E-2,-4.4392373E-2,-8.470216E-3,4.7423065E-2,-8.716183E-2,9.913786E-3,-5.5885757E-3,6.376577E-3,-5.1875412E-2,3.2512366E-3,1.4769598E-2,-1.7791182E-2,1.637046E-2,7.357209E-2],"categories":[],"categories_nodes":[],"categories_segments":[],"categories_sizes":[],"default_left":[0,0,0,0,0,0,0,0,0,0,0,0,0,0,0,0,0,0,0,0,0,0,0,0,0,0,0,0,0,0,0],"id":50,"left_children":[1,3,5,7,9,11,13,15,17,19,21,23,25,27,29,-1,-1,-1,-1,-1,-1,-1,-1,-1,-1,-1,-1,-1,-1,-1,-1],"loss_changes":[4.798776E1,2.5079506E1,3.089464E1,2.8331131E1,3.1210546E1,5.9593155E1,3.2584793E1,1.371624E1,2.8700266E1,2.836897E1,3.845407E1,2.6843529E1,6.020429E1,3.0532661E1,4.647872E1,0E0,0E0,0E0,0E0,0E0,0E0,0E0,0E0,0E0,0E0,0E0,0E0,0E0,0E0,0E0,0E0],"parents":[2147483647,0,0,1,1,2,2,3,3,4,4,5,5,6,6,7,7,8,8,9,9,10,10,11,11,12,12,13,13,14,14],"right_children":[2,4,6,8,10,12,14,16,18,20,22,24,26,28,30,-1,-1,-1,-1,-1,-1,-1,-1,-1,-1,-1,-1,-1,-1,-1,-1],"split_conditions":[5.9E1,9.9E-1,8.3E1,5.5E1,5.6E1,8.1E1,1.01E0,5.3E1,5.7E1,5.4E1,1.06E0,9.9E-1,1E0,1E0,9.1E1,-4.0952794E-2,-9.244923E-2,3.0172959E-2,-4.4392373E-2,-8.470216E-3,4.7423065E-2,-8.716183E-2,9.913786E-3,-5.5885757E-3,6.376577E-3,-5.1875412E-2,3.2512366E-3,1.4769598E-2,-1.7791182E-2,1.637046E-2,7.357209E-2],"split_indices":[1,0,1,1,1,1,0,1,1,1,0,0,3,3,1,0,0,0,0,0,0,0,0,0,0,0,0,0,0,0,0],"split_type":[0,0,0,0,0,0,0,0,0,0,0,0,0,0,0,0,0,0,0,0,0,0,0,0,0,0,0,0,0,0,0],"sum_hessian":[3.088E3,2.63E2,2.825E3,1.09E2,1.54E2,2.275E3,5.5E2,5.9E1,5E1,1.14E2,4E1,2.077E3,1.98E2,2.98E2,2.52E2,3.7E1,2.2E1,2.3E1,2.7E1,8.4E1,3E1,2.2E1,1.8E1,7.13E2,1.364E3,1.06E2,9.2E1,1.79E2,1.19E2,2.1E2,4.2E1],"tree_param":{"num_deleted":"0","num_feature":"4","num_nodes":"31","size_leaf_vector":"1"}},{"base_weights":[1.8671244E-2,-2.9759598E-1,4.7436558E-2,1.7444889E-1,-6.301205E-1,4.2206068E-2,1.1755846E0,-9.13223E-1,1.0416789E0,-8.291227E-1,9.872568E-1,7.3071E-2,-1.447138E-1,1.9042131E0,-9.439573E-2,1.1594525E-2,-5.9171297E-2,9.935238E-2,3.689582E-2,-3.414346E-2,-9.768133E-2,1.8209474E-1,-5.485032E-3,3.5962823E-4,1.2503845E-2,2.2935888E-2,-2.2237878E-2,1.1885297E-1,4.306927E-2],"categories":[],"categories_nodes":[],"categories_segments":[],"categories_sizes":[],"default_left":[0,0,0,0,0,0,0,0,0,0,0,0,0,0,0,0,0,0,0,0,0,0,0,0,0,0,0,0,0],"id":51,"left_children":[1,3,5,7,9,11,13,15,17,19,21,23,25,27,-1,-1,-1,-1,-1,-1,-1,-1,-1,-1,-1,-1,-1,-1,-1],"loss_changes":[2.8043592E1,4.0450317E1,1.6620045E1,1.01880295E2,4.9419662E1,1.6239529E1,3.2612976E1,1.5126244E1,1.5763786E1,2.0868393E1,4.990395E1,2.8159208E1,7.244532E1,3.3765068E0,0E0,0E0,0E0,0E0,0E0,0E0,0E0,0E0,0E0,0E0,0E0,0E0,0E0,0E0,0E0],"parents":[2147483647,0,0,1,1,2,2,3,3,4,4,5,5,6,6,7,7,8,8,9,9,10,10,11,11,12,12,13,13],"right_children":[2,4,6,8,10,12,14,16,18,20,22,24,26,28,-1,-1,-1,-1,-1,-1,-1,-1,-1,-1,-1,-1,-1,-1,-1],"split_conditions":[9.5E-1,9.2E-1,9.7E1,6.3E1,8.5E1,1.08E0,9.9E1,1E0,6.4E1,8.3E1,1E0,1E0,7.3E1,9.8E1,-9.439573E-2,1.1594525E-2,-5.9171297E-2,9.935238E-2,3.689582E-2,-3.414346E-2,-9.768133E-2,1.8209474E-1,-5.485032E-3,3.5962823E-4,1.2503845E-2,2.2935888E-2,-2.2237878E-2,1.1885297E-1,4.306927E-2],"split_indices":[0,0,1,1,1,0,1,3,1,1,3,3,1,1,0,0,0,0,0,0,0,0,0,0,0,0,0,0,0],"split_type":[0,0,0,0,0,0,0,0,0,0,0,0,0,0,0,0,0,0,0,0,0,0,0,0,0,0,0,0,0],"sum_hessian":[3.08E3,2.56E2,2.824E3,1.06E2,1.5E2,2.812E3,1.2E1,4.7E1,5.9E1,1.34E2,1.6E1,2.414E3,3.98E2,1E1,2E0,9E0,3.8E1,1.3E1,4.6E1,1.2E2,1.4E1,4E0,1.2E1,1.76E3,6.54E2,1.32E2,2.66E2,6E0,4E0],"tree_param":{"num_deleted":"0","num_feature":"4","num_nodes":"29","size_leaf_vector":"1"}},{"base_weights":[-8.490767E-3,-3.5948906E-2,8.219283E-1,-3.1736878E-1,-8.803697E-3,1.183431E0,-1.0393807E-1,-4.3018416E-1,2.3370044E0,-8.324879E-2,1.6733323E-1,7.965034E-1,3.7810373E-1,-5.036381E-1,1.512185E0,-2.4127034E-3,-3.4987986E-2,3.1654695E-1,6.522586E-2,-4.5968085E-3,8.9544594E-2,1.4204146E-2,-1.4372885E-2,-1.1030172E-2,5.799039E-2,6.2264586E-3,-1.4577897E-1,-2.0918481E-2,1.2910274E-1],"categories":[],"categories_nodes":[],"categories_segments":[],"categories_sizes":[],"default_left":[0,0,0,0,0,0,0,0,0,0,0,0,0,0,0,0,0,0,0,0,0,0,0,0,0,0,0,0,0],"id":52,"left_children":[1,3,5,7,9,11,13,15,17,19,21,23,-1,25,27,-1,-1,-1,-1,-1,-1,-1,-1,-1,-1,-1,-1,-1,-1],"loss_changes":[7.123946E1,2.3098152E1,3.3593323E1,8.066014E1,3.61914E1,1.716781E2,1.949456E1,2.6323746E1,3.7101738E1,3.1750507E1,4.3620956E1,2.5752697E1,0E0,3.6725533E1,1.3472903E1,0E0,0E0,0E0,0E0,0E0,0E0,0E0,0E0,0E0,0E0,0E0,0E0,0E0,0E0],"parents":[2147483647,0,0,1,1,2,2,3,3,4,4,5,5,6,6,7,7,8,8,9,9,10,10,11,11,13,13,14,14],"right_children":[2,4,6,8,10,12,14,16,18,20,22,24,-1,26,28,-1,-1,-1,-1,-1,-1,-1,-1,-1,-1,-1,-1,-1,-1],"split_conditions":[1.35E0,9.5E-1,8.5E1,8.8E1,1E0,8.4E1,9.3E1,9.2E-1,1E0,9.5E1,1.08E0,6.8E1,3.7810373E-1,9.1E1,1E0,-2.4127034E-3,-3.4987986E-2,3.1654695E-1,6.522586E-2,-4.5968085E-3,8.9544594E-2,1.4204146E-2,-1.4372885E-2,-1.1030172E-2,5.799039E-2,6.2264586E-3,-1.4577897E-1,-2.0918481E-2,1.2910274E-1],"split_indices":[0,0,1,1,3,1,1,0,3,1,0,1,0,1,3,0,0,0,0,0,0,0,0,0,0,0,0,0,0],"split_type":[0,0,0,0,0,0,0,0,0,0,0,0,0,0,0,0,0,0,0,0,0,0,0,0,0,0,0,0,0],"sum_hessian":[3.122E3,3.023E3,9.9E1,2.65E2,2.758E3,7.1E1,2.8E1,2.55E2,1E1,1.939E3,8.19E2,6.8E1,3E0,2.3E1,5E0,1.06E2,1.49E2,1E0,9E0,1.931E3,8E0,6.52E2,1.67E2,1.8E1,5E1,1.9E1,4E0,2E0,3E0],"tree_param":{"num_deleted":"0","num_feature":"4","num_nodes":"29","size_leaf_vector":"1"}},{"base_weights":[1.3773494E-2,-3.3709176E-2,1.8759745E-1,-4.6802804E-2,7.412339E-1,-4.6188655E-1,3.5752285E-1,5.494961E-3,-1.8204243E-1,4.1623586E-1,2.9979725E0,6.39598E-2,-8.80687E-1,6.628908E-1,2.1797402E-1,-5.9789675E-3,9.033005E-3,-7.7837035E-3,-9.613042E-2,3.9487194E-2,-5.182243E-2,5.6931686E-2,1.9289936E-1,-2.5064554E-3,1.1812239E-1,-6.971771E-2,-8.746543E-3,3.8677722E-2,-5.759418E-2,1.698958E-2,-1.885855E-2],"categories":[],"categories_nodes":[],"categories_segments":[],"categories_sizes":[],"default_left":[0,0,0,0,0,0,0,0,0,0,0,0,0,0,0,0,0,0,0,0,0,0,0,0,0,0,0,0,0,0,0],"id":53,"left_children":[1,3,5,7,9,11,13,15,17,19,21,23,25,27,29,-1,-1,-1,-1,-1,-1,-1,-1,-1,-1,-1,-1,-1,-1,-1,-1],"loss_changes":[2.5889692E1,2.503645E1,7.443999E1,1.71453E1,2.8822994E1,3.0887789E1,2.2611252E1,3.8339848E1,3.0726318E1,2.0894333E1,3.602459E0,1.6639042E1,2.8032936E1,3.4429573E1,2.680783E1,0E0,0E0,0E0,0E0,0E0,0E0,0E0,0E0,0E0,0E0,0E0,0E0,0E0,0E0,0E0,0E0],"parents":[2147483647,0,0,1,1,2,2,3,3,4,4,5,5,6,6,7,7,8,8,9,9,10,10,11,11,12,12,13,13,14,14],"right_children":[2,4,6,8,10,12,14,16,18,20,22,24,26,28,30,-1,-1,-1,-1,-1,-1,-1,-1,-1,-1,-1,-1,-1,-1,-1,-1],"split_conditions":[1.05E0,1.8E1,4E0,1.01E0,1.04E0,2E0,1.08E0,9.9E-1,1.6E1,1E0,2E1,1E0,1E0,1.6E1,1.1E1,-5.9789675E-3,9.033005E-3,-7.7837035E-3,-9.613042E-2,3.9487194E-2,-5.182243E-2,5.6931686E-2,1.9289936E-1,-2.5064554E-3,1.1812239E-1,-6.971771E-2,-8.746543E-3,3.8677722E-2,-5.759418E-2,1.698958E-2,-1.885855E-2],"split_indices":[0,2,2,0,0,2,0,0,2,0,2,3,3,2,2,0,0,0,0,0,0,0,0,0,0,0,0,0,0,0,0],"split_type":[0,0,0,0,0,0,0,0,0,0,0,0,0,0,0,0,0,0,0,0,0,0,0,0,0,0,0,0,0,0,0],"sum_hessian":[3.135E3,2.463E3,6.72E2,2.423E3,4E1,1.39E2,5.33E2,1.748E3,6.75E2,3.6E1,4E0,6.2E1,7.7E1,1.66E2,3.67E2,1.02E3,7.28E2,6.66E2,9E0,2.9E1,7E0,2E0,2E0,6E1,2E0,4.4E1,3.3E1,1.57E2,9E0,3.05E2,6.2E1],"tree_param":{"num_deleted":"0","num_feature":"4","num_nodes":"31","size_leaf_vector":"1"}},{"base_weights":[1.5848828E-2,7.92679E-3,1.774541E0,1.9034821E-1,-3.004828E-2,2.2597141E0,-7.5766563E-1,9.626216E-3,1.0291773E0,-1.1587518E-1,9.5925726E-2,1.9082795E-1,1.5666894E0,1.1332727E-2,-6.815765E-2,1.8407181E-1,-3.5239055E-4,8.2788646E-2,2.8161546E-2,-2.213511E-2,1.7971585E-3,1.8638115E-2,1.8211083E-4,4.1206885E-2,2.0624137E-1],"categories":[],"categories_nodes":[],"categories_segments":[],"categories_sizes":[],"default_left":[0,0,0,0,0,0,0,0,0,0,0,0,0,0,0,0,0,0,0,0,0,0,0,0,0],"id":54,"left_children":[1,3,5,7,9,11,13,15,17,19,21,-1,23,-1,-1,-1,-1,-1,-1,-1,-1,-1,-1,-1,-1],"loss_changes":[4.3496902E1,2.1550138E1,1.8911934E1,8.124495E1,2.7851908E1,6.967823E0,2.0969448E0,2.7086891E1,2.6803604E1,7.6031204E1,2.6670177E1,0E0,1.5596071E1,0E0,0E0,0E0,0E0,0E0,0E0,0E0,0E0,0E0,0E0,0E0,0E0],"parents":[2147483647,0,0,1,1,2,2,3,3,4,4,5,5,6,6,7,7,8,8,9,9,10,10,12,12],"right_children":[2,4,6,8,10,12,14,16,18,20,22,-1,24,-1,-1,-1,-1,-1,-1,-1,-1,-1,-1,-1,-1],"split_conditions":[9.6E1,1E0,9.9E1,7.5E1,9E0,3E0,1E2,4.8E1,7.8E1,7.2E1,1E1,1.9082795E-1,1.2E1,1.1332727E-2,-6.815765E-2,1.8407181E-1,-3.5239055E-4,8.2788646E-2,2.8161546E-2,-2.213511E-2,1.7971585E-3,1.8638115E-2,1.8211083E-4,4.1206885E-2,2.0624137E-1],"split_indices":[1,2,1,1,2,2,1,1,1,1,2,0,2,0,0,0,0,0,0,0,0,0,0,0,0],"split_type":[0,0,0,0,0,0,0,0,0,0,0,0,0,0,0,0,0,0,0,0,0,0,0,0,0],"sum_hessian":[3.122E3,3.109E3,1.3E1,5.35E2,2.574E3,